~o
<STREAMINFO> 4 75 1 1 1
<MSDINFO> 4 0 1 1 1
<VECSIZE> 78<NULLD><USER><DIAGC>
~h "#"
<BEGINHMM>
<NUMSTATES> 7
<STATE> 2
<STREAM> 1
<MEAN> 75
 3.088538e-01 3.506136e-01 3.477325e-01 3.454034e-01 3.256418e-01 2.935647e-01 2.656727e-01 2.519788e-01 2.369212e-01 2.299367e-01 2.194125e-01 2.159531e-01 2.071676e-01 2.042015e-01 1.976453e-01 1.954892e-01 1.885633e-01 1.874747e-01 1.850352e-01 1.840238e-01 1.846476e-01 1.913689e-01 1.969147e-01 1.997738e-01 2.025996e-01 -7.410148e-02 -3.850835e-02 -5.622138e-03 5.816557e-03 2.954806e-02 3.102338e-02 2.582901e-02 1.650912e-02 1.720764e-02 1.081833e-02 1.334600e-02 8.551890e-03 9.903505e-03 7.294415e-03 9.245663e-03 5.696752e-03 6.536678e-03 3.958717e-03 3.067551e-03 1.345968e-03 2.321541e-04 -7.860655e-03 -3.803081e-03 -2.552874e-03 -8.020701e-03 -6.571807e-03 3.595939e-03 -1.088566e-02 -1.051032e-02 -1.450225e-02 8.869997e-03 1.456358e-02 2.195676e-03 9.448683e-03 4.533618e-04 7.438783e-03 1.091661e-03 5.954709e-03 1.091287e-03 4.160359e-03 1.875578e-03 7.317282e-03 3.762411e-03 4.892555e-03 7.233866e-03 6.257974e-03 8.658648e-03 5.930054e-03 1.152901e-02 2.461746e-02
<VARIANCE> 75
 4.242126e-01 4.241595e-01 4.076499e-01 3.397337e-01 2.508035e-01 1.649601e-01 1.345621e-01 1.186638e-01 1.110405e-01 1.075863e-01 1.070300e-01 1.061559e-01 1.087311e-01 1.055326e-01 1.097780e-01 1.078055e-01 1.083393e-01 1.081134e-01 1.121240e-01 1.156000e-01 1.293639e-01 1.393041e-01 1.638324e-01 1.702778e-01 1.875846e-01 2.005653e-01 2.008003e-01 1.841865e-01 1.590456e-01 1.192997e-01 8.544599e-02 5.893855e-02 5.068903e-02 4.644057e-02 4.454347e-02 4.444800e-02 4.469135e-02 4.390838e-02 4.640365e-02 4.477627e-02 4.585027e-02 4.585621e-02 4.656258e-02 4.790926e-02 5.364506e-02 6.339561e-02 7.895416e-02 8.309679e-02 9.561779e-02 1.172684e-01 1.509305e+00 1.749322e+00 1.746694e+00 1.552992e+00 1.084468e+00 6.668836e-01 5.365240e-01 4.724595e-01 4.545402e-01 4.394225e-01 4.278893e-01 4.249468e-01 4.268362e-01 4.218817e-01 4.243751e-01 4.232022e-01 4.241857e-01 4.243049e-01 4.320133e-01 4.479247e-01 4.800356e-01 5.304620e-01 6.090156e-01 6.371464e-01 7.587953e-01
<GCONST> 1.221572e+01
<STREAM> 2
<NUMMIXES> 2
<MIXTURE> 1 7.465277e-02
<MEAN> 1
 4.276424e-01
<VARIANCE> 1
 9.885386e-01
<GCONST> 1.826349e+00
<MIXTURE> 2 9.253451e-01
<MEAN> 0
<VARIANCE> 0
<GCONST> 0.000000e+00
<STREAM> 3
<NUMMIXES> 2
<MIXTURE> 1 7.418638e-02
<MEAN> 1
 1.980935e-01
<VARIANCE> 1
 5.961950e-01
<GCONST> 1.320690e+00
<MIXTURE> 2 9.258117e-01
<MEAN> 0
<VARIANCE> 0
<GCONST> 0.000000e+00
<STREAM> 4
<NUMMIXES> 2
<MIXTURE> 1 7.418658e-02
<MEAN> 1
 3.332841e-01
<VARIANCE> 1
 8.940651e+14
<GCONST> 3.626468e+01
<MIXTURE> 2 9.258116e-01
<MEAN> 0
<VARIANCE> 0
<GCONST> 0.000000e+00
<STATE> 3
<STREAM> 1
<MEAN> 75
 1.342452e-01 1.014695e-01 1.109972e-01 9.511851e-02 1.545483e-01 2.200517e-01 2.872807e-01 3.040956e-01 3.364323e-01 3.525421e-01 3.575461e-01 3.109742e-01 2.764237e-01 2.273488e-01 2.070957e-01 1.874594e-01 1.576646e-01 1.392973e-01 1.283225e-01 1.083454e-01 1.058333e-01 9.584998e-02 7.741572e-02 6.579702e-02 3.295362e-02 1.746250e-02 1.822105e-02 2.413388e-02 -9.940225e-03 -5.242306e-02 -4.162858e-02 -2.962019e-02 -7.183105e-04 -8.928341e-03 1.426440e-02 2.366780e-02 7.705735e-02 4.759041e-02 6.684612e-02 2.962128e-02 5.745828e-02 2.356508e-02 5.527294e-02 1.842018e-02 4.663430e-02 1.341266e-02 5.385069e-02 1.665276e-02 6.278421e-02 3.868328e-02 -1.260856e-02 6.612255e-02 2.233562e-02 1.171289e-01 4.680799e-02 4.201185e-02 4.809471e-03 5.409758e-02 3.246164e-02 4.025563e-02 -7.278573e-03 5.195213e-02 5.270916e-02 6.087510e-02 5.480178e-02 3.183699e-02 5.892684e-02 3.858416e-02 4.570300e-02 4.024847e-02 4.103384e-02 3.333950e-02 3.168844e-02 2.798207e-02 2.193605e-02
<VARIANCE> 75
 3.188469e-01 1.523088e-01 2.087692e-01 1.238749e-01 4.130131e-01 5.097768e-01 6.205079e-01 5.643732e-01 6.165464e-01 5.623212e-01 5.956166e-01 3.458604e-01 2.577071e-01 1.664233e-01 1.610839e-01 1.234504e-01 1.163294e-01 1.005871e-01 1.068513e-01 8.513074e-02 9.407261e-02 8.443835e-02 1.165985e-01 1.549095e-01 2.424451e-01 1.281276e-01 2.096839e-01 1.148948e-01 2.187547e-01 2.201575e-01 3.387013e-01 3.238024e-01 3.910775e-01 3.429244e-01 3.704666e-01 2.893015e-01 2.716062e-01 1.625088e-01 1.595440e-01 1.098489e-01 1.083014e-01 1.051277e-01 1.025029e-01 8.745304e-02 1.192921e-01 7.738324e-02 7.680088e-02 1.042841e-01 1.908617e-01 5.080019e-01 1.239772e+00 7.538742e-01 7.244987e-01 7.292931e-01 1.830605e+00 2.467590e+00 2.790943e+00 2.712645e+00 2.828079e+00 2.787061e+00 2.652730e+00 1.614656e+00 9.829487e-01 6.269078e-01 5.167483e-01 4.193366e-01 3.665083e-01 3.276209e-01 3.208005e-01 2.682118e-01 2.626421e-01 2.547409e-01 2.807183e-01 2.827764e-01 3.498870e-01
<GCONST> 4.943827e+01
<STREAM> 2
<NUMMIXES> 2
<MIXTURE> 1 4.366472e-01
<MEAN> 1
 1.841554e-01
<VARIANCE> 1
 5.277453e-01
<GCONST> 1.198735e+00
<MIXTURE> 2 5.633525e-01
<MEAN> 0
<VARIANCE> 0
<GCONST> 0.000000e+00
<STREAM> 3
<NUMMIXES> 2
<MIXTURE> 1 4.361672e-01
<MEAN> 1
 1.924460e-01
<VARIANCE> 1
 6.315342e-01
<GCONST> 1.378274e+00
<MIXTURE> 2 5.638330e-01
<MEAN> 0
<VARIANCE> 0
<GCONST> 0.000000e+00
<STREAM> 4
<NUMMIXES> 2
<MIXTURE> 1 4.361667e-01
<MEAN> 1
 1.000864e-01
<VARIANCE> 1
 8.940651e+14
<GCONST> 3.626468e+01
<MIXTURE> 2 5.638331e-01
<MEAN> 0
<VARIANCE> 0
<GCONST> 0.000000e+00
<STATE> 4
<STREAM> 1
<MEAN> 75
 6.654357e-02 7.114089e-02 4.535143e-02 5.436584e-02 1.574232e-02 3.405424e-02 1.031547e-02 1.957961e-02 -2.978539e-02 1.191294e-02 -1.275265e-02 8.489745e-02 1.089878e-01 1.677419e-01 1.738875e-01 2.267818e-01 2.594357e-01 3.264729e-01 3.737777e-01 3.882728e-01 4.301512e-01 4.319901e-01 4.664513e-01 1.554403e-01 1.506985e-01 -3.615145e-03 3.230869e-02 -3.490358e-02 3.901967e-02 -3.383966e-02 3.276597e-02 -2.824929e-02 3.590517e-02 3.255074e-02 -7.911745e-02 1.947033e-02 -9.502620e-02 3.187432e-02 -5.851254e-02 6.368015e-02 -4.503818e-02 6.695419e-02 -2.476943e-02 8.226274e-02 -1.726934e-02 9.549339e-02 -6.097691e-03 2.199306e-01 1.608619e-01 9.153916e-02 1.246420e-01 -2.939090e-03 6.153021e-02 -2.991316e-02 7.741079e-02 -3.323598e-02 5.807050e-02 -1.138009e-02 4.128366e-02 -2.913093e-03 1.467991e-01 2.297639e-02 7.972937e-02 5.579911e-02 1.054054e-01 6.814134e-02 1.047616e-01 7.702607e-02 1.074022e-01 9.876831e-02 1.145004e-01 9.026776e-02 -1.525968e-01 2.999904e-01 1.975622e-01
<VARIANCE> 75
 8.471508e-02 7.196184e-02 1.033222e-01 6.466796e-02 5.304991e-02 5.022176e-02 4.336330e-02 4.650347e-02 1.157341e-01 1.064066e-01 2.963928e-01 5.555706e-01 8.312725e-01 7.185236e-01 9.717946e-01 8.292071e-01 1.137878e+00 1.325568e+00 1.710992e+00 1.697932e+00 1.994476e+00 1.941255e+00 2.064296e+00 3.986627e-01 2.230559e-01 8.076684e-02 8.268673e-02 6.414735e-02 6.410689e-02 6.430110e-02 5.930219e-02 5.134684e-02 6.351839e-02 2.804940e-01 1.017622e+00 1.020327e+00 1.351762e+00 1.127898e+00 1.652546e+00 1.255218e+00 1.653193e+00 1.469786e+00 1.960220e+00 1.750116e+00 2.303853e+00 1.938298e+00 2.327251e+00 1.546454e+00 1.731437e+00 5.153897e-01 7.384668e-01 5.900020e-01 5.620232e-01 4.407601e-01 3.533610e-01 3.111726e-01 2.595553e-01 2.433425e-01 2.356920e-01 2.772596e-01 8.477743e-01 1.913574e+00 2.941172e+00 3.086246e+00 3.580139e+00 3.694940e+00 4.756365e+00 6.106053e+00 7.528636e+00 7.824378e+00 8.466550e+00 8.615047e+00 7.358306e+00 1.904292e+00 1.584413e+00
<GCONST> 1.028885e+02
<STREAM> 2
<NUMMIXES> 2
<MIXTURE> 1 5.822509e-01
<MEAN> 1
 1.154080e+00
<VARIANCE> 1
 3.371110e+00
<GCONST> 3.053119e+00
<MIXTURE> 2 4.177461e-01
<MEAN> 0
<VARIANCE> 0
<GCONST> 0.000000e+00
<STREAM> 3
<NUMMIXES> 2
<MIXTURE> 1 5.493501e-01
<MEAN> 1
 6.748288e-02
<VARIANCE> 1
 5.664559e-02
<GCONST> -1.033064e+00
<MIXTURE> 2 4.506470e-01
<MEAN> 0
<VARIANCE> 0
<GCONST> 0.000000e+00
<STREAM> 4
<NUMMIXES> 2
<MIXTURE> 1 5.493507e-01
<MEAN> 1
 -5.643960e+06
<VARIANCE> 1
 1.128551e+17
<GCONST> 4.110276e+01
<MIXTURE> 2 4.506468e-01
<MEAN> 0
<VARIANCE> 0
<GCONST> 0.000000e+00
<STATE> 5
<STREAM> 1
<MEAN> 75
 4.214806e-01 4.076144e-01 4.252023e-01 4.254396e-01 4.311120e-01 3.930642e-01 1.478584e-01 2.114685e-02 7.294142e-02 -2.451613e-02 1.605830e-02 -5.413342e-02 2.389381e-02 -3.103562e-02 3.580488e-02 -3.711012e-02 1.568900e-02 -3.105205e-02 2.663890e-02 -6.988417e-03 1.061871e-02 2.124278e-02 -2.334096e-02 3.484582e-01 3.712571e-01 6.839544e-02 -6.107903e-03 9.834006e-02 -1.599636e-03 1.164242e-01 1.554621e-01 2.958124e-01 5.227691e-02 8.728290e-02 1.284921e-01 3.965405e-02 6.909923e-02 2.022745e-02 5.240685e-02 4.287177e-02 5.596145e-02 2.949188e-02 4.234932e-02 3.102564e-02 4.086012e-02 4.170319e-02 4.302516e-02 -9.706064e-02 -1.159045e-01 1.838703e-02 7.523880e-03 1.007932e-01 6.137472e-02 7.728212e-02 6.409578e-02 -1.665068e-01 2.438692e-01 1.912798e-01 3.730284e-02 1.382289e-01 1.049814e-02 8.144021e-02 -4.652997e-03 5.027476e-02 -2.535691e-02 5.334891e-02 -1.393295e-02 3.255966e-02 -1.707211e-02 2.086144e-02 -1.263584e-02 1.227748e-02 2.683619e-01 -2.058887e-01 -9.449945e-02
<VARIANCE> 75
 2.496880e+00 2.384187e+00 2.599907e+00 2.451889e+00 2.563907e+00 2.506376e+00 1.027369e+00 5.795847e-01 7.287477e-01 4.606506e-01 4.086385e-01 2.960466e-01 3.219812e-01 2.833320e-01 3.107417e-01 2.529598e-01 2.921527e-01 2.642693e-01 3.130386e-01 2.937236e-01 4.975014e-01 5.024849e-01 1.010967e+00 2.622253e+00 3.046759e+00 1.896795e+00 2.326712e+00 1.976249e+00 2.293670e+00 2.066141e+00 1.861584e+00 1.414522e+00 1.490134e+00 8.027796e-01 3.784298e-01 2.258125e-01 2.065928e-01 1.509181e-01 1.729998e-01 1.249466e-01 1.306219e-01 1.189255e-01 1.257058e-01 1.022563e-01 1.380865e-01 1.083006e-01 1.825060e-01 6.768875e-01 9.241363e-01 1.292427e+00 9.179697e+00 9.086250e+00 9.326038e+00 9.255233e+00 9.343974e+00 7.528818e+00 2.720436e+00 1.899425e+00 1.652222e+00 1.188481e+00 8.954961e-01 7.463032e-01 7.524164e-01 6.423352e-01 5.305442e-01 4.197322e-01 4.433364e-01 4.109525e-01 4.928371e-01 4.454849e-01 5.222064e-01 5.736095e-01 2.258592e+00 7.704875e+00 8.442456e+00
<GCONST> 1.242900e+02
<STREAM> 2
<NUMMIXES> 2
<MIXTURE> 1 8.725650e-01
<MEAN> 1
 1.899041e+00
<VARIANCE> 1
 5.120407e+00
<GCONST> 3.471111e+00
<MIXTURE> 2 1.274336e-01
<MEAN> 0
<VARIANCE> 0
<GCONST> 0.000000e+00
<STREAM> 3
<NUMMIXES> 2
<MIXTURE> 1 8.589261e-01
<MEAN> 1
 4.617603e-03
<VARIANCE> 1
 5.502543e-01
<GCONST> 1.240502e+00
<MIXTURE> 2 1.410724e-01
<MEAN> 0
<VARIANCE> 0
<GCONST> 0.000000e+00
<STREAM> 4
<NUMMIXES> 2
<MIXTURE> 1 8.589261e-01
<MEAN> 1
 6.730895e-03
<VARIANCE> 1
 8.940651e+14
<GCONST> 3.626468e+01
<MIXTURE> 2 1.410725e-01
<MEAN> 0
<VARIANCE> 0
<GCONST> 0.000000e+00
<STATE> 6
<STREAM> 1
<MEAN> 75
 1.859000e-01 1.801382e-01 1.871126e-01 1.795221e-01 1.926793e-01 1.842829e-01 2.986310e-01 3.299494e-01 3.264421e-01 3.321424e-01 3.148896e-01 2.835576e-01 2.468031e-01 2.442139e-01 2.174246e-01 2.278605e-01 2.025767e-01 2.202758e-01 1.953692e-01 2.113604e-01 1.857569e-01 1.981078e-01 1.964794e-01 1.872882e-01 1.893977e-01 5.578743e-03 8.283164e-03 5.528935e-03 4.558307e-03 3.737100e-03 -4.638656e-02 -6.408326e-02 -1.099322e-02 7.983736e-03 1.180287e-02 3.361623e-02 4.263049e-02 3.253051e-02 2.258954e-02 2.088186e-02 1.797357e-02 1.497263e-02 1.667549e-02 1.526972e-02 1.627719e-02 1.516483e-02 1.073317e-02 9.030297e-03 4.741649e-03 4.069612e-03 4.797849e-03 8.162560e-04 1.960169e-03 5.577619e-03 -7.104782e-03 1.105331e-01 -7.105447e-02 -3.960010e-02 9.085953e-03 -1.944174e-02 -1.583484e-02 -4.284650e-03 2.727473e-02 -3.195168e-03 1.092032e-02 -4.140303e-03 1.447647e-02 -1.052273e-02 1.454476e-02 -6.682179e-03 1.361053e-02 -9.171643e-04 1.552800e-02 -4.597673e-03 1.242200e-02
<VARIANCE> 75
 1.349763e+00 1.346912e+00 1.366835e+00 1.355899e+00 1.382551e+00 1.375819e+00 2.033124e+00 2.085854e+00 2.103078e+00 2.018306e+00 2.016510e+00 1.804179e+00 1.724798e+00 1.637131e+00 1.704933e+00 1.586769e+00 1.656065e+00 1.613698e+00 1.634462e+00 1.561473e+00 1.597181e+00 1.473532e+00 1.365856e+00 1.334491e+00 1.324342e+00 6.629791e-01 6.666130e-01 6.577372e-01 6.631854e-01 6.658801e-01 8.511018e-01 8.685249e-01 1.053313e+00 1.032910e+00 1.025293e+00 9.435078e-01 9.038172e-01 8.217586e-01 8.082328e-01 7.654293e-01 7.864979e-01 7.551221e-01 7.698665e-01 7.450047e-01 7.726378e-01 7.327407e-01 7.493312e-01 6.977782e-01 6.716187e-01 6.655464e-01 5.225809e+00 5.232714e+00 5.229915e+00 5.220909e+00 5.243054e+00 5.862208e+00 7.887030e+00 7.987684e+00 8.025264e+00 7.867980e+00 7.553076e+00 6.806344e+00 6.431772e+00 6.218571e+00 6.093449e+00 5.935253e+00 5.862185e+00 5.754345e+00 5.686588e+00 5.560121e+00 5.485528e+00 5.464259e+00 5.402326e+00 5.323855e+00 5.296133e+00
<GCONST> 1.883345e+02
<STREAM> 2
<NUMMIXES> 2
<MIXTURE> 1 7.375863e-01
<MEAN> 1
 3.988581e+00
<VARIANCE> 1
 1.903852e+00
<GCONST> 2.481756e+00
<MIXTURE> 2 2.624141e-01
<MEAN> 0
<VARIANCE> 0
<GCONST> 0.000000e+00
<STREAM> 3
<NUMMIXES> 2
<MIXTURE> 1 7.172780e-01
<MEAN> 1
 1.292705e-02
<VARIANCE> 1
 7.635700e-02
<GCONST> -7.344584e-01
<MIXTURE> 2 2.827223e-01
<MEAN> 0
<VARIANCE> 0
<GCONST> 0.000000e+00
<STREAM> 4
<NUMMIXES> 2
<MIXTURE> 1 7.172780e-01
<MEAN> 1
 -6.278493e+06
<VARIANCE> 1
 1.254995e+17
<GCONST> 4.120895e+01
<MIXTURE> 2 2.827223e-01
<MEAN> 0
<VARIANCE> 0
<GCONST> 0.000000e+00
<TRANSP> 7
 0.000000e+00 1.000000e+00 0.000000e+00 0.000000e+00 0.000000e+00 0.000000e+00 0.000000e+00
 0.000000e+00 0.000000e+00 1.000000e+00 0.000000e+00 0.000000e+00 0.000000e+00 0.000000e+00
 0.000000e+00 0.000000e+00 0.000000e+00 1.000000e+00 0.000000e+00 0.000000e+00 0.000000e+00
 0.000000e+00 0.000000e+00 0.000000e+00 0.000000e+00 1.000000e+00 0.000000e+00 0.000000e+00
 0.000000e+00 0.000000e+00 0.000000e+00 0.000000e+00 0.000000e+00 1.000000e+00 0.000000e+00
 0.000000e+00 0.000000e+00 0.000000e+00 0.000000e+00 0.000000e+00 0.000000e+00 1.000000e+00
 0.000000e+00 0.000000e+00 0.000000e+00 0.000000e+00 0.000000e+00 0.000000e+00 0.000000e+00
<ENDHMM>
~h "@"
<BEGINHMM>
<NUMSTATES> 7
<STATE> 2
<STREAM> 1
<MEAN> 75
 -1.101542e-01 -9.494935e-02 -1.238401e-01 -8.406357e-02 -1.099556e-01 -1.005355e-01 -1.092604e-01 -9.520034e-02 -1.056553e-01 3.941696e-01 5.981429e-01 6.873829e-01 7.749490e-01 8.625515e-01 1.014245e+00 1.153300e+00 1.542199e+00 5.281771e-01 1.285675e-01 1.107182e-01 -5.225140e-02 -3.526225e-02 -1.121775e-01 -6.474227e-02 -1.122023e-01 1.879034e-02 6.145090e-03 -5.722012e-03 -7.067003e-03 8.052364e-03 -7.063415e-04 -3.168552e-03 -2.175685e-03 -2.453704e-01 -3.518150e-01 -1.453710e-01 -8.789381e-02 -8.709230e-02 -1.196642e-01 -1.459272e-01 -2.624031e-01 3.141890e-01 7.099245e-01 2.103060e-01 8.995955e-02 7.165547e-02 2.875597e-02 1.452673e-02 -5.546268e-04 -4.353829e-03 6.815999e-02 -4.455928e-02 6.946532e-02 -6.597051e-02 3.539203e-02 -1.710838e-02 2.268904e-02 -2.534442e-02 5.109844e-01 -2.966853e-01 -1.147843e-01 -3.769700e-05 -1.166113e-03 6.442907e-02 -1.424064e-02 2.433341e-01 -1.404394e+00 6.192043e-01 3.848188e-01 -1.418544e-01 1.802397e-01 -9.399879e-02 1.234199e-01 -9.329675e-02 1.024379e-01
<VARIANCE> 75
 5.476190e-02 5.601229e-02 5.210712e-02 4.262739e-02 3.499177e-02 3.381031e-02 3.066223e-02 2.988543e-02 2.923652e-02 2.475064e+00 3.028513e+00 3.122502e+00 3.229812e+00 3.530992e+00 3.962440e+00 4.295332e+00 5.300922e+00 1.284603e+00 3.252243e-01 2.915617e-01 1.662704e-01 1.422941e-01 1.127257e-01 9.739300e-02 1.124638e-01 2.062892e-02 1.599160e-02 1.499317e-02 1.341712e-02 1.079588e-02 9.216996e-03 8.270026e-03 7.932307e-03 6.319584e-01 7.610692e-01 1.544518e+00 1.750141e+00 1.911339e+00 2.143251e+00 2.401363e+00 3.052873e+00 1.560406e+00 1.335741e+00 2.467541e-01 8.081799e-02 6.690510e-02 4.417071e-02 3.422575e-02 3.457402e-02 2.723098e-02 4.874331e-01 4.509102e-01 4.234662e-01 3.544324e-01 2.913004e-01 2.680561e-01 2.627591e-01 2.594740e-01 2.432570e+00 1.015158e+01 1.207064e+01 1.334058e+01 1.449794e+01 1.651964e+01 1.913672e+01 2.283558e+01 2.079914e+01 4.998850e+00 3.294282e+00 1.972110e+00 1.488504e+00 1.179103e+00 1.018884e+00 9.125012e-01 8.462869e-01
<GCONST> 7.319955e+01
<STREAM> 2
<NUMMIXES> 2
<MIXTURE> 1 7.039433e-01
<MEAN> 1
 4.521057e+00
<VARIANCE> 1
 1.055680e-02
<GCONST> -2.713108e+00
<MIXTURE> 2 2.960533e-01
<MEAN> 0
<VARIANCE> 0
<GCONST> 0.000000e+00
<STREAM> 3
<NUMMIXES> 2
<MIXTURE> 1 6.796216e-01
<MEAN> 1
 2.349182e-03
<VARIANCE> 1
 3.553591e-04
<GCONST> -6.104505e+00
<MIXTURE> 2 3.203751e-01
<MEAN> 0
<VARIANCE> 0
<GCONST> 0.000000e+00
<STREAM> 4
<NUMMIXES> 2
<MIXTURE> 1 6.796213e-01
<MEAN> 1
 -3.982099e+07
<VARIANCE> 1
 7.947495e+17
<GCONST> 4.305468e+01
<MIXTURE> 2 3.203751e-01
<MEAN> 0
<VARIANCE> 0
<GCONST> 0.000000e+00
<STATE> 3
<STREAM> 1
<MEAN> 75
 -8.565684e-02 -6.551351e-02 -9.284393e-02 -7.285281e-02 -1.016230e-01 -8.115959e-02 -1.060443e-01 -7.609887e-02 -1.015906e-01 -1.252195e-01 -1.172603e-01 -1.139067e-01 -1.096172e-01 -7.163778e-02 -7.830286e-02 -6.602447e-02 -5.596109e-02 1.278236e+00 1.790485e+00 1.887294e+00 2.059741e+00 6.350860e-01 2.366917e-01 1.345202e-01 -1.593119e-02 9.253433e-03 2.555857e-03 3.088922e-03 3.970781e-03 3.856950e-03 1.840404e-03 -3.737802e-03 -2.399006e-03 2.435088e-02 7.846175e-03 -6.291524e-03 -4.272718e-03 -2.166705e-02 -1.543112e-02 -2.487944e-03 -1.134254e-02 -6.698765e-01 -9.203051e-01 -3.001799e-01 -1.318019e-01 6.252335e-01 9.092901e-01 2.500761e-01 1.265910e-01 8.923581e-02 6.352687e-02 -4.858268e-02 4.759687e-02 -4.842047e-02 4.851831e-02 -4.418040e-02 5.402335e-02 -5.533945e-02 1.457995e-03 3.115727e-02 -4.219681e-03 1.311252e-03 3.353717e-02 -4.419594e-02 1.923866e-02 -1.699793e-03 1.319257e+00 -8.260341e-01 -4.169142e-01 7.861321e-02 -1.592898e+00 1.023187e+00 2.958806e-01 -4.774626e-02 1.238969e-01
<VARIANCE> 75
 1.396939e-01 1.065634e-01 9.488431e-02 8.160862e-02 6.297895e-02 5.941050e-02 5.640982e-02 4.190023e-02 3.467824e-02 3.848993e-02 3.725704e-02 3.908571e-02 3.317535e-02 2.400491e-02 2.201653e-02 1.897306e-02 2.763576e-02 5.944337e+00 5.891463e+00 5.708832e+00 5.236095e+00 1.092555e+00 2.977448e-01 3.081644e-01 1.603625e-01 3.907151e-02 3.104481e-02 2.492626e-02 2.168645e-02 2.054304e-02 1.797366e-02 1.622400e-02 1.435867e-02 1.104574e-02 1.006496e-02 1.041249e-02 9.192585e-03 8.040620e-03 6.844284e-03 6.705960e-03 8.070146e-03 1.528753e+00 1.519303e+00 4.161510e+00 4.509200e+00 2.069591e+00 1.376123e+00 1.921180e-01 7.739671e-02 7.153676e-02 1.229391e+00 1.040450e+00 8.903892e-01 7.220525e-01 5.813809e-01 5.149734e-01 4.542018e-01 3.434593e-01 2.827189e-01 2.968259e-01 3.218851e-01 3.216070e-01 2.823275e-01 2.265270e-01 1.824814e-01 1.710592e-01 5.475875e+00 2.803288e+01 3.185132e+01 3.424685e+01 2.507887e+01 4.700768e+00 3.836206e+00 2.182919e+00 1.623738e+00
<GCONST> 2.296888e+01
<STREAM> 2
<NUMMIXES> 2
<MIXTURE> 1 6.844969e-01
<MEAN> 1
 4.523670e+00
<VARIANCE> 1
 1.055680e-02
<GCONST> -2.713108e+00
<MIXTURE> 2 3.154996e-01
<MEAN> 0
<VARIANCE> 0
<GCONST> 0.000000e+00
<STREAM> 3
<NUMMIXES> 2
<MIXTURE> 1 6.565187e-01
<MEAN> 1
 2.183071e-03
<VARIANCE> 1
 3.553591e-04
<GCONST> -6.104505e+00
<MIXTURE> 2 3.434778e-01
<MEAN> 0
<VARIANCE> 0
<GCONST> 0.000000e+00
<STREAM> 4
<NUMMIXES> 2
<MIXTURE> 1 6.565186e-01
<MEAN> 1
 1.693213e-04
<VARIANCE> 1
 8.940651e+14
<GCONST> 3.626468e+01
<MIXTURE> 2 3.434778e-01
<MEAN> 0
<VARIANCE> 0
<GCONST> 0.000000e+00
<STATE> 4
<STREAM> 1
<MEAN> 75
 2.787958e-01 -5.907501e-02 3.826544e-02 -1.681467e-01 -2.233783e-02 -1.351962e-01 -7.412675e-03 -1.524567e-01 -6.585465e-02 -1.250037e-01 -4.557499e-02 -1.218375e-01 -8.153612e-02 -1.530670e-01 -9.856037e-02 -1.431322e-01 -6.099540e-02 -9.572469e-02 -4.600645e-02 -8.743117e-02 -4.442835e-02 1.796835e+00 2.445230e+00 2.467581e+00 8.887925e-01 1.417556e-01 1.204435e-01 5.440987e-02 2.940856e-02 -1.660468e-02 -7.646857e-03 8.811029e-03 2.797003e-02 -1.418834e-02 -1.060256e-02 -1.049998e-03 1.774181e-02 1.621028e-02 7.803168e-03 -5.812649e-03 -1.994140e-02 -2.444046e-02 -6.938782e-03 -3.391720e-03 -1.069166e-03 -9.440106e-01 -1.246765e+00 -3.387153e-01 7.770295e-01 1.121601e+00 -3.898123e-01 4.365345e-01 -3.036135e-01 3.528981e-01 -2.593527e-01 2.410595e-01 -2.722909e-01 2.329345e-01 -1.470902e-01 1.378730e-01 -1.551540e-01 1.145578e-01 -1.118085e-01 1.267393e-01 -9.952051e-02 1.266220e-01 -1.183543e-01 8.429731e-02 -9.052297e-02 8.528001e-02 1.801115e+00 -1.190805e+00 -6.236469e-01 -1.609306e+00 9.088361e-01
<VARIANCE> 75
 3.345244e-01 1.994579e-01 1.335379e-01 1.246265e-01 1.205039e-01 1.014116e-01 7.241285e-02 5.844064e-02 6.652553e-02 6.027459e-02 4.314565e-02 3.294755e-02 4.085636e-02 3.741581e-02 3.995707e-02 3.306331e-02 2.608286e-02 2.334478e-02 1.971854e-02 1.740997e-02 1.943267e-02 7.404049e+00 6.149704e+00 6.029122e+00 1.080060e+00 9.085887e-02 8.121683e-02 5.040028e-02 3.405394e-02 2.911032e-02 2.599922e-02 2.135505e-02 1.889976e-02 1.865472e-02 1.787899e-02 1.558363e-02 1.251725e-02 1.017522e-02 1.040751e-02 9.869406e-03 8.437946e-03 7.533424e-03 6.877687e-03 6.808822e-03 6.984877e-03 1.902775e+00 1.620327e+00 5.623956e+00 2.585529e+00 1.554247e+00 2.396758e+00 1.601472e+00 1.205675e+00 1.145418e+00 1.116583e+00 9.438620e-01 6.667203e-01 5.328867e-01 5.486063e-01 4.988591e-01 3.478202e-01 2.601834e-01 2.626972e-01 2.988170e-01 3.276002e-01 2.971025e-01 2.387326e-01 1.922070e-01 1.558692e-01 1.445263e-01 6.852353e+00 3.832121e+01 4.200724e+01 3.239960e+01 5.862475e+00
<GCONST> 5.194418e+00
<STREAM> 2
<NUMMIXES> 2
<MIXTURE> 1 6.807393e-01
<MEAN> 1
 4.521238e+00
<VARIANCE> 1
 1.055680e-02
<GCONST> -2.713108e+00
<MIXTURE> 2 3.192566e-01
<MEAN> 0
<VARIANCE> 0
<GCONST> 0.000000e+00
<STREAM> 3
<NUMMIXES> 2
<MIXTURE> 1 6.525080e-01
<MEAN> 1
 2.511204e-03
<VARIANCE> 1
 3.553591e-04
<GCONST> -6.104505e+00
<MIXTURE> 2 3.474879e-01
<MEAN> 0
<VARIANCE> 0
<GCONST> 0.000000e+00
<STREAM> 4
<NUMMIXES> 2
<MIXTURE> 1 6.525078e-01
<MEAN> 1
 1.297142e-04
<VARIANCE> 1
 8.940651e+14
<GCONST> 3.626468e+01
<MIXTURE> 2 3.474880e-01
<MEAN> 0
<VARIANCE> 0
<GCONST> 0.000000e+00
<STATE> 5
<STREAM> 1
<MEAN> 75
 1.687817e+00 1.898555e+00 5.908456e-01 2.660930e-01 1.134151e-01 1.006823e-02 -6.565866e-02 -5.721882e-02 -7.185163e-02 -7.936008e-02 -9.006765e-02 -8.283633e-02 -8.730167e-02 -9.536699e-02 -8.271693e-02 -9.449308e-02 -1.367822e-01 -1.061507e-01 -1.176631e-01 -9.750596e-02 -7.203564e-02 -7.251327e-02 -6.312429e-02 -3.512604e-02 1.613964e+00 -7.269328e-02 5.494248e-01 8.162414e-01 2.394196e-01 1.282092e-01 8.980101e-02 3.453665e-02 3.364551e-03 1.044909e-02 1.028807e-02 3.414458e-03 -2.894097e-05 5.944771e-03 -2.452219e-03 -1.057818e-03 2.655291e-02 6.382929e-03 -8.623623e-03 -3.499163e-03 -2.154689e-02 -1.248541e-02 -4.372447e-03 -1.740299e-02 -8.396172e-01 -8.938667e-01 2.712733e-01 -1.518269e+00 9.827513e-01 1.736415e-01 4.908455e-02 2.527640e-02 8.536027e-02 -2.331899e-02 8.457519e-03 -5.802758e-03 1.946438e-02 -8.407496e-03 -3.291558e-03 2.057507e-02 -2.399597e-02 -2.974127e-02 7.254870e-02 -4.346661e-02 3.143432e-02 6.014863e-03 -2.474494e-02 7.193167e-03 1.840453e-02 1.627917e+00 -1.507943e+00
<VARIANCE> 75
 5.339667e+00 4.820072e+00 1.072556e+00 2.891381e-01 3.095515e-01 1.597174e-01 1.447921e-01 1.288994e-01 1.015825e-01 8.661412e-02 7.976861e-02 6.331199e-02 5.540107e-02 5.807879e-02 4.190004e-02 3.528994e-02 3.918906e-02 3.723067e-02 3.523840e-02 3.279854e-02 2.391277e-02 2.157968e-02 5.536058e-02 8.550709e-02 6.869259e+00 4.031350e+00 1.872640e+00 1.271764e+00 1.877282e-01 7.401036e-02 5.954480e-02 4.223895e-02 3.018510e-02 2.678223e-02 2.269124e-02 1.980984e-02 1.972132e-02 1.788002e-02 1.550133e-02 1.397046e-02 1.072882e-02 1.006627e-02 9.829894e-03 8.928097e-03 7.731131e-03 6.944660e-03 1.560222e-02 2.278784e-02 1.796462e+00 1.425511e+00 3.062040e+01 2.231690e+01 4.519423e+00 3.613192e+00 2.067404e+00 1.536447e+00 1.262490e+00 1.179278e+00 9.725955e-01 8.182898e-01 6.844997e-01 5.511291e-01 4.828303e-01 4.246741e-01 3.243297e-01 2.746372e-01 2.929368e-01 3.111150e-01 3.039319e-01 2.749960e-01 2.212153e-01 2.070871e-01 2.948073e-01 6.526926e+00 3.089394e+01
<GCONST> 1.363294e+01
<STREAM> 2
<NUMMIXES> 2
<MIXTURE> 1 6.685786e-01
<MEAN> 1
 4.524374e+00
<VARIANCE> 1
 1.055680e-02
<GCONST> -2.713108e+00
<MIXTURE> 2 3.314176e-01
<MEAN> 0
<VARIANCE> 0
<GCONST> 0.000000e+00
<STREAM> 3
<NUMMIXES> 2
<MIXTURE> 1 6.431249e-01
<MEAN> 1
 2.591047e-03
<VARIANCE> 1
 3.553591e-04
<GCONST> -6.104505e+00
<MIXTURE> 2 3.568711e-01
<MEAN> 0
<VARIANCE> 0
<GCONST> 0.000000e+00
<STREAM> 4
<NUMMIXES> 2
<MIXTURE> 1 6.431252e-01
<MEAN> 1
 2.220366e-05
<VARIANCE> 1
 8.940651e+14
<GCONST> 3.626468e+01
<MIXTURE> 2 3.568712e-01
<MEAN> 0
<VARIANCE> 0
<GCONST> 0.000000e+00
<STATE> 6
<STREAM> 1
<MEAN> 75
 5.480109e-02 -4.445755e-02 1.192037e+00 1.316709e+00 1.099533e+00 1.104881e+00 1.015160e+00 8.452986e-01 4.502011e-01 2.316225e-01 6.854646e-02 -6.039087e-03 -4.397302e-02 -6.061146e-02 -1.024602e-01 -8.644855e-02 -8.630119e-02 -1.053445e-01 -1.047132e-01 -1.007480e-01 -1.215465e-01 -1.068904e-01 -1.150483e-01 -9.327135e-02 -7.607514e-02 1.869105e-01 -5.692360e-01 -6.817968e-01 4.368492e-02 1.037084e-01 4.084405e-02 1.282052e-01 2.814947e-01 3.075690e-01 1.918182e-01 1.207025e-01 5.776159e-02 2.873905e-02 2.926976e-02 1.217078e-02 -7.606295e-03 9.856486e-03 1.007288e-02 -1.401017e-03 9.200894e-03 3.410475e-03 -2.431723e-03 -6.742131e-03 -1.914034e-02 -2.124987e-01 1.765043e-01 1.336836e+00 -1.109910e+00 -3.424870e-01 2.215951e-01 -9.313606e-02 -8.109036e-02 -2.253954e-01 1.736724e-01 5.323957e-02 8.752799e-02 3.749352e-02 2.221231e-02 -2.220080e-02 5.692009e-02 -1.753643e-02 -1.952906e-02 2.093640e-02 1.382126e-03 -2.387161e-02 3.501028e-02 -2.161958e-02 3.020705e-02 -6.190035e-03 3.919503e-01
<VARIANCE> 75
 3.551587e-01 4.402703e-02 5.497687e+00 4.869678e+00 3.971237e+00 3.600907e+00 3.551525e+00 2.844369e+00 1.563032e+00 8.175892e-01 4.820090e-01 1.905032e-01 1.256746e-01 9.478997e-02 9.188085e-02 7.883395e-02 6.482472e-02 5.492964e-02 4.905839e-02 4.586343e-02 4.260173e-02 3.705352e-02 3.355676e-02 6.874287e-02 9.573337e-02 5.440914e-01 1.530134e+00 1.269534e+00 3.002158e+00 2.685978e+00 2.322252e+00 1.950886e+00 1.365366e+00 8.819703e-01 4.211777e-01 1.911011e-01 1.056434e-01 4.131112e-02 2.892634e-02 2.386678e-02 2.227870e-02 1.973260e-02 1.762574e-02 1.567997e-02 1.398380e-02 1.247421e-02 1.092363e-02 1.861036e-02 2.478847e-02 5.806521e-01 7.873526e-01 5.381526e+00 2.346752e+01 2.159927e+01 1.874921e+01 1.741674e+01 1.602486e+01 1.166456e+01 6.590693e+00 4.072167e+00 2.489123e+00 1.525378e+00 1.133251e+00 9.011640e-01 7.967613e-01 6.988608e-01 5.783074e-01 4.695310e-01 4.068994e-01 3.658987e-01 3.380029e-01 3.051403e-01 3.100343e-01 3.955729e-01 2.393983e+00
<GCONST> 7.117200e+01
<STREAM> 2
<NUMMIXES> 2
<MIXTURE> 1 6.782879e-01
<MEAN> 1
 4.524514e+00
<VARIANCE> 1
 1.055680e-02
<GCONST> -2.713108e+00
<MIXTURE> 2 3.217112e-01
<MEAN> 0
<VARIANCE> 0
<GCONST> 0.000000e+00
<STREAM> 3
<NUMMIXES> 2
<MIXTURE> 1 6.510335e-01
<MEAN> 1
 2.226476e-03
<VARIANCE> 1
 3.553591e-04
<GCONST> -6.104505e+00
<MIXTURE> 2 3.489656e-01
<MEAN> 0
<VARIANCE> 0
<GCONST> 0.000000e+00
<STREAM> 4
<NUMMIXES> 2
<MIXTURE> 1 6.510336e-01
<MEAN> 1
 6.656333e-05
<VARIANCE> 1
 8.940651e+14
<GCONST> 3.626468e+01
<MIXTURE> 2 3.489656e-01
<MEAN> 0
<VARIANCE> 0
<GCONST> 0.000000e+00
<TRANSP> 7
 0.000000e+00 1.000000e+00 0.000000e+00 0.000000e+00 0.000000e+00 0.000000e+00 0.000000e+00
 0.000000e+00 0.000000e+00 1.000000e+00 0.000000e+00 0.000000e+00 0.000000e+00 0.000000e+00
 0.000000e+00 0.000000e+00 0.000000e+00 1.000000e+00 0.000000e+00 0.000000e+00 0.000000e+00
 0.000000e+00 0.000000e+00 0.000000e+00 0.000000e+00 1.000000e+00 0.000000e+00 0.000000e+00
 0.000000e+00 0.000000e+00 0.000000e+00 0.000000e+00 0.000000e+00 1.000000e+00 0.000000e+00
 0.000000e+00 0.000000e+00 0.000000e+00 0.000000e+00 0.000000e+00 0.000000e+00 1.000000e+00
 0.000000e+00 0.000000e+00 0.000000e+00 0.000000e+00 0.000000e+00 0.000000e+00 0.000000e+00
<ENDHMM>
~h "a"
<BEGINHMM>
<NUMSTATES> 7
<STATE> 2
<STREAM> 1
<MEAN> 75
 1.761167e-01 1.583066e-01 2.412864e-01 4.538656e-01 7.343545e-01 7.511739e-01 8.846858e-01 1.394328e+00 4.519442e-01 1.474414e-02 1.046294e-01 5.897285e-01 2.603866e-01 6.113572e-01 3.655137e-01 -9.028880e-02 6.748938e-02 -1.570164e-01 -1.290591e-02 -1.879786e-01 -1.775069e-02 -1.678110e-01 -5.314836e-02 -1.288660e-01 -1.852522e-02 -7.061455e-02 -3.026946e-02 -1.491369e-01 -2.439752e-01 -1.417230e-01 -6.964050e-02 -3.194596e-01 2.165749e-01 6.921687e-01 1.734500e-01 -2.902576e-01 -8.080161e-02 -1.368963e-02 -5.668655e-02 3.472574e-01 1.437245e-01 3.585106e-02 4.145281e-02 1.559142e-02 7.794565e-04 -8.508720e-03 1.496243e-02 -1.895342e-02 -1.731103e-02 -7.189821e-02 -1.864629e-01 1.017157e-01 1.340566e-01 6.491186e-02 -2.695810e-01 1.258558e-01 3.808111e-01 -1.456492e+00 5.083531e-01 5.242078e-01 3.972797e-01 -8.115368e-01 6.689276e-01 -5.986372e-01 -2.209620e-01 6.031343e-01 -3.810743e-01 3.729212e-01 -3.165604e-01 3.463653e-01 -3.165838e-01 2.663002e-01 -1.872361e-01 1.860581e-01 -8.124361e-02
<VARIANCE> 75
 1.110931e+00 1.268026e+00 1.283645e+00 2.856715e+00 3.407240e+00 3.790253e+00 3.681933e+00 5.787617e+00 9.629551e-01 2.409828e-01 1.988593e-01 3.674644e+00 8.016530e-01 3.755140e+00 1.053818e+00 2.007243e-01 1.414400e-01 8.927280e-02 7.743987e-02 6.225081e-02 6.478465e-02 4.104593e-02 5.577966e-02 2.141931e-01 2.276661e-01 5.506824e-01 6.082001e-01 1.061807e+00 1.272439e+00 1.858554e+00 2.116944e+00 2.950919e+00 1.309276e+00 1.484018e+00 1.629619e-01 1.010146e+00 2.343582e-01 2.043388e+00 4.169774e-01 9.271550e-01 2.215790e-01 4.127879e-02 3.138186e-02 2.472429e-02 2.237614e-02 1.761646e-02 1.570376e-02 5.513814e-02 6.247104e-02 2.835672e-01 4.007774e+00 4.558426e+00 6.427315e+00 1.202609e+01 1.446796e+01 1.614112e+01 1.965306e+01 2.023921e+01 3.418532e+00 2.876337e+00 5.111970e+00 1.183543e+01 5.938706e+00 1.303900e+01 3.527076e+00 1.683921e+00 1.039582e+00 7.815175e-01 6.243222e-01 5.615541e-01 4.857667e-01 4.191525e-01 5.437769e-01 9.830617e-01 1.678812e+00
<GCONST> 1.176394e+02
<STREAM> 2
<NUMMIXES> 2
<MIXTURE> 1 7.144704e-01
<MEAN> 1
 4.535894e+00
<VARIANCE> 1
 1.169108e-02
<GCONST> -2.611052e+00
<MIXTURE> 2 2.855286e-01
<MEAN> 0
<VARIANCE> 0
<GCONST> 0.000000e+00
<STREAM> 3
<NUMMIXES> 2
<MIXTURE> 1 6.869544e-01
<MEAN> 1
 2.611191e-03
<VARIANCE> 1
 3.553591e-04
<GCONST> -6.104505e+00
<MIXTURE> 2 3.130447e-01
<MEAN> 0
<VARIANCE> 0
<GCONST> 0.000000e+00
<STREAM> 4
<NUMMIXES> 2
<MIXTURE> 1 6.869544e-01
<MEAN> 1
 1.862016e-05
<VARIANCE> 1
 8.940651e+14
<GCONST> 3.626468e+01
<MIXTURE> 2 3.130447e-01
<MEAN> 0
<VARIANCE> 0
<GCONST> 0.000000e+00
<STATE> 3
<STREAM> 1
<MEAN> 75
 -2.259267e-01 -1.848783e-02 -1.471217e-01 -2.442718e-02 -1.552558e-01 -1.307244e-02 -1.615738e-01 -8.368678e-04 2.365975e+00 8.201494e-01 -4.620318e-02 2.768556e-01 1.276206e+00 6.488055e-01 1.332757e+00 8.647645e-01 -8.784012e-02 3.012036e-01 -1.880006e-01 1.323921e-01 -2.646111e-01 1.073745e-01 -1.976913e-01 2.955030e-02 -1.974121e-01 1.171322e-02 -3.949160e-02 5.229619e-03 5.274042e-03 -3.454759e-03 6.835274e-03 -5.738344e-03 -1.259997e+00 -4.102725e-01 1.202314e+00 2.635076e-01 -6.656830e-01 -1.886290e-01 -3.058029e-02 -1.179199e-01 7.068838e-01 2.798297e-01 5.361042e-02 8.196783e-02 3.985025e-02 1.540508e-02 -2.828021e-02 3.926020e-02 7.917248e-04 1.694181e-02 4.333335e-01 -3.320546e-01 2.500012e-01 -2.563236e-01 2.713601e-01 -2.852579e-01 3.145075e-01 2.198429e+00 -3.907115e+00 6.736695e-01 1.184012e+00 6.891966e-01 -1.626665e+00 1.331546e+00 -1.131463e+00 -5.027692e-01 1.326453e+00 -8.777590e-01 8.009696e-01 -7.247860e-01 7.792618e-01 -6.789713e-01 5.342802e-01 -4.486804e-01 4.332816e-01
<VARIANCE> 75
 3.593980e-02 4.624512e-02 2.676880e-02 3.226310e-02 3.322462e-02 2.322779e-02 2.161878e-02 2.493437e-02 9.023505e+00 1.414667e+00 2.239182e-01 1.987007e-01 6.459299e+00 1.269284e+00 6.546041e+00 1.521182e+00 3.220331e-01 1.349077e-01 1.227595e-01 6.603576e-02 7.620395e-02 6.900562e-02 4.997749e-02 6.642922e-02 4.390578e-02 1.773554e-02 1.119902e-02 1.083004e-02 1.277097e-02 6.841559e-03 8.542975e-03 7.821038e-03 2.216805e+00 3.651252e-01 2.365359e+00 2.559638e-01 1.719377e+00 4.260497e-01 4.178099e+00 8.170473e-01 1.610867e+00 3.912520e-01 5.998179e-02 3.888420e-02 3.236932e-02 3.086777e-02 2.333734e-02 2.158226e-02 1.725671e-02 1.900628e-02 2.674524e-01 2.513503e-01 2.017816e-01 1.900252e-01 1.906830e-01 1.447402e-01 1.426642e-01 9.210186e+00 2.573115e+01 3.111109e+00 2.966796e+00 8.642659e+00 2.157671e+01 1.018927e+01 2.495519e+01 6.168263e+00 1.661654e+00 1.074489e+00 6.763395e-01 5.028085e-01 4.391038e-01 4.546747e-01 4.346633e-01 3.895326e-01 3.369832e-01
<GCONST> 3.445030e+01
<STREAM> 2
<NUMMIXES> 2
<MIXTURE> 1 6.320999e-01
<MEAN> 1
 4.536246e+00
<VARIANCE> 1
 1.055680e-02
<GCONST> -2.713108e+00
<MIXTURE> 2 3.679000e-01
<MEAN> 0
<VARIANCE> 0
<GCONST> 0.000000e+00
<STREAM> 3
<NUMMIXES> 2
<MIXTURE> 1 5.991528e-01
<MEAN> 1
 1.970017e-03
<VARIANCE> 1
 3.553591e-04
<GCONST> -6.104505e+00
<MIXTURE> 2 4.008474e-01
<MEAN> 0
<VARIANCE> 0
<GCONST> 0.000000e+00
<STREAM> 4
<NUMMIXES> 2
<MIXTURE> 1 5.991524e-01
<MEAN> 1
 2.376319e-04
<VARIANCE> 1
 8.940651e+14
<GCONST> 3.626468e+01
<MIXTURE> 2 4.008475e-01
<MEAN> 0
<VARIANCE> 0
<GCONST> 0.000000e+00
<STATE> 4
<STREAM> 1
<MEAN> 75
 2.521407e-03 -2.243855e-01 -1.690495e-02 -1.477733e-01 -2.297549e-02 -1.490251e-01 -9.765144e-03 -1.619457e-01 6.891489e-04 2.362480e+00 8.100228e-01 -4.503544e-02 2.743563e-01 1.285629e+00 6.482165e-01 1.321525e+00 8.566627e-01 -8.440641e-02 2.948618e-01 -1.910295e-01 1.405791e-01 -2.611150e-01 1.090176e-01 -1.946115e-01 3.615775e-02 1.545300e-02 1.256146e-02 -3.881060e-02 5.962805e-03 2.643213e-03 -4.312939e-03 6.455387e-03 -3.886122e-03 -1.264914e+00 -4.079735e-01 1.197260e+00 2.625076e-01 -6.597295e-01 -1.830257e-01 -2.257451e-02 -1.119541e-01 7.002248e-01 2.735162e-01 5.623810e-02 8.324844e-02 4.000979e-02 1.915423e-02 -3.205373e-02 4.012090e-02 2.488490e-03 -4.266349e-01 4.369622e-01 -3.386055e-01 2.587929e-01 -2.597736e-01 2.636449e-01 -2.914454e-01 3.111148e-01 2.206733e+00 -3.899422e+00 6.800091e-01 1.169215e+00 6.874503e-01 -1.641787e+00 1.326740e+00 -1.134266e+00 -4.893539e-01 1.319377e+00 -8.547288e-01 8.134632e-01 -7.322537e-01 7.760631e-01 -6.790887e-01 5.281202e-01 -4.633509e-01
<VARIANCE> 75
 5.162577e-02 3.653231e-02 4.602168e-02 2.711274e-02 3.213994e-02 3.571846e-02 2.527474e-02 2.210414e-02 2.259314e-02 9.023545e+00 1.434437e+00 2.263602e-01 1.940736e-01 6.525104e+00 1.275048e+00 6.510055e+00 1.511028e+00 3.154308e-01 1.303219e-01 1.226285e-01 7.026082e-02 7.446223e-02 7.142076e-02 4.591587e-02 6.356747e-02 1.624973e-02 1.747305e-02 1.119379e-02 1.107960e-02 1.080951e-02 7.128526e-03 8.762239e-03 6.909772e-03 2.229019e+00 3.659013e-01 2.346300e+00 2.526882e-01 1.713341e+00 4.378845e-01 4.168080e+00 8.017287e-01 1.579707e+00 3.882997e-01 5.856781e-02 3.922610e-02 3.478055e-02 2.929221e-02 2.294587e-02 2.216319e-02 1.565802e-02 3.096621e-01 2.544210e-01 2.546446e-01 1.979643e-01 1.785441e-01 1.832381e-01 1.537862e-01 1.434575e-01 9.216892e+00 2.583151e+01 3.246830e+00 2.954163e+00 8.511172e+00 2.183864e+01 1.014698e+01 2.498148e+01 6.510890e+00 1.646064e+00 1.060663e+00 6.587220e-01 5.067052e-01 4.334328e-01 4.543315e-01 4.077052e-01 3.752570e-01
<GCONST> 3.386835e+01
<STREAM> 2
<NUMMIXES> 2
<MIXTURE> 1 6.164950e-01
<MEAN> 1
 4.535336e+00
<VARIANCE> 1
 1.055680e-02
<GCONST> -2.713108e+00
<MIXTURE> 2 3.835048e-01
<MEAN> 0
<VARIANCE> 0
<GCONST> 0.000000e+00
<STREAM> 3
<NUMMIXES> 2
<MIXTURE> 1 6.034187e-01
<MEAN> 1
 2.403240e-03
<VARIANCE> 1
 3.553591e-04
<GCONST> -6.104505e+00
<MIXTURE> 2 3.965811e-01
<MEAN> 0
<VARIANCE> 0
<GCONST> 0.000000e+00
<STREAM> 4
<NUMMIXES> 2
<MIXTURE> 1 6.034170e-01
<MEAN> 1
 -1.381520e-04
<VARIANCE> 1
 8.940651e+14
<GCONST> 3.626468e+01
<MIXTURE> 2 3.965828e-01
<MEAN> 0
<VARIANCE> 0
<GCONST> 0.000000e+00
<STATE> 5
<STREAM> 1
<MEAN> 75
 -1.520090e-01 -5.460908e-02 -1.546775e-01 -8.922554e-02 -1.331688e-01 -8.586061e-02 -1.217207e-01 -4.705937e-02 -1.083822e-01 -3.766903e-02 8.307579e-01 1.169960e+00 1.154778e+00 1.303787e+00 1.776189e+00 6.052352e-01 6.006658e-01 3.817005e-01 -4.277679e-02 7.534927e-02 -1.075808e-01 2.680488e-02 -1.392002e-01 1.913162e-03 -1.369254e-01 2.381996e-03 2.923966e-03 2.063972e-02 -1.175254e-02 3.816332e-04 -3.828321e-03 -1.976902e-02 -7.740624e-03 -5.027907e-03 -4.734463e-01 -6.063200e-01 -1.627145e-01 -6.451801e-02 -3.071854e-01 3.481070e-01 5.810369e-01 1.117949e-01 3.225453e-01 1.524751e-01 3.541023e-02 2.718219e-02 1.840618e-02 1.248628e-02 7.398454e-04 2.525044e-02 1.996098e-01 -2.001334e-01 1.666695e-01 -1.105772e-01 8.985172e-02 -8.245847e-02 1.142642e-01 -1.350011e-01 1.247098e-01 8.065441e-01 -5.260192e-01 -3.576559e-01 1.596308e-01 3.224011e-01 -1.634625e+00 1.155653e+00 -2.149769e-01 -2.079251e-01 5.371943e-01 -2.963834e-01 3.180481e-01 -2.969424e-01 3.086985e-01 -2.817312e-01 2.285774e-01
<VARIANCE> 75
 5.340748e-02 4.741328e-02 3.898750e-02 4.365532e-02 3.090438e-02 3.561334e-02 3.434263e-02 2.385494e-02 2.176555e-02 2.032227e-02 4.683218e+00 4.721889e+00 4.830094e+00 4.560696e+00 6.121113e+00 1.185182e+00 2.874414e+00 8.511213e-01 2.107551e-01 1.592513e-01 1.312104e-01 1.003834e-01 9.376010e-02 8.728050e-02 5.650376e-02 1.685816e-02 1.447827e-02 1.306959e-02 1.040789e-02 9.409341e-03 9.189458e-03 7.297319e-03 7.312238e-03 6.759438e-03 1.195623e+00 1.232809e+00 2.953824e+00 3.082578e+00 3.790411e+00 1.746595e+00 2.708792e+00 4.397637e-01 6.926951e-01 1.831097e-01 4.563713e-02 3.319619e-02 2.999526e-02 2.526423e-02 2.240567e-02 2.029009e-02 4.624464e-01 3.603346e-01 3.241690e-01 3.181329e-01 2.856042e-01 2.847250e-01 2.693536e-01 2.124288e-01 1.824994e-01 4.664768e+00 1.996247e+01 2.137590e+01 2.313948e+01 2.629191e+01 2.480311e+01 6.879890e+00 1.236814e+01 3.805621e+00 1.885538e+00 1.385659e+00 1.227314e+00 1.030743e+00 9.095231e-01 7.895347e-01 6.065875e-01
<GCONST> 4.954486e+01
<STREAM> 2
<NUMMIXES> 2
<MIXTURE> 1 6.496131e-01
<MEAN> 1
 4.536263e+00
<VARIANCE> 1
 1.055680e-02
<GCONST> -2.713108e+00
<MIXTURE> 2 3.503833e-01
<MEAN> 0
<VARIANCE> 0
<GCONST> 0.000000e+00
<STREAM> 3
<NUMMIXES> 2
<MIXTURE> 1 6.207849e-01
<MEAN> 1
 2.249771e-03
<VARIANCE> 1
 3.553591e-04
<GCONST> -6.104505e+00
<MIXTURE> 2 3.792121e-01
<MEAN> 0
<VARIANCE> 0
<GCONST> 0.000000e+00
<STREAM> 4
<NUMMIXES> 2
<MIXTURE> 1 6.207845e-01
<MEAN> 1
 8.000000e+00
<VARIANCE> 1
 8.940651e+14
<GCONST> 3.626468e+01
<MIXTURE> 2 3.792119e-01
<MEAN> 0
<VARIANCE> 0
<GCONST> 0.000000e+00
<STATE> 6
<STREAM> 1
<MEAN> 75
 3.287550e-02 -4.259431e-02 -3.137604e-02 -7.131001e-02 -7.312978e-02 -8.472206e-02 -8.263933e-02 -1.059836e-01 -8.777348e-02 -1.125673e-01 -9.128320e-02 -9.775169e-02 -8.057283e-02 -8.891504e-02 -6.824902e-02 7.010785e-01 6.810940e-01 8.441837e-01 1.028831e+00 9.717771e-01 9.829245e-01 7.460815e-01 6.893052e-01 4.493818e-01 3.259092e-01 8.717875e-02 3.069147e-02 1.298189e-02 1.836690e-02 5.040709e-03 5.231476e-03 1.245020e-02 4.448405e-03 3.478947e-03 3.242324e-04 -7.192578e-03 -4.369992e-03 -4.477437e-03 -7.214887e-03 -3.982061e-01 -3.774907e-01 -7.757036e-02 -1.740813e-01 -5.605017e-02 2.808075e-02 1.153064e-01 1.474614e-01 1.493144e-01 1.806403e-01 1.570415e-01 2.546020e-02 8.693823e-02 -5.076232e-02 3.897790e-02 -1.356121e-02 1.390910e-02 -2.890011e-02 4.466692e-02 -3.658007e-02 4.366933e-02 -3.057563e-02 2.459595e-02 -2.364186e-02 2.865271e-02 7.519094e-01 -7.823659e-01 1.822968e-01 1.216074e-02 -2.443126e-01 6.911729e-02 -2.503939e-01 1.797096e-01 -1.800068e-01 1.172161e-01 -7.115630e-02
<VARIANCE> 75
 1.889813e-01 1.327750e-01 1.106062e-01 8.669476e-02 7.611332e-02 6.503896e-02 5.657975e-02 5.229735e-02 4.382398e-02 3.877186e-02 3.747116e-02 3.691378e-02 3.152869e-02 2.721551e-02 3.526658e-02 4.003291e+00 3.009868e+00 3.871820e+00 3.820086e+00 3.833592e+00 3.584913e+00 2.963770e+00 2.631240e+00 1.942369e+00 1.303441e+00 1.515643e-01 3.758118e-02 2.951464e-02 2.560203e-02 2.036231e-02 1.733783e-02 1.573916e-02 1.383718e-02 1.366896e-02 1.063458e-02 9.814246e-03 8.407602e-03 7.895778e-03 9.411218e-03 1.025409e+00 7.735315e-01 2.316642e+00 2.015759e+00 2.309809e+00 2.304051e+00 1.994843e+00 1.828015e+00 1.310663e+00 1.024647e+00 6.109813e-01 1.520663e+00 1.187529e+00 9.786717e-01 8.155361e-01 6.979241e-01 5.912591e-01 4.967545e-01 4.401198e-01 3.830962e-01 3.414097e-01 3.238392e-01 2.960998e-01 2.664675e-01 2.549382e-01 3.909227e+00 1.491587e+01 1.325526e+01 1.776901e+01 1.809333e+01 1.804322e+01 1.652588e+01 1.345671e+01 1.165061e+01 8.358433e+00 5.907302e+00
<GCONST> 7.135849e+01
<STREAM> 2
<NUMMIXES> 2
<MIXTURE> 1 6.567972e-01
<MEAN> 1
 4.537132e+00
<VARIANCE> 1
 1.055680e-02
<GCONST> -2.713108e+00
<MIXTURE> 2 3.431986e-01
<MEAN> 0
<VARIANCE> 0
<GCONST> 0.000000e+00
<STREAM> 3
<NUMMIXES> 2
<MIXTURE> 1 6.323201e-01
<MEAN> 1
 2.577406e-03
<VARIANCE> 1
 3.553591e-04
<GCONST> -6.104505e+00
<MIXTURE> 2 3.676758e-01
<MEAN> 0
<VARIANCE> 0
<GCONST> 0.000000e+00
<STREAM> 4
<NUMMIXES> 2
<MIXTURE> 1 6.323200e-01
<MEAN> 1
 -1.187941e-04
<VARIANCE> 1
 8.940651e+14
<GCONST> 3.626468e+01
<MIXTURE> 2 3.676752e-01
<MEAN> 0
<VARIANCE> 0
<GCONST> 0.000000e+00
<TRANSP> 7
 0.000000e+00 1.000000e+00 0.000000e+00 0.000000e+00 0.000000e+00 0.000000e+00 0.000000e+00
 0.000000e+00 0.000000e+00 1.000000e+00 0.000000e+00 0.000000e+00 0.000000e+00 0.000000e+00
 0.000000e+00 0.000000e+00 0.000000e+00 1.000000e+00 0.000000e+00 0.000000e+00 0.000000e+00
 0.000000e+00 0.000000e+00 0.000000e+00 0.000000e+00 1.000000e+00 0.000000e+00 0.000000e+00
 0.000000e+00 0.000000e+00 0.000000e+00 0.000000e+00 0.000000e+00 1.000000e+00 0.000000e+00
 0.000000e+00 0.000000e+00 0.000000e+00 0.000000e+00 0.000000e+00 0.000000e+00 1.000000e+00
 0.000000e+00 0.000000e+00 0.000000e+00 0.000000e+00 0.000000e+00 0.000000e+00 0.000000e+00
<ENDHMM>
~h "b"
<BEGINHMM>
<NUMSTATES> 7
<STATE> 2
<STREAM> 1
<MEAN> 75
 -1.113138e-01 -8.240198e-02 -1.247308e-01 -8.235534e-02 -1.113999e-01 -9.287158e-02 -1.100698e-01 -8.631390e-02 -5.699836e-02 1.893189e-01 5.866276e-01 7.440134e-01 8.451139e-01 9.666600e-01 1.043352e+00 1.145990e+00 1.449129e+00 5.409548e-01 1.007850e-01 8.745809e-02 -6.273553e-02 -2.075863e-02 -1.084059e-01 -5.907295e-02 -1.142726e-01 1.230188e-02 7.165149e-03 1.410563e-03 -5.886463e-03 4.880991e-03 -1.831550e-03 -4.411906e-03 -2.769576e-02 -1.381164e-01 -3.199660e-01 -2.756188e-01 -1.311285e-01 -1.165224e-01 -1.010309e-01 -8.986011e-02 -2.052460e-01 3.028631e-01 6.776536e-01 2.282403e-01 8.410752e-02 5.516566e-02 2.496008e-02 1.956353e-02 2.597249e-03 -1.180596e-03 8.011299e-02 -7.166064e-02 8.438171e-02 -7.031064e-02 4.798786e-02 -3.509609e-02 4.048900e-02 5.093949e-03 2.176072e-01 1.465932e-01 -2.349197e-01 -5.205632e-02 2.067709e-02 -4.950150e-02 2.686358e-02 1.997934e-01 -1.219115e+00 4.733569e-01 4.312530e-01 -1.379839e-01 1.916646e-01 -1.265764e-01 1.394120e-01 -1.054127e-01 1.138966e-01
<VARIANCE> 75
 4.846877e-02 4.685872e-02 4.488340e-02 4.002882e-02 3.448649e-02 4.187073e-02 3.356341e-02 3.078131e-02 3.225366e-01 1.295437e+00 3.167725e+00 3.290105e+00 3.584556e+00 3.725572e+00 4.005560e+00 4.089831e+00 5.040206e+00 1.297380e+00 3.296252e-01 2.521896e-01 1.595189e-01 1.169534e-01 9.647558e-02 8.486558e-02 7.568233e-02 1.678458e-02 1.410718e-02 1.266960e-02 1.181620e-02 1.200150e-02 9.801890e-03 9.557761e-03 8.431720e-02 3.298267e-01 8.805469e-01 1.228070e+00 1.916060e+00 2.057153e+00 2.277833e+00 2.430062e+00 2.955990e+00 1.509691e+00 1.249478e+00 2.529387e-01 7.608473e-02 5.300054e-02 4.030653e-02 2.811203e-02 2.396295e-02 2.223470e-02 4.236938e-01 3.811941e-01 3.716818e-01 3.329960e-01 2.993596e-01 2.995896e-01 2.836260e-01 5.459094e-01 2.175234e+00 6.607234e+00 1.246737e+01 1.381836e+01 1.569283e+01 1.700743e+01 1.868140e+01 2.139412e+01 1.922408e+01 4.738369e+00 2.978380e+00 1.770620e+00 1.377684e+00 1.038050e+00 8.874462e-01 7.766900e-01 6.994929e-01
<GCONST> 7.313849e+01
<STREAM> 2
<NUMMIXES> 2
<MIXTURE> 1 7.213307e-01
<MEAN> 1
 4.517007e+00
<VARIANCE> 1
 1.055680e-02
<GCONST> -2.713108e+00
<MIXTURE> 2 2.786638e-01
<MEAN> 0
<VARIANCE> 0
<GCONST> 0.000000e+00
<STREAM> 3
<NUMMIXES> 2
<MIXTURE> 1 6.914104e-01
<MEAN> 1
 2.595778e-03
<VARIANCE> 1
 3.553591e-04
<GCONST> -6.104505e+00
<MIXTURE> 2 3.085832e-01
<MEAN> 0
<VARIANCE> 0
<GCONST> 0.000000e+00
<STREAM> 4
<NUMMIXES> 2
<MIXTURE> 1 6.914111e-01
<MEAN> 1
 -4.119873e-04
<VARIANCE> 1
 8.940651e+14
<GCONST> 3.626468e+01
<MIXTURE> 2 3.085830e-01
<MEAN> 0
<VARIANCE> 0
<GCONST> 0.000000e+00
<STATE> 3
<STREAM> 1
<MEAN> 75
 -9.423620e-02 -2.270312e-02 -7.501013e-02 -8.758173e-02 -1.057829e-01 -4.598553e-02 -8.107168e-02 -1.046841e-01 -9.560589e-02 -1.275079e-01 -1.323702e-01 -6.938485e-02 -8.633007e-02 -5.362109e-02 -6.568167e-02 -6.778965e-02 -4.535474e-02 2.567636e+00 3.618482e+00 1.069765e+00 4.105926e-01 2.468373e-01 4.776322e-02 2.672466e-02 -5.724880e-02 -3.469946e-02 -1.286233e-02 3.043841e-02 1.400152e-02 -2.334694e-02 -1.437541e-02 2.963175e-02 7.668116e-03 1.082481e-02 1.680532e-02 -2.789430e-02 -2.356325e-02 -7.199747e-03 -1.108918e-02 7.703638e-03 -1.032689e-02 -1.312968e+00 -1.826373e+00 7.543654e-01 1.602627e+00 4.132574e-01 1.877635e-01 1.133223e-01 5.398310e-02 5.832984e-02 7.494033e-02 -1.219615e-01 3.663169e-02 -5.345907e-03 7.338400e-02 -9.805025e-02 1.516583e-02 3.308675e-02 -3.963564e-02 2.567291e-02 6.708966e-02 -8.028698e-02 4.646607e-02 -4.136285e-02 5.276730e-03 2.777178e-02 2.583620e+00 -1.575524e+00 -3.605881e+00 1.887654e+00 4.889664e-01 -3.178984e-02 1.842818e-01 -6.547946e-02 5.336916e-02
<VARIANCE> 75
 1.329404e-01 8.271600e-02 5.161960e-02 6.211983e-02 6.234912e-02 4.142176e-02 4.927569e-02 3.961458e-02 3.774782e-02 4.476041e-02 4.438458e-02 3.549947e-02 2.413145e-02 1.925793e-02 1.772418e-02 1.699260e-02 1.868130e-02 7.975047e+00 4.670597e+00 1.547461e+00 3.087195e-01 4.066614e-01 2.088440e-01 1.510525e-01 1.160937e-01 2.590652e-02 2.400880e-02 1.786528e-02 1.678523e-02 1.589333e-02 1.820487e-02 1.172378e-02 1.292489e-02 1.005096e-02 1.026922e-02 1.112325e-02 9.205572e-03 7.906586e-03 6.844284e-03 6.705960e-03 6.808664e-03 2.073611e+00 1.279226e+00 3.634795e+00 1.550523e+00 2.943721e-01 8.472832e-02 8.926840e-02 5.632627e-02 3.410918e-02 1.117094e+00 7.515948e-01 5.044413e-01 4.990819e-01 4.861550e-01 3.718239e-01 2.945603e-01 2.400978e-01 3.049019e-01 3.712668e-01 3.663717e-01 2.742657e-01 1.900331e-01 1.548221e-01 1.271610e-01 1.299564e-01 7.146564e+00 5.186721e+01 3.268759e+01 3.842120e+00 4.921306e+00 2.632115e+00 1.918702e+00 1.269482e+00 1.096892e+00
<GCONST> -4.844146e+00
<STREAM> 2
<NUMMIXES> 2
<MIXTURE> 1 6.799496e-01
<MEAN> 1
 4.525277e+00
<VARIANCE> 1
 1.055680e-02
<GCONST> -2.713108e+00
<MIXTURE> 2 3.200490e-01
<MEAN> 0
<VARIANCE> 0
<GCONST> 0.000000e+00
<STREAM> 3
<NUMMIXES> 2
<MIXTURE> 1 6.601138e-01
<MEAN> 1
 2.061319e-03
<VARIANCE> 1
 3.553591e-04
<GCONST> -6.104505e+00
<MIXTURE> 2 3.398847e-01
<MEAN> 0
<VARIANCE> 0
<GCONST> 0.000000e+00
<STREAM> 4
<NUMMIXES> 2
<MIXTURE> 1 6.601140e-01
<MEAN> 1
 -5.642482e-04
<VARIANCE> 1
 8.940651e+14
<GCONST> 3.626468e+01
<MIXTURE> 2 3.398851e-01
<MEAN> 0
<VARIANCE> 0
<GCONST> 0.000000e+00
<STATE> 4
<STREAM> 1
<MEAN> 75
 -5.415849e-02 -9.453892e-02 -8.965356e-02 -3.566542e-02 -7.486556e-02 -1.013402e-01 -1.065500e-01 -3.835598e-02 -8.142163e-02 -1.106163e-01 -9.162398e-02 -1.342675e-01 -1.270089e-01 -7.975751e-02 -8.578284e-02 -5.943488e-02 -6.271788e-02 -7.129334e-02 -4.251723e-02 2.638039e+00 3.566593e+00 1.048718e+00 4.341096e-01 2.406864e-01 5.358665e-02 5.748517e-02 2.054144e-02 -2.856701e-02 -9.294435e-03 2.991302e-02 1.566733e-02 -3.294757e-02 -1.085867e-02 3.450565e-02 5.937039e-03 1.168033e-02 1.525471e-02 -3.060797e-02 -2.250315e-02 -1.078045e-02 -1.231973e-02 5.013077e-03 -1.072537e-02 -1.360384e+00 -1.809114e+00 7.956235e-01 1.570353e+00 4.070245e-01 1.908830e-01 1.105663e-01 3.739558e-02 4.104861e-02 5.717234e-02 -9.465086e-02 1.400437e-02 2.560468e-02 6.667247e-02 -1.122763e-01 1.298756e-02 4.561501e-02 -5.762521e-02 4.799756e-02 4.008948e-02 -5.424141e-02 3.533731e-02 -3.149925e-02 -2.555716e-03 3.755638e-02 2.663223e+00 -1.748479e+00 -3.456488e+00 1.899634e+00 4.216546e-01 2.453290e-03 1.571536e-01
<VARIANCE> 75
 1.127725e-01 1.224669e-01 1.241380e-01 8.513109e-02 5.238975e-02 6.203992e-02 6.967526e-02 5.742832e-02 3.739500e-02 3.828257e-02 3.863528e-02 4.780976e-02 5.023788e-02 2.652343e-02 2.372127e-02 1.860775e-02 1.685737e-02 1.666814e-02 2.422177e-02 8.060867e+00 4.620893e+00 1.492738e+00 3.112565e-01 4.013300e-01 2.055659e-01 3.627064e-02 3.035645e-02 2.753318e-02 2.212717e-02 1.771305e-02 1.720057e-02 1.991243e-02 1.692347e-02 1.333045e-02 1.062055e-02 1.144421e-02 1.134110e-02 9.276049e-03 9.606634e-03 6.705960e-03 6.808664e-03 6.742946e-03 7.068470e-03 2.092012e+00 1.250469e+00 3.628209e+00 1.541845e+00 2.724471e-01 9.021086e-02 8.717525e-02 1.076077e+00 1.122666e+00 1.096949e+00 7.808131e-01 4.964940e-01 5.057991e-01 5.424582e-01 3.942938e-01 2.503312e-01 2.489997e-01 3.018419e-01 3.980972e-01 3.735943e-01 2.441868e-01 1.874647e-01 1.486317e-01 1.244924e-01 1.381368e-01 7.211154e+00 5.208356e+01 3.229515e+01 3.737876e+00 4.960212e+00 2.636186e+00 1.901253e+00
<GCONST> -5.711893e+00
<STREAM> 2
<NUMMIXES> 2
<MIXTURE> 1 6.838001e-01
<MEAN> 1
 4.523998e+00
<VARIANCE> 1
 1.055680e-02
<GCONST> -2.713108e+00
<MIXTURE> 2 3.161977e-01
<MEAN> 0
<VARIANCE> 0
<GCONST> 0.000000e+00
<STREAM> 3
<NUMMIXES> 2
<MIXTURE> 1 6.559073e-01
<MEAN> 1
 9.582000e-04
<VARIANCE> 1
 3.969129e-04
<GCONST> -5.993917e+00
<MIXTURE> 2 3.440905e-01
<MEAN> 0
<VARIANCE> 0
<GCONST> 0.000000e+00
<STREAM> 4
<NUMMIXES> 2
<MIXTURE> 1 6.559070e-01
<MEAN> 1
 1.088762e-03
<VARIANCE> 1
 8.940651e+14
<GCONST> 3.626468e+01
<MIXTURE> 2 3.440911e-01
<MEAN> 0
<VARIANCE> 0
<GCONST> 0.000000e+00
<STATE> 5
<STREAM> 1
<MEAN> 75
 5.624161e-01 1.504638e-01 1.336326e-01 -5.921011e-02 -1.036385e-02 -1.056428e-01 -4.913021e-02 -1.213033e-01 -5.023725e-02 -9.928662e-02 -7.012506e-02 -1.121164e-01 -7.122436e-02 -1.281444e-01 -1.037644e-01 -1.253997e-01 -9.277752e-02 -1.072759e-01 -6.583295e-02 -8.807540e-02 -4.579553e-02 1.046906e+00 1.457958e+00 1.496598e+00 1.588702e+00 6.663589e-01 2.176317e-01 1.068103e-01 7.017753e-02 2.180492e-02 1.836712e-02 8.935221e-03 5.676528e-04 -9.947814e-03 1.107165e-02 6.184313e-03 -7.076612e-04 6.888260e-03 1.604508e-02 -2.116919e-04 -4.796645e-03 -8.656450e-03 -1.410101e-02 -1.215139e-02 -1.136579e-02 -5.661425e-01 -7.516004e-01 -2.279401e-01 -6.900852e-02 6.007709e-03 5.006613e-01 3.950973e-01 -1.723792e-01 2.479390e-01 -1.446761e-01 1.495798e-01 -1.285603e-01 1.450971e-01 -1.206678e-01 7.940328e-02 -6.805693e-02 8.515478e-02 -9.768471e-02 7.923663e-02 -4.513271e-02 5.530409e-02 -4.729690e-02 5.879190e-02 -6.240177e-02 6.157464e-02 1.048210e+00 -6.770813e-01 -3.705731e-01 5.572126e-02 -2.091881e-01
<VARIANCE> 75
 8.988295e-01 3.017431e-01 2.452317e-01 1.607161e-01 1.327368e-01 1.109679e-01 8.989136e-02 8.517228e-02 7.480433e-02 5.335313e-02 4.903961e-02 4.596197e-02 4.059695e-02 4.223756e-02 3.830042e-02 3.445809e-02 3.297243e-02 2.855967e-02 2.149279e-02 2.258144e-02 6.235649e-02 5.159718e+00 5.105534e+00 5.004765e+00 4.504964e+00 1.128805e+00 1.732400e-01 6.818394e-02 5.476188e-02 3.890375e-02 2.924202e-02 2.419656e-02 2.286413e-02 2.002733e-02 1.831530e-02 1.468986e-02 1.412829e-02 1.296325e-02 1.073198e-02 1.031059e-02 8.735914e-03 8.041224e-03 7.105885e-03 7.055163e-03 1.774608e-02 1.311306e+00 1.330091e+00 3.328856e+00 3.436087e+00 3.375166e+00 4.092963e+00 2.925551e+00 1.740794e+00 1.361051e+00 1.141051e+00 9.615202e-01 8.092382e-01 7.251219e-01 5.885822e-01 4.517418e-01 3.923158e-01 3.447810e-01 3.173814e-01 3.126684e-01 3.020397e-01 2.970536e-01 2.831775e-01 2.459425e-01 1.946363e-01 2.117925e-01 5.032151e+00 2.249457e+01 2.413503e+01 2.530114e+01 2.467563e+01
<GCONST> 2.133014e+01
<STREAM> 2
<NUMMIXES> 2
<MIXTURE> 1 7.001305e-01
<MEAN> 1
 4.522185e+00
<VARIANCE> 1
 1.055680e-02
<GCONST> -2.713108e+00
<MIXTURE> 2 2.998632e-01
<MEAN> 0
<VARIANCE> 0
<GCONST> 0.000000e+00
<STREAM> 3
<NUMMIXES> 2
<MIXTURE> 1 6.751111e-01
<MEAN> 1
 1.565081e-03
<VARIANCE> 1
 3.553591e-04
<GCONST> -6.104505e+00
<MIXTURE> 2 3.248825e-01
<MEAN> 0
<VARIANCE> 0
<GCONST> 0.000000e+00
<STREAM> 4
<NUMMIXES> 2
<MIXTURE> 1 6.751112e-01
<MEAN> 1
 7.150466e-06
<VARIANCE> 1
 8.940651e+14
<GCONST> 3.626468e+01
<MIXTURE> 2 3.248822e-01
<MEAN> 0
<VARIANCE> 0
<GCONST> 0.000000e+00
<STATE> 6
<STREAM> 1
<MEAN> 75
 7.028949e-01 9.209228e-01 8.930523e-01 9.267843e-01 8.661180e-01 8.885590e-01 8.134953e-01 6.018183e-01 4.693963e-01 3.981035e-01 1.009999e-01 8.499425e-03 -5.834889e-02 -6.358512e-02 -8.315791e-02 -8.098351e-02 -1.027862e-01 -9.213847e-02 -1.131129e-01 -9.640238e-02 -1.090799e-01 -9.166934e-02 -9.511783e-02 -8.280370e-02 -4.959831e-02 -4.711409e-01 -9.632647e-02 -2.018105e-03 1.672096e-02 1.943650e-02 2.637658e-02 1.463777e-01 1.734526e-01 1.027278e-01 1.852873e-01 1.940481e-01 7.766051e-02 3.686111e-02 1.252261e-02 7.591275e-03 8.662432e-03 4.209941e-03 5.951104e-03 3.951844e-03 -2.414330e-03 -1.549345e-03 -6.137569e-03 -4.035962e-03 -2.329049e-02 -3.131586e-02 -5.022033e-01 -2.465716e-01 5.613973e-02 -9.780704e-02 8.971901e-02 -1.035582e-01 -1.363885e-01 8.083364e-02 5.918370e-02 -2.223651e-01 2.085223e-01 2.222019e-02 5.928938e-02 -1.394918e-02 2.256438e-02 -2.409057e-02 3.088257e-02 -3.408777e-02 4.011337e-02 -2.796605e-02 2.625290e-02 -1.962107e-02 1.530511e-02 2.397621e-02 -5.330086e-03
<VARIANCE> 75
 3.902249e+00 3.839605e+00 3.624631e+00 3.331370e+00 3.316915e+00 3.208287e+00 3.139690e+00 2.110248e+00 2.023930e+00 1.622631e+00 4.768150e-01 1.774889e-01 1.406280e-01 9.889247e-02 8.452958e-02 6.842396e-02 5.785941e-02 5.288557e-02 4.908564e-02 4.203479e-02 4.142908e-02 7.063952e-02 4.155364e-02 4.568005e-02 2.641913e-01 1.042578e+00 2.178932e+00 2.115389e+00 2.022807e+00 1.964261e+00 1.876629e+00 1.490087e+00 1.377146e+00 9.505262e-01 5.587152e-01 3.744538e-01 9.236749e-02 4.120897e-02 3.261244e-02 2.486232e-02 2.023395e-02 1.670550e-02 1.505708e-02 1.351775e-02 1.338605e-02 1.958876e-02 1.259379e-02 2.121878e-02 6.866215e-02 6.356549e-02 1.556162e+01 1.556335e+01 1.573332e+01 1.511000e+01 1.500496e+01 1.462562e+01 1.278072e+01 9.088864e+00 8.229094e+00 5.552427e+00 2.058587e+00 1.484629e+00 1.082115e+00 8.591451e-01 7.130404e-01 5.964196e-01 4.992319e-01 4.494970e-01 4.000026e-01 3.548190e-01 3.659528e-01 4.136044e-01 3.152186e-01 5.033183e-01 9.685597e-01
<GCONST> 8.068571e+01
<STREAM> 2
<NUMMIXES> 2
<MIXTURE> 1 7.443696e-01
<MEAN> 1
 4.519981e+00
<VARIANCE> 1
 1.055680e-02
<GCONST> -2.713108e+00
<MIXTURE> 2 2.556249e-01
<MEAN> 0
<VARIANCE> 0
<GCONST> 0.000000e+00
<STREAM> 3
<NUMMIXES> 2
<MIXTURE> 1 7.219078e-01
<MEAN> 1
 1.488480e-03
<VARIANCE> 1
 3.553591e-04
<GCONST> -6.104505e+00
<MIXTURE> 2 2.780862e-01
<MEAN> 0
<VARIANCE> 0
<GCONST> 0.000000e+00
<STREAM> 4
<NUMMIXES> 2
<MIXTURE> 1 7.219079e-01
<MEAN> 1
 9.704795e-05
<VARIANCE> 1
 8.940651e+14
<GCONST> 3.626468e+01
<MIXTURE> 2 2.780865e-01
<MEAN> 0
<VARIANCE> 0
<GCONST> 0.000000e+00
<TRANSP> 7
 0.000000e+00 1.000000e+00 0.000000e+00 0.000000e+00 0.000000e+00 0.000000e+00 0.000000e+00
 0.000000e+00 0.000000e+00 1.000000e+00 0.000000e+00 0.000000e+00 0.000000e+00 0.000000e+00
 0.000000e+00 0.000000e+00 0.000000e+00 1.000000e+00 0.000000e+00 0.000000e+00 0.000000e+00
 0.000000e+00 0.000000e+00 0.000000e+00 0.000000e+00 1.000000e+00 0.000000e+00 0.000000e+00
 0.000000e+00 0.000000e+00 0.000000e+00 0.000000e+00 0.000000e+00 1.000000e+00 0.000000e+00
 0.000000e+00 0.000000e+00 0.000000e+00 0.000000e+00 0.000000e+00 0.000000e+00 1.000000e+00
 0.000000e+00 0.000000e+00 0.000000e+00 0.000000e+00 0.000000e+00 0.000000e+00 0.000000e+00
<ENDHMM>
~h "d"
<BEGINHMM>
<NUMSTATES> 7
<STATE> 2
<STREAM> 1
<MEAN> 75
 9.869161e-01 3.907432e-01 1.892896e-01 1.710306e-02 2.063322e-02 -8.081225e-02 -5.632256e-02 -1.030618e-01 -5.659830e-02 -9.051623e-02 -8.024253e-02 -1.184240e-01 -8.513901e-02 -1.028608e-01 -9.288131e-02 -9.992258e-02 -9.037691e-02 -1.065717e-01 8.236299e-02 5.001858e-01 6.941302e-01 7.474614e-01 8.080524e-01 8.069981e-01 8.745952e-01 5.264869e-01 4.000980e-01 1.874941e-01 8.455238e-02 4.852188e-02 3.848617e-02 1.069314e-02 -7.173503e-04 -5.329863e-03 1.151446e-02 1.426917e-02 3.776102e-03 -8.167828e-03 4.509094e-03 -4.475100e-04 -1.176696e-03 3.544157e-03 -8.501803e-02 -3.036653e-01 -3.050973e-01 -1.231737e-01 -5.740800e-02 -3.229468e-02 -3.425664e-02 -3.188212e-01 -1.410147e-01 3.941115e-01 3.100108e-02 1.763180e-01 -1.067041e-01 1.263832e-01 -7.202081e-02 8.979592e-02 -7.885526e-02 4.524025e-02 -4.992367e-02 7.133731e-02 -5.154236e-02 2.691278e-02 -1.657705e-02 1.715851e-02 -2.594176e-02 2.021323e-01 2.336881e-01 -2.200777e-01 -1.431332e-01 1.045882e-02 -6.064806e-02 6.495437e-02 5.040340e-01
<VARIANCE> 75
 3.167603e+00 1.325347e+00 3.712959e-01 2.107508e-01 2.093011e-01 1.326122e-01 9.944670e-02 8.654295e-02 7.767477e-02 6.600828e-02 5.189520e-02 5.194619e-02 4.813934e-02 4.185050e-02 3.471583e-02 3.478057e-02 3.152087e-02 3.075491e-02 8.519782e-01 2.813596e+00 3.138719e+00 3.198106e+00 3.146176e+00 3.182251e+00 3.246781e+00 1.796332e+00 7.904546e-01 2.856726e-01 8.806477e-02 5.440675e-02 4.900251e-02 2.957397e-02 2.413456e-02 2.051666e-02 1.867455e-02 1.693007e-02 1.476552e-02 1.427576e-02 1.234735e-02 1.171008e-02 8.909385e-03 9.021119e-03 2.146364e-01 7.138867e-01 1.047277e+00 1.667553e+00 1.797893e+00 1.832862e+00 1.880434e+00 2.655711e+00 1.265710e+01 5.840567e+00 2.596297e+00 1.849562e+00 1.368143e+00 1.006325e+00 8.816108e-01 7.677633e-01 6.569865e-01 5.417118e-01 4.424606e-01 4.279726e-01 4.143152e-01 3.419098e-01 2.863141e-01 2.651665e-01 2.554299e-01 9.680226e-01 5.290837e+00 1.160191e+01 1.311078e+01 1.403527e+01 1.430472e+01 1.472704e+01 1.810320e+01
<GCONST> 6.504604e+01
<STREAM> 2
<NUMMIXES> 2
<MIXTURE> 1 6.588404e-01
<MEAN> 1
 4.518229e+00
<VARIANCE> 1
 1.055680e-02
<GCONST> -2.713108e+00
<MIXTURE> 2 3.411537e-01
<MEAN> 0
<VARIANCE> 0
<GCONST> 0.000000e+00
<STREAM> 3
<NUMMIXES> 2
<MIXTURE> 1 6.337399e-01
<MEAN> 1
 2.535593e-03
<VARIANCE> 1
 3.553591e-04
<GCONST> -6.104505e+00
<MIXTURE> 2 3.662533e-01
<MEAN> 0
<VARIANCE> 0
<GCONST> 0.000000e+00
<STREAM> 4
<NUMMIXES> 2
<MIXTURE> 1 6.337400e-01
<MEAN> 1
 -6.989366e+06
<VARIANCE> 1
 1.397370e+17
<GCONST> 4.131641e+01
<MIXTURE> 2 3.662533e-01
<MEAN> 0
<VARIANCE> 0
<GCONST> 0.000000e+00
<STATE> 3
<STREAM> 1
<MEAN> 75
 7.115364e-01 1.323403e+00 1.548730e+00 1.717346e+00 1.734490e+00 6.147436e-01 1.758345e-01 1.466308e-01 -5.924071e-02 -2.567131e-02 -1.053389e-01 -5.049761e-02 -1.156868e-01 -5.351889e-02 -1.122355e-01 -8.362703e-02 -1.129893e-01 -7.150096e-02 -1.258906e-01 -1.088686e-01 -1.270629e-01 -1.039055e-01 -1.108010e-01 -6.570353e-02 -8.390529e-02 -6.840156e-01 -4.201576e-01 -1.992190e-01 -9.655473e-02 5.488698e-01 7.762223e-01 2.347581e-01 1.191482e-01 8.689114e-02 2.477442e-02 1.358276e-02 5.497405e-03 1.734973e-03 -1.243437e-03 1.538721e-02 1.411374e-03 -5.168682e-03 6.640561e-03 1.899572e-02 9.539826e-04 -2.926135e-03 -8.273876e-03 -1.885055e-02 -1.421721e-02 -1.083926e-02 -1.436987e-01 -3.849194e-01 -5.736226e-02 -1.483444e-01 -1.140727e+00 6.739024e-01 4.128119e-01 -1.752740e-01 2.366423e-01 -1.108474e-01 1.351968e-01 -1.184044e-01 1.270787e-01 -1.204567e-01 8.765918e-02 -5.894073e-02 7.284717e-02 -9.623354e-02 7.068086e-02 -3.427109e-02 4.198766e-02 -3.109775e-02 5.246866e-02 -6.179260e-02 5.551621e-02
<VARIANCE> 75
 3.845155e+00 5.150831e+00 5.339366e+00 4.973608e+00 4.963846e+00 9.828106e-01 3.077596e-01 2.712196e-01 1.502847e-01 1.304318e-01 1.167665e-01 9.553800e-02 8.740077e-02 7.688335e-02 5.904086e-02 5.429875e-02 5.333174e-02 4.200637e-02 3.473042e-02 3.693132e-02 3.243099e-02 3.334318e-02 2.921529e-02 2.287278e-02 2.040593e-02 1.343110e+00 2.895526e+00 3.617060e+00 3.829311e+00 1.810337e+00 1.245810e+00 1.700203e-01 6.824046e-02 6.019097e-02 4.074606e-02 3.080335e-02 2.698603e-02 2.457408e-02 2.120843e-02 2.002307e-02 1.861693e-02 1.597422e-02 1.421373e-02 1.115442e-02 9.991129e-03 9.714710e-03 8.727430e-03 7.816913e-03 6.999064e-03 1.049001e-02 1.791252e+01 2.459552e+01 2.777110e+01 2.879582e+01 2.186463e+01 4.633667e+00 3.440091e+00 1.937341e+00 1.397261e+00 1.168512e+00 1.060833e+00 8.986645e-01 7.866215e-01 6.574507e-01 5.283219e-01 4.641905e-01 4.236824e-01 3.375767e-01 2.804832e-01 2.817259e-01 2.812452e-01 2.737535e-01 2.448401e-01 1.977056e-01 1.827887e-01
<GCONST> 2.967988e+01
<STREAM> 2
<NUMMIXES> 2
<MIXTURE> 1 6.667072e-01
<MEAN> 1
 4.525706e+00
<VARIANCE> 1
 1.055680e-02
<GCONST> -2.713108e+00
<MIXTURE> 2 3.332878e-01
<MEAN> 0
<VARIANCE> 0
<GCONST> 0.000000e+00
<STREAM> 3
<NUMMIXES> 2
<MIXTURE> 1 6.447262e-01
<MEAN> 1
 2.182712e-03
<VARIANCE> 1
 3.553591e-04
<GCONST> -6.104505e+00
<MIXTURE> 2 3.552687e-01
<MEAN> 0
<VARIANCE> 0
<GCONST> 0.000000e+00
<STREAM> 4
<NUMMIXES> 2
<MIXTURE> 1 6.447262e-01
<MEAN> 1
 1.136051e-05
<VARIANCE> 1
 8.940651e+14
<GCONST> 3.626468e+01
<MIXTURE> 2 3.552687e-01
<MEAN> 0
<VARIANCE> 0
<GCONST> 0.000000e+00
<STATE> 4
<STREAM> 1
<MEAN> 75
 -6.414074e-02 -9.072021e-02 -4.291256e-02 -8.119489e-02 -4.165922e-02 1.739710e+00 2.402687e+00 2.395527e+00 9.159224e-01 2.607626e-01 2.932958e-01 -3.925186e-02 3.488023e-02 -1.566012e-01 -1.123941e-02 -1.140354e-01 -7.723998e-03 -1.479921e-01 -6.247766e-02 -1.192456e-01 -4.564225e-02 -1.185251e-01 -8.427904e-02 -1.527276e-01 -1.043306e-01 -2.523596e-02 -9.889359e-03 -3.733447e-03 8.418383e-04 -9.147275e-01 -1.225200e+00 -3.355925e-01 7.373828e-01 1.066954e+00 3.131561e-01 1.542399e-01 1.323572e-01 6.200849e-02 2.587602e-02 -1.917579e-02 -8.649605e-04 1.746403e-02 2.872616e-02 -1.364782e-02 -8.378145e-03 -1.389488e-04 1.980842e-02 1.721654e-02 1.027949e-02 -5.260218e-03 -1.038439e-01 7.420830e-02 -8.628826e-02 7.852323e-02 1.750944e+00 -1.108588e+00 -6.742980e-01 -1.482521e+00 8.151978e-01 6.823038e-01 -3.672264e-01 4.053891e-01 -2.658758e-01 3.372935e-01 -2.455085e-01 2.102722e-01 -2.473038e-01 2.256273e-01 -1.410218e-01 1.297817e-01 -1.446772e-01 1.070218e-01 -1.019644e-01 1.157093e-01 -8.803011e-02
<VARIANCE> 75
 2.494921e-02 2.409174e-02 1.918946e-02 1.734157e-02 1.858305e-02 7.067887e+00 5.822806e+00 5.682295e+00 1.061393e+00 3.633245e-01 2.797092e-01 1.810257e-01 1.300461e-01 1.146122e-01 1.137574e-01 1.039782e-01 7.167278e-02 6.078795e-02 6.581452e-02 5.844250e-02 4.293625e-02 3.252577e-02 3.581262e-02 3.485584e-02 3.703931e-02 7.798350e-03 6.945695e-03 6.822265e-03 6.900684e-03 1.834566e+00 1.548518e+00 5.327282e+00 2.515701e+00 1.502828e+00 1.976157e-01 8.067143e-02 6.746864e-02 4.582721e-02 3.427292e-02 2.760328e-02 2.663287e-02 2.321531e-02 2.008573e-02 1.903456e-02 1.793039e-02 1.539436e-02 1.197683e-02 9.992000e-03 9.727080e-03 9.291002e-03 2.168908e-01 1.850092e-01 1.475639e-01 1.373468e-01 6.627872e+00 3.615191e+01 3.884661e+01 2.998459e+01 5.735601e+00 4.107993e+00 2.128852e+00 1.445784e+00 1.127773e+00 1.043396e+00 1.039544e+00 8.975996e-01 6.140601e-01 5.045711e-01 5.313240e-01 4.791763e-01 3.412375e-01 2.519136e-01 2.512165e-01 2.839047e-01 3.023672e-01
<GCONST> 1.030914e+01
<STREAM> 2
<NUMMIXES> 2
<MIXTURE> 1 6.575397e-01
<MEAN> 1
 4.525790e+00
<VARIANCE> 1
 1.055680e-02
<GCONST> -2.713108e+00
<MIXTURE> 2 3.424547e-01
<MEAN> 0
<VARIANCE> 0
<GCONST> 0.000000e+00
<STREAM> 3
<NUMMIXES> 2
<MIXTURE> 1 6.311191e-01
<MEAN> 1
 1.941038e-03
<VARIANCE> 1
 3.553591e-04
<GCONST> -6.104505e+00
<MIXTURE> 2 3.688749e-01
<MEAN> 0
<VARIANCE> 0
<GCONST> 0.000000e+00
<STREAM> 4
<NUMMIXES> 2
<MIXTURE> 1 6.311193e-01
<MEAN> 1
 1.252751e-04
<VARIANCE> 1
 8.940651e+14
<GCONST> 3.626468e+01
<MIXTURE> 2 3.688746e-01
<MEAN> 0
<VARIANCE> 0
<GCONST> 0.000000e+00
<STATE> 5
<STREAM> 1
<MEAN> 75
 -1.273335e-01 -1.142299e-01 -1.162684e-01 -1.037331e-01 -7.291340e-02 -6.949046e-02 -5.902678e-02 -1.823288e-02 1.352442e+00 1.740494e+00 1.765828e+00 1.902805e+00 6.493582e-01 2.720562e-01 1.459331e-01 1.118160e-02 -4.436253e-02 -5.949837e-02 -5.518882e-02 -7.593407e-02 -7.428923e-02 -8.842059e-02 -8.327003e-02 -9.685767e-02 -8.003892e-02 8.341790e-03 -4.201381e-03 -4.528219e-03 -2.154225e-02 -1.672200e-02 -6.938931e-03 -2.597422e-02 -7.073025e-01 -8.821396e-01 -2.114198e-01 -8.562229e-02 5.554386e-01 8.122327e-01 2.495346e-01 1.310217e-01 9.700995e-02 3.732254e-02 6.754677e-03 1.024803e-02 1.080650e-02 7.751004e-03 6.028856e-03 6.224375e-03 -9.662028e-04 2.164610e-03 3.924521e-02 -1.376094e-02 1.431684e-02 1.964236e-02 -2.787661e-02 6.713936e-03 3.224899e-02 1.333939e+00 -9.751253e-01 -3.621044e-01 1.089798e-01 -1.389046e+00 8.744959e-01 2.469487e-01 -1.240243e-02 7.776394e-02 3.972991e-02 2.132098e-02 -2.441125e-02 2.144837e-02 -1.459217e-02 1.850726e-02 -1.752201e-02 3.383287e-02 -3.737383e-02
<VARIANCE> 75
 3.560133e-02 3.474437e-02 3.453918e-02 3.079032e-02 2.327707e-02 2.160819e-02 3.893149e-02 1.843857e-01 5.996510e+00 5.436175e+00 5.255502e+00 4.724170e+00 1.047040e+00 2.969285e-01 2.943552e-01 1.550228e-01 1.403281e-01 1.239310e-01 1.028165e-01 8.561808e-02 7.924066e-02 6.389821e-02 5.583728e-02 5.394157e-02 4.062122e-02 9.493040e-03 9.539040e-03 9.111794e-03 7.745478e-03 6.830789e-03 1.167378e-02 4.799945e-02 1.564550e+00 1.479967e+00 4.034762e+00 4.042524e+00 1.922877e+00 1.274149e+00 1.808994e-01 7.027687e-02 6.064397e-02 4.263998e-02 3.276934e-02 2.652064e-02 2.423120e-02 2.005991e-02 1.998131e-02 1.795290e-02 1.574993e-02 1.377636e-02 2.771623e-01 2.907203e-01 2.859309e-01 2.546276e-01 2.045851e-01 1.886792e-01 3.530571e-01 6.137509e+00 2.748451e+01 2.866560e+01 3.025068e+01 2.194872e+01 4.508989e+00 3.555146e+00 1.970459e+00 1.428592e+00 1.186782e+00 1.104852e+00 9.388864e-01 7.712836e-01 6.514894e-01 5.436087e-01 4.742140e-01 4.194759e-01 3.310947e-01
<GCONST> 2.849411e+01
<STREAM> 2
<NUMMIXES> 2
<MIXTURE> 1 6.601313e-01
<MEAN> 1
 4.527402e+00
<VARIANCE> 1
 1.055680e-02
<GCONST> -2.713108e+00
<MIXTURE> 2 3.398632e-01
<MEAN> 0
<VARIANCE> 0
<GCONST> 0.000000e+00
<STREAM> 3
<NUMMIXES> 2
<MIXTURE> 1 6.376350e-01
<MEAN> 1
 2.425921e-03
<VARIANCE> 1
 3.553591e-04
<GCONST> -6.104505e+00
<MIXTURE> 2 3.623600e-01
<MEAN> 0
<VARIANCE> 0
<GCONST> 0.000000e+00
<STREAM> 4
<NUMMIXES> 2
<MIXTURE> 1 6.376349e-01
<MEAN> 1
 -1.280865e-04
<VARIANCE> 1
 8.940651e+14
<GCONST> 3.626468e+01
<MIXTURE> 2 3.623599e-01
<MEAN> 0
<VARIANCE> 0
<GCONST> 0.000000e+00
<STATE> 6
<STREAM> 1
<MEAN> 75
 -7.227650e-02 -7.105559e-02 -8.986918e-02 -8.160117e-02 -1.158862e-01 -9.650617e-02 -1.034847e-01 -7.386684e-02 -3.793024e-02 4.965806e-02 -2.408591e-02 4.315227e-03 1.276614e+00 1.554378e+00 1.217891e+00 9.832306e-01 6.997176e-01 6.119859e-01 4.531935e-01 3.162323e-01 8.897826e-02 6.182109e-02 -4.230555e-03 -8.115905e-03 -7.730189e-02 8.989573e-03 1.001339e-02 6.725040e-03 1.459609e-02 8.663134e-03 -4.442110e-03 -9.050793e-03 -3.133843e-02 -6.260507e-02 -6.859423e-03 2.255184e-02 -6.503204e-01 -7.760320e-01 2.717957e-02 2.842702e-01 2.576836e-01 1.841719e-01 1.227497e-01 1.454168e-01 1.815735e-01 1.256305e-01 4.732218e-02 3.470072e-02 3.851513e-02 2.434243e-02 1.681545e-02 -2.070930e-02 2.665806e-02 -4.334098e-02 5.592158e-02 -2.776401e-02 3.726031e-02 8.288346e-03 5.158202e-02 -1.620227e-01 1.032148e-01 1.242438e+00 -9.930404e-01 -6.124421e-01 1.017464e-01 -4.615600e-02 1.977397e-01 -7.252335e-02 2.136061e-02 -8.904471e-02 1.959905e-01 -4.158174e-02 6.025712e-02 -6.358610e-02 9.008526e-02
<VARIANCE> 75
 6.581949e-02 5.438400e-02 4.595777e-02 4.316767e-02 4.194143e-02 3.823183e-02 3.466038e-02 5.623427e-02 2.161737e-01 6.098861e-01 1.650368e-01 2.462140e-01 5.788785e+00 5.176972e+00 4.083271e+00 2.848372e+00 2.310163e+00 1.985451e+00 1.769247e+00 1.118697e+00 5.351008e-01 3.257187e-01 2.221390e-01 1.783893e-01 1.047655e-01 1.969008e-02 1.616756e-02 1.365768e-02 1.186859e-02 1.159712e-02 1.084926e-02 1.595504e-02 5.508649e-02 1.628010e-01 8.329210e-02 1.961542e-01 1.541893e+00 1.427670e+00 3.251879e+00 2.614140e+00 1.870436e+00 1.391117e+00 1.093407e+00 7.971100e-01 5.185840e-01 3.008998e-01 1.371304e-01 9.394135e-02 5.429822e-02 4.563075e-02 5.607405e-01 4.497015e-01 3.636612e-01 3.337224e-01 3.280461e-01 3.125450e-01 3.145945e-01 4.918501e-01 1.252827e+00 1.851401e+00 7.134048e-01 6.253689e+00 2.561527e+01 2.391398e+01 1.916409e+01 1.396975e+01 1.090647e+01 9.128694e+00 7.127980e+00 4.484615e+00 2.616015e+00 1.977484e+00 1.431288e+00 1.089866e+00 7.640830e-01
<GCONST> 7.831867e+01
<STREAM> 2
<NUMMIXES> 2
<MIXTURE> 1 6.377144e-01
<MEAN> 1
 4.417137e+00
<VARIANCE> 1
 4.945477e-01
<GCONST> 1.133765e+00
<MIXTURE> 2 3.622807e-01
<MEAN> 0
<VARIANCE> 0
<GCONST> 0.000000e+00
<STREAM> 3
<NUMMIXES> 2
<MIXTURE> 1 6.175005e-01
<MEAN> 1
 2.646721e-03
<VARIANCE> 1
 1.352176e-03
<GCONST> -4.768164e+00
<MIXTURE> 2 3.824949e-01
<MEAN> 0
<VARIANCE> 0
<GCONST> 0.000000e+00
<STREAM> 4
<NUMMIXES> 2
<MIXTURE> 1 6.175003e-01
<MEAN> 1
 2.039811e-03
<VARIANCE> 1
 8.940651e+14
<GCONST> 3.626468e+01
<MIXTURE> 2 3.824949e-01
<MEAN> 0
<VARIANCE> 0
<GCONST> 0.000000e+00
<TRANSP> 7
 0.000000e+00 1.000000e+00 0.000000e+00 0.000000e+00 0.000000e+00 0.000000e+00 0.000000e+00
 0.000000e+00 0.000000e+00 1.000000e+00 0.000000e+00 0.000000e+00 0.000000e+00 0.000000e+00
 0.000000e+00 0.000000e+00 0.000000e+00 1.000000e+00 0.000000e+00 0.000000e+00 0.000000e+00
 0.000000e+00 0.000000e+00 0.000000e+00 0.000000e+00 1.000000e+00 0.000000e+00 0.000000e+00
 0.000000e+00 0.000000e+00 0.000000e+00 0.000000e+00 0.000000e+00 1.000000e+00 0.000000e+00
 0.000000e+00 0.000000e+00 0.000000e+00 0.000000e+00 0.000000e+00 0.000000e+00 1.000000e+00
 0.000000e+00 0.000000e+00 0.000000e+00 0.000000e+00 0.000000e+00 0.000000e+00 0.000000e+00
<ENDHMM>
~h "e"
<BEGINHMM>
<NUMSTATES> 7
<STATE> 2
<STREAM> 1
<MEAN> 75
 -1.006122e-01 -6.903654e-02 -9.835367e-02 -6.393059e-02 -1.050049e-01 -9.456087e-02 -1.166908e-01 -8.962978e-02 -1.140493e-01 -1.146091e-01 -1.137367e-01 -7.257360e-02 -4.024162e-02 1.109425e-01 3.579131e-01 6.064932e-01 7.612691e-01 1.127601e+00 1.297555e+00 1.371989e+00 1.421898e+00 4.624739e-01 1.336945e-01 7.096842e-02 -6.115747e-02 1.741606e-02 -2.364651e-03 -2.993771e-03 3.619061e-03 1.527781e-02 5.436707e-03 -2.350591e-03 -1.294510e-03 1.127539e-02 -5.485970e-04 -2.169606e-02 -3.856413e-02 -9.190215e-02 -1.983565e-01 -2.479880e-01 -2.028394e-01 -2.588010e-01 -2.683918e-01 -1.232222e-01 -6.080769e-02 4.571645e-01 6.452664e-01 1.961753e-01 9.658463e-02 5.267204e-02 9.906353e-02 -6.029938e-02 6.239207e-02 -7.433802e-02 5.324018e-02 -3.209261e-02 4.863813e-02 -5.146815e-02 2.487087e-02 8.250666e-04 4.180573e-02 -7.712583e-03 1.152773e-01 9.592612e-02 4.232243e-03 -9.653853e-02 2.089603e-01 -1.951413e-01 -9.698943e-02 -2.768410e-02 -1.009362e+00 6.294355e-01 2.701815e-01 -6.953616e-02 1.591472e-01
<VARIANCE> 75
 1.239237e-01 9.513507e-02 8.610731e-02 6.787604e-02 5.437020e-02 5.210228e-02 4.957917e-02 4.057100e-02 3.329651e-02 3.374179e-02 3.353254e-02 1.912092e-01 3.474624e-01 9.797405e-01 2.202206e+00 3.025426e+00 3.420419e+00 4.626602e+00 4.841768e+00 4.827633e+00 4.812099e+00 1.063713e+00 3.844713e-01 2.797297e-01 1.610737e-01 4.712894e-02 2.777660e-02 2.403650e-02 2.098128e-02 1.826974e-02 1.576982e-02 1.447942e-02 1.296837e-02 1.057006e-02 9.530898e-03 5.118746e-02 8.845843e-02 2.868425e-01 6.449966e-01 1.063340e+00 1.548172e+00 2.246646e+00 2.538684e+00 3.107915e+00 3.269515e+00 1.635100e+00 1.216083e+00 2.041497e-01 9.055782e-02 8.080913e-02 1.093054e+00 9.242708e-01 7.868989e-01 6.176055e-01 4.899548e-01 4.400543e-01 4.088527e-01 3.353818e-01 2.789605e-01 2.757825e-01 4.315991e-01 9.372204e-01 1.838601e+00 4.773966e+00 9.177672e+00 1.250766e+01 1.603589e+01 2.207515e+01 2.416198e+01 2.531785e+01 1.955781e+01 4.641943e+00 3.382895e+00 1.995404e+00 1.589184e+00
<GCONST> 7.851897e+01
<STREAM> 2
<NUMMIXES> 2
<MIXTURE> 1 7.034771e-01
<MEAN> 1
 4.515049e+00
<VARIANCE> 1
 1.067357e-02
<GCONST> -2.702108e+00
<MIXTURE> 2 2.965182e-01
<MEAN> 0
<VARIANCE> 0
<GCONST> 0.000000e+00
<STREAM> 3
<NUMMIXES> 2
<MIXTURE> 1 6.773221e-01
<MEAN> 1
 1.613692e-03
<VARIANCE> 1
 3.553591e-04
<GCONST> -6.104505e+00
<MIXTURE> 2 3.226728e-01
<MEAN> 0
<VARIANCE> 0
<GCONST> 0.000000e+00
<STREAM> 4
<NUMMIXES> 2
<MIXTURE> 1 6.773216e-01
<MEAN> 1
 5.442317e-04
<VARIANCE> 1
 8.940651e+14
<GCONST> 3.626468e+01
<MIXTURE> 2 3.226731e-01
<MEAN> 0
<VARIANCE> 0
<GCONST> 0.000000e+00
<STATE> 3
<STREAM> 1
<MEAN> 75
 2.465979e-01 1.211353e-01 -3.222803e-02 -6.233651e-02 -9.058359e-02 -5.750729e-02 -8.332452e-02 -6.663895e-02 -9.819709e-02 -8.131631e-02 -1.035480e-01 -7.767200e-02 -1.118881e-01 -1.316297e-01 -1.228016e-01 -1.158850e-01 -1.042659e-01 -7.083622e-02 -8.116364e-02 -6.898228e-02 -6.523688e-02 1.301141e+00 1.793596e+00 1.893872e+00 2.066016e+00 2.548700e-01 1.401464e-01 9.327259e-02 3.257377e-02 2.444908e-05 -1.435727e-03 5.029046e-03 8.159501e-03 7.860677e-03 3.179844e-03 -2.962510e-03 1.872207e-03 2.618658e-02 6.080064e-03 -6.348302e-03 -6.288362e-03 -2.346359e-02 -1.461801e-02 -1.611358e-03 -6.558273e-03 -6.840569e-01 -9.297154e-01 -2.988917e-01 -1.361332e-01 6.305751e-01 2.633401e-01 -2.977720e-02 1.219106e-01 -1.378953e-03 6.270394e-02 -5.657611e-02 4.360557e-02 -4.697948e-02 4.872200e-02 -3.989491e-02 5.190710e-02 -5.869459e-02 1.113236e-02 3.036479e-02 -3.683704e-03 6.081176e-03 2.491492e-02 -4.620046e-02 2.136817e-02 -1.039680e-02 1.366302e+00 -8.699707e-01 -3.969138e-01 7.208678e-02 -1.605422e+00
<VARIANCE> 75
 3.947754e-01 3.219643e-01 1.697709e-01 1.462526e-01 1.270497e-01 1.026796e-01 9.066625e-02 8.123050e-02 6.286240e-02 5.942196e-02 5.559659e-02 4.345981e-02 3.735361e-02 3.960083e-02 3.883360e-02 3.550970e-02 3.652358e-02 2.394291e-02 2.099147e-02 1.893420e-02 1.907957e-02 6.158197e+00 5.970448e+00 5.799069e+00 5.314788e+00 1.974766e-01 9.302367e-02 6.067084e-02 4.339813e-02 3.093600e-02 2.795292e-02 2.515907e-02 2.194884e-02 2.066108e-02 1.851802e-02 1.691467e-02 1.577785e-02 1.176068e-02 1.077126e-02 9.629404e-03 9.891256e-03 7.792057e-03 7.228658e-03 6.808822e-03 6.984877e-03 1.601056e+00 1.549174e+00 4.271517e+00 4.568151e+00 2.124194e+00 4.225801e+00 2.270538e+00 1.693343e+00 1.349739e+00 1.207164e+00 1.021063e+00 8.722398e-01 7.190970e-01 5.827648e-01 5.192475e-01 4.599592e-01 3.515648e-01 2.905684e-01 2.981072e-01 3.235918e-01 3.192768e-01 2.942032e-01 2.224568e-01 1.773934e-01 1.589595e-01 5.695240e+00 2.899729e+01 3.212683e+01 3.432107e+01 2.489131e+01
<GCONST> 1.651751e+01
<STREAM> 2
<NUMMIXES> 2
<MIXTURE> 1 6.765835e-01
<MEAN> 1
 4.515864e+00
<VARIANCE> 1
 1.055680e-02
<GCONST> -2.713108e+00
<MIXTURE> 2 3.234112e-01
<MEAN> 0
<VARIANCE> 0
<GCONST> 0.000000e+00
<STREAM> 3
<NUMMIXES> 2
<MIXTURE> 1 6.522640e-01
<MEAN> 1
 2.480779e-03
<VARIANCE> 1
 3.553591e-04
<GCONST> -6.104505e+00
<MIXTURE> 2 3.477304e-01
<MEAN> 0
<VARIANCE> 0
<GCONST> 0.000000e+00
<STREAM> 4
<NUMMIXES> 2
<MIXTURE> 1 6.522640e-01
<MEAN> 1
 -3.064208e-05
<VARIANCE> 1
 8.940651e+14
<GCONST> 3.626468e+01
<MIXTURE> 2 3.477304e-01
<MEAN> 0
<VARIANCE> 0
<GCONST> 0.000000e+00
<STATE> 4
<STREAM> 1
<MEAN> 75
 1.683151e+00 1.749442e+00 1.836180e+00 1.017681e+00 3.352240e-01 9.836092e-02 3.008639e-02 -6.983745e-02 -5.054165e-02 -8.048889e-02 -5.931447e-02 -9.456373e-02 -6.360865e-02 -8.964027e-02 -8.426873e-02 -9.918940e-02 -9.020723e-02 -1.360894e-01 -1.099795e-01 -1.254315e-01 -9.878278e-02 -8.767805e-02 -6.897109e-02 -7.595319e-02 -5.303720e-02 -2.617105e-01 -7.713459e-02 3.657829e-01 7.458014e-01 4.556693e-01 1.509114e-01 8.463700e-02 3.989146e-02 5.187099e-03 5.034785e-03 7.807516e-03 4.114900e-03 -4.015678e-04 1.108990e-02 4.658031e-03 2.647532e-03 1.818020e-02 1.087040e-02 -4.001277e-03 -4.205914e-03 -1.958835e-02 -1.608800e-02 -5.769719e-03 -7.003494e-03 -6.514077e-01 -3.917316e-01 2.035873e-02 -9.045333e-01 1.418886e-01 4.406118e-01 1.626865e-01 -3.124121e-02 1.200424e-01 -5.227934e-02 5.398216e-02 -5.709087e-02 6.382950e-02 -5.607085e-02 3.148944e-02 -2.095525e-02 2.452542e-02 -5.389655e-02 7.266583e-02 -3.951292e-02 4.078725e-02 -1.180991e-02 7.061193e-03 -2.880662e-02 3.257310e-02 1.256419e+00
<VARIANCE> 75
 5.702053e+00 5.633343e+00 5.008667e+00 2.995757e+00 5.153857e-01 2.973622e-01 1.983739e-01 1.359534e-01 1.284216e-01 1.046391e-01 8.761039e-02 7.938673e-02 7.103411e-02 5.844211e-02 5.560333e-02 4.587401e-02 3.949061e-02 4.101557e-02 3.915577e-02 3.363775e-02 3.375940e-02 2.434909e-02 2.185698e-02 2.002747e-02 2.008590e-02 4.018067e+00 4.113218e+00 2.872490e+00 1.479316e+00 7.011240e-01 1.028503e-01 6.030364e-02 4.753228e-02 3.182837e-02 2.696136e-02 2.386682e-02 2.133666e-02 2.038209e-02 1.860502e-02 1.631953e-02 1.413654e-02 1.247944e-02 1.081255e-02 1.050438e-02 9.165263e-03 7.832822e-03 6.983412e-03 6.901212e-03 6.999064e-03 1.527894e+00 2.937613e+01 3.132788e+01 2.590189e+01 1.322103e+01 4.354382e+00 2.615678e+00 1.720555e+00 1.303324e+00 1.164845e+00 1.022585e+00 8.706049e-01 7.490825e-01 6.441712e-01 5.283110e-01 4.587355e-01 3.768681e-01 3.131002e-01 3.068846e-01 3.161171e-01 3.011648e-01 2.827874e-01 2.306674e-01 1.891385e-01 1.678642e-01 5.567182e+00
<GCONST> 1.703718e+01
<STREAM> 2
<NUMMIXES> 2
<MIXTURE> 1 6.581878e-01
<MEAN> 1
 4.518512e+00
<VARIANCE> 1
 1.055680e-02
<GCONST> -2.713108e+00
<MIXTURE> 2 3.418069e-01
<MEAN> 0
<VARIANCE> 0
<GCONST> 0.000000e+00
<STREAM> 3
<NUMMIXES> 2
<MIXTURE> 1 6.351761e-01
<MEAN> 1
 1.884893e-03
<VARIANCE> 1
 3.553591e-04
<GCONST> -6.104505e+00
<MIXTURE> 2 3.648182e-01
<MEAN> 0
<VARIANCE> 0
<GCONST> 0.000000e+00
<STREAM> 4
<NUMMIXES> 2
<MIXTURE> 1 6.351758e-01
<MEAN> 1
 1.294391e-03
<VARIANCE> 1
 8.940651e+14
<GCONST> 3.626468e+01
<MIXTURE> 2 3.648183e-01
<MEAN> 0
<VARIANCE> 0
<GCONST> 0.000000e+00
<STATE> 5
<STREAM> 1
<MEAN> 75
 -8.024494e-02 -6.816649e-02 8.194697e-02 1.125559e+00 1.454134e+00 1.424364e+00 1.405231e+00 1.251806e+00 7.832536e-01 1.912869e-01 1.039960e-01 -3.040999e-02 -3.038830e-02 -8.205704e-02 -5.620023e-02 -9.168923e-02 -6.472792e-02 -7.732895e-02 -8.173498e-02 -1.008065e-01 -8.884012e-02 -1.197830e-01 -1.117031e-01 -1.172569e-01 -9.871774e-02 -9.302191e-03 -8.056881e-02 -5.969473e-01 -6.844748e-01 -1.516793e-01 2.064482e-02 8.401499e-02 3.090227e-01 5.292850e-01 3.390008e-01 1.115180e-01 6.586134e-02 2.441983e-02 1.358852e-02 5.755243e-03 5.863791e-03 -4.292242e-03 9.469650e-03 1.182466e-02 3.604035e-03 9.747565e-03 1.064575e-02 1.375981e-03 -4.073984e-03 -1.473004e-02 4.325479e-03 1.364495e-01 8.959453e-01 -7.129279e-01 -3.589775e-01 1.446888e-02 -1.384704e-01 -3.141113e-01 -1.287851e-01 4.972842e-01 -4.529785e-02 1.351481e-01 -5.218846e-02 7.645833e-02 -5.990402e-02 5.960783e-02 -3.667632e-02 7.213745e-03 -1.749993e-02 3.322330e-02 -4.291743e-02 4.005362e-02 -1.509118e-02 2.591772e-02 -4.137289e-03
<VARIANCE> 75
 2.452106e-02 2.377339e-02 7.454407e-01 5.427840e+00 5.197312e+00 5.047693e+00 4.438454e+00 4.348697e+00 2.233234e+00 4.114238e-01 2.256313e-01 1.783118e-01 1.242843e-01 1.170712e-01 9.534298e-02 8.592573e-02 7.729702e-02 6.460012e-02 6.063043e-02 5.427333e-02 4.356382e-02 4.415971e-02 3.745081e-02 3.639793e-02 3.381191e-02 7.635506e-03 1.907625e-01 1.398639e+00 1.609542e+00 3.414585e+00 3.341818e+00 3.141815e+00 2.072073e+00 1.140368e+00 5.056045e-01 7.199609e-02 4.980208e-02 3.900789e-02 2.911394e-02 2.525608e-02 2.298601e-02 2.030833e-02 2.075324e-02 1.742065e-02 1.592404e-02 1.335234e-02 1.156419e-02 1.089715e-02 9.753646e-03 8.791978e-03 2.169500e-01 8.389876e-01 7.542549e+00 2.321678e+01 2.523165e+01 2.679193e+01 2.449771e+01 2.044211e+01 1.029371e+01 3.304781e+00 2.025581e+00 1.475931e+00 1.226358e+00 1.073882e+00 9.203535e-01 7.847076e-01 6.848425e-01 5.816730e-01 4.924472e-01 4.407120e-01 3.803966e-01 3.461687e-01 3.224094e-01 3.002762e-01 2.804886e-01
<GCONST> 5.066875e+01
<STREAM> 2
<NUMMIXES> 2
<MIXTURE> 1 6.504989e-01
<MEAN> 1
 4.514696e+00
<VARIANCE> 1
 1.055680e-02
<GCONST> -2.713108e+00
<MIXTURE> 2 3.494983e-01
<MEAN> 0
<VARIANCE> 0
<GCONST> 0.000000e+00
<STREAM> 3
<NUMMIXES> 2
<MIXTURE> 1 6.287508e-01
<MEAN> 1
 2.575307e-03
<VARIANCE> 1
 3.553591e-04
<GCONST> -6.104505e+00
<MIXTURE> 2 3.712460e-01
<MEAN> 0
<VARIANCE> 0
<GCONST> 0.000000e+00
<STREAM> 4
<NUMMIXES> 2
<MIXTURE> 1 6.287503e-01
<MEAN> 1
 6.844784e-05
<VARIANCE> 1
 8.940651e+14
<GCONST> 3.626468e+01
<MIXTURE> 2 3.712465e-01
<MEAN> 0
<VARIANCE> 0
<GCONST> 0.000000e+00
<STATE> 6
<STREAM> 1
<MEAN> 75
 -9.312075e-02 -9.455270e-02 -9.390592e-02 1.461183e-01 1.162985e+00 3.803875e-01 2.053467e-01 2.487315e-01 7.236079e-01 9.438410e-01 5.604343e-01 6.737332e-01 4.806982e-01 5.332087e-01 3.526818e-01 3.043827e-01 1.713392e-01 2.420297e-01 1.165491e-02 -9.123709e-03 -7.541543e-02 -5.390669e-02 -9.151195e-02 -5.705685e-02 -9.742370e-02 8.351001e-03 1.537370e-03 -1.167008e-01 -6.293721e-01 -1.177821e-01 4.749021e-01 6.346864e-02 -2.598875e-01 -3.528597e-01 7.802990e-02 1.310499e-01 3.906399e-02 6.859437e-02 6.289370e-02 1.133834e-01 9.424985e-02 3.225764e-02 8.142642e-02 1.277456e-01 4.772743e-02 2.398401e-02 9.373594e-03 1.603632e-03 1.568680e-03 1.033531e-02 1.255057e-02 4.106686e-04 2.383504e-01 7.856344e-01 -1.795639e+00 6.011810e-01 2.161530e-01 4.337568e-01 -2.461386e-01 -6.078414e-01 4.905800e-01 -3.025037e-01 2.445603e-01 -2.301924e-01 1.286059e-01 -8.467534e-02 2.028490e-01 -2.993130e-01 2.033780e-01 -4.207060e-02 9.113087e-02 -6.300473e-02 7.524405e-02 -7.745455e-02 5.882532e-02
<VARIANCE> 75
 4.862724e-02 3.488196e-02 3.832783e-02 1.146566e+00 5.639865e+00 1.059692e+00 1.217620e+00 9.038656e-01 4.225385e+00 3.538592e+00 2.769842e+00 2.577027e+00 2.469198e+00 2.029262e+00 1.940740e+00 1.308214e+00 1.247197e+00 1.216548e+00 2.936658e-01 1.228330e-01 1.052146e-01 7.363979e-02 7.240481e-02 5.524485e-02 5.247265e-02 1.094942e-02 1.136470e-02 2.894337e-01 1.448437e+00 5.658000e-01 1.736523e+00 4.087673e-01 1.473096e+00 1.241352e+00 1.931205e+00 1.747347e+00 1.400517e+00 1.310063e+00 1.146196e+00 8.729646e-01 7.819003e-01 6.156485e-01 3.361361e-01 2.868746e-01 5.354247e-02 2.492036e-02 2.219589e-02 1.771217e-02 1.577556e-02 1.341120e-02 3.854212e-01 3.155783e-01 1.293141e+00 9.088550e+00 1.569263e+01 2.885755e+00 5.957561e+00 7.444153e+00 1.716719e+01 1.475414e+01 1.267195e+01 1.176535e+01 1.060431e+01 9.305591e+00 7.745744e+00 5.925371e+00 5.716433e+00 4.596481e+00 1.583240e+00 1.089937e+00 8.025675e-01 6.803999e-01 6.080484e-01 5.352288e-01 4.791175e-01
<GCONST> 1.151322e+02
<STREAM> 2
<NUMMIXES> 2
<MIXTURE> 1 6.501104e-01
<MEAN> 1
 4.530824e+00
<VARIANCE> 1
 1.055680e-02
<GCONST> -2.713108e+00
<MIXTURE> 2 3.498891e-01
<MEAN> 0
<VARIANCE> 0
<GCONST> 0.000000e+00
<STREAM> 3
<NUMMIXES> 2
<MIXTURE> 1 6.224973e-01
<MEAN> 1
 2.981782e-03
<VARIANCE> 1
 3.553591e-04
<GCONST> -6.104505e+00
<MIXTURE> 2 3.775026e-01
<MEAN> 0
<VARIANCE> 0
<GCONST> 0.000000e+00
<STREAM> 4
<NUMMIXES> 2
<MIXTURE> 1 6.224978e-01
<MEAN> 1
 -2.461547e+07
<VARIANCE> 1
 4.917036e+17
<GCONST> 4.257453e+01
<MIXTURE> 2 3.775021e-01
<MEAN> 0
<VARIANCE> 0
<GCONST> 0.000000e+00
<TRANSP> 7
 0.000000e+00 1.000000e+00 0.000000e+00 0.000000e+00 0.000000e+00 0.000000e+00 0.000000e+00
 0.000000e+00 0.000000e+00 1.000000e+00 0.000000e+00 0.000000e+00 0.000000e+00 0.000000e+00
 0.000000e+00 0.000000e+00 0.000000e+00 1.000000e+00 0.000000e+00 0.000000e+00 0.000000e+00
 0.000000e+00 0.000000e+00 0.000000e+00 0.000000e+00 1.000000e+00 0.000000e+00 0.000000e+00
 0.000000e+00 0.000000e+00 0.000000e+00 0.000000e+00 0.000000e+00 1.000000e+00 0.000000e+00
 0.000000e+00 0.000000e+00 0.000000e+00 0.000000e+00 0.000000e+00 0.000000e+00 1.000000e+00
 0.000000e+00 0.000000e+00 0.000000e+00 0.000000e+00 0.000000e+00 0.000000e+00 0.000000e+00
<ENDHMM>
~h "f"
<BEGINHMM>
<NUMSTATES> 7
<STATE> 2
<STREAM> 1
<MEAN> 75
 5.208116e-01 6.469913e-02 -2.007539e-02 -3.522083e-02 -3.940927e-02 -5.759425e-02 -7.167538e-02 -7.671044e-02 -6.959163e-02 -6.895108e-02 -8.483664e-02 -7.512499e-02 -6.262936e-02 2.398100e-03 1.125586e-01 1.971364e-01 3.187712e-01 5.286695e-01 8.566310e-01 1.144239e+00 1.254851e+00 1.398178e+00 3.910431e-01 8.883440e-02 7.715677e-02 1.429012e-02 2.669556e-01 4.789304e-02 9.761747e-03 1.021320e-02 1.676532e-02 1.023027e-02 3.605420e-04 -3.298949e-03 7.666975e-03 4.378062e-03 -1.314458e-02 -4.084229e-02 -8.703847e-02 -9.939969e-02 -1.050174e-01 -1.656439e-01 -2.670080e-01 -3.039330e-01 -1.975506e-01 -1.244062e-01 4.355568e-01 6.571102e-01 1.570956e-01 -6.528023e-03 -8.811727e-01 3.679169e-01 7.038301e-02 8.611912e-03 -1.175288e-02 4.584646e-03 8.365176e-03 1.352696e-02 -3.743325e-03 -1.488527e-02 2.484483e-02 5.511315e-03 5.063428e-02 4.663368e-02 -1.906901e-02 3.622143e-02 8.373661e-02 1.147136e-01 -3.581753e-02 -1.752879e-01 3.018211e-02 -1.152908e+00 7.058377e-01 2.982660e-01 2.927103e-02
<VARIANCE> 75
 2.777416e+00 4.883287e-01 1.151764e-01 1.427599e-01 8.502427e-02 7.832859e-02 6.219682e-02 5.890148e-02 5.561948e-02 4.577087e-02 4.157969e-02 7.449424e-02 1.599542e-01 4.569347e-01 8.878071e-01 1.314297e+00 1.743947e+00 2.640972e+00 3.908552e+00 4.556652e+00 4.574194e+00 4.884551e+00 8.734615e-01 2.267895e-01 2.157191e-01 3.242811e-01 6.698403e-01 8.599688e-02 2.977678e-02 3.193435e-02 2.096456e-02 1.887380e-02 1.438307e-02 1.355357e-02 1.124505e-02 1.879209e-02 3.882980e-02 1.225046e-01 2.545443e-01 4.408754e-01 6.758774e-01 1.038604e+00 1.572073e+00 2.129361e+00 2.660949e+00 3.142049e+00 1.495625e+00 1.215662e+00 1.737643e-01 2.695100e-01 8.742907e+00 1.877990e+00 1.508524e+00 1.037880e+00 8.259694e-01 6.330860e-01 5.402091e-01 5.086445e-01 4.721235e-01 4.000266e-01 3.711297e-01 5.103636e-01 1.009785e+00 2.262054e+00 3.892237e+00 5.667680e+00 8.010149e+00 1.270377e+01 1.866623e+01 2.233239e+01 2.409509e+01 1.973159e+01 4.041059e+00 2.645468e+00 2.295121e+00
<GCONST> 9.268150e+01
<STREAM> 2
<NUMMIXES> 2
<MIXTURE> 1 6.125654e-01
<MEAN> 1
 4.515864e+00
<VARIANCE> 1
 1.055680e-02
<GCONST> -2.713108e+00
<MIXTURE> 2 3.874288e-01
<MEAN> 0
<VARIANCE> 0
<GCONST> 0.000000e+00
<STREAM> 3
<NUMMIXES> 2
<MIXTURE> 1 5.910676e-01
<MEAN> 1
 2.495766e-03
<VARIANCE> 1
 3.553591e-04
<GCONST> -6.104505e+00
<MIXTURE> 2 4.089266e-01
<MEAN> 0
<VARIANCE> 0
<GCONST> 0.000000e+00
<STREAM> 4
<NUMMIXES> 2
<MIXTURE> 1 5.910681e-01
<MEAN> 1
 9.329021e-04
<VARIANCE> 1
 8.940651e+14
<GCONST> 3.626468e+01
<MIXTURE> 2 4.089256e-01
<MEAN> 0
<VARIANCE> 0
<GCONST> 0.000000e+00
<STATE> 3
<STREAM> 1
<MEAN> 75
 1.459664e+00 9.150674e-01 2.251802e-01 1.167837e-01 -2.110205e-02 -9.239887e-03 -5.885491e-02 -4.633093e-02 -8.589564e-02 -3.873768e-02 -6.430224e-02 -5.583259e-02 -7.834889e-02 -5.803826e-02 -9.036796e-02 -7.670534e-02 -9.985442e-02 -8.228367e-02 -9.036227e-02 -5.971879e-02 -6.840278e-02 -3.306263e-02 9.354128e-01 1.230995e+00 1.243477e+00 2.244284e-01 6.203793e-01 4.010329e-01 1.220216e-01 6.434869e-02 1.861179e-02 1.739692e-02 1.251947e-02 -3.847173e-03 -1.078164e-02 9.292748e-03 8.124520e-03 2.974023e-03 6.450703e-03 1.007304e-02 4.913661e-03 1.628324e-03 -4.735838e-03 -9.257009e-03 -9.942063e-03 -1.205895e-02 -5.009774e-01 -6.308885e-01 -1.570440e-01 -7.009180e-02 -6.397365e-01 -1.384241e-01 5.851629e-01 -3.089316e-02 1.462958e-01 -6.299851e-02 6.319983e-02 -5.583250e-02 8.460421e-02 -7.538319e-02 3.326989e-02 -2.920807e-02 4.294122e-02 -5.537036e-02 4.583638e-02 -3.603337e-02 4.078820e-02 -2.918637e-02 3.629506e-02 -3.613367e-02 4.371894e-02 9.318345e-01 -6.700292e-01 -2.800332e-01 1.051986e-01
<VARIANCE> 75
 5.009584e+00 2.827042e+00 5.488391e-01 2.313799e-01 1.984565e-01 1.334092e-01 1.246698e-01 9.640310e-02 8.910155e-02 8.009735e-02 5.963401e-02 5.295631e-02 5.001291e-02 4.677115e-02 4.242168e-02 4.007398e-02 4.035084e-02 3.747632e-02 3.192709e-02 2.734234e-02 2.304277e-02 3.837835e-02 4.635603e+00 4.759921e+00 4.742943e+00 2.372742e+00 1.435192e+00 6.897435e-01 1.164088e-01 5.811587e-02 4.741683e-02 3.117753e-02 2.597063e-02 2.086950e-02 1.863544e-02 1.653386e-02 1.373893e-02 1.291296e-02 1.139470e-02 1.022881e-02 9.971150e-03 8.870069e-03 8.589623e-03 7.164607e-03 6.984877e-03 9.534709e-03 1.192213e+00 1.237554e+00 2.969393e+00 3.109159e+00 2.411694e+01 1.210294e+01 3.379523e+00 2.200684e+00 1.589204e+00 1.312404e+00 1.114301e+00 9.237942e-01 8.436483e-01 7.252721e-01 5.574641e-01 4.515313e-01 4.100266e-01 3.794456e-01 3.461798e-01 3.261153e-01 3.230412e-01 3.103837e-01 2.731093e-01 2.286557e-01 2.163312e-01 4.364415e+00 2.062889e+01 2.302317e+01 2.426613e+01
<GCONST> 2.808503e+01
<STREAM> 2
<NUMMIXES> 2
<MIXTURE> 1 6.078787e-01
<MEAN> 1
 4.516144e+00
<VARIANCE> 1
 1.055680e-02
<GCONST> -2.713108e+00
<MIXTURE> 2 3.921157e-01
<MEAN> 0
<VARIANCE> 0
<GCONST> 0.000000e+00
<STREAM> 3
<NUMMIXES> 2
<MIXTURE> 1 5.812982e-01
<MEAN> 1
 2.790029e-03
<VARIANCE> 1
 3.553591e-04
<GCONST> -6.104505e+00
<MIXTURE> 2 4.186960e-01
<MEAN> 0
<VARIANCE> 0
<GCONST> 0.000000e+00
<STREAM> 4
<NUMMIXES> 2
<MIXTURE> 1 5.812990e-01
<MEAN> 1
 -1.292284e-04
<VARIANCE> 1
 8.940651e+14
<GCONST> 3.626468e+01
<MIXTURE> 2 4.186956e-01
<MEAN> 0
<VARIANCE> 0
<GCONST> 0.000000e+00
<STATE> 4
<STREAM> 1
<MEAN> 75
 -4.023512e-02 8.879646e-01 1.574896e+00 1.487348e+00 1.542380e+00 1.474098e+00 4.327176e-01 1.151020e-01 8.902756e-02 -6.872846e-02 -3.077620e-02 -8.226050e-02 -4.586165e-02 -8.811818e-02 -3.573942e-02 -7.475491e-02 -5.157153e-02 -8.193938e-02 -5.222781e-02 -9.855510e-02 -8.601587e-02 -1.013304e-01 -8.002789e-02 -8.942872e-02 -5.219921e-02 -4.794107e-01 -8.040489e-01 -2.944102e-01 1.843020e-02 3.539469e-03 5.537801e-01 6.798822e-01 1.739067e-01 9.213996e-02 5.927749e-02 6.617125e-03 7.723760e-03 1.855756e-03 -4.050184e-03 -6.585013e-03 6.331049e-03 1.247228e-03 -2.719950e-04 7.813105e-03 1.710027e-02 6.020215e-04 -3.615325e-03 -6.451871e-03 -1.593998e-02 -8.829164e-03 8.940325e-01 -2.498475e-01 -7.748890e-01 1.510526e-01 -1.255733e-01 -9.732816e-01 7.233669e-01 2.938874e-01 -1.239270e-01 1.970044e-01 -9.033512e-02 8.806097e-02 -7.938675e-02 9.586777e-02 -9.237989e-02 6.455977e-02 -5.368346e-02 6.075802e-02 -7.821880e-02 5.691926e-02 -2.569548e-02 3.602230e-02 -3.164222e-02 5.030630e-02 -6.117607e-02
<VARIANCE> 75
 2.070941e-02 4.506662e+00 5.781819e+00 5.155867e+00 4.918135e+00 4.817394e+00 8.766131e-01 2.683170e-01 2.476210e-01 1.534015e-01 1.326663e-01 1.099050e-01 9.102834e-02 8.372398e-02 7.227903e-02 5.472211e-02 5.078841e-02 5.122396e-02 4.378440e-02 3.973478e-02 4.213634e-02 3.605802e-02 3.461122e-02 2.975931e-02 2.361758e-02 1.147778e+00 1.492598e+00 3.125899e+00 3.857010e+00 3.522571e+00 1.656907e+00 1.221544e+00 1.765712e-01 7.063834e-02 5.891038e-02 4.010217e-02 3.035717e-02 2.305860e-02 1.998109e-02 1.749337e-02 1.555560e-02 1.407892e-02 1.306629e-02 1.177513e-02 9.574709e-03 8.900912e-03 8.206270e-03 7.736261e-03 6.999064e-03 6.868394e-03 4.197787e+00 2.222107e+01 2.879669e+01 2.790967e+01 2.812151e+01 2.081007e+01 4.385519e+00 3.010628e+00 1.850984e+00 1.470570e+00 1.234110e+00 1.042333e+00 8.918588e-01 7.967021e-01 6.649909e-01 5.152828e-01 4.323238e-01 3.955008e-01 3.439792e-01 3.204498e-01 3.355631e-01 3.242403e-01 2.992016e-01 2.586439e-01 2.104823e-01
<GCONST> 3.611848e+01
<STREAM> 2
<NUMMIXES> 2
<MIXTURE> 1 6.268607e-01
<MEAN> 1
 4.515817e+00
<VARIANCE> 1
 1.065900e-02
<GCONST> -2.703474e+00
<MIXTURE> 2 3.731328e-01
<MEAN> 0
<VARIANCE> 0
<GCONST> 0.000000e+00
<STREAM> 3
<NUMMIXES> 2
<MIXTURE> 1 5.983541e-01
<MEAN> 1
 3.642897e-03
<VARIANCE> 1
 4.071238e-04
<GCONST> -5.968516e+00
<MIXTURE> 2 4.016396e-01
<MEAN> 0
<VARIANCE> 0
<GCONST> 0.000000e+00
<STREAM> 4
<NUMMIXES> 2
<MIXTURE> 1 5.983540e-01
<MEAN> 1
 -6.630873e-05
<VARIANCE> 1
 8.940651e+14
<GCONST> 3.626468e+01
<MIXTURE> 2 4.016390e-01
<MEAN> 0
<VARIANCE> 0
<GCONST> 0.000000e+00
<STATE> 5
<STREAM> 1
<MEAN> 75
 -8.841015e-02 -9.422632e-02 -5.344214e-02 2.376685e-01 4.076812e-02 4.982289e-02 1.434309e+00 1.764520e+00 1.617485e+00 1.636510e+00 4.841259e-01 1.517047e-01 1.073058e-01 -3.981232e-02 -4.760648e-02 -7.875749e-02 -4.697234e-02 -8.159645e-02 -5.073944e-02 -8.287422e-02 -5.652873e-02 -8.356649e-02 -5.300172e-02 -7.971320e-02 -9.710642e-02 -1.571894e-03 -1.859379e-02 -1.687507e-01 -4.843931e-02 9.324440e-02 -6.973512e-01 -8.547511e-01 -8.473748e-02 6.558622e-02 5.647278e-01 7.395367e-01 1.906427e-01 1.001860e-01 7.941311e-02 2.009711e-02 -2.980513e-03 -1.672171e-04 -6.811800e-04 -1.806566e-03 1.657992e-03 4.181571e-04 -1.038273e-03 -2.210412e-03 2.170286e-02 9.099022e-03 -1.651522e-02 4.741171e-02 2.483613e-01 -4.838123e-01 2.064745e-01 1.372011e+00 -1.058474e+00 -4.858373e-01 1.722062e-01 -1.173781e+00 8.130098e-01 2.870200e-01 -9.817575e-02 1.400998e-01 -2.056579e-02 6.693131e-02 -7.083713e-02 6.626219e-02 -6.096058e-02 5.851323e-02 -5.576101e-02 5.787789e-02 -5.485401e-02 8.513129e-03 1.598394e-02
<VARIANCE> 75
 3.577282e-02 3.165806e-02 2.420720e-02 1.681874e+00 2.572774e-01 5.182598e-01 6.012718e+00 5.882366e+00 5.174094e+00 4.929427e+00 9.385276e-01 2.843444e-01 2.808682e-01 1.565138e-01 1.276093e-01 1.197656e-01 9.830274e-02 8.296200e-02 7.480214e-02 6.205784e-02 5.432695e-02 5.431322e-02 4.315545e-02 3.674971e-02 4.305197e-02 7.862431e-03 7.173602e-03 4.304642e-01 6.511453e-02 5.536790e-01 1.647063e+00 1.719608e+00 3.999916e+00 4.064160e+00 1.756377e+00 1.265615e+00 1.878221e-01 7.929835e-02 6.260141e-02 4.124719e-02 2.877849e-02 2.448426e-02 2.186998e-02 1.839172e-02 1.711324e-02 1.545390e-02 1.401933e-02 1.268749e-02 9.724195e-03 8.666454e-03 3.214713e-01 2.714134e-01 1.762060e+00 4.772057e+00 1.046346e+00 7.469472e+00 2.950969e+01 3.155058e+01 2.979885e+01 2.224281e+01 4.551341e+00 3.270185e+00 2.024828e+00 1.480877e+00 1.181099e+00 1.113347e+00 9.575305e-01 7.922453e-01 6.662222e-01 5.471964e-01 4.692629e-01 4.256358e-01 3.405189e-01 3.086237e-01 3.424131e-01
<GCONST> 5.053472e+01
<STREAM> 2
<NUMMIXES> 2
<MIXTURE> 1 6.462469e-01
<MEAN> 1
 4.520945e+00
<VARIANCE> 1
 1.079064e-02
<GCONST> -2.691199e+00
<MIXTURE> 2 3.537494e-01
<MEAN> 0
<VARIANCE> 0
<GCONST> 0.000000e+00
<STREAM> 3
<NUMMIXES> 2
<MIXTURE> 1 6.187356e-01
<MEAN> 1
 2.700068e-03
<VARIANCE> 1
 3.553591e-04
<GCONST> -6.104505e+00
<MIXTURE> 2 3.812604e-01
<MEAN> 0
<VARIANCE> 0
<GCONST> 0.000000e+00
<STREAM> 4
<NUMMIXES> 2
<MIXTURE> 1 6.187351e-01
<MEAN> 1
 1.370583e-06
<VARIANCE> 1
 8.940651e+14
<GCONST> 3.626468e+01
<MIXTURE> 2 3.812604e-01
<MEAN> 0
<VARIANCE> 0
<GCONST> 0.000000e+00
<STATE> 6
<STREAM> 1
<MEAN> 75
 -1.029833e-01 -4.789831e-02 -1.368118e-01 -5.959575e-02 3.597264e-01 8.911079e-02 6.460766e-02 8.171198e-02 2.712457e-01 1.504957e-01 1.647897e+00 1.616270e+00 1.053605e+00 9.160844e-01 4.368663e-01 3.062786e-01 5.215388e-02 1.485293e-01 -9.140678e-02 4.705809e-03 -1.002524e-01 -2.213580e-02 -1.284071e-01 -2.882484e-02 -9.370786e-02 4.439933e-03 1.470177e-02 7.676185e-03 -2.499474e-01 -7.424232e-02 1.481809e-01 3.184557e-03 -1.058904e-01 -3.540895e-02 -6.938335e-01 -7.350318e-01 2.979372e-01 3.501089e-01 3.145236e-01 3.023458e-01 1.954280e-01 7.380234e-02 7.926674e-02 7.153124e-02 1.544026e-02 9.568901e-03 1.742556e-02 -3.547341e-03 -1.018842e-02 1.525288e-04 1.243729e-01 -1.399076e-01 1.653513e-01 3.474500e-01 -6.792460e-01 2.443950e-01 4.013851e-02 1.760066e-01 -3.143286e-01 1.620943e+00 -1.531135e+00 -5.419897e-01 4.274075e-01 -3.395481e-01 3.547029e-01 -1.225855e-01 3.479791e-01 -3.325723e-01 3.321425e-01 -1.937026e-01 1.889246e-01 -1.851836e-01 1.991173e-01 -1.593423e-01 1.205709e-01
<VARIANCE> 75
 4.196564e-02 3.796978e-02 3.778426e-02 4.132867e-02 2.526418e+00 3.858604e-01 7.701681e-01 3.245406e-01 1.933376e+00 5.098965e-01 7.013284e+00 4.986372e+00 4.271469e+00 2.623958e+00 1.986660e+00 8.845395e-01 7.820905e-01 6.743128e-01 2.907948e-01 1.500443e-01 1.085928e-01 8.269512e-02 6.864470e-02 6.335029e-02 5.031075e-02 1.165825e-02 9.979582e-03 9.666590e-03 6.363810e-01 1.042349e-01 8.255235e-01 1.333772e-01 6.991158e-01 2.001779e-01 2.576765e+00 1.529790e+00 3.689264e+00 2.468657e+00 1.650422e+00 9.223159e-01 6.430677e-01 3.821160e-01 2.306177e-01 1.796711e-01 7.094415e-02 3.355361e-02 2.576992e-02 2.350474e-02 2.278567e-02 1.939930e-02 3.518820e-01 3.016213e-01 3.076302e-01 2.670867e+00 7.315614e+00 1.694087e+00 3.136307e+00 2.836574e+00 6.131483e+00 7.968972e+00 3.213125e+01 2.549701e+01 1.997972e+01 1.310988e+01 8.248393e+00 4.677067e+00 3.794894e+00 2.920746e+00 1.494285e+00 1.189768e+00 9.478154e-01 7.459348e-01 5.881846e-01 5.185490e-01 4.459521e-01
<GCONST> 9.351040e+01
<STREAM> 2
<NUMMIXES> 2
<MIXTURE> 1 6.686713e-01
<MEAN> 1
 4.407337e+00
<VARIANCE> 1
 4.961216e-01
<GCONST> 1.136943e+00
<MIXTURE> 2 3.313268e-01
<MEAN> 0
<VARIANCE> 0
<GCONST> 0.000000e+00
<STREAM> 3
<NUMMIXES> 2
<MIXTURE> 1 6.436047e-01
<MEAN> 1
 -1.388676e-04
<VARIANCE> 1
 1.688332e-03
<GCONST> -4.546137e+00
<MIXTURE> 2 3.563933e-01
<MEAN> 0
<VARIANCE> 0
<GCONST> 0.000000e+00
<STREAM> 4
<NUMMIXES> 2
<MIXTURE> 1 6.436053e-01
<MEAN> 1
 5.900245e-03
<VARIANCE> 1
 8.940651e+14
<GCONST> 3.626468e+01
<MIXTURE> 2 3.563925e-01
<MEAN> 0
<VARIANCE> 0
<GCONST> 0.000000e+00
<TRANSP> 7
 0.000000e+00 1.000000e+00 0.000000e+00 0.000000e+00 0.000000e+00 0.000000e+00 0.000000e+00
 0.000000e+00 0.000000e+00 1.000000e+00 0.000000e+00 0.000000e+00 0.000000e+00 0.000000e+00
 0.000000e+00 0.000000e+00 0.000000e+00 1.000000e+00 0.000000e+00 0.000000e+00 0.000000e+00
 0.000000e+00 0.000000e+00 0.000000e+00 0.000000e+00 1.000000e+00 0.000000e+00 0.000000e+00
 0.000000e+00 0.000000e+00 0.000000e+00 0.000000e+00 0.000000e+00 1.000000e+00 0.000000e+00
 0.000000e+00 0.000000e+00 0.000000e+00 0.000000e+00 0.000000e+00 0.000000e+00 1.000000e+00
 0.000000e+00 0.000000e+00 0.000000e+00 0.000000e+00 0.000000e+00 0.000000e+00 0.000000e+00
<ENDHMM>
~h "g"
<BEGINHMM>
<NUMSTATES> 7
<STATE> 2
<STREAM> 1
<MEAN> 75
 -9.399713e-02 -1.262038e-01 -1.045393e-01 -1.263636e-01 -9.645301e-02 -1.038529e-01 -1.269315e-02 4.310623e-01 7.536927e-01 8.894739e-01 1.039699e+00 1.063455e+00 1.140372e+00 1.372766e+00 6.232347e-01 1.573336e-01 1.264272e-01 1.278541e-01 3.888157e-02 -9.635706e-02 -3.866637e-02 -1.134955e-01 -6.244610e-02 -1.111846e-01 -8.808112e-02 -4.612963e-03 7.464499e-03 -6.649470e-04 -4.973445e-03 -1.098445e-02 -4.159200e-02 -2.707909e-01 -3.851528e-01 -2.313492e-01 -1.474265e-01 -9.055488e-02 -5.727879e-02 -1.587869e-01 2.593105e-01 6.102180e-01 2.517887e-01 1.812788e-02 4.546314e-02 1.148789e-01 3.980825e-02 1.039079e-02 1.257296e-02 -7.886230e-05 1.403576e-02 1.214286e-02 -7.713741e-02 5.526441e-02 -4.228045e-02 4.994502e-02 -4.057535e-02 9.855931e-02 3.578644e-01 -1.202726e-01 -1.805698e-01 1.579569e-02 -1.267686e-01 5.631424e-02 1.445548e-01 -9.869529e-01 2.876932e-01 4.321126e-01 3.040058e-02 -8.632829e-02 -5.088870e-02 1.912711e-01 -1.253829e-01 1.233559e-01 -1.028297e-01 7.521252e-02 -7.014564e-02
<VARIANCE> 75
 4.225194e-02 3.734193e-02 3.408919e-02 3.210723e-02 3.051464e-02 3.782496e-02 3.519067e-01 2.709507e+00 3.534873e+00 3.890709e+00 3.896490e+00 3.965197e+00 3.972222e+00 4.768254e+00 1.637353e+00 4.869643e-01 3.905638e-01 1.094817e+00 3.091902e-01 1.213676e-01 1.111065e-01 7.688167e-02 6.641078e-02 5.162209e-02 4.818054e-02 1.321245e-02 1.122978e-02 1.001171e-02 8.750679e-03 1.151483e-02 9.266286e-02 6.922547e-01 1.013348e+00 1.865961e+00 2.206195e+00 2.373330e+00 2.489328e+00 2.838383e+00 1.627807e+00 1.252257e+00 3.762241e-01 3.686612e-01 1.419479e-01 2.633354e-01 5.422815e-02 2.936280e-02 2.718984e-02 2.054575e-02 1.783875e-02 1.522618e-02 3.579913e-01 3.089091e-01 2.869780e-01 2.749519e-01 2.736014e-01 5.604933e-01 3.571061e+00 1.123040e+01 1.466822e+01 1.683093e+01 1.791112e+01 1.889615e+01 2.076743e+01 1.882021e+01 6.137119e+00 3.392886e+00 3.219888e+00 3.974570e+00 1.352659e+00 1.187619e+00 8.723473e-01 7.016007e-01 5.525381e-01 4.487719e-01 4.077183e-01
<GCONST> 7.806821e+01
<STREAM> 2
<NUMMIXES> 2
<MIXTURE> 1 7.338252e-01
<MEAN> 1
 4.532287e+00
<VARIANCE> 1
 1.055680e-02
<GCONST> -2.713108e+00
<MIXTURE> 2 2.661728e-01
<MEAN> 0
<VARIANCE> 0
<GCONST> 0.000000e+00
<STREAM> 3
<NUMMIXES> 2
<MIXTURE> 1 7.046902e-01
<MEAN> 1
 1.558969e-03
<VARIANCE> 1
 3.553591e-04
<GCONST> -6.104505e+00
<MIXTURE> 2 2.953068e-01
<MEAN> 0
<VARIANCE> 0
<GCONST> 0.000000e+00
<STREAM> 4
<NUMMIXES> 2
<MIXTURE> 1 7.046901e-01
<MEAN> 1
 7.296661e-04
<VARIANCE> 1
 8.940651e+14
<GCONST> 3.626468e+01
<MIXTURE> 2 2.953079e-01
<MEAN> 0
<VARIANCE> 0
<GCONST> 0.000000e+00
<STATE> 3
<STREAM> 1
<MEAN> 75
