~o
<STREAMINFO> 4 75 1 1 1
<MSDINFO> 4 0 1 1 1
<VECSIZE> 78<NULLD><USER><DIAGC>
~v "varFloor1"
<VARIANCE> 75
 1.347604e-02 1.339857e-02 1.346607e-02 1.336601e-02 1.341689e-02 1.333729e-02 1.337443e-02 1.327636e-02 1.335509e-02 1.324388e-02 1.328626e-02 1.320575e-02 1.325447e-02 1.315629e-02 1.325667e-02 1.314171e-02 1.325544e-02 1.327438e-02 1.341556e-02 1.338155e-02 1.354097e-02 1.345564e-02 1.355257e-02 1.348556e-02 1.355950e-02 6.832807e-03 6.945695e-03 6.822265e-03 6.900684e-03 6.830789e-03 6.891221e-03 6.773313e-03 6.898451e-03 6.759438e-03 6.845046e-03 6.764330e-03 6.829939e-03 6.711788e-03 6.844284e-03 6.705960e-03 6.808664e-03 6.742946e-03 6.877687e-03 6.808822e-03 6.984877e-03 6.864380e-03 6.983412e-03 6.901212e-03 6.999064e-03 6.868394e-03 5.459445e-02 5.442008e-02 5.440060e-02 5.423440e-02 5.422050e-02 5.397808e-02 5.394557e-02 5.371171e-02 5.371838e-02 5.358411e-02 5.353227e-02 5.333412e-02 5.338947e-02 5.325401e-02 5.330373e-02 5.322644e-02 5.345083e-02 5.378198e-02 5.420029e-02 5.421765e-02 5.437267e-02 5.438789e-02 5.444149e-02 5.432095e-02 5.434040e-02
~v "varFloor2"
<VARIANCE> 1
 1.055680e-02
~v "varFloor3"
<VARIANCE> 1
 3.553591e-04
~v "varFloor4"
<VARIANCE> 1
 8.940651e+14
