~o
<STREAMINFO> 4 75 1 1 1
<MSDINFO> 4 0 1 1 1
<VECSIZE> 78<NULLD><USER><DIAGC>
~h "#"
<BEGINHMM>
<NUMSTATES> 7
<STATE> 2
<STREAM> 1
<MEAN> 75
 4.923851e-01 5.779772e-01 5.857096e-01 5.546601e-01 4.677304e-01 3.816141e-01 3.033346e-01 2.528263e-01 2.167867e-01 1.925803e-01 1.606193e-01 1.389734e-01 1.160313e-01 1.044942e-01 9.412026e-02 9.214716e-02 8.625603e-02 9.101901e-02 9.315210e-02 9.718409e-02 1.039180e-01 1.160429e-01 1.192674e-01 1.288208e-01 1.476011e-01 -1.935083e-01 -9.268551e-02 -9.810347e-03 4.104415e-02 8.585639e-02 8.724447e-02 7.807188e-02 5.309271e-02 4.766628e-02 3.558979e-02 4.537737e-02 3.336985e-02 2.832535e-02 2.028523e-02 1.326215e-02 9.646537e-03 3.897805e-03 2.445519e-03 4.255127e-03 -1.292817e-02 8.471318e-03 -2.295262e-02 1.582691e-02 -3.291323e-02 -3.689912e-02 -6.795453e-02 2.282114e-02 -4.715079e-02 -5.063028e-02 -1.940548e-02 2.387715e-02 2.592662e-02 2.335423e-02 1.240552e-02 -1.510549e-03 9.546965e-03 1.426340e-02 6.797876e-03 1.572648e-02 7.128831e-03 1.092106e-02 -9.043515e-05 1.826660e-02 -1.778055e-03 2.191486e-02 6.439727e-03 9.148581e-03 1.881377e-02 2.298877e-02 1.227702e-01
<VARIANCE> 75
 1.157774e+00 9.946225e-01 8.410847e-01 6.476669e-01 4.741036e-01 2.846409e-01 2.313887e-01 1.632713e-01 1.442350e-01 1.352102e-01 1.345851e-01 1.026108e-01 1.205021e-01 1.030165e-01 1.308223e-01 1.149942e-01 1.669622e-01 1.538212e-01 1.901464e-01 1.631109e-01 2.322733e-01 2.026148e-01 2.422746e-01 2.120914e-01 3.101554e-01 5.664628e-01 6.161253e-01 5.139620e-01 3.751657e-01 2.963206e-01 2.270954e-01 1.356655e-01 1.321559e-01 7.565323e-02 9.563921e-02 8.681169e-02 8.455997e-02 7.087174e-02 1.188638e-01 7.658841e-02 8.982367e-02 1.093716e-01 1.412743e-01 1.342182e-01 2.679871e-01 2.109636e-01 3.431276e-01 2.791152e-01 4.399382e-01 4.507609e-01 3.459392e+00 3.597628e+00 3.252963e+00 2.627353e+00 1.785891e+00 1.085043e+00 7.411852e-01 4.994606e-01 4.307059e-01 3.742312e-01 3.418683e-01 3.041002e-01 3.320787e-01 3.209907e-01 3.853733e-01 3.769952e-01 3.963909e-01 4.060579e-01 5.172207e-01 4.947913e-01 6.107596e-01 5.814270e-01 6.644719e-01 6.635199e-01 1.253886e+00
<GCONST> 5.018745e+01
<STREAM> 2
<NUMMIXES> 2
<MIXTURE> 1 6.931967e-02
<MEAN> 1
 2.811003e-01
<VARIANCE> 1
 1.416721e+00
<GCONST> 2.186222e+00
<MIXTURE> 2 9.306815e-01
<MEAN> 0
<VARIANCE> 0
<GCONST> 0.000000e+00
<STREAM> 3
<NUMMIXES> 2
<MIXTURE> 1 6.923759e-02
<MEAN> 1
 3.604541e-01
<VARIANCE> 1
 3.373731e+00
<GCONST> 3.053896e+00
<MIXTURE> 2 9.307637e-01
<MEAN> 0
<VARIANCE> 0
<GCONST> 0.000000e+00
<STREAM> 4
<NUMMIXES> 2
<MIXTURE> 1 6.923784e-02
<MEAN> 1
 2.187500e-01
<VARIANCE> 1
 8.940651e+14
<GCONST> 3.626468e+01
<MIXTURE> 2 9.307632e-01
<MEAN> 0
<VARIANCE> 0
<GCONST> 0.000000e+00
<STATE> 3
<STREAM> 1
<MEAN> 75
 9.307797e-02 9.555668e-02 1.048600e-01 1.320606e-01 2.149339e-01 3.018574e-01 3.693894e-01 3.999668e-01 4.087914e-01 4.064901e-01 3.972427e-01 3.865140e-01 3.561594e-01 3.117500e-01 2.699308e-01 2.419704e-01 2.051996e-01 1.816852e-01 1.611837e-01 1.386963e-01 1.189305e-01 1.015467e-01 9.160623e-02 7.690521e-02 7.269845e-02 1.377928e-02 -1.059287e-02 -8.991184e-03 -6.360157e-02 -7.985123e-02 -8.295798e-02 -4.625922e-02 -2.837753e-02 -3.509574e-03 4.626721e-03 7.981151e-03 2.416328e-02 3.935325e-02 3.724334e-02 4.509277e-02 2.319149e-02 4.421255e-02 1.328186e-02 3.356650e-02 1.657225e-02 2.659367e-02 1.363721e-02 1.752861e-02 1.072130e-02 9.364769e-03 1.586203e-02 1.734219e-02 2.960206e-02 6.783457e-02 2.412917e-02 -1.590624e-02 -1.266767e-02 -2.023298e-02 5.275674e-03 3.912598e-04 5.888022e-03 -9.257488e-03 2.130900e-03 1.351999e-02 3.003450e-02 1.110690e-02 4.064190e-02 2.178935e-02 3.931747e-02 2.058036e-02 4.376134e-02 2.833741e-02 4.265732e-02 3.512284e-02 2.947924e-02
<VARIANCE> 75
 1.373083e-01 9.567983e-02 1.651827e-01 1.895038e-01 4.376283e-01 5.252934e-01 5.799366e-01 5.419055e-01 5.096226e-01 4.116319e-01 3.925114e-01 3.250232e-01 2.704313e-01 1.879478e-01 1.999978e-01 1.402838e-01 1.480842e-01 1.047380e-01 1.365540e-01 9.800550e-02 1.052713e-01 7.479788e-02 9.790776e-02 1.346756e-01 2.204057e-01 1.365999e-01 2.319994e-01 1.807659e-01 3.260873e-01 2.996971e-01 4.184532e-01 3.495165e-01 4.363363e-01 3.233459e-01 3.385523e-01 2.794953e-01 2.955709e-01 2.137090e-01 2.988985e-01 2.202750e-01 3.134072e-01 2.315597e-01 3.346575e-01 2.145052e-01 3.095614e-01 1.979059e-01 2.615865e-01 2.033697e-01 2.469754e-01 1.711994e-01 3.821787e-01 3.448731e-01 5.244792e-01 8.055465e-01 1.548196e+00 1.872406e+00 2.112726e+00 1.981266e+00 1.836653e+00 1.582071e+00 1.436484e+00 1.191585e+00 9.906909e-01 6.779212e-01 5.441074e-01 4.290820e-01 4.229115e-01 3.386962e-01 3.714781e-01 2.862608e-01 2.703788e-01 2.175357e-01 2.418602e-01 2.411469e-01 3.291192e-01
<GCONST> 5.311074e+01
<STREAM> 2
<NUMMIXES> 2
<MIXTURE> 1 1.645253e-01
<MEAN> 1
 2.401051e-01
<VARIANCE> 1
 5.543850e-01
<GCONST> 1.247981e+00
<MIXTURE> 2 8.354787e-01
<MEAN> 0
<VARIANCE> 0
<GCONST> 0.000000e+00
<STREAM> 3
<NUMMIXES> 2
<MIXTURE> 1 1.644502e-01
<MEAN> 1
 1.920008e-01
<VARIANCE> 1
 5.670533e-01
<GCONST> 1.270575e+00
<MIXTURE> 2 8.355541e-01
<MEAN> 0
<VARIANCE> 0
<GCONST> 0.000000e+00
<STREAM> 4
<NUMMIXES> 2
<MIXTURE> 1 1.644500e-01
<MEAN> 1
 1.796875e-01
<VARIANCE> 1
 8.940651e+14
<GCONST> 3.626468e+01
<MIXTURE> 2 8.355540e-01
<MEAN> 0
<VARIANCE> 0
<GCONST> 0.000000e+00
<STATE> 4
<STREAM> 1
<MEAN> 75
 1.871824e-01 1.637819e-01 1.467591e-01 1.345430e-01 1.179681e-01 1.041519e-01 1.030198e-01 1.006394e-01 1.127947e-01 1.264981e-01 1.443096e-01 1.554160e-01 1.889227e-01 2.146541e-01 2.521631e-01 2.628225e-01 2.809831e-01 2.852887e-01 2.895374e-01 2.948957e-01 2.925662e-01 2.959217e-01 2.562582e-01 2.278130e-01 1.981839e-01 2.566794e-02 2.092454e-02 1.749566e-02 1.509193e-02 1.946487e-02 9.281741e-03 6.001479e-03 -5.860381e-03 -7.397022e-03 -1.436937e-02 -1.357780e-02 -2.379265e-02 -2.483150e-02 -2.941974e-02 -1.600257e-02 -1.234683e-02 -1.009159e-02 1.584109e-03 3.158525e-03 1.196592e-02 1.701957e-02 3.561823e-02 4.512351e-02 5.476703e-02 4.257988e-02 2.640992e-02 2.373067e-02 2.964396e-02 1.638950e-02 3.865524e-02 3.550797e-02 4.006501e-02 4.660162e-02 4.082165e-02 4.041457e-02 4.738998e-02 4.887193e-02 5.539497e-02 3.522300e-02 3.689054e-02 3.742975e-02 3.750557e-02 3.625241e-02 3.363153e-02 4.393790e-02 2.813348e-02 1.983653e-02 2.532619e-02 4.909187e-02 4.024881e-02
<VARIANCE> 75
 1.399816e-01 1.058632e-01 1.636828e-01 1.210485e-01 1.305638e-01 1.180538e-01 1.621095e-01 1.196152e-01 2.222787e-01 1.810407e-01 2.400969e-01 2.315372e-01 3.041892e-01 3.032921e-01 3.484906e-01 3.049456e-01 3.346982e-01 3.184981e-01 3.733287e-01 3.017021e-01 4.211350e-01 3.398560e-01 4.167587e-01 2.561532e-01 2.938999e-01 1.489025e-01 2.381318e-01 1.665942e-01 2.516418e-01 1.901439e-01 2.777689e-01 2.061040e-01 3.410850e-01 2.442946e-01 3.633884e-01 2.976317e-01 4.017151e-01 3.089477e-01 4.123717e-01 3.052154e-01 3.752145e-01 2.878948e-01 3.278425e-01 2.505540e-01 3.240677e-01 2.230933e-01 2.865900e-01 1.938593e-01 2.569840e-01 1.531316e-01 4.392825e-01 3.631003e-01 4.322682e-01 3.689507e-01 3.480425e-01 2.716069e-01 3.739074e-01 3.588770e-01 5.417516e-01 5.824591e-01 7.257198e-01 7.422727e-01 9.019315e-01 9.897764e-01 1.103577e+00 1.050559e+00 1.042277e+00 9.483519e-01 9.480777e-01 8.658295e-01 8.977488e-01 7.902054e-01 6.917436e-01 4.355972e-01 3.982055e-01
<GCONST> 5.521007e+01
<STREAM> 2
<NUMMIXES> 2
<MIXTURE> 1 2.846428e-01
<MEAN> 1
 1.585891e-01
<VARIANCE> 1
 2.185946e-01
<GCONST> 3.173404e-01
<MIXTURE> 2 7.153673e-01
<MEAN> 0
<VARIANCE> 0
<GCONST> 0.000000e+00
<STREAM> 3
<NUMMIXES> 2
<MIXTURE> 1 2.844326e-01
<MEAN> 1
 1.172798e-01
<VARIANCE> 1
 2.918541e-01
<GCONST> 6.063758e-01
<MIXTURE> 2 7.155772e-01
<MEAN> 0
<VARIANCE> 0
<GCONST> 0.000000e+00
<STREAM> 4
<NUMMIXES> 2
<MIXTURE> 1 2.844328e-01
<MEAN> 1
 1.030273e-01
<VARIANCE> 1
 8.940651e+14
<GCONST> 3.626468e+01
<MIXTURE> 2 7.155766e-01
<MEAN> 0
<VARIANCE> 0
<GCONST> 0.000000e+00
<STATE> 5
<STREAM> 1
<MEAN> 75
 2.455071e-01 2.369054e-01 2.576109e-01 2.502058e-01 2.541303e-01 2.545504e-01 2.317526e-01 1.975994e-01 1.805544e-01 1.671937e-01 1.423550e-01 1.398696e-01 1.296927e-01 1.226296e-01 1.133416e-01 1.217435e-01 9.611189e-02 1.092807e-01 1.053309e-01 1.004864e-01 1.087176e-01 1.174858e-01 1.400336e-01 1.671119e-01 1.969516e-01 -7.647455e-03 7.452324e-03 6.457064e-03 1.184045e-02 7.130472e-03 3.918288e-02 4.036191e-02 5.057019e-02 4.524605e-02 4.251097e-02 3.951992e-02 4.454141e-02 3.919431e-02 4.673894e-02 4.446188e-02 5.199768e-02 4.109531e-02 5.733151e-02 4.275884e-02 4.319907e-02 4.442177e-02 3.212968e-02 1.556952e-02 2.435275e-02 2.736660e-02 4.026597e-02 4.854417e-02 3.912120e-02 5.425053e-02 3.322548e-02 2.593135e-02 2.616022e-02 5.972906e-02 4.172851e-02 4.330981e-02 4.953840e-02 4.136126e-02 4.434911e-02 4.531351e-02 4.253560e-02 3.550326e-02 4.417816e-02 3.317142e-02 4.350509e-02 3.729619e-02 3.778255e-02 4.220813e-02 4.860139e-02 1.093096e-02 2.770692e-02
<VARIANCE> 75
 2.854746e-01 2.431949e-01 2.673927e-01 2.488431e-01 3.371453e-01 3.009302e-01 3.369654e-01 2.401486e-01 3.189841e-01 2.306009e-01 3.290344e-01 2.537727e-01 3.454555e-01 2.515889e-01 3.887509e-01 2.858576e-01 4.019430e-01 2.872563e-01 3.601873e-01 2.909100e-01 3.813963e-01 2.757970e-01 3.590367e-01 3.511178e-01 3.969855e-01 2.219989e-01 2.740103e-01 1.940642e-01 2.406692e-01 2.062697e-01 2.487040e-01 1.887673e-01 2.456138e-01 1.741528e-01 2.297900e-01 1.710137e-01 2.400238e-01 1.575643e-01 2.377183e-01 1.519594e-01 2.112021e-01 1.663437e-01 2.199233e-01 1.532611e-01 2.222733e-01 1.558641e-01 2.124513e-01 1.855019e-01 2.168820e-01 1.766683e-01 8.470367e-01 7.578836e-01 7.520437e-01 7.144895e-01 8.071027e-01 7.157151e-01 6.290121e-01 4.293717e-01 4.191380e-01 3.357551e-01 3.634525e-01 3.217072e-01 4.122761e-01 3.454934e-01 3.847249e-01 3.491620e-01 3.938078e-01 3.553589e-01 3.999134e-01 3.864429e-01 4.618566e-01 4.860884e-01 6.499189e-01 7.473598e-01 8.233342e-01
<GCONST> 5.095509e+01
<STREAM> 2
<NUMMIXES> 2
<MIXTURE> 1 3.803326e-01
<MEAN> 1
 6.793633e-02
<VARIANCE> 1
 2.574023e-01
<GCONST> 4.807619e-01
<MIXTURE> 2 6.196800e-01
<MEAN> 0
<VARIANCE> 0
<GCONST> 0.000000e+00
<STREAM> 3
<NUMMIXES> 2
<MIXTURE> 1 3.801348e-01
<MEAN> 1
 8.026879e-02
<VARIANCE> 1
 2.679975e-01
<GCONST> 5.210994e-01
<MIXTURE> 2 6.198780e-01
<MEAN> 0
<VARIANCE> 0
<GCONST> 0.000000e+00
<STREAM> 4
<NUMMIXES> 2
<MIXTURE> 1 3.801345e-01
<MEAN> 1
 2.734375e-02
<VARIANCE> 1
 8.940651e+14
<GCONST> 3.626468e+01
<MIXTURE> 2 6.198784e-01
<MEAN> 0
<VARIANCE> 0
<GCONST> 0.000000e+00
<STATE> 6
<STREAM> 1
<MEAN> 75
 9.529629e-02 9.307161e-02 8.695686e-02 9.511404e-02 1.034619e-01 9.928206e-02 1.416029e-01 1.643023e-01 1.883900e-01 2.050498e-01 2.277534e-01 2.274108e-01 2.556911e-01 2.572370e-01 2.652768e-01 2.634168e-01 2.588340e-01 2.136361e-01 2.149483e-01 1.917560e-01 1.762384e-01 1.630787e-01 1.526108e-01 1.384847e-01 1.356638e-01 4.809128e-02 4.702523e-02 4.662039e-02 4.834809e-02 3.731633e-02 3.358521e-02 2.051799e-02 1.774957e-02 2.917087e-02 2.492151e-02 2.960000e-02 3.197220e-02 3.310265e-02 3.709710e-02 4.621165e-02 5.261514e-02 7.685053e-02 7.888339e-02 5.778138e-02 5.289459e-02 5.484322e-02 4.174966e-02 4.079247e-02 3.920760e-02 2.891310e-02 3.193523e-02 3.073721e-02 3.227548e-02 1.979205e-02 3.957010e-02 3.157073e-02 3.558834e-02 7.744964e-03 1.857764e-02 1.430525e-02 1.651444e-02 1.309636e-02 1.088257e-02 1.578537e-02 -1.768628e-03 1.885148e-03 2.099668e-02 5.037821e-02 1.609464e-02 3.195639e-03 1.994370e-02 2.018875e-03 1.617933e-02 2.155853e-03 1.262960e-02
<VARIANCE> 75
 3.320641e-01 2.669865e-01 3.711619e-01 2.738040e-01 2.955495e-01 2.709698e-01 3.231871e-01 3.047609e-01 3.854617e-01 3.230317e-01 3.674136e-01 3.455376e-01 3.833752e-01 3.360654e-01 4.152465e-01 3.125253e-01 3.289951e-01 2.899653e-01 2.727240e-01 2.265763e-01 2.518413e-01 2.083904e-01 2.192947e-01 2.057666e-01 2.253404e-01 1.525211e-01 1.983890e-01 1.399310e-01 1.800671e-01 1.578856e-01 1.718704e-01 1.606868e-01 1.893773e-01 1.615670e-01 1.986723e-01 1.690270e-01 1.906010e-01 1.620741e-01 1.925679e-01 1.556599e-01 1.850960e-01 1.594334e-01 1.795837e-01 1.191830e-01 1.484772e-01 1.042373e-01 1.225024e-01 1.064773e-01 1.338584e-01 1.061603e-01 3.973371e-01 3.512656e-01 3.776103e-01 3.856217e-01 4.191294e-01 4.764189e-01 6.644148e-01 7.609308e-01 8.328196e-01 8.499724e-01 8.846984e-01 8.857695e-01 9.452640e-01 9.190521e-01 9.672097e-01 8.561667e-01 8.714749e-01 6.867686e-01 6.353569e-01 5.262798e-01 5.056096e-01 4.721656e-01 4.731365e-01 4.372277e-01 4.979041e-01
<GCONST> 4.835073e+01
<STREAM> 2
<NUMMIXES> 2
<MIXTURE> 1 4.112051e-01
<MEAN> 1
 1.879796e-01
<VARIANCE> 1
 1.038832e+00
<GCONST> 1.875974e+00
<MIXTURE> 2 5.887980e-01
<MEAN> 0
<VARIANCE> 0
<GCONST> 0.000000e+00
<STREAM> 3
<NUMMIXES> 2
<MIXTURE> 1 4.045431e-01
<MEAN> 1
 3.689528e-02
<VARIANCE> 1
 5.247247e-01
<GCONST> 1.192996e+00
<MIXTURE> 2 5.954604e-01
<MEAN> 0
<VARIANCE> 0
<GCONST> 0.000000e+00
<STREAM> 4
<NUMMIXES> 2
<MIXTURE> 1 4.045430e-01
<MEAN> 1
 -2.441406e-02
<VARIANCE> 1
 8.940651e+14
<GCONST> 3.626468e+01
<MIXTURE> 2 5.954608e-01
<MEAN> 0
<VARIANCE> 0
<GCONST> 0.000000e+00
<TRANSP> 7
 0.000000e+00 1.000000e+00 0.000000e+00 0.000000e+00 0.000000e+00 0.000000e+00 0.000000e+00
 0.000000e+00 0.000000e+00 1.000000e+00 0.000000e+00 0.000000e+00 0.000000e+00 0.000000e+00
 0.000000e+00 0.000000e+00 0.000000e+00 1.000000e+00 0.000000e+00 0.000000e+00 0.000000e+00
 0.000000e+00 0.000000e+00 0.000000e+00 0.000000e+00 1.000000e+00 0.000000e+00 0.000000e+00
 0.000000e+00 0.000000e+00 0.000000e+00 0.000000e+00 0.000000e+00 1.000000e+00 0.000000e+00
 0.000000e+00 0.000000e+00 0.000000e+00 0.000000e+00 0.000000e+00 0.000000e+00 1.000000e+00
 0.000000e+00 0.000000e+00 0.000000e+00 0.000000e+00 0.000000e+00 0.000000e+00 0.000000e+00
<ENDHMM>
~h "@"
<BEGINHMM>
<NUMSTATES> 7
<STATE> 2
<STREAM> 1
<MEAN> 75
 1.550095e-01 1.697596e-01 1.763558e-01 1.750110e-01 1.727173e-01 1.744353e-01 1.779694e-01 1.877344e-01 2.035649e-01 2.192564e-01 2.388946e-01 2.595898e-01 2.799444e-01 3.045278e-01 3.253122e-01 3.485317e-01 3.760701e-01 4.042152e-01 4.007618e-01 3.706619e-01 3.247972e-01 2.754945e-01 2.321672e-01 1.981406e-01 1.703325e-01 -1.139759e-02 -1.179645e-02 -3.670836e-03 -2.397599e-04 -1.438769e-03 -4.154098e-03 -8.137948e-03 -1.430940e-02 -1.698064e-02 -1.862728e-02 -2.036083e-02 -2.054901e-02 -2.196633e-02 -2.184876e-02 -2.147306e-02 -2.261943e-02 -2.167132e-02 -7.611115e-03 2.001757e-02 4.014172e-02 4.830250e-02 4.581295e-02 3.765458e-02 2.904608e-02 2.180410e-02 7.933574e-03 -1.029188e-02 -7.176438e-03 -2.840492e-04 1.944774e-03 2.081375e-03 5.244979e-03 4.913805e-03 -4.491298e-04 2.392995e-03 5.433438e-05 3.580943e-04 2.570185e-03 -3.343278e-03 3.224795e-03 -2.002324e-03 -1.062256e-02 -3.201378e-02 -2.080914e-02 -1.465930e-02 1.057537e-03 8.997412e-03 1.081926e-02 1.093393e-02 5.686631e-03
<VARIANCE> 75
 1.095542e+00 1.180840e+00 1.191986e+00 1.183948e+00 1.169640e+00 1.185993e+00 1.197376e+00 1.251632e+00 1.318622e+00 1.393217e+00 1.469373e+00 1.550568e+00 1.611047e+00 1.698073e+00 1.753271e+00 1.847377e+00 1.939667e+00 2.067502e+00 2.055375e+00 1.936296e+00 1.715939e+00 1.520494e+00 1.345073e+00 1.231546e+00 1.130408e+00 5.352422e-01 5.509651e-01 5.727615e-01 5.699791e-01 5.720281e-01 5.732787e-01 5.902865e-01 6.112226e-01 6.449545e-01 6.838086e-01 7.286075e-01 7.667075e-01 8.100855e-01 8.430129e-01 8.940654e-01 9.277328e-01 9.815366e-01 1.018732e+00 1.037824e+00 9.670846e-01 8.706388e-01 7.540575e-01 6.710924e-01 5.983233e-01 5.479178e-01 4.714661e+00 4.908467e+00 4.908537e+00 4.866504e+00 4.817410e+00 4.868089e+00 4.956610e+00 5.176792e+00 5.469280e+00 5.800136e+00 6.169154e+00 6.484912e+00 6.738501e+00 7.023183e+00 7.298829e+00 7.714691e+00 8.169259e+00 8.681309e+00 8.576536e+00 7.964404e+00 7.090668e+00 6.298664e+00 5.632739e+00 5.149200e+00 4.732417e+00
<GCONST> 1.837240e+02
<STREAM> 2
<NUMMIXES> 2
<MIXTURE> 1 8.434916e-01
<MEAN> 1
 4.505524e+00
<VARIANCE> 1
 1.055680e-02
<GCONST> -2.713108e+00
<MIXTURE> 2 1.565211e-01
<MEAN> 0
<VARIANCE> 0
<GCONST> 0.000000e+00
<STREAM> 3
<NUMMIXES> 2
<MIXTURE> 1 8.096303e-01
<MEAN> 1
 3.260508e-03
<VARIANCE> 1
 3.553591e-04
<GCONST> -6.104505e+00
<MIXTURE> 2 1.903841e-01
<MEAN> 0
<VARIANCE> 0
<GCONST> 0.000000e+00
<STREAM> 4
<NUMMIXES> 2
<MIXTURE> 1 8.096303e-01
<MEAN> 1
 -2.173776e+06
<VARIANCE> 1
 4.347089e+16
<GCONST> 4.014874e+01
<MIXTURE> 2 1.903838e-01
<MEAN> 0
<VARIANCE> 0
<GCONST> 0.000000e+00
<STATE> 3
<STREAM> 1
<MEAN> 75
 2.284337e-01 1.949273e-01 1.743646e-01 1.620013e-01 1.537705e-01 1.472641e-01 1.444563e-01 1.413268e-01 1.395335e-01 1.422829e-01 1.501500e-01 1.656588e-01 1.873734e-01 2.154716e-01 2.465118e-01 2.753845e-01 3.053811e-01 3.337472e-01 3.632367e-01 3.931996e-01 4.131736e-01 4.127010e-01 3.916585e-01 3.575603e-01 3.147171e-01 3.658647e-02 2.562525e-02 1.559551e-02 8.924547e-03 5.526023e-03 3.287475e-03 1.606885e-03 8.578331e-04 -2.265295e-03 -7.000886e-03 -1.254500e-02 -1.893411e-02 -2.481728e-02 -2.859545e-02 -2.992841e-02 -3.010527e-02 -2.901973e-02 -2.816666e-02 -2.860538e-02 -2.326698e-02 -8.102059e-03 1.215965e-02 2.937253e-02 3.943280e-02 4.321185e-02 1.056868e-02 1.172239e-02 8.510961e-03 5.777336e-03 1.413168e-03 2.857096e-03 4.409161e-04 1.490709e-03 4.753414e-03 4.754716e-03 6.140289e-03 6.438894e-03 5.620338e-03 1.699987e-03 7.508251e-04 -9.398547e-04 -2.306885e-03 9.305520e-04 -8.865941e-04 -1.131125e-02 -2.022942e-02 -2.001661e-02 -1.463073e-02 -5.740784e-03 -2.614626e-04
<VARIANCE> 75
 1.383127e+00 1.267354e+00 1.199889e+00 1.156664e+00 1.139073e+00 1.120693e+00 1.113381e+00 1.099725e+00 1.095465e+00 1.113258e+00 1.149981e+00 1.221549e+00 1.324760e+00 1.451543e+00 1.571697e+00 1.679106e+00 1.790093e+00 1.891033e+00 2.001614e+00 2.118955e+00 2.192352e+00 2.173812e+00 2.066973e+00 1.904947e+00 1.730392e+00 6.842970e-01 6.229448e-01 5.837895e-01 5.613883e-01 5.468743e-01 5.405745e-01 5.333218e-01 5.300580e-01 5.315743e-01 5.402403e-01 5.605713e-01 5.996320e-01 6.525257e-01 7.146961e-01 7.780218e-01 8.381022e-01 8.990685e-01 9.641551e-01 1.026551e+00 1.082475e+00 1.112461e+00 1.101202e+00 1.042571e+00 9.583145e-01 8.603160e-01 5.662510e+00 5.220357e+00 4.968307e+00 4.798149e+00 4.688421e+00 4.592398e+00 4.525942e+00 4.448928e+00 4.437319e+00 4.513035e+00 4.678496e+00 5.018782e+00 5.474029e+00 5.990776e+00 6.459787e+00 6.880155e+00 7.357395e+00 7.833447e+00 8.341789e+00 8.840175e+00 9.084616e+00 8.913931e+00 8.428831e+00 7.765137e+00 7.047256e+00
<GCONST> 1.844695e+02
<STREAM> 2
<NUMMIXES> 2
<MIXTURE> 1 8.539543e-01
<MEAN> 1
 4.510313e+00
<VARIANCE> 1
 1.055680e-02
<GCONST> -2.713108e+00
<MIXTURE> 2 1.460555e-01
<MEAN> 0
<VARIANCE> 0
<GCONST> 0.000000e+00
<STREAM> 3
<NUMMIXES> 2
<MIXTURE> 1 8.316818e-01
<MEAN> 1
 3.018197e-03
<VARIANCE> 1
 3.553591e-04
<GCONST> -6.104505e+00
<MIXTURE> 2 1.683287e-01
<MEAN> 0
<VARIANCE> 0
<GCONST> 0.000000e+00
<STREAM> 4
<NUMMIXES> 2
<MIXTURE> 1 8.316818e-01
<MEAN> 1
 4.000000e+00
<VARIANCE> 1
 8.940651e+14
<GCONST> 3.626468e+01
<MIXTURE> 2 1.683287e-01
<MEAN> 0
<VARIANCE> 0
<GCONST> 0.000000e+00
<STATE> 4
<STREAM> 1
<MEAN> 75
 3.656500e-01 3.273572e-01 2.875859e-01 2.485608e-01 2.143817e-01 1.885012e-01 1.683577e-01 1.522146e-01 1.377115e-01 1.257717e-01 1.168847e-01 1.142626e-01 1.210570e-01 1.335598e-01 1.549350e-01 1.811394e-01 2.104340e-01 2.425162e-01 2.767076e-01 3.103902e-01 3.435063e-01 3.721728e-01 3.957486e-01 4.114394e-01 4.108779e-01 3.390750e-02 3.958406e-02 3.914368e-02 3.532159e-02 2.878799e-02 2.182574e-02 1.714202e-02 1.469038e-02 1.269332e-02 9.380628e-03 4.032568e-03 -3.141989e-03 -1.003739e-02 -1.707755e-02 -2.409696e-02 -2.829599e-02 -3.089104e-02 -3.276993e-02 -3.320903e-02 -3.277618e-02 -3.010499e-02 -2.495002e-02 -1.767817e-02 -6.587952e-03 7.998843e-03 -9.079342e-03 -7.943159e-04 1.829344e-03 5.184566e-03 8.879011e-03 5.103500e-03 4.002288e-03 1.964383e-03 2.885701e-03 4.879156e-03 6.021901e-03 8.008889e-03 6.133960e-03 7.145653e-03 5.605591e-03 3.330032e-03 2.089743e-03 9.076233e-04 2.729848e-04 -1.060644e-03 -5.243478e-03 -6.075338e-03 -7.858025e-03 -1.470322e-02 -1.543787e-02
<VARIANCE> 75
 1.957895e+00 1.792360e+00 1.630002e+00 1.483827e+00 1.361115e+00 1.276117e+00 1.205752e+00 1.150434e+00 1.094788e+00 1.045933e+00 1.009835e+00 1.004154e+00 1.034858e+00 1.092369e+00 1.188714e+00 1.305062e+00 1.433311e+00 1.573341e+00 1.713274e+00 1.851484e+00 1.976023e+00 2.085788e+00 2.168135e+00 2.215706e+00 2.188044e+00 9.821476e-01 8.945746e-01 8.052289e-01 7.285433e-01 6.685719e-01 6.182120e-01 5.820425e-01 5.505989e-01 5.258266e-01 5.043195e-01 4.892707e-01 4.867058e-01 5.011904e-01 5.337573e-01 5.824971e-01 6.402842e-01 7.102243e-01 7.844573e-01 8.633422e-01 9.384302e-01 1.005930e+00 1.067322e+00 1.114703e+00 1.131603e+00 1.114820e+00 7.916845e+00 7.203982e+00 6.525852e+00 5.972991e+00 5.546890e+00 5.226449e+00 4.939803e+00 4.689489e+00 4.455904e+00 4.248516e+00 4.102200e+00 4.082492e+00 4.214534e+00 4.453568e+00 4.823463e+00 5.258667e+00 5.782922e+00 6.400148e+00 7.005706e+00 7.592609e+00 8.116802e+00 8.601950e+00 8.957835e+00 9.098333e+00 8.930951e+00
<GCONST> 1.837334e+02
<STREAM> 2
<NUMMIXES> 2
<MIXTURE> 1 8.174928e-01
<MEAN> 1
 4.515758e+00
<VARIANCE> 1
 1.055680e-02
<GCONST> -2.713108e+00
<MIXTURE> 2 1.825263e-01
<MEAN> 0
<VARIANCE> 0
<GCONST> 0.000000e+00
<STREAM> 3
<NUMMIXES> 2
<MIXTURE> 1 7.928085e-01
<MEAN> 1
 2.821083e-03
<VARIANCE> 1
 3.553591e-04
<GCONST> -6.104505e+00
<MIXTURE> 2 2.072127e-01
<MEAN> 0
<VARIANCE> 0
<GCONST> 0.000000e+00
<STREAM> 4
<NUMMIXES> 2
<MIXTURE> 1 7.928090e-01
<MEAN> 1
 -5.700000e+01
<VARIANCE> 1
 8.940651e+14
<GCONST> 3.626468e+01
<MIXTURE> 2 2.072132e-01
<MEAN> 0
<VARIANCE> 0
<GCONST> 0.000000e+00
<STATE> 5
<STREAM> 1
<MEAN> 75
 4.199502e-01 4.185479e-01 3.990433e-01 3.687913e-01 3.341043e-01 2.935068e-01 2.538867e-01 2.199937e-01 1.900555e-01 1.630354e-01 1.393448e-01 1.194413e-01 1.039801e-01 9.604521e-02 9.594940e-02 1.047746e-01 1.235032e-01 1.505557e-01 1.838322e-01 2.178894e-01 2.513911e-01 2.864307e-01 3.217576e-01 3.551767e-01 3.840160e-01 -4.923771e-03 1.157221e-02 2.464971e-02 3.242569e-02 3.755252e-02 3.916817e-02 3.629900e-02 3.200435e-02 2.836557e-02 2.484792e-02 2.140762e-02 1.767588e-02 1.178687e-02 3.531790e-03 -5.039401e-03 -1.391818e-02 -2.257215e-02 -2.960181e-02 -3.366715e-02 -3.426622e-02 -3.470821e-02 -3.505335e-02 -3.352052e-02 -3.086525e-02 -2.624995e-02 -1.600538e-02 -1.662469e-02 -9.345233e-03 -6.232272e-03 -4.181652e-03 1.964788e-03 3.864876e-03 4.204208e-03 3.134799e-03 3.781514e-03 4.546114e-03 3.731420e-03 8.643415e-03 8.464700e-03 8.523624e-03 9.486459e-03 8.470139e-03 5.828597e-03 1.268367e-03 -4.735031e-04 1.359944e-03 -8.818918e-04 -3.142241e-03 -3.106108e-03 -6.562388e-03
<VARIANCE> 75
 2.246199e+00 2.212454e+00 2.106562e+00 1.967391e+00 1.815062e+00 1.650256e+00 1.500510e+00 1.367276e+00 1.264049e+00 1.168995e+00 1.082528e+00 1.006975e+00 9.446760e-01 9.194089e-01 9.337254e-01 9.841729e-01 1.071435e+00 1.194602e+00 1.338228e+00 1.476856e+00 1.609762e+00 1.741212e+00 1.885621e+00 2.018868e+00 2.130177e+00 1.147520e+00 1.126551e+00 1.068998e+00 9.897202e-01 9.015539e-01 8.153479e-01 7.329381e-01 6.630023e-01 6.045852e-01 5.592623e-01 5.169472e-01 4.791866e-01 4.539975e-01 4.426131e-01 4.503882e-01 4.797305e-01 5.252724e-01 5.877989e-01 6.580013e-01 7.340803e-01 8.081480e-01 8.802543e-01 9.573216e-01 1.033194e+00 1.091811e+00 9.162370e+00 8.953408e+00 8.499013e+00 7.918115e+00 7.245900e+00 6.559610e+00 5.991108e+00 5.497341e+00 5.115101e+00 4.756464e+00 4.406706e+00 4.076356e+00 3.828118e+00 3.736086e+00 3.808670e+00 4.009452e+00 4.339440e+00 4.820167e+00 5.404523e+00 5.988986e+00 6.542269e+00 7.120016e+00 7.750588e+00 8.349516e+00 8.790401e+00
<GCONST> 1.826260e+02
<STREAM> 2
<NUMMIXES> 2
<MIXTURE> 1 7.625635e-01
<MEAN> 1
 4.517310e+00
<VARIANCE> 1
 1.055680e-02
<GCONST> -2.713108e+00
<MIXTURE> 2 2.374608e-01
<MEAN> 0
<VARIANCE> 0
<GCONST> 0.000000e+00
<STREAM> 3
<NUMMIXES> 2
<MIXTURE> 1 7.341498e-01
<MEAN> 1
 2.740615e-03
<VARIANCE> 1
 3.553591e-04
<GCONST> -6.104505e+00
<MIXTURE> 2 2.658745e-01
<MEAN> 0
<VARIANCE> 0
<GCONST> 0.000000e+00
<STREAM> 4
<NUMMIXES> 2
<MIXTURE> 1 7.341489e-01
<MEAN> 1
 3.050000e+01
<VARIANCE> 1
 8.940651e+14
<GCONST> 3.626468e+01
<MIXTURE> 2 2.658754e-01
<MEAN> 0
<VARIANCE> 0
<GCONST> 0.000000e+00
<STATE> 6
<STREAM> 1
<MEAN> 75
 3.500278e-01 3.914877e-01 4.201376e-01 4.333504e-01 4.304827e-01 4.144031e-01 3.836316e-01 3.504633e-01 3.137271e-01 2.776558e-01 2.388812e-01 1.979693e-01 1.607450e-01 1.239668e-01 9.401304e-02 7.421082e-02 6.691077e-02 6.947353e-02 8.118920e-02 1.063607e-01 1.413578e-01 1.822250e-01 2.266556e-01 2.684250e-01 2.932366e-01 -3.868319e-02 -3.392191e-02 -2.048926e-02 -4.771409e-03 9.893559e-03 2.283944e-02 3.148215e-02 3.504126e-02 3.645780e-02 3.791971e-02 4.030130e-02 4.005521e-02 3.760393e-02 3.259346e-02 2.411369e-02 1.381715e-02 2.706179e-03 -7.289854e-03 -1.885239e-02 -3.027369e-02 -3.772150e-02 -4.272689e-02 -4.358498e-02 -3.480213e-02 -2.367764e-02 2.703499e-03 -1.283037e-02 -1.374933e-02 -1.708595e-02 -1.271481e-02 -1.364210e-02 -3.676957e-03 -3.139884e-03 3.551920e-04 -3.148302e-03 -1.541559e-03 3.254254e-03 1.305269e-03 8.142725e-03 8.744756e-03 1.225810e-02 9.796599e-03 9.585854e-03 1.360059e-02 9.354042e-03 6.224506e-03 3.867819e-03 -2.406301e-03 -1.500059e-02 -8.026649e-03
<VARIANCE> 75
 1.978396e+00 2.152285e+00 2.245434e+00 2.277325e+00 2.225233e+00 2.132477e+00 1.992743e+00 1.865675e+00 1.712326e+00 1.575668e+00 1.410622e+00 1.258605e+00 1.106713e+00 9.645642e-01 8.520761e-01 7.929294e-01 7.816883e-01 8.187937e-01 8.855763e-01 1.010025e+00 1.159368e+00 1.335981e+00 1.503874e+00 1.662416e+00 1.732126e+00 1.015208e+00 1.095663e+00 1.154041e+00 1.162550e+00 1.144329e+00 1.081300e+00 1.016464e+00 9.278244e-01 8.509626e-01 7.620947e-01 6.816379e-01 5.983962e-01 5.216787e-01 4.535689e-01 4.023949e-01 3.750162e-01 3.725474e-01 3.914194e-01 4.360553e-01 4.927359e-01 5.743019e-01 6.596015e-01 7.495549e-01 8.159608e-01 8.734716e-01 8.292783e+00 8.874176e+00 9.170443e+00 9.234052e+00 9.014452e+00 8.575466e+00 8.029254e+00 7.491351e+00 6.884181e+00 6.295346e+00 5.640062e+00 5.038232e+00 4.434253e+00 3.882370e+00 3.458202e+00 3.238118e+00 3.206553e+00 3.348616e+00 3.657202e+00 4.160220e+00 4.754183e+00 5.433558e+00 6.076432e+00 6.679423e+00 7.056451e+00
<GCONST> 1.807732e+02
<STREAM> 2
<NUMMIXES> 2
<MIXTURE> 1 6.977176e-01
<MEAN> 1
 4.521352e+00
<VARIANCE> 1
 1.102170e-02
<GCONST> -2.670013e+00
<MIXTURE> 2 3.022999e-01
<MEAN> 0
<VARIANCE> 0
<GCONST> 0.000000e+00
<STREAM> 3
<NUMMIXES> 2
<MIXTURE> 1 6.650762e-01
<MEAN> 1
 3.024527e-03
<VARIANCE> 1
 3.553591e-04
<GCONST> -6.104505e+00
<MIXTURE> 2 3.349435e-01
<MEAN> 0
<VARIANCE> 0
<GCONST> 0.000000e+00
<STREAM> 4
<NUMMIXES> 2
<MIXTURE> 1 6.650753e-01
<MEAN> 1
 1.500000e+00
<VARIANCE> 1
 8.940651e+14
<GCONST> 3.626468e+01
<MIXTURE> 2 3.349445e-01
<MEAN> 0
<VARIANCE> 0
<GCONST> 0.000000e+00
<TRANSP> 7
 0.000000e+00 1.000000e+00 0.000000e+00 0.000000e+00 0.000000e+00 0.000000e+00 0.000000e+00
 0.000000e+00 0.000000e+00 1.000000e+00 0.000000e+00 0.000000e+00 0.000000e+00 0.000000e+00
 0.000000e+00 0.000000e+00 0.000000e+00 1.000000e+00 0.000000e+00 0.000000e+00 0.000000e+00
 0.000000e+00 0.000000e+00 0.000000e+00 0.000000e+00 1.000000e+00 0.000000e+00 0.000000e+00
 0.000000e+00 0.000000e+00 0.000000e+00 0.000000e+00 0.000000e+00 1.000000e+00 0.000000e+00
 0.000000e+00 0.000000e+00 0.000000e+00 0.000000e+00 0.000000e+00 0.000000e+00 1.000000e+00
 0.000000e+00 0.000000e+00 0.000000e+00 0.000000e+00 0.000000e+00 0.000000e+00 0.000000e+00
<ENDHMM>
~h "a"
<BEGINHMM>
<NUMSTATES> 7
<STATE> 2
<STREAM> 1
<MEAN> 75
 1.760379e-01 2.461546e-01 2.972689e-01 3.407032e-01 3.693504e-01 3.707167e-01 3.476080e-01 3.188643e-01 2.999812e-01 2.820631e-01 2.708349e-01 2.521372e-01 2.353195e-01 2.281765e-01 2.281852e-01 2.270708e-01 2.275982e-01 2.283505e-01 2.214106e-01 2.188747e-01 2.188451e-01 2.156246e-01 2.089291e-01 1.945408e-01 1.727218e-01 -4.696292e-02 -5.994512e-02 -4.500265e-02 -3.394365e-02 -1.322493e-02 1.069038e-02 2.359071e-02 2.253123e-02 1.863227e-02 1.422626e-02 1.335095e-02 1.614766e-02 1.326072e-02 7.049518e-03 1.254827e-03 -2.229287e-03 -7.510246e-04 2.569393e-03 2.243970e-03 -8.082576e-04 1.124581e-03 4.361593e-03 9.641074e-03 1.709610e-02 2.005593e-02 4.548401e-02 -2.150208e-02 -1.199951e-02 -1.573294e-02 -2.848565e-02 -2.034655e-02 -3.720641e-03 5.723998e-03 3.820039e-03 7.471986e-03 -6.596869e-03 1.326208e-03 3.988309e-03 5.947142e-03 5.152768e-03 2.773049e-04 -3.205032e-03 -6.803622e-03 5.071996e-03 9.350049e-04 -4.178065e-03 -8.088864e-04 -8.526157e-03 -6.211236e-03 2.466355e-03
<VARIANCE> 75
 1.356660e+00 1.746504e+00 1.960403e+00 2.141474e+00 2.232737e+00 2.201864e+00 2.060597e+00 1.951486e+00 1.883522e+00 1.837201e+00 1.790116e+00 1.721991e+00 1.629856e+00 1.602522e+00 1.597490e+00 1.618697e+00 1.625612e+00 1.631417e+00 1.605586e+00 1.615523e+00 1.603830e+00 1.597545e+00 1.559506e+00 1.483142e+00 1.353960e+00 7.555624e-01 8.594174e-01 1.014679e+00 1.099972e+00 1.155129e+00 1.141224e+00 1.095629e+00 1.028689e+00 9.893381e-01 9.557896e-01 9.199672e-01 8.859491e-01 8.499252e-01 8.310221e-01 8.327470e-01 8.286302e-01 8.377807e-01 8.318767e-01 8.392266e-01 8.310605e-01 8.327380e-01 8.205772e-01 8.007371e-01 7.530435e-01 7.010106e-01 6.269898e+00 7.731584e+00 8.601430e+00 9.327116e+00 9.624005e+00 9.356181e+00 8.825621e+00 8.476732e+00 8.200049e+00 7.899999e+00 7.642848e+00 7.297147e+00 6.901873e+00 6.758600e+00 6.752253e+00 6.811391e+00 6.859651e+00 6.962454e+00 6.985425e+00 7.076103e+00 7.040527e+00 6.926665e+00 6.748785e+00 6.351913e+00 5.810764e+00
<GCONST> 1.986582e+02
<STREAM> 2
<NUMMIXES> 2
<MIXTURE> 1 9.523054e-01
<MEAN> 1
 4.534990e+00
<VARIANCE> 1
 1.055680e-02
<GCONST> -2.713108e+00
<MIXTURE> 2 4.769492e-02
<MEAN> 0
<VARIANCE> 0
<GCONST> 0.000000e+00
<STREAM> 3
<NUMMIXES> 2
<MIXTURE> 1 9.384706e-01
<MEAN> 1
 2.613518e-03
<VARIANCE> 1
 3.553591e-04
<GCONST> -6.104505e+00
<MIXTURE> 2 6.152984e-02
<MEAN> 0
<VARIANCE> 0
<GCONST> 0.000000e+00
<STREAM> 4
<NUMMIXES> 2
<MIXTURE> 1 9.384705e-01
<MEAN> 1
 -2.125000e+00
<VARIANCE> 1
 8.940651e+14
<GCONST> 3.626468e+01
<MIXTURE> 2 6.152965e-02
<MEAN> 0
<VARIANCE> 0
<GCONST> 0.000000e+00
<STATE> 3
<STREAM> 1
<MEAN> 75
 2.469508e-01 2.469446e-01 2.416983e-01 2.297865e-01 2.192450e-01 2.273432e-01 2.533886e-01 2.816474e-01 3.047360e-01 3.136361e-01 3.071947e-01 2.937107e-01 2.752774e-01 2.608937e-01 2.460342e-01 2.342779e-01 2.262660e-01 2.265296e-01 2.295890e-01 2.283306e-01 2.267723e-01 2.266725e-01 2.280128e-01 2.316990e-01 2.368302e-01 -5.783913e-05 5.058011e-03 1.053329e-02 1.169303e-02 8.834999e-05 -1.841498e-02 -2.793760e-02 -2.402743e-02 -1.421135e-02 -9.819943e-04 9.790433e-03 1.572641e-02 1.605966e-02 1.425885e-02 1.252407e-02 8.367701e-03 1.428134e-03 -3.185083e-03 -2.244143e-03 -3.108907e-04 1.879869e-05 -1.421780e-03 -3.756320e-03 -5.846653e-03 -6.624456e-03 -5.619955e-03 -5.359949e-03 -6.132567e-03 4.927137e-03 1.875704e-02 1.844245e-02 2.040247e-03 -8.176235e-03 -1.290292e-02 -1.276800e-02 -8.271079e-03 -3.264105e-03 2.673532e-03 1.125261e-03 2.691141e-03 6.044472e-03 7.514574e-03 1.885001e-03 -1.619239e-03 -1.510672e-03 5.466243e-04 2.372148e-03 2.568460e-03 9.576677e-04 -1.117360e-03
<VARIANCE> 75
 1.888333e+00 1.872897e+00 1.832325e+00 1.760217e+00 1.724451e+00 1.775301e+00 1.905357e+00 2.026782e+00 2.102984e+00 2.119627e+00 2.087952e+00 2.033371e+00 1.970495e+00 1.920004e+00 1.876761e+00 1.824618e+00 1.789969e+00 1.803009e+00 1.821965e+00 1.827893e+00 1.817555e+00 1.806489e+00 1.819286e+00 1.850391e+00 1.879870e+00 9.852519e-01 9.756948e-01 9.522581e-01 9.317748e-01 9.278913e-01 9.507820e-01 9.987152e-01 1.055094e+00 1.091573e+00 1.105604e+00 1.094326e+00 1.066767e+00 1.034109e+00 1.005863e+00 9.799248e-01 9.554622e-01 9.380588e-01 9.361914e-01 9.447272e-01 9.534455e-01 9.543236e-01 9.516127e-01 9.577066e-01 9.697561e-01 9.846089e-01 7.907128e+00 7.821238e+00 7.618506e+00 7.405102e+00 7.380833e+00 7.593336e+00 7.985860e+00 8.362947e+00 8.629093e+00 8.670311e+00 8.572061e+00 8.450903e+00 8.270766e+00 8.060086e+00 7.858588e+00 7.629020e+00 7.442180e+00 7.439956e+00 7.414222e+00 7.346602e+00 7.283980e+00 7.301338e+00 7.436593e+00 7.655974e+00 7.813828e+00
<GCONST> 2.046790e+02
<STREAM> 2
<NUMMIXES> 2
<MIXTURE> 1 9.564711e-01
<MEAN> 1
 4.544594e+00
<VARIANCE> 1
 1.055680e-02
<GCONST> -2.713108e+00
<MIXTURE> 2 4.352982e-02
<MEAN> 0
<VARIANCE> 0
<GCONST> 0.000000e+00
<STREAM> 3
<NUMMIXES> 2
<MIXTURE> 1 9.504740e-01
<MEAN> 1
 1.354945e-03
<VARIANCE> 1
 3.553591e-04
<GCONST> -6.104505e+00
<MIXTURE> 2 4.952688e-02
<MEAN> 0
<VARIANCE> 0
<GCONST> 0.000000e+00
<STREAM> 4
<NUMMIXES> 2
<MIXTURE> 1 9.504739e-01
<MEAN> 1
 -5.000000e-01
<VARIANCE> 1
 8.940651e+14
<GCONST> 3.626468e+01
<MIXTURE> 2 4.952677e-02
<MEAN> 0
<VARIANCE> 0
<GCONST> 0.000000e+00
<STATE> 4
<STREAM> 1
<MEAN> 75
 2.298810e-01 2.327552e-01 2.395774e-01 2.553656e-01 2.712485e-01 2.872916e-01 2.990201e-01 2.993048e-01 2.924725e-01 2.916203e-01 2.982649e-01 3.033034e-01 3.030529e-01 2.949090e-01 2.803738e-01 2.561882e-01 2.234582e-01 1.963861e-01 1.807932e-01 1.780280e-01 1.857638e-01 1.994017e-01 2.127693e-01 2.223153e-01 2.241421e-01 -3.986557e-03 -6.319339e-03 -1.135000e-02 -1.573705e-02 -1.574119e-02 -1.247829e-02 -3.934333e-03 4.405442e-03 4.658930e-03 -2.177507e-03 -5.404745e-03 -2.537060e-03 4.338609e-03 1.181877e-02 1.911239e-02 2.695166e-02 2.919189e-02 2.206647e-02 9.859641e-03 -9.982835e-04 -8.329355e-03 -1.247118e-02 -1.162244e-02 -6.685649e-03 -3.281222e-03 1.020456e-03 3.084530e-03 6.770480e-03 1.065344e-03 -7.448444e-04 -6.164636e-03 -1.113888e-02 -5.927132e-03 4.448290e-03 7.688461e-03 -5.881485e-04 -5.849292e-03 -7.903453e-03 -7.037766e-03 -8.833595e-03 -6.689468e-03 2.812525e-03 1.190602e-02 1.232168e-02 9.378418e-03 6.417872e-03 1.596458e-03 -3.600239e-03 -4.450053e-03 -1.288851e-03
<VARIANCE> 75
 1.906536e+00 1.920251e+00 1.942383e+00 2.002241e+00 2.067303e+00 2.134098e+00 2.173864e+00 2.169958e+00 2.136833e+00 2.123138e+00 2.152393e+00 2.176640e+00 2.171298e+00 2.133240e+00 2.059877e+00 1.946756e+00 1.811351e+00 1.691551e+00 1.628270e+00 1.623458e+00 1.665011e+00 1.741450e+00 1.818406e+00 1.868504e+00 1.882190e+00 1.007188e+00 1.016856e+00 1.033091e+00 1.057605e+00 1.094982e+00 1.125606e+00 1.143571e+00 1.149774e+00 1.144915e+00 1.139130e+00 1.143120e+00 1.145463e+00 1.136290e+00 1.114284e+00 1.072317e+00 1.012114e+00 9.475040e-01 8.889909e-01 8.543283e-01 8.502567e-01 8.686796e-01 9.062156e-01 9.454770e-01 9.748359e-01 9.898564e-01 7.595635e+00 7.681365e+00 7.858529e+00 8.116472e+00 8.372991e+00 8.660667e+00 8.803111e+00 8.813767e+00 8.676223e+00 8.600392e+00 8.640224e+00 8.685906e+00 8.651012e+00 8.519824e+00 8.278658e+00 7.905491e+00 7.457058e+00 7.037756e+00 6.801970e+00 6.763305e+00 6.858860e+00 7.073359e+00 7.262459e+00 7.405503e+00 7.463862e+00
<GCONST> 2.067834e+02
<STREAM> 2
<NUMMIXES> 2
<MIXTURE> 1 9.316198e-01
<MEAN> 1
 4.546399e+00
<VARIANCE> 1
 1.055680e-02
<GCONST> -2.713108e+00
<MIXTURE> 2 6.838029e-02
<MEAN> 0
<VARIANCE> 0
<GCONST> 0.000000e+00
<STREAM> 3
<NUMMIXES> 2
<MIXTURE> 1 9.174964e-01
<MEAN> 1
 1.001852e-03
<VARIANCE> 1
 3.553591e-04
<GCONST> -6.104505e+00
<MIXTURE> 2 8.250263e-02
<MEAN> 0
<VARIANCE> 0
<GCONST> 0.000000e+00
<STREAM> 4
<NUMMIXES> 2
<MIXTURE> 1 9.174957e-01
<MEAN> 1
 -5.375000e+00
<VARIANCE> 1
 8.940651e+14
<GCONST> 3.626468e+01
<MIXTURE> 2 8.250334e-02
<MEAN> 0
<VARIANCE> 0
<GCONST> 0.000000e+00
<STATE> 5
<STREAM> 1
<MEAN> 75
 1.627268e-01 1.804216e-01 1.954705e-01 2.055424e-01 2.166846e-01 2.279562e-01 2.421375e-01 2.591247e-01 2.780694e-01 2.984496e-01 3.255423e-01 3.525600e-01 3.712190e-01 3.803300e-01 3.784219e-01 3.692420e-01 3.496131e-01 3.203903e-01 2.824537e-01 2.366397e-01 1.883237e-01 1.430536e-01 1.181141e-01 1.220241e-01 1.352369e-01 -1.633599e-02 -1.653017e-02 -1.353308e-02 -1.158524e-02 -1.126619e-02 -1.274789e-02 -1.569449e-02 -1.749749e-02 -1.931745e-02 -2.325097e-02 -2.622347e-02 -2.300764e-02 -1.483515e-02 -5.000818e-03 3.596175e-03 1.302940e-02 2.421747e-02 3.371526e-02 4.147701e-02 4.729722e-02 4.663748e-02 3.396908e-02 1.128288e-02 -7.791964e-03 -1.365486e-02 2.354419e-03 -4.199949e-04 -4.204288e-03 -3.275190e-04 -3.807391e-04 2.926938e-03 1.910040e-03 6.836879e-04 2.825160e-03 3.796125e-03 1.578513e-03 -6.345234e-03 -1.108220e-02 -9.949344e-03 -7.997887e-03 -1.104058e-02 -1.075303e-02 -9.497142e-03 -7.027926e-03 -3.359394e-03 4.324717e-03 2.017620e-02 2.625385e-02 1.190118e-02 6.761458e-04
<VARIANCE> 75
 1.576373e+00 1.662034e+00 1.737544e+00 1.782669e+00 1.825914e+00 1.866963e+00 1.918298e+00 1.973433e+00 2.050575e+00 2.144914e+00 2.271116e+00 2.393964e+00 2.485319e+00 2.524691e+00 2.519342e+00 2.474488e+00 2.378528e+00 2.238405e+00 2.051479e+00 1.834358e+00 1.592271e+00 1.383188e+00 1.290752e+00 1.331118e+00 1.412350e+00 8.209735e-01 8.663338e-01 9.052673e-01 9.371352e-01 9.591818e-01 9.845237e-01 1.010966e+00 1.042541e+00 1.088361e+00 1.145451e+00 1.220848e+00 1.285066e+00 1.332969e+00 1.357846e+00 1.354609e+00 1.316975e+00 1.256489e+00 1.172082e+00 1.064134e+00 9.442288e-01 8.215669e-01 7.297815e-01 6.849129e-01 6.870439e-01 7.225994e-01 6.248905e+00 6.529596e+00 6.784990e+00 6.961733e+00 7.089888e+00 7.239578e+00 7.469080e+00 7.767233e+00 8.168220e+00 8.606777e+00 9.085258e+00 9.512914e+00 9.829374e+00 9.975957e+00 9.970540e+00 9.766680e+00 9.380716e+00 8.864858e+00 8.154827e+00 7.299971e+00 6.365067e+00 5.629077e+00 5.338373e+00 5.431212e+00 5.665972e+00
<GCONST> 2.047681e+02
<STREAM> 2
<NUMMIXES> 2
<MIXTURE> 1 8.783395e-01
<MEAN> 1
 4.546135e+00
<VARIANCE> 1
 1.055680e-02
<GCONST> -2.713108e+00
<MIXTURE> 2 1.216594e-01
<MEAN> 0
<VARIANCE> 0
<GCONST> 0.000000e+00
<STREAM> 3
<NUMMIXES> 2
<MIXTURE> 1 8.548571e-01
<MEAN> 1
 1.362396e-03
<VARIANCE> 1
 3.553591e-04
<GCONST> -6.104505e+00
<MIXTURE> 2 1.451421e-01
<MEAN> 0
<VARIANCE> 0
<GCONST> 0.000000e+00
<STREAM> 4
<NUMMIXES> 2
<MIXTURE> 1 8.548562e-01
<MEAN> 1
 7.500000e-01
<VARIANCE> 1
 8.940651e+14
<GCONST> 3.626468e+01
<MIXTURE> 2 1.451432e-01
<MEAN> 0
<VARIANCE> 0
<GCONST> 0.000000e+00
<STATE> 6
<STREAM> 1
<MEAN> 75
 7.728016e-02 9.888752e-02 1.216417e-01 1.310595e-01 1.316893e-01 1.345612e-01 1.426856e-01 1.633615e-01 1.873695e-01 2.013894e-01 2.125664e-01 2.195040e-01 2.312243e-01 2.757317e-01 3.340197e-01 3.970556e-01 4.544659e-01 4.852154e-01 4.791377e-01 4.521624e-01 4.092909e-01 3.616532e-01 3.052828e-01 2.304419e-01 1.447914e-01 -7.419528e-03 -2.113233e-02 -1.657658e-02 -5.517467e-03 -1.267112e-03 -6.309755e-03 -1.592313e-02 -2.362217e-02 -2.172456e-02 -1.488217e-02 -7.606777e-03 -8.858938e-03 -2.879576e-02 -5.182117e-02 -6.162570e-02 -6.008154e-02 -4.435609e-02 -1.500490e-02 1.469034e-02 3.552079e-02 4.424582e-02 5.213081e-02 6.794772e-02 8.175175e-02 7.556891e-02 2.666102e-02 2.140912e-03 -1.091014e-02 -1.029323e-02 2.650818e-03 6.598499e-03 1.246226e-02 2.251128e-03 -6.047541e-03 -8.543667e-03 -7.463727e-03 9.348127e-03 3.100005e-02 1.707706e-02 5.893621e-03 -7.024264e-03 -2.385650e-02 -3.528786e-02 -2.780259e-02 -1.653052e-02 -3.597349e-03 -1.188425e-02 -1.852880e-02 -9.869917e-03 2.225831e-02
<VARIANCE> 75
 1.058186e+00 1.207200e+00 1.319038e+00 1.358501e+00 1.351781e+00 1.373568e+00 1.435839e+00 1.549822e+00 1.642852e+00 1.686237e+00 1.685013e+00 1.660652e+00 1.715341e+00 1.943806e+00 2.219487e+00 2.502257e+00 2.716635e+00 2.822957e+00 2.787643e+00 2.664363e+00 2.473906e+00 2.281687e+00 2.015397e+00 1.667256e+00 1.255196e+00 5.459903e-01 5.996938e-01 6.501399e-01 6.783751e-01 6.964543e-01 7.131145e-01 7.549332e-01 7.979766e-01 8.405759e-01 8.581189e-01 8.604932e-01 8.774017e-01 9.341167e-01 1.040106e+00 1.191928e+00 1.339081e+00 1.455712e+00 1.504944e+00 1.493124e+00 1.418076e+00 1.316646e+00 1.179312e+00 1.021654e+00 8.215671e-01 6.506569e-01 4.507205e+00 4.883394e+00 5.152958e+00 5.250529e+00 5.264057e+00 5.330709e+00 5.534835e+00 5.874842e+00 6.145454e+00 6.292209e+00 6.318676e+00 6.361775e+00 6.706210e+00 7.590972e+00 8.684216e+00 9.747903e+00 1.057035e+01 1.097558e+01 1.088140e+01 1.049655e+01 9.818800e+00 8.967953e+00 7.846151e+00 6.410939e+00 4.930179e+00
<GCONST> 1.987315e+02
<STREAM> 2
<NUMMIXES> 2
<MIXTURE> 1 7.604272e-01
<MEAN> 1
 4.547688e+00
<VARIANCE> 1
 1.055680e-02
<GCONST> -2.713108e+00
<MIXTURE> 2 2.395736e-01
<MEAN> 0
<VARIANCE> 0
<GCONST> 0.000000e+00
<STREAM> 3
<NUMMIXES> 2
<MIXTURE> 1 7.142696e-01
<MEAN> 1
 2.159953e-03
<VARIANCE> 1
 3.553591e-04
<GCONST> -6.104505e+00
<MIXTURE> 2 2.857298e-01
<MEAN> 0
<VARIANCE> 0
<GCONST> 0.000000e+00
<STREAM> 4
<NUMMIXES> 2
<MIXTURE> 1 7.142704e-01
<MEAN> 1
 4.250000e+00
<VARIANCE> 1
 8.940651e+14
<GCONST> 3.626468e+01
<MIXTURE> 2 2.857296e-01
<MEAN> 0
<VARIANCE> 0
<GCONST> 0.000000e+00
<TRANSP> 7
 0.000000e+00 1.000000e+00 0.000000e+00 0.000000e+00 0.000000e+00 0.000000e+00 0.000000e+00
 0.000000e+00 0.000000e+00 1.000000e+00 0.000000e+00 0.000000e+00 0.000000e+00 0.000000e+00
 0.000000e+00 0.000000e+00 0.000000e+00 1.000000e+00 0.000000e+00 0.000000e+00 0.000000e+00
 0.000000e+00 0.000000e+00 0.000000e+00 0.000000e+00 1.000000e+00 0.000000e+00 0.000000e+00
 0.000000e+00 0.000000e+00 0.000000e+00 0.000000e+00 0.000000e+00 1.000000e+00 0.000000e+00
 0.000000e+00 0.000000e+00 0.000000e+00 0.000000e+00 0.000000e+00 0.000000e+00 1.000000e+00
 0.000000e+00 0.000000e+00 0.000000e+00 0.000000e+00 0.000000e+00 0.000000e+00 0.000000e+00
<ENDHMM>
~h "b"
<BEGINHMM>
<NUMSTATES> 7
<STATE> 2
<STREAM> 1
<MEAN> 75
 1.700692e-01 1.126149e-01 7.141688e-02 4.755254e-02 4.368073e-02 5.624346e-02 7.902829e-02 1.139281e-01 1.552225e-01 2.121521e-01 2.687935e-01 3.209989e-01 3.654128e-01 4.047850e-01 4.290771e-01 4.434682e-01 4.661451e-01 4.651020e-01 4.097617e-01 3.388371e-01 2.923151e-01 2.671664e-01 2.498030e-01 2.372860e-01 2.344262e-01 5.014307e-02 4.679018e-02 3.123732e-02 1.034512e-02 -9.605655e-03 -2.183409e-02 -3.218336e-02 -4.161047e-02 -5.303851e-02 -5.980762e-02 -6.014390e-02 -5.442417e-02 -4.560531e-02 -3.341444e-02 -2.099126e-02 -1.113330e-02 5.777831e-03 4.387382e-02 7.371207e-02 6.615322e-02 4.515254e-02 2.630121e-02 1.514116e-02 4.916841e-03 5.847035e-03 -1.073706e-02 1.091496e-02 1.776808e-02 2.511876e-02 1.557962e-02 1.129179e-02 1.132824e-02 1.099527e-02 1.213848e-02 2.538111e-03 -2.959907e-03 -1.042625e-02 -1.243365e-02 -1.235951e-02 -9.245575e-03 -1.744839e-02 -6.068921e-02 -5.358685e-02 -3.374141e-04 2.423907e-02 2.652321e-02 1.615240e-02 1.032540e-02 1.705356e-02 -8.531448e-03
<VARIANCE> 75
 9.165886e-01 6.623449e-01 4.943807e-01 4.489862e-01 4.768015e-01 5.431022e-01 6.167511e-01 7.347792e-01 8.708376e-01 1.061322e+00 1.231833e+00 1.395278e+00 1.508978e+00 1.623333e+00 1.664942e+00 1.695417e+00 1.735085e+00 1.731818e+00 1.581077e+00 1.357983e+00 1.209142e+00 1.188554e+00 1.177088e+00 1.184453e+00 1.209236e+00 4.130173e-01 2.948691e-01 2.317526e-01 2.118144e-01 2.236742e-01 2.501583e-01 2.962632e-01 3.466035e-01 4.239918e-01 5.058792e-01 5.983599e-01 6.725210e-01 7.510895e-01 8.074436e-01 8.442400e-01 8.353220e-01 8.232617e-01 8.325055e-01 7.882740e-01 6.810644e-01 6.112111e-01 5.764053e-01 5.739574e-01 5.832484e-01 5.659527e-01 3.245879e+00 2.370411e+00 1.911158e+00 1.848709e+00 1.895276e+00 2.028568e+00 2.264801e+00 2.654490e+00 3.145124e+00 3.822458e+00 4.440509e+00 4.986401e+00 5.440333e+00 5.816269e+00 5.904779e+00 5.890007e+00 6.046844e+00 6.161332e+00 5.792733e+00 5.014287e+00 4.520210e+00 4.378958e+00 4.322199e+00 4.438183e+00 4.501872e+00
<GCONST> 1.550163e+02
<STREAM> 2
<NUMMIXES> 2
<MIXTURE> 1 6.777668e-01
<MEAN> 1
 4.526647e+00
<VARIANCE> 1
 1.055680e-02
<GCONST> -2.713108e+00
<MIXTURE> 2 3.222345e-01
<MEAN> 0
<VARIANCE> 0
<GCONST> 0.000000e+00
<STREAM> 3
<NUMMIXES> 2
<MIXTURE> 1 6.356192e-01
<MEAN> 1
 3.352358e-03
<VARIANCE> 1
 3.553591e-04
<GCONST> -6.104505e+00
<MIXTURE> 2 3.643828e-01
<MEAN> 0
<VARIANCE> 0
<GCONST> 0.000000e+00
<STREAM> 4
<NUMMIXES> 2
<MIXTURE> 1 6.356194e-01
<MEAN> 1
 -8.000000e+00
<VARIANCE> 1
 8.940651e+14
<GCONST> 3.626468e+01
<MIXTURE> 2 3.643827e-01
<MEAN> 0
<VARIANCE> 0
<GCONST> 0.000000e+00
<STATE> 3
<STREAM> 1
<MEAN> 75
 2.518478e-01 2.468247e-01 2.313464e-01 2.078306e-01 1.768256e-01 1.486771e-01 1.257691e-01 1.105561e-01 9.419347e-02 8.682702e-02 9.545490e-02 1.126845e-01 1.454804e-01 1.983285e-01 2.598275e-01 3.138157e-01 3.611137e-01 4.175734e-01 4.567952e-01 4.549774e-01 4.266957e-01 3.805465e-01 3.304591e-01 2.895209e-01 2.591212e-01 1.868524e-06 8.893463e-03 1.975916e-02 2.626656e-02 2.782783e-02 2.445578e-02 1.986450e-02 1.549637e-02 1.089674e-02 -7.525067e-04 -1.327775e-02 -2.737349e-02 -4.340814e-02 -5.380413e-02 -5.587900e-02 -5.112184e-02 -5.086293e-02 -4.551019e-02 -1.779039e-02 1.802682e-02 4.149055e-02 5.000880e-02 4.473239e-02 3.336069e-02 1.838343e-02 -4.868322e-03 -9.617780e-03 -9.779860e-03 -3.901182e-03 2.714438e-03 4.246605e-03 4.983528e-03 2.804493e-03 8.335480e-03 1.342262e-02 1.207569e-02 1.773949e-02 1.472952e-02 8.907298e-03 -3.386024e-03 -3.317763e-03 1.883209e-03 -2.515815e-02 -4.099321e-02 -3.090859e-02 -1.597773e-02 -1.811001e-04 8.956290e-03 9.789528e-03 1.851201e-02
<VARIANCE> 75
 1.158724e+00 1.151753e+00 1.108531e+00 1.015464e+00 9.113263e-01 8.124991e-01 7.410434e-01 6.795714e-01 6.107975e-01 5.734547e-01 5.925630e-01 6.505983e-01 7.831204e-01 9.570180e-01 1.171178e+00 1.328083e+00 1.442753e+00 1.605492e+00 1.703204e+00 1.652752e+00 1.496115e+00 1.321364e+00 1.188037e+00 1.104526e+00 1.070814e+00 5.434598e-01 5.368537e-01 5.026258e-01 4.657591e-01 4.202338e-01 3.723224e-01 3.339477e-01 3.042220e-01 2.779357e-01 2.629734e-01 2.688664e-01 3.074037e-01 3.651640e-01 4.551435e-01 5.470608e-01 6.342220e-01 7.068685e-01 7.673116e-01 8.168204e-01 7.991791e-01 7.243033e-01 6.421379e-01 5.698469e-01 5.272570e-01 5.219957e-01 4.211022e+00 4.127787e+00 3.877671e+00 3.498401e+00 3.163001e+00 2.842268e+00 2.586609e+00 2.361583e+00 2.118248e+00 1.970734e+00 2.017690e+00 2.258600e+00 2.755883e+00 3.382012e+00 4.136025e+00 4.717024e+00 5.106765e+00 5.675631e+00 5.998897e+00 5.743471e+00 5.099930e+00 4.528956e+00 4.188325e+00 3.984071e+00 3.947826e+00
<GCONST> 1.517163e+02
<STREAM> 2
<NUMMIXES> 2
<MIXTURE> 1 7.079459e-01
<MEAN> 1
 4.523018e+00
<VARIANCE> 1
 1.055680e-02
<GCONST> -2.713108e+00
<MIXTURE> 2 2.920553e-01
<MEAN> 0
<VARIANCE> 0
<GCONST> 0.000000e+00
<STREAM> 3
<NUMMIXES> 2
<MIXTURE> 1 6.686194e-01
<MEAN> 1
 2.165031e-03
<VARIANCE> 1
 3.553591e-04
<GCONST> -6.104505e+00
<MIXTURE> 2 3.313832e-01
<MEAN> 0
<VARIANCE> 0
<GCONST> 0.000000e+00
<STREAM> 4
<NUMMIXES> 2
<MIXTURE> 1 6.686201e-01
<MEAN> 1
 -6.500000e+00
<VARIANCE> 1
 8.940651e+14
<GCONST> 3.626468e+01
<MIXTURE> 2 3.313821e-01
<MEAN> 0
<VARIANCE> 0
<GCONST> 0.000000e+00
<STATE> 4
<STREAM> 1
<MEAN> 75
 2.763869e-01 2.402665e-01 2.198176e-01 2.043077e-01 1.896702e-01 1.736188e-01 1.561764e-01 1.477918e-01 1.457126e-01 1.408302e-01 1.352164e-01 1.349566e-01 1.404371e-01 1.536299e-01 1.682293e-01 1.922123e-01 2.263750e-01 2.776239e-01 3.431565e-01 3.959183e-01 4.205046e-01 4.293674e-01 4.256455e-01 4.051980e-01 3.732284e-01 4.187477e-02 2.614620e-02 1.575264e-02 1.413082e-02 1.572041e-02 1.695325e-02 1.323850e-02 5.451677e-03 1.367736e-03 2.427942e-03 2.685073e-04 -4.580539e-03 -7.830376e-03 -1.237851e-02 -1.802639e-02 -2.833299e-02 -4.153241e-02 -5.587706e-02 -5.622061e-02 -3.366939e-02 -1.105888e-02 -1.514329e-04 1.016457e-02 2.214809e-02 3.838762e-02 1.438188e-02 1.356266e-02 3.687498e-03 -3.328472e-04 -1.710138e-03 1.209045e-04 7.491553e-03 7.997356e-03 3.808082e-04 -1.727701e-03 5.296009e-03 4.822955e-03 4.812792e-03 5.318925e-04 9.261558e-03 1.256688e-02 1.626185e-02 1.388712e-02 -1.631726e-02 -2.845612e-02 -1.428312e-02 -6.820196e-03 -9.298212e-03 -1.375805e-02 -1.867544e-02
<VARIANCE> 75
 1.040359e+00 9.451675e-01 9.010820e-01 8.741654e-01 8.408849e-01 7.950472e-01 7.561414e-01 7.562389e-01 7.782471e-01 7.841976e-01 7.595666e-01 7.560968e-01 7.695859e-01 8.057290e-01 8.534940e-01 9.503753e-01 1.074221e+00 1.233015e+00 1.443134e+00 1.608722e+00 1.644581e+00 1.596416e+00 1.524875e+00 1.447051e+00 1.347956e+00 4.891558e-01 4.421622e-01 4.131638e-01 3.940243e-01 3.744744e-01 3.540868e-01 3.444781e-01 3.454017e-01 3.508637e-01 3.550352e-01 3.509621e-01 3.481147e-01 3.573749e-01 3.671290e-01 4.062937e-01 4.554627e-01 5.266256e-01 6.110703e-01 6.890020e-01 7.717059e-01 8.078184e-01 7.919326e-01 7.524271e-01 6.950465e-01 6.258072e-01 3.851662e+00 3.522736e+00 3.327905e+00 3.189019e+00 3.036296e+00 2.842934e+00 2.697954e+00 2.676906e+00 2.734311e+00 2.753081e+00 2.652405e+00 2.611547e+00 2.658905e+00 2.802768e+00 3.055551e+00 3.541128e+00 4.067841e+00 4.666657e+00 5.385334e+00 5.923075e+00 5.992252e+00 5.712134e+00 5.432756e+00 5.204380e+00 4.882495e+00
<GCONST> 1.516517e+02
<STREAM> 2
<NUMMIXES> 2
<MIXTURE> 1 6.703451e-01
<MEAN> 1
 4.521658e+00
<VARIANCE> 1
 1.055680e-02
<GCONST> -2.713108e+00
<MIXTURE> 2 3.296545e-01
<MEAN> 0
<VARIANCE> 0
<GCONST> 0.000000e+00
<STREAM> 3
<NUMMIXES> 2
<MIXTURE> 1 6.298695e-01
<MEAN> 1
 1.830188e-03
<VARIANCE> 1
 3.553591e-04
<GCONST> -6.104505e+00
<MIXTURE> 2 3.701295e-01
<MEAN> 0
<VARIANCE> 0
<GCONST> 0.000000e+00
<STREAM> 4
<NUMMIXES> 2
<MIXTURE> 1 6.298699e-01
<MEAN> 1
 -9.000000e+00
<VARIANCE> 1
 8.940651e+14
<GCONST> 3.626468e+01
<MIXTURE> 2 3.701293e-01
<MEAN> 0
<VARIANCE> 0
<GCONST> 0.000000e+00
<STATE> 5
<STREAM> 1
<MEAN> 75
 4.178612e-01 3.723786e-01 3.289205e-01 2.893437e-01 2.498644e-01 2.116458e-01 1.805201e-01 1.548142e-01 1.346368e-01 1.164688e-01 1.006168e-01 9.149840e-02 9.086324e-02 9.682359e-02 1.162076e-01 1.394483e-01 1.659583e-01 1.906646e-01 2.224742e-01 2.804604e-01 3.464201e-01 3.980899e-01 4.340103e-01 4.471862e-01 4.508384e-01 3.257881e-02 3.866955e-02 3.770828e-02 3.866741e-02 3.886838e-02 3.256737e-02 2.662771e-02 2.278476e-02 1.883356e-02 1.571347e-02 1.065943e-02 5.053431e-03 -1.841122e-03 -1.196196e-02 -1.966543e-02 -2.305246e-02 -2.366007e-02 -2.621776e-02 -4.084854e-02 -5.661127e-02 -5.412944e-02 -3.843930e-02 -2.144675e-02 -7.184110e-03 8.083540e-04 -9.791018e-03 2.454099e-03 1.380921e-03 -2.372908e-03 1.409498e-03 7.233520e-03 3.951528e-03 4.255066e-03 5.057163e-03 5.624841e-03 4.113384e-03 6.531397e-03 8.046662e-03 1.111270e-02 1.890472e-03 2.971337e-03 -3.516841e-03 7.797905e-03 2.372618e-02 4.325361e-03 -1.528279e-02 -1.899340e-02 -1.562522e-02 -6.697730e-03 -7.148827e-03
<VARIANCE> 75
 1.538031e+00 1.365342e+00 1.216952e+00 1.089870e+00 9.653093e-01 8.326870e-01 7.310286e-01 6.576148e-01 6.062279e-01 5.796440e-01 5.504209e-01 5.352784e-01 5.576558e-01 5.974694e-01 6.833797e-01 7.772579e-01 8.885266e-01 9.740683e-01 1.087574e+00 1.308970e+00 1.559285e+00 1.732599e+00 1.809455e+00 1.794750e+00 1.762542e+00 7.577457e-01 6.653612e-01 5.756848e-01 4.997294e-01 4.386990e-01 3.749306e-01 3.235504e-01 2.869929e-01 2.647229e-01 2.545248e-01 2.428104e-01 2.376350e-01 2.515697e-01 2.788453e-01 3.131698e-01 3.682448e-01 4.134602e-01 4.741305e-01 5.561767e-01 6.441746e-01 7.608621e-01 8.517839e-01 9.018366e-01 9.097221e-01 8.955157e-01 5.981510e+00 5.289818e+00 4.672211e+00 4.201553e+00 3.737878e+00 3.176752e+00 2.720475e+00 2.440398e+00 2.236819e+00 2.147279e+00 2.021959e+00 1.941575e+00 2.031154e+00 2.236725e+00 2.529932e+00 2.901180e+00 3.320495e+00 3.703716e+00 4.216513e+00 5.089252e+00 6.049177e+00 6.747671e+00 7.016253e+00 7.001446e+00 6.948094e+00
<GCONST> 1.493446e+02
<STREAM> 2
<NUMMIXES> 2
<MIXTURE> 1 6.646625e-01
<MEAN> 1
 4.516844e+00
<VARIANCE> 1
 1.055680e-02
<GCONST> -2.713108e+00
<MIXTURE> 2 3.353359e-01
<MEAN> 0
<VARIANCE> 0
<GCONST> 0.000000e+00
<STREAM> 3
<NUMMIXES> 2
<MIXTURE> 1 6.301871e-01
<MEAN> 1
 2.026099e-03
<VARIANCE> 1
 3.553591e-04
<GCONST> -6.104505e+00
<MIXTURE> 2 3.698121e-01
<MEAN> 0
<VARIANCE> 0
<GCONST> 0.000000e+00
<STREAM> 4
<NUMMIXES> 2
<MIXTURE> 1 6.301866e-01
<MEAN> 1
 6.000000e+00
<VARIANCE> 1
 8.940651e+14
<GCONST> 3.626468e+01
<MIXTURE> 2 3.698125e-01
<MEAN> 0
<VARIANCE> 0
<GCONST> 0.000000e+00
<STATE> 6
<STREAM> 1
<MEAN> 75
 4.811606e-01 4.376351e-01 4.072926e-01 3.876033e-01 3.737125e-01 3.540931e-01 3.284944e-01 2.899382e-01 2.501254e-01 2.123107e-01 1.674278e-01 1.339765e-01 1.087459e-01 7.776415e-02 5.298887e-02 5.393893e-02 6.477271e-02 9.392551e-02 1.322693e-01 1.652898e-01 2.031893e-01 2.498328e-01 2.967431e-01 3.472625e-01 4.097312e-01 2.059064e-02 4.101414e-02 3.102192e-02 2.129768e-02 1.728696e-02 2.544075e-02 3.658503e-02 4.118964e-02 4.066895e-02 4.051726e-02 3.756240e-02 3.012960e-02 2.756537e-02 2.401443e-02 6.768341e-03 -9.872320e-03 -2.204977e-02 -3.189394e-02 -3.283453e-02 -3.308105e-02 -4.111618e-02 -4.483271e-02 -4.760074e-02 -5.526327e-02 -6.178541e-02 -4.918978e-02 1.327114e-02 1.447387e-02 1.303172e-02 -1.912916e-03 -6.426957e-03 -5.027644e-03 -6.588659e-04 5.991735e-04 7.680338e-04 1.013264e-02 5.597198e-03 -4.225733e-04 9.772655e-03 2.026233e-02 7.431895e-03 1.411858e-02 4.442318e-03 -5.610445e-03 4.297575e-03 5.835398e-03 -1.561270e-03 3.822013e-03 1.020607e-02 7.402479e-04
<VARIANCE> 75
 2.024360e+00 1.771359e+00 1.636625e+00 1.572945e+00 1.531803e+00 1.460314e+00 1.360479e+00 1.236764e+00 1.072518e+00 9.376231e-01 7.853011e-01 6.771904e-01 5.864695e-01 4.856923e-01 4.230204e-01 4.673600e-01 5.444870e-01 7.005954e-01 8.646219e-01 9.828717e-01 1.137887e+00 1.332641e+00 1.511187e+00 1.680673e+00 1.918371e+00 9.995819e-01 9.306192e-01 8.437451e-01 7.887007e-01 7.483454e-01 7.049716e-01 6.493640e-01 5.765094e-01 4.980899e-01 4.273828e-01 3.646731e-01 3.067836e-01 2.565411e-01 2.156092e-01 1.998316e-01 2.066427e-01 2.637709e-01 3.261203e-01 4.039702e-01 4.865377e-01 5.626982e-01 6.561943e-01 7.606906e-01 8.649431e-01 9.927171e-01 7.918484e+00 7.218841e+00 6.797351e+00 6.490280e+00 6.327928e+00 5.974953e+00 5.505725e+00 5.062304e+00 4.401795e+00 3.883312e+00 3.247551e+00 2.689130e+00 2.319454e+00 1.969534e+00 1.768892e+00 1.880009e+00 2.268442e+00 2.884260e+00 3.425029e+00 3.843578e+00 4.488749e+00 5.243604e+00 5.949417e+00 6.780858e+00 7.892275e+00
<GCONST> 1.572337e+02
<STREAM> 2
<NUMMIXES> 2
<MIXTURE> 1 6.898460e-01
<MEAN> 1
 4.510977e+00
<VARIANCE> 1
 1.733461e-02
<GCONST> -2.217173e+00
<MIXTURE> 2 3.101541e-01
<MEAN> 0
<VARIANCE> 0
<GCONST> 0.000000e+00
<STREAM> 3
<NUMMIXES> 2
<MIXTURE> 1 6.567283e-01
<MEAN> 1
 2.277873e-03
<VARIANCE> 1
 3.553591e-04
<GCONST> -6.104505e+00
<MIXTURE> 2 3.432719e-01
<MEAN> 0
<VARIANCE> 0
<GCONST> 0.000000e+00
<STREAM> 4
<NUMMIXES> 2
<MIXTURE> 1 6.567286e-01
<MEAN> 1
 3.000000e+00
<VARIANCE> 1
 8.940651e+14
<GCONST> 3.626468e+01
<MIXTURE> 2 3.432716e-01
<MEAN> 0
<VARIANCE> 0
<GCONST> 0.000000e+00
<TRANSP> 7
 0.000000e+00 1.000000e+00 0.000000e+00 0.000000e+00 0.000000e+00 0.000000e+00 0.000000e+00
 0.000000e+00 0.000000e+00 1.000000e+00 0.000000e+00 0.000000e+00 0.000000e+00 0.000000e+00
 0.000000e+00 0.000000e+00 0.000000e+00 1.000000e+00 0.000000e+00 0.000000e+00 0.000000e+00
 0.000000e+00 0.000000e+00 0.000000e+00 0.000000e+00 1.000000e+00 0.000000e+00 0.000000e+00
 0.000000e+00 0.000000e+00 0.000000e+00 0.000000e+00 0.000000e+00 1.000000e+00 0.000000e+00
 0.000000e+00 0.000000e+00 0.000000e+00 0.000000e+00 0.000000e+00 0.000000e+00 1.000000e+00
 0.000000e+00 0.000000e+00 0.000000e+00 0.000000e+00 0.000000e+00 0.000000e+00 0.000000e+00
<ENDHMM>
~h "d"
<BEGINHMM>
<NUMSTATES> 7
<STATE> 2
<STREAM> 1
<MEAN> 75
 4.084307e-01 3.939477e-01 3.595244e-01 3.231497e-01 2.823882e-01 2.445096e-01 2.120359e-01 1.876693e-01 1.693688e-01 1.575271e-01 1.460939e-01 1.328999e-01 1.257047e-01 1.246707e-01 1.289663e-01 1.414530e-01 1.673093e-01 2.063673e-01 2.363980e-01 2.636031e-01 2.830764e-01 2.961178e-01 3.144911e-01 3.400108e-01 3.728797e-01 3.983442e-03 2.473897e-02 3.535522e-02 3.790685e-02 3.782359e-02 3.322310e-02 2.725188e-02 2.004814e-02 1.444479e-02 1.199249e-02 1.300696e-02 1.043307e-02 3.699512e-03 -2.463227e-03 -8.835739e-03 -1.792164e-02 -2.912249e-02 -3.239923e-02 -2.727385e-02 -2.511567e-02 -1.813249e-02 -1.477643e-02 -2.301605e-02 -3.078579e-02 -2.904161e-02 -2.420562e-02 -1.759131e-02 -2.478292e-03 -2.735431e-03 2.677689e-03 5.355739e-03 8.035430e-03 5.500830e-03 4.526012e-03 8.853669e-04 -1.359101e-03 5.905843e-03 8.224329e-03 5.371704e-03 9.315095e-03 8.865195e-03 6.820811e-03 -8.395217e-03 -2.247841e-03 -1.967582e-03 -1.073362e-02 6.942065e-03 9.566919e-03 5.749679e-03 -5.021228e-03
<VARIANCE> 75
 2.084996e+00 1.990735e+00 1.827389e+00 1.669982e+00 1.515899e+00 1.379968e+00 1.257317e+00 1.171486e+00 1.106855e+00 1.064059e+00 1.013795e+00 9.565162e-01 9.175121e-01 9.294434e-01 9.506251e-01 1.011842e+00 1.131277e+00 1.307482e+00 1.429922e+00 1.533011e+00 1.631587e+00 1.682382e+00 1.744832e+00 1.857095e+00 1.979474e+00 1.046114e+00 9.946549e-01 9.170545e-01 8.241442e-01 7.461939e-01 6.700634e-01 6.125951e-01 5.621473e-01 5.291978e-01 4.992782e-01 4.711765e-01 4.455270e-01 4.335892e-01 4.354447e-01 4.584500e-01 4.902137e-01 5.487530e-01 6.191289e-01 7.012149e-01 7.536165e-01 7.904941e-01 8.413649e-01 8.891001e-01 9.496979e-01 1.009381e+00 8.193534e+00 7.816882e+00 7.243987e+00 6.612467e+00 6.015895e+00 5.497519e+00 5.010270e+00 4.648275e+00 4.375599e+00 4.167739e+00 3.946849e+00 3.727787e+00 3.612844e+00 3.654949e+00 3.746303e+00 4.004197e+00 4.500295e+00 5.216800e+00 5.754256e+00 6.139121e+00 6.441898e+00 6.714305e+00 7.098569e+00 7.556119e+00 7.961035e+00
<GCONST> 1.772489e+02
<STREAM> 2
<NUMMIXES> 2
<MIXTURE> 1 6.425593e-01
<MEAN> 1
 4.515141e+00
<VARIANCE> 1
 2.466041e-02
<GCONST> -1.864679e+00
<MIXTURE> 2 3.574486e-01
<MEAN> 0
<VARIANCE> 0
<GCONST> 0.000000e+00
<STREAM> 3
<NUMMIXES> 2
<MIXTURE> 1 6.125257e-01
<MEAN> 1
 2.630572e-03
<VARIANCE> 1
 3.553591e-04
<GCONST> -6.104505e+00
<MIXTURE> 2 3.874829e-01
<MEAN> 0
<VARIANCE> 0
<GCONST> 0.000000e+00
<STREAM> 4
<NUMMIXES> 2
<MIXTURE> 1 6.125246e-01
<MEAN> 1
 -1.675000e+01
<VARIANCE> 1
 8.940651e+14
<GCONST> 3.626468e+01
<MIXTURE> 2 3.874842e-01
<MEAN> 0
<VARIANCE> 0
<GCONST> 0.000000e+00
<STATE> 3
<STREAM> 1
<MEAN> 75
 3.379067e-01 3.806514e-01 4.181954e-01 4.375482e-01 4.375443e-01 4.098975e-01 3.658397e-01 3.152930e-01 2.680263e-01 2.292277e-01 2.022137e-01 1.801805e-01 1.613368e-01 1.459059e-01 1.337601e-01 1.227319e-01 1.162366e-01 1.175794e-01 1.255361e-01 1.449050e-01 1.679949e-01 1.951294e-01 2.123980e-01 2.292488e-01 2.564927e-01 -4.281335e-02 -4.031523e-02 -2.955854e-02 -1.252782e-02 1.134835e-02 3.345049e-02 4.607719e-02 4.894404e-02 4.415954e-02 3.440439e-02 2.555654e-02 2.024191e-02 1.730767e-02 1.442483e-02 1.234509e-02 8.939513e-03 2.208602e-03 -6.258374e-03 -1.349969e-02 -1.834933e-02 -2.467446e-02 -2.248896e-02 -1.606850e-02 -2.123859e-02 -3.131293e-02 -3.634914e-04 -5.370203e-03 -1.662975e-02 -2.004485e-02 -2.712289e-02 -1.819557e-02 -7.949129e-03 2.482713e-03 8.007555e-03 1.096576e-02 7.330152e-03 2.506459e-03 2.417891e-03 3.303622e-03 1.693381e-03 5.836511e-03 7.005192e-03 9.125778e-03 5.719667e-03 6.612664e-03 7.267248e-03 -1.225125e-02 2.031152e-03 9.439509e-03 1.031107e-02
<VARIANCE> 75
 1.805741e+00 1.974851e+00 2.088590e+00 2.130016e+00 2.079165e+00 1.940156e+00 1.750658e+00 1.558740e+00 1.379573e+00 1.252023e+00 1.164857e+00 1.090800e+00 1.017081e+00 9.590021e-01 9.073932e-01 8.573356e-01 8.310210e-01 8.555332e-01 9.452901e-01 1.022363e+00 1.094923e+00 1.197765e+00 1.253768e+00 1.332891e+00 1.448410e+00 9.181064e-01 1.003314e+00 1.064859e+00 1.078786e+00 1.043340e+00 9.663620e-01 8.670220e-01 7.644030e-01 6.761044e-01 6.057219e-01 5.559997e-01 5.110462e-01 4.716569e-01 4.403856e-01 4.133366e-01 3.951447e-01 3.898012e-01 4.019755e-01 4.320710e-01 4.791386e-01 5.280040e-01 5.591412e-01 6.108121e-01 6.577644e-01 7.293183e-01 7.308275e+00 7.931117e+00 8.357056e+00 8.512574e+00 8.302071e+00 7.757522e+00 7.016347e+00 6.245414e+00 5.523473e+00 4.997193e+00 4.625916e+00 4.310417e+00 4.003155e+00 3.784492e+00 3.572135e+00 3.367992e+00 3.294674e+00 3.394084e+00 3.658774e+00 3.999114e+00 4.365965e+00 4.737883e+00 4.976049e+00 5.340614e+00 5.871525e+00
<GCONST> 1.734990e+02
<STREAM> 2
<NUMMIXES> 2
<MIXTURE> 1 5.973962e-01
<MEAN> 1
 4.513531e+00
<VARIANCE> 1
 2.899305e-02
<GCONST> -1.702822e+00
<MIXTURE> 2 4.026095e-01
<MEAN> 0
<VARIANCE> 0
<GCONST> 0.000000e+00
<STREAM> 3
<NUMMIXES> 2
<MIXTURE> 1 5.687676e-01
<MEAN> 1
 2.464052e-03
<VARIANCE> 1
 3.553591e-04
<GCONST> -6.104505e+00
<MIXTURE> 2 4.312394e-01
<MEAN> 0
<VARIANCE> 0
<GCONST> 0.000000e+00
<STREAM> 4
<NUMMIXES> 2
<MIXTURE> 1 5.687690e-01
<MEAN> 1
 1.125000e+01
<VARIANCE> 1
 8.940651e+14
<GCONST> 3.626468e+01
<MIXTURE> 2 4.312385e-01
<MEAN> 0
<VARIANCE> 0
<GCONST> 0.000000e+00
<STATE> 4
<STREAM> 1
<MEAN> 75
 2.075100e-01 2.356459e-01 2.695367e-01 3.061386e-01 3.442015e-01 3.862652e-01 4.167544e-01 4.256009e-01 4.111975e-01 3.782322e-01 3.387585e-01 2.996865e-01 2.642676e-01 2.333371e-01 2.076185e-01 1.871852e-01 1.592322e-01 1.401283e-01 1.282006e-01 1.195754e-01 1.218020e-01 1.312793e-01 1.529135e-01 1.656434e-01 1.761619e-01 -2.299121e-02 -3.147577e-02 -3.575844e-02 -3.826997e-02 -4.110210e-02 -3.689543e-02 -2.055672e-02 2.136235e-03 2.373273e-02 3.651126e-02 3.881940e-02 3.605695e-02 3.219150e-02 2.843976e-02 2.471566e-02 2.301425e-02 2.157588e-02 1.896996e-02 1.264393e-02 4.189532e-03 -3.809192e-03 -1.472114e-02 -1.659980e-02 -1.136631e-02 -1.220400e-02 1.032590e-02 5.485030e-03 4.058522e-03 2.613235e-03 4.748736e-03 -1.128568e-02 -2.117156e-02 -2.548306e-02 -1.829065e-02 -7.530849e-03 1.573897e-03 4.016310e-03 3.267107e-03 3.663939e-03 3.501386e-03 -1.225260e-03 2.787408e-03 4.748563e-03 8.515742e-03 8.340461e-03 9.239098e-03 1.256697e-02 -9.781153e-03 -1.109881e-03 1.094967e-03
<VARIANCE> 75
 1.225078e+00 1.336937e+00 1.476171e+00 1.619717e+00 1.775439e+00 1.917623e+00 1.999107e+00 1.994596e+00 1.899449e+00 1.744033e+00 1.601576e+00 1.464716e+00 1.337624e+00 1.230251e+00 1.143821e+00 1.062252e+00 9.957064e-01 9.132266e-01 8.532938e-01 8.304387e-01 8.488171e-01 8.982235e-01 9.981911e-01 1.047975e+00 1.094324e+00 6.026472e-01 6.664234e-01 7.366734e-01 8.198076e-01 9.023572e-01 9.680828e-01 9.997619e-01 9.935215e-01 9.424711e-01 8.688427e-01 7.906393e-01 7.205065e-01 6.497030e-01 5.896786e-01 5.414488e-01 4.914480e-01 4.470327e-01 4.209180e-01 3.969012e-01 3.888791e-01 3.975377e-01 4.301054e-01 4.558733e-01 4.948597e-01 5.176786e-01 4.941859e+00 5.413373e+00 5.943910e+00 6.542013e+00 7.207741e+00 7.804309e+00 8.117969e+00 8.145209e+00 7.806419e+00 7.234923e+00 6.653398e+00 6.042486e+00 5.461358e+00 5.011651e+00 4.669754e+00 4.305207e+00 3.914653e+00 3.621282e+00 3.454043e+00 3.407286e+00 3.462495e+00 3.671367e+00 3.965899e+00 4.109709e+00 4.299459e+00
<GCONST> 1.730408e+02
<STREAM> 2
<NUMMIXES> 2
<MIXTURE> 1 5.463561e-01
<MEAN> 1
 4.508811e+00
<VARIANCE> 1
 4.018126e-02
<GCONST> -1.376477e+00
<MIXTURE> 2 4.536530e-01
<MEAN> 0
<VARIANCE> 0
<GCONST> 0.000000e+00
<STREAM> 3
<NUMMIXES> 2
<MIXTURE> 1 5.188283e-01
<MEAN> 1
 2.847791e-03
<VARIANCE> 1
 9.032218e-04
<GCONST> -5.171665e+00
<MIXTURE> 2 4.811811e-01
<MEAN> 0
<VARIANCE> 0
<GCONST> 0.000000e+00
<STREAM> 4
<NUMMIXES> 2
<MIXTURE> 1 5.188289e-01
<MEAN> 1
 -3.000000e+00
<VARIANCE> 1
 8.940651e+14
<GCONST> 3.626468e+01
<MIXTURE> 2 4.811803e-01
<MEAN> 0
<VARIANCE> 0
<GCONST> 0.000000e+00
<STATE> 5
<STREAM> 1
<MEAN> 75
 1.491404e-01 1.583023e-01 1.777643e-01 2.088643e-01 2.451976e-01 2.753922e-01 3.114007e-01 3.487630e-01 3.808930e-01 3.977752e-01 3.896839e-01 3.709148e-01 3.459088e-01 3.192132e-01 2.877057e-01 2.575166e-01 2.351326e-01 2.093176e-01 1.983199e-01 1.890157e-01 1.757551e-01 1.615802e-01 1.482345e-01 1.477905e-01 1.445460e-01 -5.867700e-03 -1.528805e-02 -2.596500e-02 -3.230555e-02 -3.218769e-02 -3.366013e-02 -3.794509e-02 -3.573844e-02 -2.418030e-02 -4.437149e-03 1.228734e-02 1.993417e-02 2.446139e-02 2.720567e-02 2.933852e-02 2.848660e-02 2.390238e-02 1.720655e-02 1.280876e-02 1.307947e-02 1.362812e-02 1.457631e-02 6.812940e-03 1.753976e-03 4.650676e-04 6.667435e-03 1.242543e-02 8.227955e-03 4.611870e-03 -3.834673e-03 6.715192e-03 2.896666e-03 -6.717812e-03 -1.604791e-02 -2.407299e-02 -1.078512e-02 -6.337304e-03 -4.321631e-03 -2.185546e-03 -3.161534e-03 6.458967e-03 2.842390e-03 8.668593e-03 7.003981e-04 -3.294232e-04 -2.724065e-03 1.367970e-03 1.371263e-02 -2.554713e-03 5.003175e-03
<VARIANCE> 75
 9.491267e-01 9.906715e-01 1.066715e+00 1.194021e+00 1.319758e+00 1.440126e+00 1.578528e+00 1.731588e+00 1.830399e+00 1.863070e+00 1.785447e+00 1.713647e+00 1.614135e+00 1.515324e+00 1.434835e+00 1.308346e+00 1.173867e+00 1.088267e+00 1.045370e+00 1.029277e+00 9.831033e-01 9.360231e-01 8.835028e-01 9.035550e-01 9.186594e-01 4.622298e-01 4.816029e-01 5.282739e-01 5.838318e-01 6.503236e-01 7.200711e-01 7.979673e-01 8.645268e-01 9.175979e-01 9.243216e-01 9.048001e-01 8.546957e-01 8.026979e-01 7.380064e-01 6.785377e-01 6.264516e-01 5.637468e-01 5.197720e-01 5.004165e-01 4.824545e-01 4.606258e-01 4.346510e-01 4.285758e-01 4.173064e-01 4.323885e-01 3.785009e+00 4.026252e+00 4.353323e+00 4.810646e+00 5.290126e+00 5.814323e+00 6.458549e+00 7.079310e+00 7.474945e+00 7.587063e+00 7.382081e+00 7.147375e+00 6.782957e+00 6.351835e+00 5.880835e+00 5.373000e+00 4.901092e+00 4.576373e+00 4.451238e+00 4.377949e+00 4.172338e+00 3.927177e+00 3.736830e+00 3.728168e+00 3.680979e+00
<GCONST> 1.720852e+02
<STREAM> 2
<NUMMIXES> 2
<MIXTURE> 1 5.048729e-01
<MEAN> 1
 4.496786e+00
<VARIANCE> 1
 8.249027e-02
<GCONST> -6.571980e-01
<MIXTURE> 2 4.951391e-01
<MEAN> 0
<VARIANCE> 0
<GCONST> 0.000000e+00
<STREAM> 3
<NUMMIXES> 2
<MIXTURE> 1 4.819426e-01
<MEAN> 1
 2.115510e-03
<VARIANCE> 1
 6.625457e-04
<GCONST> -5.481544e+00
<MIXTURE> 2 5.180699e-01
<MEAN> 0
<VARIANCE> 0
<GCONST> 0.000000e+00
<STREAM> 4
<NUMMIXES> 2
<MIXTURE> 1 4.819412e-01
<MEAN> 1
 5.000000e-01
<VARIANCE> 1
 8.940651e+14
<GCONST> 3.626468e+01
<MIXTURE> 2 5.180698e-01
<MEAN> 0
<VARIANCE> 0
<GCONST> 0.000000e+00
<STATE> 6
<STREAM> 1
<MEAN> 75
 1.521664e-01 1.472533e-01 1.431618e-01 1.520146e-01 1.693218e-01 1.934007e-01 2.236914e-01 2.532778e-01 2.927322e-01 3.316760e-01 3.661185e-01 3.748094e-01 3.663507e-01 3.597060e-01 3.457434e-01 3.263413e-01 3.003026e-01 2.758614e-01 2.299348e-01 2.047607e-01 1.825437e-01 1.782006e-01 1.858654e-01 2.008100e-01 2.199939e-01 1.267913e-02 5.371764e-03 -3.853998e-04 -1.121791e-02 -1.995993e-02 -2.817078e-02 -2.958361e-02 -3.441432e-02 -3.840870e-02 -3.611368e-02 -2.232267e-02 -3.160182e-03 6.449924e-03 1.317653e-02 1.708256e-02 2.202393e-02 2.528976e-02 3.686029e-02 3.519836e-02 2.808378e-02 1.116588e-02 7.571599e-04 -1.545051e-02 -1.644895e-02 1.320222e-02 1.386092e-02 1.438773e-03 1.401624e-02 8.000931e-03 1.085890e-02 2.572020e-03 2.006816e-04 1.231375e-02 -1.846463e-03 -2.995329e-03 -2.461567e-02 -1.248700e-02 -3.053387e-03 -7.222623e-03 -8.452712e-04 -9.516252e-03 2.758680e-03 -2.087197e-02 1.806285e-02 6.613480e-03 2.031114e-02 1.451924e-02 1.195432e-02 4.607026e-03 -7.049299e-02
<VARIANCE> 75
 8.991202e-01 8.416167e-01 8.779598e-01 9.108243e-01 1.004689e+00 1.070382e+00 1.199874e+00 1.289322e+00 1.482872e+00 1.616444e+00 1.744646e+00 1.723722e+00 1.727563e+00 1.630931e+00 1.574695e+00 1.505008e+00 1.443938e+00 1.305897e+00 1.120250e+00 9.781802e-01 9.250824e-01 9.282067e-01 9.690405e-01 1.020009e+00 1.092376e+00 4.079897e-01 4.157919e-01 4.111242e-01 4.520836e-01 4.807542e-01 5.327582e-01 5.774093e-01 6.707851e-01 7.296981e-01 8.202338e-01 8.472428e-01 8.774110e-01 8.469189e-01 8.323532e-01 7.814180e-01 7.476920e-01 6.987956e-01 6.281796e-01 5.582790e-01 4.935430e-01 4.766543e-01 4.698286e-01 4.998083e-01 5.166395e-01 4.886661e-01 3.643100e+00 3.467527e+00 3.614043e+00 3.801524e+00 4.137064e+00 4.408084e+00 4.896717e+00 5.376841e+00 6.084369e+00 6.619637e+00 7.067964e+00 7.089357e+00 7.009920e+00 6.791764e+00 6.636699e+00 6.368198e+00 6.071302e+00 5.439946e+00 4.686531e+00 4.194962e+00 4.043216e+00 4.094480e+00 4.224664e+00 4.409079e+00 4.366138e+00
<GCONST> 1.694570e+02
<STREAM> 2
<NUMMIXES> 2
<MIXTURE> 1 5.240485e-01
<MEAN> 1
 4.384906e+00
<VARIANCE> 1
 5.652896e-01
<GCONST> 1.267460e+00
<MIXTURE> 2 4.759609e-01
<MEAN> 0
<VARIANCE> 0
<GCONST> 0.000000e+00
<STREAM> 3
<NUMMIXES> 2
<MIXTURE> 1 4.887193e-01
<MEAN> 1
 2.763736e-03
<VARIANCE> 1
 3.094413e-03
<GCONST> -3.940280e+00
<MIXTURE> 2 5.112898e-01
<MEAN> 0
<VARIANCE> 0
<GCONST> 0.000000e+00
<STREAM> 4
<NUMMIXES> 2
<MIXTURE> 1 4.887190e-01
<MEAN> 1
 1.700000e+01
<VARIANCE> 1
 8.940651e+14
<GCONST> 3.626468e+01
<MIXTURE> 2 5.112903e-01
<MEAN> 0
<VARIANCE> 0
<GCONST> 0.000000e+00
<TRANSP> 7
 0.000000e+00 1.000000e+00 0.000000e+00 0.000000e+00 0.000000e+00 0.000000e+00 0.000000e+00
 0.000000e+00 0.000000e+00 1.000000e+00 0.000000e+00 0.000000e+00 0.000000e+00 0.000000e+00
 0.000000e+00 0.000000e+00 0.000000e+00 1.000000e+00 0.000000e+00 0.000000e+00 0.000000e+00
 0.000000e+00 0.000000e+00 0.000000e+00 0.000000e+00 1.000000e+00 0.000000e+00 0.000000e+00
 0.000000e+00 0.000000e+00 0.000000e+00 0.000000e+00 0.000000e+00 1.000000e+00 0.000000e+00
 0.000000e+00 0.000000e+00 0.000000e+00 0.000000e+00 0.000000e+00 0.000000e+00 1.000000e+00
 0.000000e+00 0.000000e+00 0.000000e+00 0.000000e+00 0.000000e+00 0.000000e+00 0.000000e+00
<ENDHMM>
~h "e"
<BEGINHMM>
<NUMSTATES> 7
<STATE> 2
<STREAM> 1
<MEAN> 75
 1.702653e-01 1.691482e-01 1.750513e-01 1.729366e-01 1.675251e-01 1.611950e-01 1.531739e-01 1.504567e-01 1.510614e-01 1.534277e-01 1.588964e-01 1.803991e-01 2.066441e-01 2.315415e-01 2.615994e-01 3.044752e-01 3.538187e-01 4.081241e-01 4.413319e-01 4.496908e-01 4.265776e-01 3.887329e-01 3.388431e-01 2.819097e-01 2.282782e-01 6.531500e-03 -1.018772e-03 7.600911e-04 5.456802e-03 6.542206e-03 5.466340e-03 2.029276e-03 -2.378982e-03 -4.526086e-03 -8.503960e-03 -1.737417e-02 -2.361634e-02 -2.315918e-02 -2.678049e-02 -3.525990e-02 -4.350405e-02 -4.888899e-02 -4.261481e-02 -1.965291e-02 8.743900e-03 3.164993e-02 4.533506e-02 5.301121e-02 5.339794e-02 4.853942e-02 9.271819e-03 3.492293e-03 -6.613036e-03 -2.652000e-03 1.723042e-03 7.185005e-04 5.740142e-03 5.233490e-04 1.860565e-03 4.748307e-03 1.164642e-02 -1.597957e-03 1.237638e-03 6.461960e-03 9.776818e-03 3.844498e-03 4.110444e-03 -2.132921e-02 -2.529018e-02 -3.063479e-02 -1.588530e-02 -9.720879e-03 -3.620439e-03 4.164540e-03 7.582437e-03
<VARIANCE> 75
 1.213857e+00 1.227477e+00 1.235949e+00 1.226312e+00 1.181962e+00 1.154645e+00 1.128774e+00 1.161215e+00 1.178790e+00 1.217601e+00 1.269556e+00 1.388168e+00 1.476159e+00 1.572272e+00 1.677743e+00 1.869002e+00 2.072056e+00 2.325433e+00 2.456321e+00 2.477931e+00 2.339165e+00 2.174064e+00 1.933463e+00 1.701584e+00 1.469699e+00 6.025481e-01 5.898247e-01 5.929569e-01 5.864295e-01 5.782500e-01 5.597581e-01 5.592638e-01 5.656867e-01 5.831277e-01 6.016629e-01 6.417039e-01 6.832303e-01 7.483849e-01 8.028392e-01 8.806305e-01 9.701379e-01 1.092606e+00 1.197811e+00 1.287398e+00 1.283277e+00 1.235788e+00 1.122221e+00 9.973834e-01 8.593324e-01 7.397905e-01 5.735507e+00 5.637902e+00 5.493688e+00 5.329329e+00 5.141508e+00 5.060489e+00 5.052277e+00 5.190847e+00 5.307030e+00 5.527648e+00 5.791083e+00 6.209951e+00 6.519001e+00 6.837805e+00 7.257668e+00 8.014837e+00 8.881155e+00 9.858525e+00 1.038619e+01 1.037185e+01 9.862410e+00 9.280871e+00 8.456799e+00 7.620949e+00 6.718588e+00
<GCONST> 1.904043e+02
<STREAM> 2
<NUMMIXES> 2
<MIXTURE> 1 9.351277e-01
<MEAN> 1
 4.507413e+00
<VARIANCE> 1
 1.055680e-02
<GCONST> -2.713108e+00
<MIXTURE> 2 6.487387e-02
<MEAN> 0
<VARIANCE> 0
<GCONST> 0.000000e+00
<STREAM> 3
<NUMMIXES> 2
<MIXTURE> 1 9.108743e-01
<MEAN> 1
 2.947238e-03
<VARIANCE> 1
 3.553591e-04
<GCONST> -6.104505e+00
<MIXTURE> 2 8.912628e-02
<MEAN> 0
<VARIANCE> 0
<GCONST> 0.000000e+00
<STREAM> 4
<NUMMIXES> 2
<MIXTURE> 1 9.108748e-01
<MEAN> 1
 -5.250000e+00
<VARIANCE> 1
 8.940651e+14
<GCONST> 3.626468e+01
<MIXTURE> 2 8.912599e-02
<MEAN> 0
<VARIANCE> 0
<GCONST> 0.000000e+00
<STATE> 3
<STREAM> 1
<MEAN> 75
 3.756464e-01 3.287408e-01 2.860765e-01 2.509589e-01 2.244478e-01 1.997233e-01 1.751508e-01 1.498396e-01 1.290602e-01 1.160064e-01 1.055974e-01 1.006245e-01 1.060272e-01 1.212540e-01 1.414204e-01 1.658795e-01 1.946375e-01 2.256384e-01 2.574410e-01 2.984199e-01 3.458508e-01 3.891700e-01 4.251263e-01 4.451618e-01 4.411140e-01 4.197218e-02 4.473494e-02 4.044330e-02 3.288436e-02 2.721130e-02 2.586473e-02 2.426629e-02 2.047592e-02 1.381880e-02 7.967013e-03 3.498578e-03 -2.860156e-03 -1.134289e-02 -1.689832e-02 -2.085622e-02 -2.494495e-02 -2.923551e-02 -3.177695e-02 -3.655595e-02 -4.364943e-02 -4.499475e-02 -3.944058e-02 -2.763956e-02 -7.655934e-03 1.464924e-02 -5.982076e-03 6.134324e-04 6.267106e-03 8.272151e-03 3.150022e-03 1.004505e-03 3.234840e-03 7.160222e-03 7.338994e-03 5.709934e-03 5.303969e-03 9.229112e-03 6.169193e-03 3.921610e-03 4.471357e-03 4.392516e-03 3.539824e-03 1.793525e-03 6.746673e-03 5.447551e-03 -2.862432e-03 -9.056448e-03 -1.577253e-02 -2.377117e-02 -2.092493e-02
<VARIANCE> 75
 2.201251e+00 1.990106e+00 1.806159e+00 1.667891e+00 1.569637e+00 1.469547e+00 1.341905e+00 1.226944e+00 1.149292e+00 1.096049e+00 1.070579e+00 1.074955e+00 1.121615e+00 1.198472e+00 1.299690e+00 1.402913e+00 1.526511e+00 1.664136e+00 1.791450e+00 1.969396e+00 2.187239e+00 2.380922e+00 2.526911e+00 2.595777e+00 2.557322e+00 1.149306e+00 1.030205e+00 9.255141e-01 8.429263e-01 7.789657e-01 7.202650e-01 6.598455e-01 6.069256e-01 5.645577e-01 5.368220e-01 5.273216e-01 5.370312e-01 5.594649e-01 6.005899e-01 6.546807e-01 7.093848e-01 7.762894e-01 8.527146e-01 9.345359e-01 1.032009e+00 1.147285e+00 1.256602e+00 1.335773e+00 1.368706e+00 1.346343e+00 9.221370e+00 8.420477e+00 7.716753e+00 7.152511e+00 6.679053e+00 6.212241e+00 5.640316e+00 5.168690e+00 4.883980e+00 4.679804e+00 4.563103e+00 4.609824e+00 4.857208e+00 5.166055e+00 5.536544e+00 5.884937e+00 6.300436e+00 6.785130e+00 7.304451e+00 8.029269e+00 8.889763e+00 9.675934e+00 1.029427e+01 1.061527e+01 1.051099e+01
<GCONST> 1.922890e+02
<STREAM> 2
<NUMMIXES> 2
<MIXTURE> 1 9.592734e-01
<MEAN> 1
 4.516314e+00
<VARIANCE> 1
 1.055680e-02
<GCONST> -2.713108e+00
<MIXTURE> 2 4.072725e-02
<MEAN> 0
<VARIANCE> 0
<GCONST> 0.000000e+00
<STREAM> 3
<NUMMIXES> 2
<MIXTURE> 1 9.512840e-01
<MEAN> 1
 1.902177e-03
<VARIANCE> 1
 3.553591e-04
<GCONST> -6.104505e+00
<MIXTURE> 2 4.871667e-02
<MEAN> 0
<VARIANCE> 0
<GCONST> 0.000000e+00
<STREAM> 4
<NUMMIXES> 2
<MIXTURE> 1 9.512841e-01
<MEAN> 1
 -7.500000e-01
<VARIANCE> 1
 8.940651e+14
<GCONST> 3.626468e+01
<MIXTURE> 2 4.871660e-02
<MEAN> 0
<VARIANCE> 0
<GCONST> 0.000000e+00
<STATE> 4
<STREAM> 1
<MEAN> 75
 4.187227e-01 4.310627e-01 4.234562e-01 4.056939e-01 3.826495e-01 3.568962e-01 3.299174e-01 2.997641e-01 2.678712e-01 2.350132e-01 2.030664e-01 1.703012e-01 1.383533e-01 1.133811e-01 9.564786e-02 8.384539e-02 7.944283e-02 8.585368e-02 1.031273e-01 1.290798e-01 1.620288e-01 2.002571e-01 2.478103e-01 2.973121e-01 3.479463e-01 -2.071376e-02 -3.496654e-03 1.212385e-02 2.181200e-02 2.650224e-02 2.799470e-02 2.931011e-02 3.076753e-02 3.234989e-02 3.278243e-02 3.226548e-02 3.080399e-02 2.700258e-02 2.129884e-02 1.570185e-02 8.376169e-03 -1.528301e-03 -1.270492e-02 -2.253868e-02 -3.016662e-02 -3.672164e-02 -4.309479e-02 -4.818249e-02 -5.049651e-02 -4.637609e-02 -1.578650e-02 -1.933751e-02 -1.367441e-02 -7.236836e-03 -2.145616e-03 -1.494534e-03 -1.435417e-03 -1.731758e-03 -7.881779e-04 6.668461e-04 1.705754e-03 3.021447e-03 6.026424e-03 4.708039e-03 5.653210e-03 8.783557e-03 1.150493e-02 1.110360e-02 9.024480e-03 6.733077e-03 5.293660e-03 7.123178e-03 3.514777e-03 8.179081e-04 -9.379941e-03
<VARIANCE> 75
 2.588533e+00 2.623743e+00 2.564138e+00 2.453772e+00 2.323174e+00 2.204935e+00 2.091536e+00 1.968999e+00 1.830715e+00 1.682037e+00 1.541715e+00 1.399870e+00 1.269466e+00 1.170472e+00 1.095324e+00 1.037394e+00 1.023543e+00 1.078525e+00 1.174390e+00 1.292139e+00 1.442828e+00 1.629493e+00 1.844126e+00 2.067631e+00 2.298767e+00 1.367470e+00 1.386022e+00 1.356801e+00 1.295035e+00 1.220226e+00 1.145485e+00 1.073474e+00 1.001385e+00 9.237713e-01 8.434044e-01 7.682867e-01 6.951146e-01 6.291890e-01 5.733728e-01 5.368851e-01 5.151488e-01 5.150182e-01 5.463758e-01 5.970242e-01 6.605323e-01 7.405561e-01 8.415968e-01 9.545752e-01 1.079437e+00 1.201647e+00 1.038642e+01 1.059445e+01 1.037012e+01 9.967851e+00 9.488856e+00 9.030393e+00 8.564856e+00 8.025163e+00 7.403286e+00 6.769449e+00 6.200085e+00 5.612576e+00 5.102429e+00 4.755428e+00 4.515194e+00 4.303269e+00 4.247765e+00 4.442670e+00 4.802593e+00 5.230866e+00 5.776451e+00 6.478976e+00 7.285848e+00 8.176225e+00 9.100514e+00
<GCONST> 1.942941e+02
<STREAM> 2
<NUMMIXES> 2
<MIXTURE> 1 9.489211e-01
<MEAN> 1
 4.522153e+00
<VARIANCE> 1
 1.055680e-02
<GCONST> -2.713108e+00
<MIXTURE> 2 5.108092e-02
<MEAN> 0
<VARIANCE> 0
<GCONST> 0.000000e+00
<STREAM> 3
<NUMMIXES> 2
<MIXTURE> 1 9.387301e-01
<MEAN> 1
 1.490241e-03
<VARIANCE> 1
 3.553591e-04
<GCONST> -6.104505e+00
<MIXTURE> 2 6.127212e-02
<MEAN> 0
<VARIANCE> 0
<GCONST> 0.000000e+00
<STREAM> 4
<NUMMIXES> 2
<MIXTURE> 1 9.387298e-01
<MEAN> 1
 7.750000e+00
<VARIANCE> 1
 8.940651e+14
<GCONST> 3.626468e+01
<MIXTURE> 2 6.127226e-02
<MEAN> 0
<VARIANCE> 0
<GCONST> 0.000000e+00
<STATE> 5
<STREAM> 1
<MEAN> 75
 2.252027e-01 2.874679e-01 3.457953e-01 3.919106e-01 4.203022e-01 4.254377e-01 4.153095e-01 3.988248e-01 3.779174e-01 3.574704e-01 3.363476e-01 3.139126e-01 2.877516e-01 2.583138e-01 2.290353e-01 1.964987e-01 1.617030e-01 1.302845e-01 1.032819e-01 8.433698e-02 7.391022e-02 7.232559e-02 8.289509e-02 1.025867e-01 1.296953e-01 -5.899380e-02 -6.158293e-02 -5.300774e-02 -3.684768e-02 -1.629719e-02 2.377414e-03 1.338694e-02 1.818404e-02 2.058425e-02 2.245355e-02 2.346887e-02 2.527257e-02 2.845329e-02 3.017598e-02 3.089179e-02 3.272429e-02 3.263670e-02 2.869321e-02 2.190754e-02 1.399211e-02 5.386595e-03 -3.928040e-03 -1.414879e-02 -2.379036e-02 -3.519312e-02 7.991708e-03 -2.599292e-03 -1.346787e-02 -1.967594e-02 -2.343829e-02 -1.536207e-02 -7.161058e-03 -3.211819e-03 -1.582199e-03 -5.140475e-04 -8.151124e-05 -3.034044e-03 -2.597200e-03 7.278446e-04 -1.423711e-03 -2.326005e-03 1.697392e-03 6.206687e-03 7.668127e-03 8.328987e-03 9.906899e-03 9.379288e-03 1.108767e-02 9.863455e-03 1.343742e-02
<VARIANCE> 75
 1.767332e+00 2.045707e+00 2.298408e+00 2.490111e+00 2.602034e+00 2.598531e+00 2.529278e+00 2.443555e+00 2.353055e+00 2.262817e+00 2.172880e+00 2.082823e+00 1.961847e+00 1.828567e+00 1.698192e+00 1.552049e+00 1.393347e+00 1.255089e+00 1.144887e+00 1.067445e+00 1.018263e+00 1.017069e+00 1.071133e+00 1.174873e+00 1.308337e+00 9.172372e-01 1.059023e+00 1.193061e+00 1.298962e+00 1.361381e+00 1.371324e+00 1.338382e+00 1.286594e+00 1.227988e+00 1.173026e+00 1.121379e+00 1.062984e+00 9.983237e-01 9.288353e-01 8.520762e-01 7.698780e-01 6.885016e-01 6.157294e-01 5.595090e-01 5.204054e-01 5.011744e-01 5.045220e-01 5.381713e-01 5.938536e-01 6.763135e-01 6.932986e+00 8.006778e+00 8.986402e+00 9.752919e+00 1.020370e+01 1.021856e+01 1.003000e+01 9.814826e+00 9.532228e+00 9.152149e+00 8.770609e+00 8.356965e+00 7.826137e+00 7.251766e+00 6.723202e+00 6.122108e+00 5.518259e+00 5.007983e+00 4.605777e+00 4.318882e+00 4.132947e+00 4.121431e+00 4.305449e+00 4.647752e+00 5.149788e+00
<GCONST> 1.959719e+02
<STREAM> 2
<NUMMIXES> 2
<MIXTURE> 1 8.977643e-01
<MEAN> 1
 4.526361e+00
<VARIANCE> 1
 1.055680e-02
<GCONST> -2.713108e+00
<MIXTURE> 2 1.022371e-01
<MEAN> 0
<VARIANCE> 0
<GCONST> 0.000000e+00
<STREAM> 3
<NUMMIXES> 2
<MIXTURE> 1 8.776369e-01
<MEAN> 1
 1.709184e-03
<VARIANCE> 1
 3.553591e-04
<GCONST> -6.104505e+00
<MIXTURE> 2 1.223646e-01
<MEAN> 0
<VARIANCE> 0
<GCONST> 0.000000e+00
<STREAM> 4
<NUMMIXES> 2
<MIXTURE> 1 8.776357e-01
<MEAN> 1
 -3.500000e+00
<VARIANCE> 1
 8.940651e+14
<GCONST> 3.626468e+01
<MIXTURE> 2 1.223652e-01
<MEAN> 0
<VARIANCE> 0
<GCONST> 0.000000e+00
<STATE> 6
<STREAM> 1
<MEAN> 75
 7.081699e-02 9.659058e-02 1.318326e-01 1.800147e-01 2.335829e-01 2.945508e-01 3.454392e-01 3.771547e-01 3.914283e-01 4.010660e-01 4.064378e-01 4.035377e-01 3.910936e-01 3.730478e-01 3.485149e-01 3.211070e-01 2.953631e-01 2.657923e-01 2.359057e-01 2.054318e-01 1.718517e-01 1.389873e-01 1.088645e-01 8.596268e-02 7.086663e-02 -2.036180e-02 -3.222054e-02 -4.326162e-02 -5.195969e-02 -5.941095e-02 -5.759196e-02 -4.307757e-02 -2.419829e-02 -1.046076e-02 -4.533039e-03 1.403055e-04 8.031286e-03 1.586652e-02 2.299057e-02 2.722553e-02 2.740123e-02 2.885327e-02 3.035137e-02 3.060673e-02 3.251499e-02 3.308747e-02 3.094447e-02 2.805177e-02 2.144845e-02 1.561367e-02 1.409141e-02 9.742388e-03 1.200514e-02 6.337677e-03 7.954505e-03 -1.161988e-02 -1.928662e-02 -1.959492e-02 -8.203439e-03 -4.971069e-03 -7.813640e-03 -8.379851e-03 -7.809853e-03 -7.266060e-03 -8.287388e-04 1.806591e-03 -3.920146e-03 6.683886e-04 3.222003e-04 -3.630534e-03 2.525181e-03 4.729297e-04 4.480822e-03 8.548519e-03 5.101284e-03
<VARIANCE> 75
 9.910868e-01 1.122013e+00 1.289029e+00 1.504782e+00 1.745469e+00 2.016195e+00 2.223018e+00 2.335587e+00 2.365642e+00 2.383898e+00 2.390648e+00 2.377245e+00 2.338035e+00 2.277591e+00 2.167583e+00 2.055632e+00 1.937074e+00 1.810610e+00 1.688874e+00 1.556704e+00 1.389185e+00 1.244243e+00 1.107749e+00 1.013095e+00 9.515881e-01 4.962191e-01 5.620639e-01 6.555741e-01 7.616860e-01 8.974509e-01 1.024936e+00 1.137406e+00 1.207507e+00 1.241256e+00 1.249811e+00 1.249720e+00 1.235512e+00 1.213466e+00 1.172910e+00 1.118565e+00 1.052836e+00 9.813997e-01 9.152251e-01 8.452700e-01 7.644284e-01 6.854730e-01 5.972074e-01 5.294998e-01 4.834288e-01 4.534198e-01 3.991190e+00 4.415879e+00 5.021908e+00 5.840095e+00 6.799393e+00 7.786689e+00 8.510279e+00 8.922637e+00 9.128971e+00 9.298229e+00 9.369462e+00 9.335934e+00 9.164902e+00 8.893816e+00 8.507793e+00 8.143063e+00 7.682695e+00 7.172038e+00 6.677505e+00 6.125016e+00 5.487495e+00 4.908967e+00 4.357766e+00 3.980763e+00 3.745702e+00
<GCONST> 1.943311e+02
<STREAM> 2
<NUMMIXES> 2
<MIXTURE> 1 7.987112e-01
<MEAN> 1
 4.529174e+00
<VARIANCE> 1
 1.055680e-02
<GCONST> -2.713108e+00
<MIXTURE> 2 2.012912e-01
<MEAN> 0
<VARIANCE> 0
<GCONST> 0.000000e+00
<STREAM> 3
<NUMMIXES> 2
<MIXTURE> 1 7.641242e-01
<MEAN> 1
 1.754949e-03
<VARIANCE> 1
 3.553591e-04
<GCONST> -6.104505e+00
<MIXTURE> 2 2.358776e-01
<MEAN> 0
<VARIANCE> 0
<GCONST> 0.000000e+00
<STREAM> 4
<NUMMIXES> 2
<MIXTURE> 1 7.641261e-01
<MEAN> 1
 1.000000e+00
<VARIANCE> 1
 8.940651e+14
<GCONST> 3.626468e+01
<MIXTURE> 2 2.358764e-01
<MEAN> 0
<VARIANCE> 0
<GCONST> 0.000000e+00
<TRANSP> 7
 0.000000e+00 1.000000e+00 0.000000e+00 0.000000e+00 0.000000e+00 0.000000e+00 0.000000e+00
 0.000000e+00 0.000000e+00 1.000000e+00 0.000000e+00 0.000000e+00 0.000000e+00 0.000000e+00
 0.000000e+00 0.000000e+00 0.000000e+00 1.000000e+00 0.000000e+00 0.000000e+00 0.000000e+00
 0.000000e+00 0.000000e+00 0.000000e+00 0.000000e+00 1.000000e+00 0.000000e+00 0.000000e+00
 0.000000e+00 0.000000e+00 0.000000e+00 0.000000e+00 0.000000e+00 1.000000e+00 0.000000e+00
 0.000000e+00 0.000000e+00 0.000000e+00 0.000000e+00 0.000000e+00 0.000000e+00 1.000000e+00
 0.000000e+00 0.000000e+00 0.000000e+00 0.000000e+00 0.000000e+00 0.000000e+00 0.000000e+00
<ENDHMM>
~h "f"
<BEGINHMM>
<NUMSTATES> 7
<STATE> 2
<STREAM> 1
<MEAN> 75
 2.823464e-01 2.462832e-01 2.113338e-01 1.928911e-01 1.759972e-01 1.580083e-01 1.453640e-01 1.404087e-01 1.382816e-01 1.457379e-01 1.668189e-01 1.962919e-01 2.320324e-01 2.588601e-01 2.674863e-01 2.657648e-01 2.645366e-01 2.726043e-01 2.924198e-01 3.201301e-01 3.414243e-01 3.433753e-01 3.335331e-01 3.249143e-01 3.272704e-01 3.612519e-02 3.599009e-02 2.869873e-02 2.066642e-02 1.819154e-02 1.572421e-02 1.030291e-02 6.565955e-03 -9.250530e-04 -1.463193e-02 -2.607831e-02 -3.215136e-02 -3.013884e-02 -1.798389e-02 -5.978294e-03 -2.431158e-03 -6.825347e-03 -1.631102e-02 -2.555384e-02 -2.588194e-02 -1.151018e-02 5.709548e-03 9.467471e-03 1.233082e-03 3.483240e-03 -5.313017e-03 1.718679e-03 1.271838e-02 3.735445e-03 1.161938e-03 6.910977e-03 5.831477e-03 1.178389e-03 1.295344e-02 1.549974e-02 8.783013e-03 4.772817e-03 -7.167791e-03 -1.347032e-02 -1.014106e-02 -9.029423e-04 7.745510e-03 8.883186e-03 7.377213e-03 -8.888178e-03 -2.177917e-02 -1.366416e-02 4.471561e-03 1.238068e-02 -1.565861e-02
<VARIANCE> 75
 1.442115e+00 1.235957e+00 1.099490e+00 1.042432e+00 9.666482e-01 8.963622e-01 8.558364e-01 8.470225e-01 8.339347e-01 8.831935e-01 9.911430e-01 1.135711e+00 1.270699e+00 1.333305e+00 1.330187e+00 1.305213e+00 1.295973e+00 1.341855e+00 1.454483e+00 1.608444e+00 1.691517e+00 1.678021e+00 1.633441e+00 1.620757e+00 1.683253e+00 7.231508e-01 6.234608e-01 5.555419e-01 5.054738e-01 4.724234e-01 4.406767e-01 4.173692e-01 4.088529e-01 4.227147e-01 4.492433e-01 4.993275e-01 5.634611e-01 6.222250e-01 6.534331e-01 6.603599e-01 6.578583e-01 6.636251e-01 6.934366e-01 7.538481e-01 8.146233e-01 8.504672e-01 8.575466e-01 8.505115e-01 8.600724e-01 8.386104e-01 6.306313e+00 5.396928e+00 4.821167e+00 4.486822e+00 4.192395e+00 3.985233e+00 3.820175e+00 3.783992e+00 3.761467e+00 3.942789e+00 4.373491e+00 4.971710e+00 5.512289e+00 5.729758e+00 5.757509e+00 5.752091e+00 5.813669e+00 6.094570e+00 6.596235e+00 7.096272e+00 7.325688e+00 7.388320e+00 7.457345e+00 7.646973e+00 7.815605e+00
<GCONST> 1.731089e+02
<STREAM> 2
<NUMMIXES> 2
<MIXTURE> 1 2.391968e-01
<MEAN> 1
 4.510796e+00
<VARIANCE> 1
 1.234549e-02
<GCONST> -2.556587e+00
<MIXTURE> 2 7.608031e-01
<MEAN> 0
<VARIANCE> 0
<GCONST> 0.000000e+00
<STREAM> 3
<NUMMIXES> 2
<MIXTURE> 1 2.030322e-01
<MEAN> 1
 3.107346e-03
<VARIANCE> 1
 3.553591e-04
<GCONST> -6.104505e+00
<MIXTURE> 2 7.969680e-01
<MEAN> 0
<VARIANCE> 0
<GCONST> 0.000000e+00
<STREAM> 4
<NUMMIXES> 2
<MIXTURE> 1 2.030337e-01
<MEAN> 1
 -1.500000e+01
<VARIANCE> 1
 8.940651e+14
<GCONST> 3.626468e+01
<MIXTURE> 2 7.969665e-01
<MEAN> 0
<VARIANCE> 0
<GCONST> 0.000000e+00
<STATE> 3
<STREAM> 1
<MEAN> 75
 3.583206e-01 3.500365e-01 3.232761e-01 2.910246e-01 2.549801e-01 2.253477e-01 2.015125e-01 1.831873e-01 1.747326e-01 1.601358e-01 1.481827e-01 1.398376e-01 1.396336e-01 1.507493e-01 1.643318e-01 1.790338e-01 2.006991e-01 2.240844e-01 2.411326e-01 2.545070e-01 2.805273e-01 3.112851e-01 3.330320e-01 3.448798e-01 3.521452e-01 2.610466e-03 1.736527e-02 2.974519e-02 3.460015e-02 3.304354e-02 2.799107e-02 2.297951e-02 1.574719e-02 1.499034e-02 1.570702e-02 1.219727e-02 7.026556e-03 -2.778200e-03 -1.066349e-02 -1.609736e-02 -2.054446e-02 -2.296964e-02 -2.040190e-02 -1.709334e-02 -2.145030e-02 -2.967982e-02 -2.808613e-02 -1.855130e-02 -1.051500e-02 -6.401117e-03 -1.100715e-02 -1.886504e-02 -7.884448e-03 -2.770245e-03 6.903173e-03 2.002839e-03 7.511628e-03 7.829438e-03 -4.280305e-03 4.100434e-03 5.111062e-03 7.633451e-03 1.009281e-02 5.119951e-03 6.322653e-03 5.286435e-03 1.172257e-03 -3.088871e-03 -1.039113e-03 1.084638e-02 4.825877e-03 -8.592222e-03 -1.189557e-02 -4.958254e-03 -3.532385e-03
<VARIANCE> 75
 1.761539e+00 1.714431e+00 1.578755e+00 1.420357e+00 1.251832e+00 1.128125e+00 1.018897e+00 9.671692e-01 9.290316e-01 8.711635e-01 8.314189e-01 8.064957e-01 8.030493e-01 8.516124e-01 9.025404e-01 9.835708e-01 1.074708e+00 1.160887e+00 1.215238e+00 1.271294e+00 1.392370e+00 1.534205e+00 1.639656e+00 1.686974e+00 1.712224e+00 9.043237e-01 8.666652e-01 8.009970e-01 7.131831e-01 6.355894e-01 5.584909e-01 5.128235e-01 4.781466e-01 4.471813e-01 4.299924e-01 4.115235e-01 3.981161e-01 4.017442e-01 4.133392e-01 4.465650e-01 4.869132e-01 5.353065e-01 5.750819e-01 6.126538e-01 6.646399e-01 7.241033e-01 7.893359e-01 8.463473e-01 8.817872e-01 8.969071e-01 8.323692e+00 8.097947e+00 7.470976e+00 6.639853e+00 5.820848e+00 5.212345e+00 4.734526e+00 4.560842e+00 4.414635e+00 4.244355e+00 4.105801e+00 3.985450e+00 3.949904e+00 4.031373e+00 4.208791e+00 4.638017e+00 5.118339e+00 5.526173e+00 5.822473e+00 6.161391e+00 6.683872e+00 7.224301e+00 7.645337e+00 7.894560e+00 8.069455e+00
<GCONST> 1.719353e+02
<STREAM> 2
<NUMMIXES> 2
<MIXTURE> 1 2.028214e-01
<MEAN> 1
 4.496668e+00
<VARIANCE> 1
 1.335349e-02
<GCONST> -2.478100e+00
<MIXTURE> 2 7.971796e-01
<MEAN> 0
<VARIANCE> 0
<GCONST> 0.000000e+00
<STREAM> 3
<NUMMIXES> 2
<MIXTURE> 1 1.892053e-01
<MEAN> 1
 2.375209e-03
<VARIANCE> 1
 3.553591e-04
<GCONST> -6.104505e+00
<MIXTURE> 2 8.107963e-01
<MEAN> 0
<VARIANCE> 0
<GCONST> 0.000000e+00
<STREAM> 4
<NUMMIXES> 2
<MIXTURE> 1 1.892054e-01
<MEAN> 1
 5.000000e-01
<VARIANCE> 1
 8.940651e+14
<GCONST> 3.626468e+01
<MIXTURE> 2 8.107960e-01
<MEAN> 0
<VARIANCE> 0
<GCONST> 0.000000e+00
<STATE> 4
<STREAM> 1
<MEAN> 75
 3.233122e-01 3.432614e-01 3.556736e-01 3.649299e-01 3.691953e-01 3.575371e-01 3.348814e-01 3.018470e-01 2.636960e-01 2.325398e-01 2.016546e-01 1.843881e-01 1.659398e-01 1.520115e-01 1.425534e-01 1.393196e-01 1.417017e-01 1.502447e-01 1.712932e-01 1.868055e-01 1.989312e-01 2.120262e-01 2.330155e-01 2.580953e-01 2.786891e-01 -2.181580e-02 -1.773818e-02 -1.138696e-02 -4.569553e-03 5.477418e-03 1.819673e-02 2.974481e-02 3.778528e-02 3.645870e-02 3.229479e-02 2.585878e-02 1.890713e-02 1.590381e-02 1.112067e-02 5.224081e-03 1.923845e-04 -3.075060e-03 -1.097471e-02 -1.643919e-02 -1.434766e-02 -1.334783e-02 -1.851807e-02 -2.598782e-02 -2.607626e-02 -2.394203e-02 -3.507780e-03 -4.636992e-03 -7.762662e-03 -8.428225e-03 -1.149708e-02 -1.289476e-02 -1.150137e-02 -5.857965e-03 6.187306e-03 8.695913e-04 9.618592e-03 2.745492e-03 3.278969e-03 4.263706e-03 6.091734e-03 5.044218e-03 4.016593e-03 1.342109e-02 1.259884e-03 -1.410951e-03 3.029904e-04 1.075973e-02 4.732119e-03 -4.407695e-03 1.878097e-04
<VARIANCE> 75
 1.581908e+00 1.660123e+00 1.708283e+00 1.722566e+00 1.736564e+00 1.676074e+00 1.562075e+00 1.391005e+00 1.218805e+00 1.087423e+00 9.798757e-01 9.048343e-01 8.454736e-01 7.969630e-01 7.793331e-01 7.801836e-01 8.018210e-01 8.340359e-01 9.278264e-01 1.001711e+00 1.047308e+00 1.076399e+00 1.164777e+00 1.279475e+00 1.368670e+00 8.271228e-01 8.703017e-01 8.906371e-01 9.075387e-01 8.987707e-01 8.632563e-01 7.902640e-01 7.085808e-01 6.193165e-01 5.459884e-01 4.971441e-01 4.522851e-01 4.169870e-01 3.966624e-01 3.835649e-01 3.858431e-01 3.948609e-01 4.285983e-01 4.631494e-01 5.014618e-01 5.261714e-01 5.596080e-01 5.991713e-01 6.537291e-01 7.117754e-01 7.700225e+00 8.054009e+00 8.264635e+00 8.331278e+00 8.303666e+00 8.065735e+00 7.458874e+00 6.657654e+00 5.926071e+00 5.387059e+00 5.010959e+00 4.661512e+00 4.385356e+00 4.187001e+00 4.088758e+00 4.086082e+00 4.155610e+00 4.402527e+00 4.849335e+00 5.212398e+00 5.467057e+00 5.616221e+00 5.965341e+00 6.423996e+00 6.800103e+00
<GCONST> 1.718913e+02
<STREAM> 2
<NUMMIXES> 2
<MIXTURE> 1 2.025250e-01
<MEAN> 1
 4.502086e+00
<VARIANCE> 1
 1.940503e-02
<GCONST> -2.104346e+00
<MIXTURE> 2 7.974746e-01
<MEAN> 0
<VARIANCE> 0
<GCONST> 0.000000e+00
<STREAM> 3
<NUMMIXES> 2
<MIXTURE> 1 1.898566e-01
<MEAN> 1
 3.486883e-03
<VARIANCE> 1
 9.050486e-04
<GCONST> -5.169645e+00
<MIXTURE> 2 8.101421e-01
<MEAN> 0
<VARIANCE> 0
<GCONST> 0.000000e+00
<STREAM> 4
<NUMMIXES> 2
<MIXTURE> 1 1.898570e-01
<MEAN> 1
 8.500000e+00
<VARIANCE> 1
 8.940651e+14
<GCONST> 3.626468e+01
<MIXTURE> 2 8.101420e-01
<MEAN> 0
<VARIANCE> 0
<GCONST> 0.000000e+00
<STATE> 5
<STREAM> 1
<MEAN> 75
 2.378948e-01 2.633467e-01 2.882919e-01 3.070058e-01 3.203400e-01 3.276303e-01 3.393689e-01 3.510663e-01 3.471645e-01 3.359257e-01 3.134104e-01 2.874221e-01 2.644421e-01 2.472554e-01 2.259766e-01 2.029082e-01 1.754451e-01 1.563647e-01 1.475534e-01 1.510372e-01 1.571758e-01 1.683689e-01 1.734972e-01 1.821318e-01 1.958833e-01 -2.507852e-02 -2.540314e-02 -2.274485e-02 -1.659474e-02 -1.092248e-02 -8.366442e-03 -1.024088e-02 -3.986883e-03 6.788885e-03 1.557603e-02 2.422435e-02 2.361189e-02 1.957716e-02 1.676697e-02 2.172862e-02 2.465005e-02 2.694730e-02 1.633420e-02 9.216435e-03 -3.977864e-03 -7.115731e-03 -1.131793e-02 -5.561872e-03 -1.275040e-02 -1.451002e-02 1.078434e-03 -3.816428e-04 -5.834674e-03 -6.899451e-03 -7.261152e-03 2.422620e-03 2.309587e-03 -1.556669e-02 -7.247726e-03 -1.043206e-02 -5.097322e-03 4.895195e-03 6.841930e-03 -3.101136e-03 -2.652837e-03 -7.400188e-03 6.773955e-03 6.077099e-03 1.240782e-02 7.799211e-03 7.000433e-03 -5.397921e-03 3.185765e-03 4.572336e-03 7.778502e-03
<VARIANCE> 75
 1.182133e+00 1.308435e+00 1.403137e+00 1.492257e+00 1.532487e+00 1.573100e+00 1.590725e+00 1.645740e+00 1.614115e+00 1.547746e+00 1.439381e+00 1.327121e+00 1.229912e+00 1.167937e+00 1.080408e+00 9.971572e-01 8.709886e-01 7.911613e-01 7.550344e-01 7.797349e-01 8.300043e-01 9.011398e-01 9.363317e-01 9.789756e-01 1.009988e+00 6.158291e-01 6.735324e-01 7.325719e-01 7.698541e-01 8.033732e-01 8.244165e-01 8.484650e-01 8.444514e-01 8.411971e-01 7.938491e-01 7.475965e-01 6.929084e-01 6.432532e-01 5.933151e-01 5.477132e-01 4.882927e-01 4.422114e-01 4.014010e-01 3.938615e-01 4.029427e-01 4.275008e-01 4.468593e-01 4.751825e-01 4.936914e-01 5.243226e-01 6.132115e+00 6.684073e+00 7.191541e+00 7.618348e+00 7.735691e+00 7.899724e+00 8.070629e+00 8.212082e+00 8.045847e+00 7.683962e+00 7.200388e+00 6.703884e+00 6.348285e+00 6.051696e+00 5.638442e+00 5.227735e+00 4.658350e+00 4.255137e+00 4.057225e+00 4.164578e+00 4.470703e+00 4.821314e+00 5.072098e+00 5.225362e+00 5.365076e+00
<GCONST> 1.736241e+02
<STREAM> 2
<NUMMIXES> 2
<MIXTURE> 1 2.262653e-01
<MEAN> 1
 4.448353e+00
<VARIANCE> 1
 3.149115e-01
<GCONST> 6.824135e-01
<MIXTURE> 2 7.737373e-01
<MEAN> 0
<VARIANCE> 0
<GCONST> 0.000000e+00
<STREAM> 3
<NUMMIXES> 2
<MIXTURE> 1 2.078424e-01
<MEAN> 1
 1.086462e-02
<VARIANCE> 1
 3.605812e-03
<GCONST> -3.787331e+00
<MIXTURE> 2 7.921603e-01
<MEAN> 0
<VARIANCE> 0
<GCONST> 0.000000e+00
<STREAM> 4
<NUMMIXES> 2
<MIXTURE> 1 2.078426e-01
<MEAN> 1
 3.500000e+00
<VARIANCE> 1
 8.940651e+14
<GCONST> 3.626468e+01
<MIXTURE> 2 7.921605e-01
<MEAN> 0
<VARIANCE> 0
<GCONST> 0.000000e+00
<STATE> 6
<STREAM> 1
<MEAN> 75
 1.876535e-01 1.894121e-01 2.017786e-01 2.300095e-01 2.572365e-01 2.833979e-01 2.898279e-01 2.905779e-01 3.017780e-01 3.193088e-01 3.383977e-01 3.226583e-01 3.208304e-01 2.936432e-01 2.919902e-01 2.663689e-01 2.596408e-01 2.294990e-01 2.164967e-01 1.818864e-01 1.696406e-01 1.623559e-01 1.729572e-01 1.906094e-01 2.078300e-01 7.724190e-03 -7.444894e-03 -1.906984e-02 -3.090977e-02 -2.418215e-02 -2.000113e-02 -1.844541e-03 -1.053807e-02 -1.350013e-02 -2.153664e-02 -1.392028e-04 9.343795e-03 1.969571e-02 7.534833e-03 1.787757e-02 1.700638e-02 1.981691e-02 2.147468e-02 2.922948e-02 2.944189e-02 1.070707e-02 -1.407340e-03 -1.444502e-02 -1.352175e-02 -3.364926e-03 1.525328e-02 1.666711e-02 1.653058e-02 -3.310936e-03 -1.121168e-03 -1.846961e-02 -8.305163e-03 1.050877e-02 3.953840e-03 -1.846943e-03 -3.003111e-02 -3.464579e-03 -3.634894e-03 -5.183672e-04 -7.005233e-03 8.944098e-03 -2.666631e-03 -8.102389e-04 -1.077273e-02 1.636368e-02 1.712918e-02 1.174774e-02 6.173613e-03 -3.564363e-03 -2.579105e-02
<VARIANCE> 75
 9.402367e-01 8.944879e-01 1.017640e+00 1.116275e+00 1.266616e+00 1.314063e+00 1.391755e+00 1.343177e+00 1.462032e+00 1.490043e+00 1.600575e+00 1.537664e+00 1.505276e+00 1.430318e+00 1.386078e+00 1.270833e+00 1.210980e+00 1.113670e+00 1.041793e+00 8.863713e-01 8.279795e-01 8.164780e-01 8.869947e-01 1.001666e+00 1.077897e+00 4.726877e-01 5.080529e-01 5.146678e-01 5.885588e-01 6.289229e-01 6.945330e-01 6.910461e-01 7.436469e-01 7.472036e-01 8.074679e-01 7.824371e-01 8.148896e-01 7.666784e-01 7.453891e-01 6.929922e-01 6.690292e-01 6.070126e-01 5.684519e-01 4.968546e-01 4.668188e-01 4.238675e-01 4.287328e-01 4.516624e-01 5.036085e-01 5.128261e-01 4.666012e+00 4.600504e+00 5.127948e+00 5.706348e+00 6.295716e+00 6.670408e+00 6.983520e+00 7.008333e+00 7.515156e+00 7.778154e+00 8.079083e+00 7.765879e+00 7.648536e+00 7.330834e+00 7.104881e+00 6.519436e+00 6.153265e+00 5.655050e+00 5.279112e+00 4.522940e+00 4.221735e+00 4.234677e+00 4.792782e+00 5.253090e+00 5.502649e+00
<GCONST> 1.736272e+02
<STREAM> 2
<NUMMIXES> 2
<MIXTURE> 1 3.741989e-01
<MEAN> 1
 4.234973e+00
<VARIANCE> 1
 1.057703e+00
<GCONST> 1.893977e+00
<MIXTURE> 2 6.258023e-01
<MEAN> 0
<VARIANCE> 0
<GCONST> 0.000000e+00
<STREAM> 3
<NUMMIXES> 2
<MIXTURE> 1 2.764014e-01
<MEAN> 1
 -3.212512e-03
<VARIANCE> 1
 7.987247e-03
<GCONST> -2.992032e+00
<MIXTURE> 2 7.235982e-01
<MEAN> 0
<VARIANCE> 0
<GCONST> 0.000000e+00
<STREAM> 4
<NUMMIXES> 2
<MIXTURE> 1 2.764021e-01
<MEAN> 1
 7.250000e+00
<VARIANCE> 1
 8.940651e+14
<GCONST> 3.626468e+01
<MIXTURE> 2 7.235978e-01
<MEAN> 0
<VARIANCE> 0
<GCONST> 0.000000e+00
<TRANSP> 7
 0.000000e+00 1.000000e+00 0.000000e+00 0.000000e+00 0.000000e+00 0.000000e+00 0.000000e+00
 0.000000e+00 0.000000e+00 1.000000e+00 0.000000e+00 0.000000e+00 0.000000e+00 0.000000e+00
 0.000000e+00 0.000000e+00 0.000000e+00 1.000000e+00 0.000000e+00 0.000000e+00 0.000000e+00
 0.000000e+00 0.000000e+00 0.000000e+00 0.000000e+00 1.000000e+00 0.000000e+00 0.000000e+00
 0.000000e+00 0.000000e+00 0.000000e+00 0.000000e+00 0.000000e+00 1.000000e+00 0.000000e+00
 0.000000e+00 0.000000e+00 0.000000e+00 0.000000e+00 0.000000e+00 0.000000e+00 1.000000e+00
 0.000000e+00 0.000000e+00 0.000000e+00 0.000000e+00 0.000000e+00 0.000000e+00 0.000000e+00
<ENDHMM>
~h "g"
<BEGINHMM>
<NUMSTATES> 7
<STATE> 2
<STREAM> 1
<MEAN> 75
 1.414850e-01 1.449075e-01 1.545721e-01 1.719663e-01 1.957384e-01 2.288290e-01 2.650771e-01 3.058086e-01 3.426712e-01 3.807604e-01 4.156801e-01 4.313474e-01 4.218833e-01 3.955304e-01 3.573553e-01 3.116453e-01 2.705646e-01 2.425389e-01 2.042159e-01 1.725268e-01 1.575617e-01 1.513323e-01 1.556942e-01 1.616142e-01 1.606667e-01 3.338607e-03 -6.660929e-03 -1.492906e-02 -2.213265e-02 -3.040147e-02 -3.421848e-02 -3.642715e-02 -3.822779e-02 -3.740840e-02 -3.665248e-02 -2.486360e-02 -2.893114e-03 1.778889e-02 3.378310e-02 4.397906e-02 4.772912e-02 4.047108e-02 3.402450e-02 3.324391e-02 1.973484e-02 5.131765e-03 -2.191643e-03 -4.765096e-03 -4.087969e-04 8.731489e-03 8.945297e-03 7.010860e-03 6.736705e-03 6.894627e-03 7.541195e-03 -1.535913e-03 3.642983e-03 -2.972441e-03 2.111732e-03 -2.598894e-03 -2.030363e-02 -2.436952e-02 -1.755578e-02 -1.137636e-02 -8.643301e-03 1.894933e-03 4.123277e-03 -9.468080e-03 1.380690e-02 2.053347e-02 9.545396e-03 5.425147e-03 1.274042e-03 -3.592094e-03 -1.037689e-02
<VARIANCE> 75
 1.040096e+00 1.066046e+00 1.139141e+00 1.252043e+00 1.380889e+00 1.525035e+00 1.630923e+00 1.795969e+00 1.936173e+00 2.075194e+00 2.195705e+00 2.242086e+00 2.185219e+00 2.057064e+00 1.879339e+00 1.680795e+00 1.494796e+00 1.410095e+00 1.300940e+00 1.194126e+00 1.126188e+00 1.108606e+00 1.121112e+00 1.151811e+00 1.157906e+00 5.196497e-01 5.285261e-01 5.724635e-01 6.306383e-01 7.007065e-01 7.615656e-01 8.371176e-01 9.135734e-01 1.003166e+00 1.069982e+00 1.127896e+00 1.145260e+00 1.124019e+00 1.049329e+00 9.498079e-01 8.334247e-01 7.387539e-01 6.731246e-01 6.433265e-01 5.961482e-01 5.521809e-01 5.330888e-01 5.414071e-01 5.488418e-01 5.489926e-01 4.440232e+00 4.514910e+00 4.798080e+00 5.233698e+00 5.812050e+00 6.389671e+00 6.815742e+00 7.427440e+00 7.993341e+00 8.538075e+00 9.001023e+00 9.170678e+00 8.947734e+00 8.424303e+00 7.681056e+00 6.835724e+00 6.177456e+00 5.925167e+00 5.621836e+00 5.155847e+00 4.797048e+00 4.640913e+00 4.592170e+00 4.695955e+00 4.730243e+00
<GCONST> 1.852997e+02
<STREAM> 2
<NUMMIXES> 2
<MIXTURE> 1 9.383395e-01
<MEAN> 1
 4.514530e+00
<VARIANCE> 1
 1.055680e-02
<GCONST> -2.713108e+00
<MIXTURE> 2 6.165938e-02
<MEAN> 0
<VARIANCE> 0
<GCONST> 0.000000e+00
<STREAM> 3
<NUMMIXES> 2
<MIXTURE> 1 9.132997e-01
<MEAN> 1
 2.502657e-03
<VARIANCE> 1
 3.553591e-04
<GCONST> -6.104505e+00
<MIXTURE> 2 8.669926e-02
<MEAN> 0
<VARIANCE> 0
<GCONST> 0.000000e+00
<STREAM> 4
<NUMMIXES> 2
<MIXTURE> 1 9.132988e-01
<MEAN> 1
 4.500000e+00
<VARIANCE> 1
 8.940651e+14
<GCONST> 3.626468e+01
<MIXTURE> 2 8.669993e-02
<MEAN> 0
<VARIANCE> 0
<GCONST> 0.000000e+00
<STATE> 3
<STREAM> 1
<MEAN> 75
