~o
<STREAMINFO> 4 75 1 1 1
<MSDINFO> 4 0 1 1 1
<VECSIZE> 78<NULLD><USER><DIAGC>
~h "#"
<BEGINHMM>
<NUMSTATES> 7
<STATE> 2
<STREAM> 1
<MEAN> 75
 3.747560e-01 4.347370e-01 3.683229e-01 3.284709e-01 2.943681e-01 2.722393e-01 2.501214e-01 2.265254e-01 2.087454e-01 2.002342e-01 1.766561e-01 1.713446e-01 1.547040e-01 1.480122e-01 1.286007e-01 1.307851e-01 1.069514e-01 1.111371e-01 9.168671e-02 9.370625e-02 7.464851e-02 8.546200e-02 6.441988e-02 7.598807e-02 6.003158e-02 -2.201867e-01 -6.509759e-02 4.450252e-02 1.146460e-02 5.234810e-02 2.613512e-02 5.579564e-02 2.727778e-02 5.256488e-02 2.371091e-02 4.764783e-02 2.527677e-02 4.621653e-02 2.651718e-02 4.795494e-02 2.642225e-02 4.183777e-02 2.861862e-02 4.298017e-02 2.530474e-02 4.468266e-02 2.814074e-02 3.918382e-02 3.177001e-02 4.162082e-02 -4.794994e-02 2.047776e-02 3.935800e-02 4.131786e-02 4.694307e-02 4.457938e-02 4.424920e-02 4.814369e-02 4.668161e-02 4.083779e-02 5.234387e-02 4.040068e-02 4.979998e-02 4.404540e-02 4.970530e-02 3.681414e-02 5.136064e-02 3.757215e-02 4.732431e-02 4.153331e-02 4.666556e-02 3.690038e-02 4.956694e-02 3.576798e-02 4.441106e-02
<VARIANCE> 75
 7.500357e-01 6.207594e-01 5.337174e-01 3.904027e-01 4.163760e-01 3.429108e-01 3.857952e-01 2.913518e-01 3.745847e-01 2.868735e-01 3.511378e-01 3.000106e-01 3.695117e-01 2.858629e-01 4.080885e-01 3.122253e-01 3.998150e-01 3.449931e-01 4.283695e-01 3.389577e-01 4.745915e-01 3.625515e-01 4.610484e-01 3.972816e-01 4.950638e-01 5.328019e-01 6.199657e-01 4.767330e-01 5.320416e-01 4.437742e-01 5.213208e-01 3.804416e-01 5.359261e-01 3.790296e-01 4.879655e-01 4.127309e-01 5.041881e-01 3.824318e-01 5.477136e-01 3.962263e-01 5.218632e-01 4.390374e-01 5.366700e-01 4.157421e-01 5.757705e-01 4.196084e-01 5.439564e-01 4.404675e-01 5.480912e-01 4.074838e-01 1.997241e+00 2.110675e+00 1.769172e+00 1.477790e+00 1.446495e+00 1.195633e+00 1.221097e+00 9.659140e-01 1.017624e+00 8.724624e-01 9.124251e-01 7.867486e-01 8.744404e-01 7.417186e-01 8.190122e-01 7.480431e-01 7.854924e-01 6.835087e-01 7.529576e-01 6.240561e-01 6.795433e-01 6.012414e-01 6.365659e-01 5.536928e-01 6.381308e-01
<GCONST> 9.388863e+01
<STREAM> 2
<NUMMIXES> 2
<MIXTURE> 1 3.413883e-01
<MEAN> 1
 1.501656e-01
<VARIANCE> 1
 4.678478e-01
<GCONST> 1.078265e+00
<MIXTURE> 2 6.586337e-01
<MEAN> 0
<VARIANCE> 0
<GCONST> 0.000000e+00
<STREAM> 3
<NUMMIXES> 2
<MIXTURE> 1 3.411009e-01
<MEAN> 1
 1.246848e-01
<VARIANCE> 1
 5.163066e-01
<GCONST> 1.176822e+00
<MIXTURE> 2 6.589208e-01
<MEAN> 0
<VARIANCE> 0
<GCONST> 0.000000e+00
<STREAM> 4
<NUMMIXES> 2
<MIXTURE> 1 3.411006e-01
<MEAN> 1
 -8.535800e+04
<VARIANCE> 1
 1.706891e+15
<GCONST> 3.691133e+01
<MIXTURE> 2 6.589212e-01
<MEAN> 0
<VARIANCE> 0
<GCONST> 0.000000e+00
<STATE> 3
<STREAM> 1
<MEAN> 75
 1.020265e-01 1.561591e-01 2.240366e-01 2.366011e-01 2.616540e-01 2.584333e-01 2.714299e-01 2.530825e-01 2.503311e-01 2.360422e-01 2.229291e-01 2.111297e-01 2.003992e-01 1.867989e-01 1.703863e-01 1.651294e-01 1.414660e-01 1.394103e-01 1.216575e-01 1.175046e-01 9.670116e-02 1.041728e-01 8.015287e-02 8.847879e-02 7.245803e-02 -1.357108e-02 -6.522061e-02 -2.513124e-02 -1.546422e-02 8.738212e-03 1.448656e-02 3.078912e-02 2.947736e-02 4.253616e-02 3.380416e-02 3.943149e-02 3.895724e-02 4.629306e-02 4.176647e-02 5.367584e-02 4.306506e-02 4.974714e-02 4.517693e-02 5.213209e-02 4.269942e-02 5.634395e-02 4.301019e-02 5.105783e-02 4.520454e-02 5.143961e-02 1.106455e-01 5.298812e-02 9.648548e-03 3.549488e-02 2.349020e-02 3.793332e-02 2.624268e-02 4.646388e-02 3.453688e-02 4.048709e-02 4.109151e-02 3.868103e-02 4.295363e-02 4.359874e-02 4.478290e-02 3.673420e-02 4.811175e-02 3.619511e-02 4.414570e-02 4.137216e-02 4.445034e-02 3.550929e-02 4.900177e-02 3.238170e-02 4.243705e-02
<VARIANCE> 75
 2.996557e-01 3.597798e-01 5.107496e-01 4.369307e-01 5.092825e-01 4.490709e-01 5.063616e-01 3.969597e-01 4.991989e-01 3.839040e-01 4.594936e-01 3.901718e-01 4.671911e-01 3.600172e-01 5.027236e-01 3.775424e-01 4.804512e-01 4.112062e-01 5.013468e-01 3.913441e-01 5.527604e-01 4.042021e-01 5.206767e-01 4.360526e-01 5.399253e-01 4.035127e-01 6.007405e-01 4.625278e-01 5.804734e-01 4.955735e-01 5.899209e-01 4.426654e-01 6.056938e-01 4.289435e-01 5.511684e-01 4.522494e-01 5.496713e-01 4.075149e-01 5.814831e-01 4.077877e-01 5.413654e-01 4.397679e-01 5.415336e-01 4.081990e-01 5.683451e-01 4.006177e-01 5.264099e-01 4.134547e-01 5.201390e-01 3.733631e-01 9.666427e-01 1.181996e+00 1.398457e+00 1.379816e+00 1.470033e+00 1.292623e+00 1.342658e+00 1.087790e+00 1.113137e+00 9.365228e-01 9.427896e-01 7.863963e-01 8.491656e-01 7.006173e-01 7.503520e-01 6.701779e-01 6.918818e-01 5.835757e-01 6.615090e-01 5.270584e-01 5.787253e-01 5.061094e-01 5.449405e-01 4.534166e-01 5.435174e-01
<GCONST> 9.448405e+01
<STREAM> 2
<NUMMIXES> 2
<MIXTURE> 1 4.030900e-01
<MEAN> 1
 1.126022e-01
<VARIANCE> 1
 4.725342e-01
<GCONST> 1.088232e+00
<MIXTURE> 2 5.969352e-01
<MEAN> 0
<VARIANCE> 0
<GCONST> 0.000000e+00
<STREAM> 3
<NUMMIXES> 2
<MIXTURE> 1 4.028524e-01
<MEAN> 1
 1.053374e-01
<VARIANCE> 1
 5.554600e-01
<GCONST> 1.249918e+00
<MIXTURE> 2 5.971726e-01
<MEAN> 0
<VARIANCE> 0
<GCONST> 0.000000e+00
<STREAM> 4
<NUMMIXES> 2
<MIXTURE> 1 4.028519e-01
<MEAN> 1
 -2.189650e+04
<VARIANCE> 1
 8.940651e+14
<GCONST> 3.626468e+01
<MIXTURE> 2 5.971733e-01
<MEAN> 0
<VARIANCE> 0
<GCONST> 0.000000e+00
<STATE> 4
<STREAM> 1
<MEAN> 75
 1.082467e-01 8.362010e-02 1.109911e-01 1.259008e-01 1.557130e-01 1.714144e-01 2.001355e-01 2.065637e-01 2.182153e-01 2.217808e-01 2.180678e-01 2.161635e-01 2.128713e-01 2.062933e-01 1.929762e-01 1.923436e-01 1.710767e-01 1.696854e-01 1.541313e-01 1.509663e-01 1.275075e-01 1.357585e-01 1.104320e-01 1.150656e-01 9.964596e-02 3.649727e-02 1.443695e-02 1.353025e-02 -1.452055e-03 5.937211e-03 1.008448e-02 2.008592e-02 2.079717e-02 3.642527e-02 3.018467e-02 3.990206e-02 4.095687e-02 5.216754e-02 4.627216e-02 6.376813e-02 4.779747e-02 6.034896e-02 5.322896e-02 6.349329e-02 5.260476e-02 6.902045e-02 5.197294e-02 6.150898e-02 5.445187e-02 6.028707e-02 4.119855e-02 8.075114e-02 5.305218e-02 5.237300e-02 4.360475e-02 4.246627e-02 3.795622e-02 4.457611e-02 3.978623e-02 3.523158e-02 4.599652e-02 3.249649e-02 4.659183e-02 3.753817e-02 4.687714e-02 3.058216e-02 4.832632e-02 2.929644e-02 4.363865e-02 3.380452e-02 4.399310e-02 2.867348e-02 4.650070e-02 2.555671e-02 4.067978e-02
<VARIANCE> 75
 3.468515e-01 2.603159e-01 4.183302e-01 3.635636e-01 4.914683e-01 4.567158e-01 5.627128e-01 4.616466e-01 6.011513e-01 4.740471e-01 5.679317e-01 4.869964e-01 5.698883e-01 4.468553e-01 5.984052e-01 4.468974e-01 5.601866e-01 4.746420e-01 5.638375e-01 4.359101e-01 6.106471e-01 4.317186e-01 5.566540e-01 4.565223e-01 5.520946e-01 3.757945e-01 5.510710e-01 4.042343e-01 5.322328e-01 4.574481e-01 5.652421e-01 4.363284e-01 6.062381e-01 4.339417e-01 5.653133e-01 4.575349e-01 5.526074e-01 4.055852e-01 5.710684e-01 3.924345e-01 5.211940e-01 4.067622e-01 5.042501e-01 3.681310e-01 5.124407e-01 3.497480e-01 4.639834e-01 3.544298e-01 4.515529e-01 3.116639e-01 6.656478e-01 5.292528e-01 7.589223e-01 7.936486e-01 1.003292e+00 9.680641e-01 1.133122e+00 9.953504e-01 1.075485e+00 9.531806e-01 9.775928e-01 8.318995e-01 8.926176e-01 7.470998e-01 7.786572e-01 6.927842e-01 7.067964e-01 5.862180e-01 6.746753e-01 5.334290e-01 5.717039e-01 5.068312e-01 5.449588e-01 4.480431e-01 5.391507e-01
<GCONST> 9.193340e+01
<STREAM> 2
<NUMMIXES> 2
<MIXTURE> 1 4.519626e-01
<MEAN> 1
 9.045792e-02
<VARIANCE> 1
 5.567265e-01
<GCONST> 1.252196e+00
<MIXTURE> 2 5.480760e-01
<MEAN> 0
<VARIANCE> 0
<GCONST> 0.000000e+00
<STREAM> 3
<NUMMIXES> 2
<MIXTURE> 1 4.516357e-01
<MEAN> 1
 8.468116e-02
<VARIANCE> 1
 6.192921e-01
<GCONST> 1.358699e+00
<MIXTURE> 2 5.484022e-01
<MEAN> 0
<VARIANCE> 0
<GCONST> 0.000000e+00
<STREAM> 4
<NUMMIXES> 2
<MIXTURE> 1 4.516349e-01
<MEAN> 1
 -4.086000e+03
<VARIANCE> 1
 8.940651e+14
<GCONST> 3.626468e+01
<MIXTURE> 2 5.484028e-01
<MEAN> 0
<VARIANCE> 0
<GCONST> 0.000000e+00
<STATE> 5
<STREAM> 1
<MEAN> 75
 1.194817e-01 9.857897e-02 9.837067e-02 9.470791e-02 1.011724e-01 1.067232e-01 1.329644e-01 1.389989e-01 1.611086e-01 1.727761e-01 1.831753e-01 1.881567e-01 2.020233e-01 1.983972e-01 2.013466e-01 2.019415e-01 1.924084e-01 1.930253e-01 1.887552e-01 1.821438e-01 1.692570e-01 1.719316e-01 1.540602e-01 1.493315e-01 1.438823e-01 4.944117e-02 4.495828e-02 5.150210e-02 3.748830e-02 3.607742e-02 3.513939e-02 3.484331e-02 2.818855e-02 4.293711e-02 2.955993e-02 4.354483e-02 4.067292e-02 5.430856e-02 4.301301e-02 6.612661e-02 4.480015e-02 6.110329e-02 5.415094e-02 6.429708e-02 5.416656e-02 7.160401e-02 5.144915e-02 6.189788e-02 5.433897e-02 5.983689e-02 4.031668e-02 5.539711e-02 4.412682e-02 5.164913e-02 4.938229e-02 4.381979e-02 4.268444e-02 4.360865e-02 3.714829e-02 3.093014e-02 3.953495e-02 2.514039e-02 3.725589e-02 3.053507e-02 3.513826e-02 2.502470e-02 3.610378e-02 2.059301e-02 3.349942e-02 2.458761e-02 3.463208e-02 1.934158e-02 3.717948e-02 1.741609e-02 3.191103e-02
<VARIANCE> 75
 4.234277e-01 3.255789e-01 4.753551e-01 3.574454e-01 4.859467e-01 4.340924e-01 5.456918e-01 4.574185e-01 6.153069e-01 4.892790e-01 6.035160e-01 5.211415e-01 6.036187e-01 4.873629e-01 6.371305e-01 4.783504e-01 6.031592e-01 5.000762e-01 5.815570e-01 4.574631e-01 6.135352e-01 4.379916e-01 5.460831e-01 4.498309e-01 5.165907e-01 3.577157e-01 4.924861e-01 3.505318e-01 4.635808e-01 3.770313e-01 4.794014e-01 3.697023e-01 5.237644e-01 3.787218e-01 4.993803e-01 4.027812e-01 4.914917e-01 3.607233e-01 5.023536e-01 3.450743e-01 4.520865e-01 3.437899e-01 4.283308e-01 3.046428e-01 4.197901e-01 2.853681e-01 3.754915e-01 2.854550e-01 3.579684e-01 2.420213e-01 5.763735e-01 4.313114e-01 5.117171e-01 4.597948e-01 5.976071e-01 5.798174e-01 7.763831e-01 7.296669e-01 8.657160e-01 8.323172e-01 9.099730e-01 8.206539e-01 9.226056e-01 8.080169e-01 8.623188e-01 7.796227e-01 8.188565e-01 6.960265e-01 7.989282e-01 6.600853e-01 6.962302e-01 6.319195e-01 6.652102e-01 5.544995e-01 6.380094e-01
<GCONST> 8.756303e+01
<STREAM> 2
<NUMMIXES> 2
<MIXTURE> 1 4.844306e-01
<MEAN> 1
 8.525324e-02
<VARIANCE> 1
 6.956539e-01
<GCONST> 1.474974e+00
<MIXTURE> 2 5.156092e-01
<MEAN> 0
<VARIANCE> 0
<GCONST> 0.000000e+00
<STREAM> 3
<NUMMIXES> 2
<MIXTURE> 1 4.838265e-01
<MEAN> 1
 6.002814e-02
<VARIANCE> 1
 7.110852e-01
<GCONST> 1.496914e+00
<MIXTURE> 2 5.162133e-01
<MEAN> 0
<VARIANCE> 0
<GCONST> 0.000000e+00
<STREAM> 4
<NUMMIXES> 2
<MIXTURE> 1 4.838260e-01
<MEAN> 1
 -2.816000e+03
<VARIANCE> 1
 8.940651e+14
<GCONST> 3.626468e+01
<MIXTURE> 2 5.162143e-01
<MEAN> 0
<VARIANCE> 0
<GCONST> 0.000000e+00
<STATE> 6
<STREAM> 1
<MEAN> 75
 1.333374e-01 1.169916e-01 1.177873e-01 1.038655e-01 1.134996e-01 9.084590e-02 1.183802e-01 1.084031e-01 1.222383e-01 1.275922e-01 1.510569e-01 1.414320e-01 1.802024e-01 1.753106e-01 1.844270e-01 1.924170e-01 2.014920e-01 1.885473e-01 2.139143e-01 1.985976e-01 2.017234e-01 1.951385e-01 1.930801e-01 1.796667e-01 1.804450e-01 6.026626e-02 5.328428e-02 6.398012e-02 5.166856e-02 5.609730e-02 5.035703e-02 5.421264e-02 3.365104e-02 5.457550e-02 2.635300e-02 4.665492e-02 2.814140e-02 4.392916e-02 3.150892e-02 5.219818e-02 3.183658e-02 4.620758e-02 3.778041e-02 4.944049e-02 3.764030e-02 5.438390e-02 3.524435e-02 4.686554e-02 4.050019e-02 3.903470e-02 2.875295e-02 3.549897e-02 2.990372e-02 2.673201e-02 3.614844e-02 2.570117e-02 3.006495e-02 2.481831e-02 2.867230e-02 2.196306e-02 3.002343e-02 1.729149e-02 2.395711e-02 1.927774e-02 1.754629e-02 1.531542e-02 2.661010e-02 9.204846e-03 2.450196e-02 1.066607e-02 2.603628e-02 9.170234e-03 3.017045e-02 9.934635e-03 2.129573e-02
<VARIANCE> 75
 5.220610e-01 4.042229e-01 5.350285e-01 4.081400e-01 4.785309e-01 4.376905e-01 4.925593e-01 4.024029e-01 5.523303e-01 4.173296e-01 5.222396e-01 4.689784e-01 5.378736e-01 4.564127e-01 6.094458e-01 4.404453e-01 5.386224e-01 4.953941e-01 5.027455e-01 4.431103e-01 5.207323e-01 4.172888e-01 4.617377e-01 4.097289e-01 4.508137e-01 3.002164e-01 3.974903e-01 2.744351e-01 3.640584e-01 3.031979e-01 3.510126e-01 2.915913e-01 3.745093e-01 2.789882e-01 3.717771e-01 2.980775e-01 3.598103e-01 2.773215e-01 3.584858e-01 2.638525e-01 3.404966e-01 2.577165e-01 3.133247e-01 2.401220e-01 3.198716e-01 2.242542e-01 2.719339e-01 2.241604e-01 2.771011e-01 2.012580e-01 6.008913e-01 4.905998e-01 5.009997e-01 4.591820e-01 5.054055e-01 4.595577e-01 6.050805e-01 5.506656e-01 6.592619e-01 6.650994e-01 7.405161e-01 7.238744e-01 8.507661e-01 7.946193e-01 8.794292e-01 8.209185e-01 8.750650e-01 8.233472e-01 9.314384e-01 8.184943e-01 8.459154e-01 7.992178e-01 7.871882e-01 7.069666e-01 7.591614e-01
<GCONST> 7.954650e+01
<STREAM> 2
<NUMMIXES> 2
<MIXTURE> 1 5.022622e-01
<MEAN> 1
 1.043181e-01
<VARIANCE> 1
 8.164406e-01
<GCONST> 1.635076e+00
<MIXTURE> 2 4.977724e-01
<MEAN> 0
<VARIANCE> 0
<GCONST> 0.000000e+00
<STREAM> 3
<NUMMIXES> 2
<MIXTURE> 1 5.012000e-01
<MEAN> 1
 5.092195e-02
<VARIANCE> 1
 6.329784e-01
<GCONST> 1.380558e+00
<MIXTURE> 2 4.988356e-01
<MEAN> 0
<VARIANCE> 0
<GCONST> 0.000000e+00
<STREAM> 4
<NUMMIXES> 2
<MIXTURE> 1 5.011991e-01
<MEAN> 1
 -1.059400e+04
<VARIANCE> 1
 8.940651e+14
<GCONST> 3.626468e+01
<MIXTURE> 2 4.988362e-01
<MEAN> 0
<VARIANCE> 0
<GCONST> 0.000000e+00
<TRANSP> 7
 0.000000e+00 1.000000e+00 0.000000e+00 0.000000e+00 0.000000e+00 0.000000e+00 0.000000e+00
 0.000000e+00 7.287211e-01 2.712789e-01 0.000000e+00 0.000000e+00 0.000000e+00 0.000000e+00
 0.000000e+00 0.000000e+00 7.287185e-01 2.712814e-01 0.000000e+00 0.000000e+00 0.000000e+00
 0.000000e+00 0.000000e+00 0.000000e+00 7.287195e-01 2.712804e-01 0.000000e+00 0.000000e+00
 0.000000e+00 0.000000e+00 0.000000e+00 0.000000e+00 7.287194e-01 2.712806e-01 0.000000e+00
 0.000000e+00 0.000000e+00 0.000000e+00 0.000000e+00 0.000000e+00 7.287095e-01 2.712905e-01
 0.000000e+00 0.000000e+00 0.000000e+00 0.000000e+00 0.000000e+00 0.000000e+00 0.000000e+00
<ENDHMM>
~h "@"
<BEGINHMM>
<NUMSTATES> 7
<STATE> 2
<STREAM> 1
<MEAN> 75
 2.475323e-01 2.473320e-01 2.471898e-01 2.470129e-01 2.463040e-01 2.455044e-01 2.446581e-01 2.439440e-01 2.435456e-01 2.434538e-01 2.434006e-01 2.437304e-01 2.438011e-01 2.439974e-01 2.444152e-01 2.449936e-01 2.457943e-01 2.475660e-01 2.489722e-01 2.500333e-01 2.509231e-01 2.508276e-01 2.500884e-01 2.495451e-01 2.485528e-01 1.774421e-04 1.368033e-04 3.288547e-05 6.496790e-05 4.635192e-06 3.933441e-05 -1.008888e-04 -1.320479e-04 -2.698714e-04 -2.348791e-04 -3.472660e-04 -3.479405e-04 -3.948072e-04 -3.482732e-04 -2.589566e-04 -2.521696e-04 2.676039e-05 1.039216e-05 2.805262e-04 1.583321e-04 5.294399e-04 3.241224e-04 6.075022e-04 3.326072e-04 5.044299e-04 -1.081172e-05 2.317184e-04 7.350463e-07 1.570156e-04 -1.105806e-05 1.971261e-04 1.313318e-04 2.625792e-04 1.695764e-04 2.145921e-04 1.561451e-04 2.007610e-04 1.431664e-04 1.293430e-04 8.444698e-05 1.347577e-05 1.390602e-04 6.174762e-05 2.836995e-04 9.386404e-05 2.938479e-04 3.932952e-05 3.287410e-04 1.398455e-04 2.150526e-04
<VARIANCE> 75
 1.397312e+00 1.395472e+00 1.394107e+00 1.393317e+00 1.390495e+00 1.386033e+00 1.381014e+00 1.377584e+00 1.375072e+00 1.371053e+00 1.366816e+00 1.364897e+00 1.363464e+00 1.361613e+00 1.360936e+00 1.362031e+00 1.368022e+00 1.379330e+00 1.388893e+00 1.397597e+00 1.404580e+00 1.408210e+00 1.407882e+00 1.406630e+00 1.402497e+00 6.918403e-01 6.900637e-01 6.891043e-01 6.886065e-01 6.872090e-01 6.850507e-01 6.825543e-01 6.805972e-01 6.794404e-01 6.772164e-01 6.752148e-01 6.737089e-01 6.730593e-01 6.721425e-01 6.719781e-01 6.720795e-01 6.758469e-01 6.816861e-01 6.876338e-01 6.932417e-01 6.966031e-01 6.972991e-01 6.990821e-01 6.973985e-01 6.954685e-01 5.680962e+00 5.663260e+00 5.652636e+00 5.652678e+00 5.643005e+00 5.624027e+00 5.605558e+00 5.598010e+00 5.593349e+00 5.581391e+00 5.566607e+00 5.555690e+00 5.553132e+00 5.545192e+00 5.541064e+00 5.551848e+00 5.583334e+00 5.639480e+00 5.681955e+00 5.710622e+00 5.730857e+00 5.743158e+00 5.741147e+00 5.733684e+00 5.709521e+00
<GCONST> 1.797151e+02
<STREAM> 2
<NUMMIXES> 2
<MIXTURE> 1 6.705685e-01
<MEAN> 1
 4.507942e+00
<VARIANCE> 1
 4.226888e-02
<GCONST> -1.325827e+00
<MIXTURE> 2 3.295660e-01
<MEAN> 0
<VARIANCE> 0
<GCONST> 0.000000e+00
<STREAM> 3
<NUMMIXES> 2
<MIXTURE> 1 6.446351e-01
<MEAN> 1
 2.637422e-03
<VARIANCE> 1
 7.014243e-04
<GCONST> -5.424520e+00
<MIXTURE> 2 3.555040e-01
<MEAN> 0
<VARIANCE> 0
<GCONST> 0.000000e+00
<STREAM> 4
<NUMMIXES> 2
<MIXTURE> 1 6.446333e-01
<MEAN> 1
 -5.728314e+06
<VARIANCE> 1
 1.145229e+17
<GCONST> 4.111743e+01
<MIXTURE> 2 3.555047e-01
<MEAN> 0
<VARIANCE> 0
<GCONST> 0.000000e+00
<STATE> 3
<STREAM> 1
<MEAN> 75
 2.482897e-01 2.478470e-01 2.474647e-01 2.471840e-01 2.463719e-01 2.454999e-01 2.445560e-01 2.436882e-01 2.431933e-01 2.429999e-01 2.426993e-01 2.427521e-01 2.426949e-01 2.428278e-01 2.432696e-01 2.439836e-01 2.451338e-01 2.473296e-01 2.490253e-01 2.504427e-01 2.516945e-01 2.517383e-01 2.511308e-01 2.506289e-01 2.495493e-01 2.798886e-04 2.397018e-04 1.170845e-04 1.241384e-04 6.101467e-05 1.020369e-04 -3.420515e-06 4.506903e-06 -8.711987e-05 -6.295682e-05 -1.497590e-04 -2.323780e-04 -2.770612e-04 -3.867482e-04 -2.810769e-04 -4.525706e-04 -8.702977e-05 -2.425525e-04 1.446719e-04 -1.081894e-04 4.425810e-04 1.700218e-04 6.412743e-04 3.097693e-04 6.160869e-04 -5.681766e-06 3.105260e-04 4.672003e-05 2.087161e-04 4.605833e-05 2.285619e-04 1.603854e-04 2.691427e-04 1.914122e-04 2.684640e-04 2.441728e-04 3.456275e-04 2.975774e-04 2.931152e-04 2.316337e-04 7.249857e-05 2.816725e-04 9.394670e-05 4.225706e-04 9.340188e-05 3.688948e-04 2.242066e-05 4.000673e-04 1.603863e-04 2.482452e-04
<VARIANCE> 75
 1.404764e+00 1.402051e+00 1.399842e+00 1.398253e+00 1.394816e+00 1.389829e+00 1.384180e+00 1.379993e+00 1.376875e+00 1.372405e+00 1.367880e+00 1.365645e+00 1.364030e+00 1.362141e+00 1.361602e+00 1.363382e+00 1.370722e+00 1.383892e+00 1.394762e+00 1.405028e+00 1.413310e+00 1.417742e+00 1.417645e+00 1.416422e+00 1.411726e+00 6.957827e-01 6.936408e-01 6.921729e-01 6.913111e-01 6.895094e-01 6.871280e-01 6.843965e-01 6.820859e-01 6.806240e-01 6.781206e-01 6.761606e-01 6.745107e-01 6.735619e-01 6.728764e-01 6.724812e-01 6.729714e-01 6.774650e-01 6.843887e-01 6.908303e-01 6.975837e-01 7.012145e-01 7.023170e-01 7.043556e-01 7.027764e-01 7.003461e-01 5.714962e+00 5.693550e+00 5.679370e+00 5.675119e+00 5.662199e+00 5.640543e+00 5.619558e+00 5.609354e+00 5.603140e+00 5.590030e+00 5.574858e+00 5.563026e+00 5.560296e+00 5.552496e+00 5.549785e+00 5.563357e+00 5.600977e+00 5.666039e+00 5.714260e+00 5.748241e+00 5.771830e+00 5.786009e+00 5.783726e+00 5.776198e+00 5.749997e+00
<GCONST> 1.799896e+02
<STREAM> 2
<NUMMIXES> 2
<MIXTURE> 1 6.722326e-01
<MEAN> 1
 4.504833e+00
<VARIANCE> 1
 5.843475e-02
<GCONST> -1.001967e+00
<MIXTURE> 2 3.279221e-01
<MEAN> 0
<VARIANCE> 0
<GCONST> 0.000000e+00
<STREAM> 3
<NUMMIXES> 2
<MIXTURE> 1 6.462150e-01
<MEAN> 1
 2.780323e-03
<VARIANCE> 1
 9.897567e-04
<GCONST> -5.080174e+00
<MIXTURE> 2 3.539426e-01
<MEAN> 0
<VARIANCE> 0
<GCONST> 0.000000e+00
<STREAM> 4
<NUMMIXES> 2
<MIXTURE> 1 6.462141e-01
<MEAN> 1
 -5.484062e+06
<VARIANCE> 1
 1.096405e+17
<GCONST> 4.107386e+01
<MIXTURE> 2 3.539433e-01
<MEAN> 0
<VARIANCE> 0
<GCONST> 0.000000e+00
<STATE> 4
<STREAM> 1
<MEAN> 75
 2.491102e-01 2.485197e-01 2.479237e-01 2.475157e-01 2.465885e-01 2.456210e-01 2.446265e-01 2.436492e-01 2.431334e-01 2.428948e-01 2.424448e-01 2.422274e-01 2.420218e-01 2.419502e-01 2.422854e-01 2.429365e-01 2.442730e-01 2.467507e-01 2.485911e-01 2.502347e-01 2.517540e-01 2.519683e-01 2.515959e-01 2.512967e-01 2.502907e-01 3.127806e-04 3.003714e-04 2.030886e-04 2.006839e-04 1.469690e-04 1.769884e-04 6.299466e-05 7.809070e-05 8.171657e-06 1.792365e-05 -1.983019e-06 -1.172193e-04 -8.395175e-05 -3.026689e-04 -1.270259e-04 -4.703912e-04 -3.706454e-05 -3.519941e-04 1.097908e-04 -3.006547e-04 3.569257e-04 -5.969778e-06 5.802100e-04 2.129963e-04 6.146207e-04 4.649395e-06 3.656701e-04 9.561540e-05 2.492410e-04 1.378520e-04 3.214681e-04 2.563482e-04 3.367763e-04 2.308756e-04 3.516835e-04 3.007238e-04 4.886019e-04 3.996787e-04 4.625719e-04 3.537729e-04 1.512107e-04 4.452874e-04 1.880804e-04 6.025226e-04 1.671538e-04 4.913576e-04 7.416471e-05 5.060576e-04 2.260520e-04 3.091802e-04
<VARIANCE> 75
 1.413382e+00 1.410151e+00 1.407240e+00 1.404766e+00 1.400721e+00 1.395181e+00 1.388800e+00 1.383763e+00 1.379967e+00 1.374895e+00 1.370034e+00 1.367198e+00 1.365021e+00 1.362569e+00 1.361670e+00 1.363553e+00 1.371947e+00 1.386896e+00 1.398896e+00 1.410454e+00 1.419978e+00 1.425413e+00 1.426180e+00 1.425599e+00 1.421073e+00 7.005820e-01 6.983207e-01 6.964822e-01 6.952424e-01 6.930382e-01 6.904265e-01 6.873802e-01 6.846547e-01 6.828952e-01 6.799435e-01 6.780528e-01 6.760594e-01 6.744750e-01 6.738982e-01 6.728476e-01 6.735373e-01 6.785237e-01 6.865231e-01 6.933475e-01 7.012556e-01 7.050479e-01 7.068307e-01 7.092645e-01 7.082762e-01 7.057026e-01 5.755510e+00 5.732078e+00 5.715003e+00 5.705697e+00 5.688993e+00 5.663880e+00 5.639434e+00 5.625625e+00 5.617685e+00 5.603083e+00 5.587199e+00 5.573184e+00 5.568658e+00 5.559040e+00 5.555144e+00 5.569165e+00 5.612044e+00 5.686182e+00 5.739674e+00 5.778510e+00 5.806011e+00 5.823524e+00 5.822836e+00 5.817339e+00 5.791775e+00
<GCONST> 1.802822e+02
<STREAM> 2
<NUMMIXES> 2
<MIXTURE> 1 6.740341e-01
<MEAN> 1
 4.500169e+00
<VARIANCE> 1
 8.156715e-02
<GCONST> -6.684515e-01
<MIXTURE> 2 3.261213e-01
<MEAN> 0
<VARIANCE> 0
<GCONST> 0.000000e+00
<STREAM> 3
<NUMMIXES> 2
<MIXTURE> 1 6.479412e-01
<MEAN> 1
 2.964186e-03
<VARIANCE> 1
 1.450872e-03
<GCONST> -4.697713e+00
<MIXTURE> 2 3.522136e-01
<MEAN> 0
<VARIANCE> 0
<GCONST> 0.000000e+00
<STREAM> 4
<NUMMIXES> 2
<MIXTURE> 1 6.479402e-01
<MEAN> 1
 -5.248879e+06
<VARIANCE> 1
 1.049407e+17
<GCONST> 4.103005e+01
<MIXTURE> 2 3.522144e-01
<MEAN> 0
<VARIANCE> 0
<GCONST> 0.000000e+00
<STATE> 5
<STREAM> 1
<MEAN> 75
 2.497479e-01 2.491361e-01 2.484322e-01 2.479236e-01 2.469381e-01 2.458878e-01 2.448838e-01 2.437770e-01 2.432448e-01 2.429447e-01 2.424325e-01 2.419871e-01 2.416960e-01 2.414023e-01 2.416313e-01 2.421073e-01 2.435072e-01 2.461389e-01 2.479845e-01 2.496637e-01 2.512742e-01 2.515908e-01 2.514481e-01 2.514055e-01 2.505721e-01 2.730047e-04 3.047117e-04 2.470841e-04 2.586406e-04 2.151409e-04 2.656304e-04 1.315656e-04 1.600643e-04 8.610939e-05 6.871531e-05 1.009495e-04 -2.445723e-05 9.326846e-05 -1.766579e-04 7.798942e-05 -3.689223e-04 9.186286e-05 -3.099996e-04 1.779310e-04 -3.253696e-04 3.300451e-04 -9.750342e-05 4.886207e-04 1.378374e-04 5.512948e-04 5.176477e-05 4.160423e-04 1.645419e-04 2.994612e-04 2.445914e-04 4.416497e-04 3.647055e-04 4.670068e-04 2.975885e-04 5.193660e-04 3.738664e-04 6.864867e-04 4.601241e-04 6.574700e-04 4.181606e-04 2.747870e-04 5.707089e-04 3.531352e-04 7.569829e-04 3.280290e-04 6.393648e-04 2.190929e-04 6.575233e-04 3.625108e-04 4.299933e-04
<VARIANCE> 75
 1.421510e+00 1.418251e+00 1.415185e+00 1.412049e+00 1.407618e+00 1.401632e+00 1.394529e+00 1.388626e+00 1.384237e+00 1.378498e+00 1.373350e+00 1.369827e+00 1.367052e+00 1.363682e+00 1.362173e+00 1.363645e+00 1.372671e+00 1.388948e+00 1.401910e+00 1.413971e+00 1.424269e+00 1.430468e+00 1.432248e+00 1.432732e+00 1.428985e+00 7.055104e-01 7.034910e-01 7.015009e-01 7.000808e-01 6.976064e-01 6.948289e-01 6.914726e-01 6.883494e-01 6.862978e-01 6.827776e-01 6.810257e-01 6.785731e-01 6.761591e-01 6.756914e-01 6.737062e-01 6.743957e-01 6.795951e-01 6.885085e-01 6.955597e-01 7.044470e-01 7.080918e-01 7.106106e-01 7.133610e-01 7.132565e-01 7.108403e-01 5.795483e+00 5.772294e+00 5.754164e+00 5.740543e+00 5.720891e+00 5.692366e+00 5.664052e+00 5.645923e+00 5.636088e+00 5.619948e+00 5.603417e+00 5.587192e+00 5.580157e+00 5.567271e+00 5.560955e+00 5.573225e+00 5.619294e+00 5.701308e+00 5.759114e+00 5.800714e+00 5.830767e+00 5.851276e+00 5.852751e+00 5.850343e+00 5.827315e+00
<GCONST> 1.805813e+02
<STREAM> 2
<NUMMIXES> 2
<MIXTURE> 1 6.758508e-01
<MEAN> 1
 4.493326e+00
<VARIANCE> 1
 1.144500e-01
<GCONST> -3.297405e-01
<MIXTURE> 2 3.242850e-01
<MEAN> 0
<VARIANCE> 0
<GCONST> 0.000000e+00
<STREAM> 3
<NUMMIXES> 2
<MIXTURE> 1 6.497147e-01
<MEAN> 1
 3.216377e-03
<VARIANCE> 1
 2.156709e-03
<GCONST> -4.301295e+00
<MIXTURE> 2 3.504246e-01
<MEAN> 0
<VARIANCE> 0
<GCONST> 0.000000e+00
<STREAM> 4
<NUMMIXES> 2
<MIXTURE> 1 6.497139e-01
<MEAN> 1
 -5.031529e+06
<VARIANCE> 1
 1.005968e+17
<GCONST> 4.098777e+01
<MIXTURE> 2 3.504253e-01
<MEAN> 0
<VARIANCE> 0
<GCONST> 0.000000e+00
<STATE> 6
<STREAM> 1
<MEAN> 75
 2.500929e-01 2.495420e-01 2.488644e-01 2.482830e-01 2.473190e-01 2.462324e-01 2.452800e-01 2.440436e-01 2.434952e-01 2.430839e-01 2.425597e-01 2.419133e-01 2.415983e-01 2.410993e-01 2.412635e-01 2.415064e-01 2.428872e-01 2.455816e-01 2.473744e-01 2.489211e-01 2.504782e-01 2.507906e-01 2.508200e-01 2.509909e-01 2.503639e-01 1.933050e-04 2.814233e-04 2.498646e-04 2.989565e-04 2.519304e-04 3.438073e-04 1.873891e-04 2.415167e-04 1.743950e-04 1.482730e-04 2.007093e-04 9.226240e-05 2.290348e-04 -7.155817e-06 2.541242e-04 -1.764973e-04 2.005899e-04 -1.523264e-04 2.711706e-04 -1.741904e-04 3.555969e-04 -4.961481e-05 4.215215e-04 1.621987e-04 5.023617e-04 1.496254e-04 4.933551e-04 2.616590e-04 3.965567e-04 3.699271e-04 5.993980e-04 4.602829e-04 6.510767e-04 3.673187e-04 7.736015e-04 4.679726e-04 9.624193e-04 4.747128e-04 9.027228e-04 4.308815e-04 5.105382e-04 6.470182e-04 6.228024e-04 8.531483e-04 5.833765e-04 7.985218e-04 4.651102e-04 8.775603e-04 5.882517e-04 6.488871e-04
<VARIANCE> 75
 1.427890e+00 1.425111e+00 1.422360e+00 1.418902e+00 1.414539e+00 1.408413e+00 1.400892e+00 1.394177e+00 1.389466e+00 1.383071e+00 1.377843e+00 1.373603e+00 1.370444e+00 1.365911e+00 1.363897e+00 1.364503e+00 1.373849e+00 1.390834e+00 1.404562e+00 1.416447e+00 1.426986e+00 1.433295e+00 1.435919e+00 1.437490e+00 1.434637e+00 7.100150e-01 7.084786e-01 7.066502e-01 7.052746e-01 7.027863e-01 7.000006e-01 6.963797e-01 6.930497e-01 6.906109e-01 6.865750e-01 6.850355e-01 6.821524e-01 6.788381e-01 6.785675e-01 6.755366e-01 6.761432e-01 6.812544e-01 6.908391e-01 6.979637e-01 7.075788e-01 7.107950e-01 7.139279e-01 7.167521e-01 7.175441e-01 7.153851e-01 5.829072e+00 5.807967e+00 5.790766e+00 5.774653e+00 5.753551e+00 5.723042e+00 5.691274e+00 5.668728e+00 5.657382e+00 5.639760e+00 5.623276e+00 5.604666e+00 5.595261e+00 5.578532e+00 5.569513e+00 5.578112e+00 5.625401e+00 5.713036e+00 5.773952e+00 5.816161e+00 5.846786e+00 5.868732e+00 5.871881e+00 5.872232e+00 5.852549e+00
<GCONST> 1.808807e+02
<STREAM> 2
<NUMMIXES> 2
<MIXTURE> 1 6.776682e-01
<MEAN> 1
 4.483414e+00
<VARIANCE> 1
 1.609155e-01
<GCONST> 1.100135e-02
<MIXTURE> 2 3.224820e-01
<MEAN> 0
<VARIANCE> 0
<GCONST> 0.000000e+00
<STREAM> 3
<NUMMIXES> 2
<MIXTURE> 1 6.515217e-01
<MEAN> 1
 3.599110e-03
<VARIANCE> 1
 3.190147e-03
<GCONST> -3.909811e+00
<MIXTURE> 2 3.486315e-01
<MEAN> 0
<VARIANCE> 0
<GCONST> 0.000000e+00
<STREAM> 4
<NUMMIXES> 2
<MIXTURE> 1 6.515206e-01
<MEAN> 1
 -4.838757e+06
<VARIANCE> 1
 9.674382e+16
<GCONST> 4.094872e+01
<MIXTURE> 2 3.486322e-01
<MEAN> 0
<VARIANCE> 0
<GCONST> 0.000000e+00
<TRANSP> 7
 0.000000e+00 1.000000e+00 0.000000e+00 0.000000e+00 0.000000e+00 0.000000e+00 0.000000e+00
 0.000000e+00 7.154235e-01 2.845765e-01 0.000000e+00 0.000000e+00 0.000000e+00 0.000000e+00
 0.000000e+00 0.000000e+00 7.154288e-01 2.845713e-01 0.000000e+00 0.000000e+00 0.000000e+00
 0.000000e+00 0.000000e+00 0.000000e+00 7.154251e-01 2.845749e-01 0.000000e+00 0.000000e+00
 0.000000e+00 0.000000e+00 0.000000e+00 0.000000e+00 7.154256e-01 2.845744e-01 0.000000e+00
 0.000000e+00 0.000000e+00 0.000000e+00 0.000000e+00 0.000000e+00 7.154298e-01 2.845702e-01
 0.000000e+00 0.000000e+00 0.000000e+00 0.000000e+00 0.000000e+00 0.000000e+00 0.000000e+00
<ENDHMM>
~h "a"
<BEGINHMM>
<NUMSTATES> 7
<STATE> 2
<STREAM> 1
<MEAN> 75
 2.471578e-01 2.479932e-01 2.487370e-01 2.488058e-01 2.484011e-01 2.479034e-01 2.476742e-01 2.483888e-01 2.496278e-01 2.492894e-01 2.486431e-01 2.480513e-01 2.464562e-01 2.466144e-01 2.469636e-01 2.467364e-01 2.465258e-01 2.474890e-01 2.475917e-01 2.480570e-01 2.486002e-01 2.481147e-01 2.485430e-01 2.492929e-01 2.483545e-01 1.024706e-04 5.740076e-05 1.175399e-05 -6.544450e-05 -1.093191e-04 -1.458271e-04 -1.955586e-04 -2.278667e-04 -2.422789e-04 -2.487118e-04 -1.749534e-04 -1.509173e-04 -3.567734e-05 4.680618e-05 1.197939e-04 1.057633e-04 2.074400e-04 2.205807e-04 3.295366e-04 3.661518e-04 3.892977e-04 2.033683e-04 2.304404e-04 1.626704e-04 2.639100e-04 1.540151e-05 8.999440e-05 -8.946052e-06 5.993759e-05 -2.137385e-06 4.341383e-05 3.046985e-05 2.869661e-05 3.121607e-05 -2.979906e-05 1.034536e-05 -8.587330e-05 -1.512910e-05 -1.182789e-04 6.007031e-07 -1.288180e-04 2.809218e-05 -1.391701e-04 -1.650024e-05 -6.169826e-05 5.499600e-05 7.466739e-05 3.487058e-05 3.717304e-05 3.214739e-05
<VARIANCE> 75
 1.496501e+00 1.501681e+00 1.505058e+00 1.506170e+00 1.505628e+00 1.503626e+00 1.504801e+00 1.508340e+00 1.514139e+00 1.518742e+00 1.515202e+00 1.508397e+00 1.501316e+00 1.501326e+00 1.504179e+00 1.499457e+00 1.495824e+00 1.501550e+00 1.504441e+00 1.504902e+00 1.502994e+00 1.501107e+00 1.502442e+00 1.503268e+00 1.500912e+00 7.601537e-01 7.621717e-01 7.633805e-01 7.640725e-01 7.638155e-01 7.632535e-01 7.639939e-01 7.659842e-01 7.688111e-01 7.722755e-01 7.711191e-01 7.673699e-01 7.631608e-01 7.629876e-01 7.641693e-01 7.627704e-01 7.615808e-01 7.641394e-01 7.650768e-01 7.656433e-01 7.643502e-01 7.630558e-01 7.638186e-01 7.639644e-01 7.621824e-01 6.229916e+00 6.264349e+00 6.280796e+00 6.270113e+00 6.247721e+00 6.222141e+00 6.222350e+00 6.227854e+00 6.236359e+00 6.252030e+00 6.244453e+00 6.221319e+00 6.203001e+00 6.216315e+00 6.236594e+00 6.223573e+00 6.225888e+00 6.275050e+00 6.286344e+00 6.273342e+00 6.265506e+00 6.259844e+00 6.259731e+00 6.254353e+00 6.240151e+00
<GCONST> 1.871359e+02
<STREAM> 2
<NUMMIXES> 2
<MIXTURE> 1 6.766388e-01
<MEAN> 1
 4.533355e+00
<VARIANCE> 1
 1.285075e-02
<GCONST> -2.516476e+00
<MIXTURE> 2 3.233628e-01
<MEAN> 0
<VARIANCE> 0
<GCONST> 0.000000e+00
<STREAM> 3
<NUMMIXES> 2
<MIXTURE> 1 6.516908e-01
<MEAN> 1
 2.431570e-03
<VARIANCE> 1
 3.553591e-04
<GCONST> -6.104505e+00
<MIXTURE> 2 3.483114e-01
<MEAN> 0
<VARIANCE> 0
<GCONST> 0.000000e+00
<STREAM> 4
<NUMMIXES> 2
<MIXTURE> 1 6.516898e-01
<MEAN> 1
 -1.633046e+06
<VARIANCE> 1
 3.264906e+16
<GCONST> 3.986247e+01
<MIXTURE> 2 3.483121e-01
<MEAN> 0
<VARIANCE> 0
<GCONST> 0.000000e+00
<STATE> 3
<STREAM> 1
<MEAN> 75
 2.478029e-01 2.484295e-01 2.490295e-01 2.487606e-01 2.482380e-01 2.476231e-01 2.472528e-01 2.478433e-01 2.489862e-01 2.486670e-01 2.481547e-01 2.476614e-01 2.462757e-01 2.467160e-01 2.471160e-01 2.468735e-01 2.467746e-01 2.479116e-01 2.481478e-01 2.488709e-01 2.493400e-01 2.485810e-01 2.490259e-01 2.498653e-01 2.491496e-01 2.078007e-04 1.712285e-04 1.074439e-04 4.372490e-05 -3.862241e-05 -6.950693e-05 -1.235502e-04 -1.742527e-04 -2.096975e-04 -2.555891e-04 -2.058856e-04 -2.404393e-04 -1.180673e-04 -1.040632e-04 -8.528586e-07 -6.424077e-05 5.223439e-05 1.542224e-05 2.435839e-04 2.458950e-04 3.692803e-04 1.278282e-04 2.313848e-04 9.729527e-05 3.521452e-04 -5.933316e-05 1.492465e-04 -6.377115e-05 1.259372e-04 -9.804964e-06 7.910794e-05 5.756225e-05 4.880922e-05 8.866494e-05 -4.091742e-05 1.000077e-04 -9.499467e-05 8.550449e-05 -1.489217e-04 1.001563e-04 -1.717883e-04 1.285407e-04 -2.306493e-04 -1.820573e-05 -1.487127e-04 6.414484e-05 7.447577e-05 1.741201e-05 1.398288e-05 2.973247e-06
<VARIANCE> 75
 1.501117e+00 1.505808e+00 1.508882e+00 1.509323e+00 1.508296e+00 1.505784e+00 1.506670e+00 1.510262e+00 1.515614e+00 1.520503e+00 1.517678e+00 1.510928e+00 1.503877e+00 1.504766e+00 1.508892e+00 1.504972e+00 1.501464e+00 1.507996e+00 1.510318e+00 1.510062e+00 1.507311e+00 1.505049e+00 1.506115e+00 1.507100e+00 1.505321e+00 7.626671e-01 7.646983e-01 7.657686e-01 7.661477e-01 7.656580e-01 7.646486e-01 7.651221e-01 7.671024e-01 7.696812e-01 7.732884e-01 7.726211e-01 7.689200e-01 7.649103e-01 7.651680e-01 7.671498e-01 7.659926e-01 7.650628e-01 7.679293e-01 7.686365e-01 7.687603e-01 7.670074e-01 7.653716e-01 7.659432e-01 7.662697e-01 7.646981e-01 6.239600e+00 6.272174e+00 6.292295e+00 6.284375e+00 6.258568e+00 6.229217e+00 6.227422e+00 6.231592e+00 6.237041e+00 6.253656e+00 6.249895e+00 6.225564e+00 6.206680e+00 6.221841e+00 6.247565e+00 6.241046e+00 6.243883e+00 6.296406e+00 6.304667e+00 6.288214e+00 6.276649e+00 6.269120e+00 6.266973e+00 6.263051e+00 6.250445e+00
<GCONST> 1.873084e+02
<STREAM> 2
<NUMMIXES> 2
<MIXTURE> 1 6.761044e-01
<MEAN> 1
 4.533238e+00
<VARIANCE> 1
 1.672474e-02
<GCONST> -2.252989e+00
<MIXTURE> 2 3.238930e-01
<MEAN> 0
<VARIANCE> 0
<GCONST> 0.000000e+00
<STREAM> 3
<NUMMIXES> 2
<MIXTURE> 1 6.509191e-01
<MEAN> 1
 2.447958e-03
<VARIANCE> 1
 3.553591e-04
<GCONST> -6.104505e+00
<MIXTURE> 2 3.490764e-01
<MEAN> 0
<VARIANCE> 0
<GCONST> 0.000000e+00
<STREAM> 4
<NUMMIXES> 2
<MIXTURE> 1 6.509187e-01
<MEAN> 1
 -1.865008e+06
<VARIANCE> 1
 3.728665e+16
<GCONST> 3.999529e+01
<MIXTURE> 2 3.490772e-01
<MEAN> 0
<VARIANCE> 0
<GCONST> 0.000000e+00
<STATE> 4
<STREAM> 1
<MEAN> 75
 2.485536e-01 2.489734e-01 2.494740e-01 2.489084e-01 2.482714e-01 2.475474e-01 2.470554e-01 2.474982e-01 2.484643e-01 2.481594e-01 2.476903e-01 2.472858e-01 2.460587e-01 2.466935e-01 2.470817e-01 2.468350e-01 2.467008e-01 2.479610e-01 2.483129e-01 2.492238e-01 2.496200e-01 2.486504e-01 2.491021e-01 2.500932e-01 2.497221e-01 2.080425e-04 2.257504e-04 1.577116e-04 1.505985e-04 3.953394e-05 2.459786e-05 -4.020357e-05 -1.088480e-04 -1.534231e-04 -2.467791e-04 -1.854799e-04 -2.843211e-04 -1.079475e-04 -1.964045e-04 -1.788395e-05 -1.741806e-04 4.811212e-06 -1.679368e-04 2.151034e-04 7.792865e-05 3.545517e-04 -5.626841e-05 2.019820e-04 -1.100742e-04 4.033782e-04 -2.094531e-04 2.565770e-04 -1.932634e-04 2.205630e-04 -4.169275e-05 1.522088e-04 1.176833e-04 7.093651e-05 1.919093e-04 -1.051703e-04 2.308581e-04 -1.586091e-04 2.295547e-04 -2.348875e-04 2.667417e-04 -2.569249e-04 3.091921e-04 -3.410103e-04 4.957034e-05 -2.335913e-04 1.412823e-04 1.086274e-04 4.637381e-05 1.710374e-06 2.912013e-06
<VARIANCE> 75
 1.503368e+00 1.507634e+00 1.510495e+00 1.510451e+00 1.509043e+00 1.505894e+00 1.506444e+00 1.510116e+00 1.514977e+00 1.519810e+00 1.517289e+00 1.510530e+00 1.503650e+00 1.505255e+00 1.510133e+00 1.507171e+00 1.503790e+00 1.510695e+00 1.512398e+00 1.511534e+00 1.507947e+00 1.505349e+00 1.506268e+00 1.507449e+00 1.506510e+00 7.637624e-01 7.659137e-01 7.668466e-01 7.670605e-01 7.664115e-01 7.649114e-01 7.650565e-01 7.670183e-01 7.693610e-01 7.729014e-01 7.726023e-01 7.688696e-01 7.651545e-01 7.657518e-01 7.683498e-01 7.674410e-01 7.667961e-01 7.697570e-01 7.702200e-01 7.699814e-01 7.678623e-01 7.660304e-01 7.663491e-01 7.671197e-01 7.657124e-01 6.240574e+00 6.270773e+00 6.294075e+00 6.289244e+00 6.260894e+00 6.227556e+00 6.223195e+00 6.226972e+00 6.229839e+00 6.245669e+00 6.243688e+00 6.217711e+00 6.198853e+00 6.215413e+00 6.244471e+00 6.244289e+00 6.247894e+00 6.301354e+00 6.306982e+00 6.287983e+00 6.272384e+00 6.263151e+00 6.260345e+00 6.258507e+00 6.248803e+00
<GCONST> 1.873361e+02
<STREAM> 2
<NUMMIXES> 2
<MIXTURE> 1 6.749125e-01
<MEAN> 1
 4.532098e+00
<VARIANCE> 1
 2.458627e-02
<GCONST> -1.867690e+00
<MIXTURE> 2 3.250859e-01
<MEAN> 0
<VARIANCE> 0
<GCONST> 0.000000e+00
<STREAM> 3
<NUMMIXES> 2
<MIXTURE> 1 6.495625e-01
<MEAN> 1
 2.515871e-03
<VARIANCE> 1
 6.712914e-04
<GCONST> -5.468431e+00
<MIXTURE> 2 3.504353e-01
<MEAN> 0
<VARIANCE> 0
<GCONST> 0.000000e+00
<STREAM> 4
<NUMMIXES> 2
<MIXTURE> 1 6.495618e-01
<MEAN> 1
 -2.080710e+06
<VARIANCE> 1
 4.160085e+16
<GCONST> 4.010477e+01
<MIXTURE> 2 3.504360e-01
<MEAN> 0
<VARIANCE> 0
<GCONST> 0.000000e+00
<STATE> 5
<STREAM> 1
<MEAN> 75
 2.491466e-01 2.493916e-01 2.498938e-01 2.490875e-01 2.483891e-01 2.476003e-01 2.470303e-01 2.473467e-01 2.480674e-01 2.477841e-01 2.472734e-01 2.469862e-01 2.458765e-01 2.466539e-01 2.469915e-01 2.468225e-01 2.465369e-01 2.478746e-01 2.482601e-01 2.492360e-01 2.495090e-01 2.483339e-01 2.487268e-01 2.498458e-01 2.498614e-01 1.016335e-04 2.202165e-04 1.428528e-04 2.287037e-04 9.058742e-05 1.154926e-04 4.296051e-05 -4.320068e-05 -7.698918e-05 -2.365701e-04 -1.342359e-04 -3.276789e-04 -3.876258e-05 -2.858946e-04 5.630986e-05 -2.753607e-04 9.706942e-05 -3.362044e-04 3.290563e-04 -1.097848e-04 4.673579e-04 -3.046207e-04 2.657878e-04 -4.450951e-04 5.061550e-04 -4.546810e-04 4.651437e-04 -4.133538e-04 3.692650e-04 -9.069266e-05 2.464363e-04 2.365180e-04 7.534982e-05 3.675316e-04 -2.375217e-04 4.445757e-04 -2.897289e-04 4.554472e-04 -3.920831e-04 5.139506e-04 -4.280938e-04 5.861514e-04 -5.011586e-04 2.294104e-04 -3.290549e-04 3.139914e-04 1.755035e-04 1.666113e-04 2.225139e-05 7.169158e-05
<VARIANCE> 75
 1.502363e+00 1.506252e+00 1.509153e+00 1.508663e+00 1.507088e+00 1.503298e+00 1.503609e+00 1.507540e+00 1.511975e+00 1.516562e+00 1.514081e+00 1.507345e+00 1.500785e+00 1.503058e+00 1.508211e+00 1.506385e+00 1.503225e+00 1.510120e+00 1.511052e+00 1.509572e+00 1.504997e+00 1.501865e+00 1.502535e+00 1.503745e+00 1.503712e+00 7.629248e-01 7.654018e-01 7.661532e-01 7.663643e-01 7.656699e-01 7.636510e-01 7.635375e-01 7.655381e-01 7.677666e-01 7.711197e-01 7.711993e-01 7.673553e-01 7.640756e-01 7.651055e-01 7.680407e-01 7.676064e-01 7.671564e-01 7.702343e-01 7.702661e-01 7.698005e-01 7.672176e-01 7.654293e-01 7.651449e-01 7.667353e-01 7.651129e-01 6.230197e+00 6.258565e+00 6.284734e+00 6.282247e+00 6.252128e+00 6.215128e+00 6.207936e+00 6.213052e+00 6.214732e+00 6.228983e+00 6.226932e+00 6.199070e+00 6.181324e+00 6.199321e+00 6.229660e+00 6.235560e+00 6.240417e+00 6.292820e+00 6.295674e+00 6.274343e+00 6.254054e+00 6.242429e+00 6.239250e+00 6.239267e+00 6.232691e+00
<GCONST> 1.872178e+02
<STREAM> 2
<NUMMIXES> 2
<MIXTURE> 1 6.728688e-01
<MEAN> 1
 4.529281e+00
<VARIANCE> 1
 3.950092e-02
<GCONST> -1.393554e+00
<MIXTURE> 2 3.271315e-01
<MEAN> 0
<VARIANCE> 0
<GCONST> 0.000000e+00
<STREAM> 3
<NUMMIXES> 2
<MIXTURE> 1 6.474374e-01
<MEAN> 1
 2.693769e-03
<VARIANCE> 1
 1.465516e-03
<GCONST> -4.687671e+00
<MIXTURE> 2 3.525621e-01
<MEAN> 0
<VARIANCE> 0
<GCONST> 0.000000e+00
<STREAM> 4
<NUMMIXES> 2
<MIXTURE> 1 6.474369e-01
<MEAN> 1
 -2.221286e+06
<VARIANCE> 1
 4.441220e+16
<GCONST> 4.017017e+01
<MIXTURE> 2 3.525629e-01
<MEAN> 0
<VARIANCE> 0
<GCONST> 0.000000e+00
<STATE> 6
<STREAM> 1
<MEAN> 75
 2.494533e-01 2.495655e-01 2.501741e-01 2.491593e-01 2.484560e-01 2.476675e-01 2.470800e-01 2.473342e-01 2.477708e-01 2.475356e-01 2.468846e-01 2.467360e-01 2.456787e-01 2.465789e-01 2.468217e-01 2.468616e-01 2.463615e-01 2.477803e-01 2.481228e-01 2.490629e-01 2.491752e-01 2.477851e-01 2.480341e-01 2.491648e-01 2.495248e-01 -7.890939e-05 1.912099e-04 7.439428e-05 2.812209e-04 1.056916e-04 1.938177e-04 1.086395e-04 5.858601e-06 1.682434e-06 -2.409508e-04 -5.463301e-05 -3.984405e-04 1.017659e-04 -4.191478e-04 2.423921e-04 -4.596654e-04 3.498234e-04 -5.670870e-04 6.532280e-04 -3.526204e-04 8.094141e-04 -6.197828e-04 5.377273e-04 -8.907132e-04 7.569520e-04 -8.012264e-04 8.019444e-04 -7.068631e-04 5.785043e-04 -1.258405e-04 3.504211e-04 4.377521e-04 3.466173e-05 6.304234e-04 -4.566114e-04 7.666128e-04 -4.832291e-04 8.164183e-04 -6.118303e-04 8.971510e-04 -7.235904e-04 9.983755e-04 -7.336084e-04 5.909901e-04 -4.456458e-04 6.293417e-04 2.575922e-04 4.279520e-04 8.862722e-05 2.660286e-04
<VARIANCE> 75
 1.497703e+00 1.501263e+00 1.504466e+00 1.503383e+00 1.501824e+00 1.497399e+00 1.497658e+00 1.502086e+00 1.506299e+00 1.510641e+00 1.507933e+00 1.501305e+00 1.495231e+00 1.498200e+00 1.503234e+00 1.502861e+00 1.500054e+00 1.506839e+00 1.506886e+00 1.504840e+00 1.499232e+00 1.495358e+00 1.495503e+00 1.496254e+00 1.496912e+00 7.599452e-01 7.629879e-01 7.634978e-01 7.637635e-01 7.630920e-01 7.606140e-01 7.603778e-01 7.625734e-01 7.649136e-01 7.679919e-01 7.687260e-01 7.646426e-01 7.618551e-01 7.638125e-01 7.665375e-01 7.673427e-01 7.666033e-01 7.703738e-01 7.695751e-01 7.692700e-01 7.659299e-01 7.646882e-01 7.630647e-01 7.659606e-01 7.633146e-01 6.207853e+00 6.234984e+00 6.263869e+00 6.262010e+00 6.230656e+00 6.190366e+00 6.180855e+00 6.189069e+00 6.191298e+00 6.203640e+00 6.199790e+00 6.170496e+00 6.154544e+00 6.174202e+00 6.204488e+00 6.216924e+00 6.223878e+00 6.274594e+00 6.274740e+00 6.251502e+00 6.226298e+00 6.210784e+00 6.206474e+00 6.206689e+00 6.202479e+00
<GCONST> 1.869679e+02
<STREAM> 2
<NUMMIXES> 2
<MIXTURE> 1 6.698937e-01
<MEAN> 1
 4.523777e+00
<VARIANCE> 1
 6.599972e-02
<GCONST> -8.802276e-01
<MIXTURE> 2 3.301107e-01
<MEAN> 0
<VARIANCE> 0
<GCONST> 0.000000e+00
<STREAM> 3
<NUMMIXES> 2
<MIXTURE> 1 6.444578e-01
<MEAN> 1
 3.057706e-03
<VARIANCE> 1
 2.906208e-03
<GCONST> -4.003029e+00
<MIXTURE> 2 3.555449e-01
<MEAN> 0
<VARIANCE> 0
<GCONST> 0.000000e+00
<STREAM> 4
<NUMMIXES> 2
<MIXTURE> 1 6.444575e-01
<MEAN> 1
 -2.239696e+06
<VARIANCE> 1
 4.477975e+16
<GCONST> 4.017841e+01
<MIXTURE> 2 3.555459e-01
<MEAN> 0
<VARIANCE> 0
<GCONST> 0.000000e+00
<TRANSP> 7
 0.000000e+00 1.000000e+00 0.000000e+00 0.000000e+00 0.000000e+00 0.000000e+00 0.000000e+00
 0.000000e+00 7.213318e-01 2.786682e-01 0.000000e+00 0.000000e+00 0.000000e+00 0.000000e+00
 0.000000e+00 0.000000e+00 7.213321e-01 2.786678e-01 0.000000e+00 0.000000e+00 0.000000e+00
 0.000000e+00 0.000000e+00 0.000000e+00 7.213315e-01 2.786684e-01 0.000000e+00 0.000000e+00
 0.000000e+00 0.000000e+00 0.000000e+00 0.000000e+00 7.213327e-01 2.786673e-01 0.000000e+00
 0.000000e+00 0.000000e+00 0.000000e+00 0.000000e+00 0.000000e+00 7.213346e-01 2.786655e-01
 0.000000e+00 0.000000e+00 0.000000e+00 0.000000e+00 0.000000e+00 0.000000e+00 0.000000e+00
<ENDHMM>
~h "b"
<BEGINHMM>
<NUMSTATES> 7
<STATE> 2
<STREAM> 1
<MEAN> 75
 2.516024e-01 2.497576e-01 2.480914e-01 2.457826e-01 2.431505e-01 2.406982e-01 2.391525e-01 2.381475e-01 2.375287e-01 2.389824e-01 2.403295e-01 2.409402e-01 2.416121e-01 2.436965e-01 2.458340e-01 2.475790e-01 2.489575e-01 2.519606e-01 2.538878e-01 2.548040e-01 2.554035e-01 2.557001e-01 2.568048e-01 2.556734e-01 2.540249e-01 1.325996e-03 1.538666e-03 1.324570e-03 1.540992e-03 1.495738e-03 1.408855e-03 1.024598e-03 2.793118e-04 -1.404670e-04 -1.019569e-03 -1.109924e-03 -1.750593e-03 -1.433114e-03 -1.994390e-03 -1.227255e-03 -1.618827e-03 -6.814850e-04 -1.082970e-03 2.142787e-04 -2.426656e-04 9.044216e-04 1.413876e-04 1.242807e-03 5.947130e-04 1.571243e-03 -3.509352e-04 5.249749e-04 -1.040460e-04 1.612653e-04 2.047720e-04 4.813089e-04 1.149343e-03 6.687737e-04 1.285009e-03 1.098807e-04 1.104062e-03 -1.487625e-04 8.726118e-04 -3.745793e-04 6.703306e-04 -5.491679e-04 6.064840e-04 -5.759508e-04 1.361805e-04 -3.940603e-04 2.767434e-04 1.880398e-04 2.482929e-04 1.506174e-04 3.300030e-04
<VARIANCE> 75
 1.303513e+00 1.299834e+00 1.296049e+00 1.295001e+00 1.296511e+00 1.293325e+00 1.292661e+00 1.293352e+00 1.293640e+00 1.299372e+00 1.299495e+00 1.301131e+00 1.300164e+00 1.299758e+00 1.301158e+00 1.304115e+00 1.308132e+00 1.314913e+00 1.316991e+00 1.316659e+00 1.315209e+00 1.317795e+00 1.318181e+00 1.317135e+00 1.313659e+00 6.419817e-01 6.402257e-01 6.379361e-01 6.373982e-01 6.388636e-01 6.368125e-01 6.367269e-01 6.367413e-01 6.372905e-01 6.397817e-01 6.405567e-01 6.418641e-01 6.412404e-01 6.409370e-01 6.417226e-01 6.427016e-01 6.454074e-01 6.489341e-01 6.512909e-01 6.512610e-01 6.494866e-01 6.504737e-01 6.501088e-01 6.502755e-01 6.483479e-01 5.027707e+00 5.010981e+00 4.993961e+00 4.981122e+00 4.982673e+00 4.962124e+00 4.951863e+00 4.946422e+00 4.941588e+00 4.964948e+00 4.963692e+00 4.962709e+00 4.969018e+00 4.971596e+00 4.989968e+00 5.023712e+00 5.051921e+00 5.071910e+00 5.075685e+00 5.068667e+00 5.069888e+00 5.085960e+00 5.084272e+00 5.083084e+00 5.070655e+00
<GCONST> 1.737420e+02
<STREAM> 2
<NUMMIXES> 2
<MIXTURE> 1 6.651425e-01
<MEAN> 1
 4.504985e+00
<VARIANCE> 1
 8.549288e-02
<GCONST> -6.214452e-01
<MIXTURE> 2 3.348597e-01
<MEAN> 0
<VARIANCE> 0
<GCONST> 0.000000e+00
<STREAM> 3
<NUMMIXES> 2
<MIXTURE> 1 6.412758e-01
<MEAN> 1
 3.196336e-03
<VARIANCE> 1
 1.555932e-03
<GCONST> -4.627804e+00
<MIXTURE> 2 3.587254e-01
<MEAN> 0
<VARIANCE> 0
<GCONST> 0.000000e+00
<STREAM> 4
<NUMMIXES> 2
<MIXTURE> 1 6.412748e-01
<MEAN> 1
 -4.452167e+06
<VARIANCE> 1
 8.901657e+16
<GCONST> 4.086547e+01
<MIXTURE> 2 3.587263e-01
<MEAN> 0
<VARIANCE> 0
<GCONST> 0.000000e+00
<STATE> 3
<STREAM> 1
<MEAN> 75
 2.545124e-01 2.530736e-01 2.517658e-01 2.497789e-01 2.474520e-01 2.452015e-01 2.432875e-01 2.415082e-01 2.397536e-01 2.398660e-01 2.398805e-01 2.392373e-01 2.387650e-01 2.397843e-01 2.415653e-01 2.429270e-01 2.446046e-01 2.481299e-01 2.507821e-01 2.520815e-01 2.536583e-01 2.547012e-01 2.567390e-01 2.563404e-01 2.554574e-01 6.625062e-04 1.020535e-03 8.537648e-04 1.158548e-03 1.342533e-03 1.499325e-03 1.548913e-03 1.040462e-03 1.079513e-03 2.359131e-04 4.206027e-04 -4.808803e-04 -1.257120e-04 -1.237069e-03 -4.936261e-04 -1.488452e-03 -5.253153e-04 -1.454119e-03 -5.704514e-05 -9.846697e-04 3.491137e-04 -7.070159e-04 5.371934e-04 -2.506089e-04 8.343873e-04 -3.865540e-04 5.336059e-04 -1.974218e-05 6.176438e-05 2.381906e-04 1.613866e-04 1.105788e-03 2.650151e-04 1.303325e-03 -1.291716e-04 1.379116e-03 -1.015887e-05 1.379933e-03 2.288958e-05 1.208845e-03 -1.059792e-04 1.118130e-03 -1.450311e-04 5.930958e-04 -4.435400e-05 6.080111e-04 4.060757e-04 5.110193e-04 3.427800e-04 5.362474e-04
<VARIANCE> 75
 1.314714e+00 1.309915e+00 1.305118e+00 1.302689e+00 1.303162e+00 1.298389e+00 1.295991e+00 1.295065e+00 1.292769e+00 1.296332e+00 1.294813e+00 1.295534e+00 1.293516e+00 1.292840e+00 1.295187e+00 1.299952e+00 1.307517e+00 1.319463e+00 1.324466e+00 1.324804e+00 1.325833e+00 1.330195e+00 1.331471e+00 1.330556e+00 1.326208e+00 6.479003e-01 6.455864e-01 6.426346e-01 6.414415e-01 6.424112e-01 6.395134e-01 6.383643e-01 6.375017e-01 6.367491e-01 6.380646e-01 6.378103e-01 6.388276e-01 6.376737e-01 6.375895e-01 6.386050e-01 6.409884e-01 6.452806e-01 6.518329e-01 6.556918e-01 6.566000e-01 6.557641e-01 6.578141e-01 6.577255e-01 6.581033e-01 6.554663e-01 5.071308e+00 5.050097e+00 5.028362e+00 5.008573e+00 5.005681e+00 4.979055e+00 4.961966e+00 4.949742e+00 4.936161e+00 4.949416e+00 4.942242e+00 4.936282e+00 4.937790e+00 4.936405e+00 4.957426e+00 5.000694e+00 5.045687e+00 5.087322e+00 5.102637e+00 5.095898e+00 5.106535e+00 5.128778e+00 5.133694e+00 5.133586e+00 5.120162e+00
<GCONST> 1.739635e+02
<STREAM> 2
<NUMMIXES> 2
<MIXTURE> 1 6.645748e-01
<MEAN> 1
 4.496975e+00
<VARIANCE> 1
 1.220560e-01
<GCONST> -2.653985e-01
<MIXTURE> 2 3.354199e-01
<MEAN> 0
<VARIANCE> 0
<GCONST> 0.000000e+00
<STREAM> 3
<NUMMIXES> 2
<MIXTURE> 1 6.405389e-01
<MEAN> 1
 3.511085e-03
<VARIANCE> 1
 2.123318e-03
<GCONST> -4.316898e+00
<MIXTURE> 2 3.594548e-01
<MEAN> 0
<VARIANCE> 0
<GCONST> 0.000000e+00
<STREAM> 4
<NUMMIXES> 2
<MIXTURE> 1 6.405384e-01
<MEAN> 1
 -4.513021e+06
<VARIANCE> 1
 9.023009e+16
<GCONST> 4.087901e+01
<MIXTURE> 2 3.594557e-01
<MEAN> 0
<VARIANCE> 0
<GCONST> 0.000000e+00
<STATE> 4
<STREAM> 1
<MEAN> 75
 2.546861e-01 2.538278e-01 2.530278e-01 2.515295e-01 2.498072e-01 2.481855e-01 2.465628e-01 2.448328e-01 2.429817e-01 2.425549e-01 2.420757e-01 2.405421e-01 2.393395e-01 2.391225e-01 2.402519e-01 2.405670e-01 2.421101e-01 2.455024e-01 2.482076e-01 2.491184e-01 2.511390e-01 2.524099e-01 2.547908e-01 2.547494e-01 2.543186e-01 -2.019334e-05 3.245090e-04 2.596605e-04 5.012323e-04 9.219130e-04 1.043476e-03 1.403107e-03 9.071958e-04 1.426049e-03 6.613106e-04 1.353537e-03 4.175490e-04 1.117263e-03 -2.591955e-04 7.177324e-04 -6.705250e-04 3.855610e-04 -9.381021e-04 4.334934e-04 -8.863797e-04 3.893082e-04 -9.103271e-04 1.440900e-04 -6.834762e-04 1.580550e-04 -1.783285e-04 5.023230e-04 2.469900e-04 -1.666974e-05 4.992161e-04 1.376006e-05 1.258255e-03 -3.146101e-05 1.321543e-03 -3.868139e-04 1.396022e-03 -2.561673e-05 1.539895e-03 3.040778e-04 1.462537e-03 3.342696e-04 1.502183e-03 3.993912e-04 1.096479e-03 4.884838e-04 1.052555e-03 7.955672e-04 9.186745e-04 7.049700e-04 8.273637e-04
<VARIANCE> 75
 1.326203e+00 1.320688e+00 1.315099e+00 1.311965e+00 1.311683e+00 1.306012e+00 1.302260e+00 1.300563e+00 1.296138e+00 1.297859e+00 1.294584e+00 1.293978e+00 1.290540e+00 1.288592e+00 1.290417e+00 1.295538e+00 1.306175e+00 1.323355e+00 1.331163e+00 1.331737e+00 1.335565e+00 1.341829e+00 1.343893e+00 1.343156e+00 1.338469e+00 6.541576e-01 6.514197e-01 6.479353e-01 6.464433e-01 6.469123e-01 6.437236e-01 6.417181e-01 6.404904e-01 6.385998e-01 6.389782e-01 6.374887e-01 6.380334e-01 6.360592e-01 6.358488e-01 6.361929e-01 6.393631e-01 6.447880e-01 6.545293e-01 6.598111e-01 6.614352e-01 6.617655e-01 6.648605e-01 6.652766e-01 6.657307e-01 6.628281e-01 5.118905e+00 5.094778e+00 5.069304e+00 5.044528e+00 5.038574e+00 5.008470e+00 4.986578e+00 4.970869e+00 4.950722e+00 4.956133e+00 4.943596e+00 4.930275e+00 4.925738e+00 4.916590e+00 4.933799e+00 4.979787e+00 5.041000e+00 5.106193e+00 5.132457e+00 5.123024e+00 5.142330e+00 5.169310e+00 5.180554e+00 5.182368e+00 5.170054e+00
<GCONST> 1.742823e+02
<STREAM> 2
<NUMMIXES> 2
<MIXTURE> 1 6.641624e-01
<MEAN> 1
 4.487153e+00
<VARIANCE> 1
 1.652955e-01
<GCONST> 3.785646e-02
<MIXTURE> 2 3.358386e-01
<MEAN> 0
<VARIANCE> 0
<GCONST> 0.000000e+00
<STREAM> 3
<NUMMIXES> 2
<MIXTURE> 1 6.398936e-01
<MEAN> 1
 3.732421e-03
<VARIANCE> 1
 2.665700e-03
<GCONST> -4.089412e+00
<MIXTURE> 2 3.601075e-01
<MEAN> 0
<VARIANCE> 0
<GCONST> 0.000000e+00
<STREAM> 4
<NUMMIXES> 2
<MIXTURE> 1 6.398922e-01
<MEAN> 1
 -4.588065e+06
<VARIANCE> 1
 9.173073e+16
<GCONST> 4.089551e+01
<MIXTURE> 2 3.601083e-01
<MEAN> 0
<VARIANCE> 0
<GCONST> 0.000000e+00
<STATE> 5
<STREAM> 1
<MEAN> 75
 2.528454e-01 2.523522e-01 2.519334e-01 2.508000e-01 2.497846e-01 2.488386e-01 2.478555e-01 2.464570e-01 2.451850e-01 2.446608e-01 2.444675e-01 2.425103e-01 2.414045e-01 2.403619e-01 2.412432e-01 2.406174e-01 2.421873e-01 2.453863e-01 2.478725e-01 2.480428e-01 2.499880e-01 2.510027e-01 2.529287e-01 2.527138e-01 2.520407e-01 -2.908462e-04 -2.496526e-04 -1.025998e-04 -1.741998e-04 5.326107e-04 3.897825e-04 1.034306e-03 3.772778e-04 1.280934e-03 5.028652e-04 1.613299e-03 7.045801e-04 1.742285e-03 3.359396e-04 1.601172e-03 1.840221e-04 1.335156e-03 1.497287e-05 1.235435e-03 -1.110530e-04 9.059221e-04 -3.271250e-04 2.392745e-04 -3.880593e-04 -1.279674e-04 2.954749e-04 4.701791e-04 7.100566e-04 -2.884772e-06 9.064164e-04 -4.704599e-05 1.454296e-03 -1.592045e-04 1.427052e-03 -3.736424e-04 1.383658e-03 7.633748e-05 1.488949e-03 5.636660e-04 1.415416e-03 6.605356e-04 1.594660e-03 8.119554e-04 1.421536e-03 9.564445e-04 1.399036e-03 1.198774e-03 1.330145e-03 1.105451e-03 1.076044e-03
<VARIANCE> 75
 1.338201e+00 1.332248e+00 1.325773e+00 1.322538e+00 1.321679e+00 1.315678e+00 1.310607e+00 1.308695e+00 1.302549e+00 1.302828e+00 1.298038e+00 1.296311e+00 1.291692e+00 1.288424e+00 1.289162e+00 1.293991e+00 1.307350e+00 1.329771e+00 1.340380e+00 1.340814e+00 1.347273e+00 1.354999e+00 1.357349e+00 1.356351e+00 1.351486e+00 6.609664e-01 6.579060e-01 6.538472e-01 6.523740e-01 6.521989e-01 6.491684e-01 6.463087e-01 6.450776e-01 6.421981e-01 6.419138e-01 6.392470e-01 6.393420e-01 6.367181e-01 6.362142e-01 6.356732e-01 6.390928e-01 6.455666e-01 6.583947e-01 6.652578e-01 6.673290e-01 6.690115e-01 6.727117e-01 6.739032e-01 6.739426e-01 6.712232e-01 5.171234e+00 5.145239e+00 5.115969e+00 5.088256e+00 5.079830e+00 5.047922e+00 5.021839e+00 5.004249e+00 4.979328e+00 4.979151e+00 4.963358e+00 4.943248e+00 4.934070e+00 4.917484e+00 4.928643e+00 4.973390e+00 5.049550e+00 5.139848e+00 5.177469e+00 5.163372e+00 5.187742e+00 5.216613e+00 5.231580e+00 5.234576e+00 5.223639e+00
<GCONST> 1.747491e+02
<STREAM> 2
<NUMMIXES> 2
<MIXTURE> 1 6.644776e-01
<MEAN> 1
 4.475924e+00
<VARIANCE> 1
 2.137055e-01
<GCONST> 2.947206e-01
<MIXTURE> 2 3.355352e-01
<MEAN> 0
<VARIANCE> 0
<GCONST> 0.000000e+00
<STREAM> 3
<NUMMIXES> 2
<MIXTURE> 1 6.398995e-01
<MEAN> 1
 3.793075e-03
<VARIANCE> 1
 3.222073e-03
<GCONST> -3.899853e+00
<MIXTURE> 2 3.601123e-01
<MEAN> 0
<VARIANCE> 0
<GCONST> 0.000000e+00
<STREAM> 4
<NUMMIXES> 2
<MIXTURE> 1 6.398991e-01
<MEAN> 1
 -4.650565e+06
<VARIANCE> 1
 9.297967e+16
<GCONST> 4.090903e+01
<MIXTURE> 2 3.601134e-01
<MEAN> 0
<VARIANCE> 0
<GCONST> 0.000000e+00
<STATE> 6
<STREAM> 1
<MEAN> 75
 2.505538e-01 2.499115e-01 2.495606e-01 2.483549e-01 2.479220e-01 2.473181e-01 2.471328e-01 2.459696e-01 2.456389e-01 2.450659e-01 2.456091e-01 2.434778e-01 2.430862e-01 2.416693e-01 2.427608e-01 2.417955e-01 2.437189e-01 2.472409e-01 2.496352e-01 2.494107e-01 2.510214e-01 2.518084e-01 2.526768e-01 2.520297e-01 2.503695e-01 1.020282e-04 -4.613126e-04 6.380607e-05 -5.553685e-04 4.273523e-04 -1.507342e-04 6.960232e-04 -1.571507e-04 9.658248e-04 1.579293e-04 1.410653e-03 6.124878e-04 1.725952e-03 4.882145e-04 1.794464e-03 6.850836e-04 1.753303e-03 8.421957e-04 1.737434e-03 7.914108e-04 1.448285e-03 7.097551e-04 6.651103e-04 5.472035e-04 5.033403e-05 9.627062e-04 4.666788e-04 1.298629e-03 1.344034e-04 1.415913e-03 1.085037e-05 1.600453e-03 -1.269307e-04 1.552431e-03 -5.299528e-05 1.371976e-03 3.578730e-04 1.330957e-03 8.628962e-04 1.211754e-03 8.447911e-04 1.473711e-03 9.663957e-04 1.532260e-03 1.162265e-03 1.569445e-03 1.450171e-03 1.648942e-03 1.350548e-03 1.153174e-03
<VARIANCE> 75
 1.351872e+00 1.345519e+00 1.337793e+00 1.334720e+00 1.333081e+00 1.327122e+00 1.320529e+00 1.318656e+00 1.311075e+00 1.310177e+00 1.304064e+00 1.301520e+00 1.295947e+00 1.291681e+00 1.291407e+00 1.295900e+00 1.311757e+00 1.339177e+00 1.353197e+00 1.353775e+00 1.362878e+00 1.371635e+00 1.374149e+00 1.372253e+00 1.367288e+00 6.690643e-01 6.656544e-01 6.608220e-01 6.593830e-01 6.583683e-01 6.555938e-01 6.518399e-01 6.506312e-01 6.469473e-01 6.460382e-01 6.425233e-01 6.419934e-01 6.391807e-01 6.381586e-01 6.371371e-01 6.403474e-01 6.481984e-01 6.638130e-01 6.727331e-01 6.754857e-01 6.787133e-01 6.826667e-01 6.849944e-01 6.841738e-01 6.819258e-01 5.233201e+00 5.205425e+00 5.171243e+00 5.141691e+00 5.130307e+00 5.097011e+00 5.066249e+00 5.047216e+00 5.017979e+00 5.013514e+00 4.996032e+00 4.970387e+00 4.957938e+00 4.935556e+00 4.940779e+00 4.983679e+00 5.072612e+00 5.188520e+00 5.240010e+00 5.223069e+00 5.249733e+00 5.278798e+00 5.295006e+00 5.298459e+00 5.288071e+00
<GCONST> 1.753850e+02
<STREAM> 2
<NUMMIXES> 2
<MIXTURE> 1 6.660780e-01
<MEAN> 1
 4.463308e+00
<VARIANCE> 1
 2.675366e-01
<GCONST> 5.193779e-01
<MIXTURE> 2 3.339221e-01
<MEAN> 0
<VARIANCE> 0
<GCONST> 0.000000e+00
<STREAM> 3
<NUMMIXES> 2
<MIXTURE> 1 6.411325e-01
<MEAN> 1
 3.770318e-03
<VARIANCE> 1
 3.934884e-03
<GCONST> -3.699997e+00
<MIXTURE> 2 3.588673e-01
<MEAN> 0
<VARIANCE> 0
<GCONST> 0.000000e+00
<STREAM> 4
<NUMMIXES> 2
<MIXTURE> 1 6.411313e-01
<MEAN> 1
 -4.670269e+06
<VARIANCE> 1
 9.337389e+16
<GCONST> 4.091327e+01
<MIXTURE> 2 3.588682e-01
<MEAN> 0
<VARIANCE> 0
<GCONST> 0.000000e+00
<TRANSP> 7
 0.000000e+00 1.000000e+00 0.000000e+00 0.000000e+00 0.000000e+00 0.000000e+00 0.000000e+00
 0.000000e+00 7.201070e-01 2.798931e-01 0.000000e+00 0.000000e+00 0.000000e+00 0.000000e+00
 0.000000e+00 0.000000e+00 7.201070e-01 2.798930e-01 0.000000e+00 0.000000e+00 0.000000e+00
 0.000000e+00 0.000000e+00 0.000000e+00 7.201060e-01 2.798941e-01 0.000000e+00 0.000000e+00
 0.000000e+00 0.000000e+00 0.000000e+00 0.000000e+00 7.201072e-01 2.798929e-01 0.000000e+00
 0.000000e+00 0.000000e+00 0.000000e+00 0.000000e+00 0.000000e+00 7.201074e-01 2.798925e-01
 0.000000e+00 0.000000e+00 0.000000e+00 0.000000e+00 0.000000e+00 0.000000e+00 0.000000e+00
<ENDHMM>
~h "d"
<BEGINHMM>
<NUMSTATES> 7
<STATE> 2
<STREAM> 1
<MEAN> 75
 2.498152e-01 2.496885e-01 2.484344e-01 2.472387e-01 2.466581e-01 2.459879e-01 2.448025e-01 2.439442e-01 2.431900e-01 2.428730e-01 2.424624e-01 2.419251e-01 2.417931e-01 2.420162e-01 2.426364e-01 2.430315e-01 2.435861e-01 2.452103e-01 2.456736e-01 2.462056e-01 2.467288e-01 2.469248e-01 2.466415e-01 2.471085e-01 2.476351e-01 4.040415e-05 2.599588e-04 3.541008e-04 4.933014e-04 3.181384e-04 3.676673e-04 3.086105e-04 4.244535e-04 4.707179e-04 4.711748e-04 2.832001e-04 3.032363e-05 1.165248e-05 -1.639186e-04 1.979433e-05 -2.723658e-04 -1.288101e-04 -5.987389e-04 -3.073651e-04 -5.328238e-04 -5.467329e-06 -3.358528e-04 3.869017e-05 -2.211125e-04 2.477437e-04 -2.077874e-05 -5.178247e-05 2.489267e-04 1.870480e-04 6.656211e-04 3.779817e-04 4.636226e-04 5.918692e-04 2.929103e-04 6.781907e-04 6.156913e-04 9.616311e-04 7.294591e-04 1.121952e-03 7.344913e-04 9.286018e-04 1.234225e-03 1.165150e-03 1.301198e-03 1.074199e-03 1.423242e-03 1.239943e-03 1.667274e-03 1.475657e-03 1.431772e-03
<VARIANCE> 75
 1.412255e+00 1.409297e+00 1.407639e+00 1.402804e+00 1.400335e+00 1.394188e+00 1.388485e+00 1.382114e+00 1.379374e+00 1.373973e+00 1.369941e+00 1.363384e+00 1.362228e+00 1.361103e+00 1.362474e+00 1.361518e+00 1.367005e+00 1.376010e+00 1.386149e+00 1.392484e+00 1.399838e+00 1.403622e+00 1.405510e+00 1.405391e+00 1.409216e+00 6.987522e-01 6.992849e-01 6.975108e-01 6.965178e-01 6.943877e-01 6.919066e-01 6.873994e-01 6.857929e-01 6.824898e-01 6.814160e-01 6.784911e-01 6.769412e-01 6.746695e-01 6.770303e-01 6.759346e-01 6.792321e-01 6.803914e-01 6.896303e-01 6.932017e-01 7.029009e-01 7.027740e-01 7.083714e-01 7.086858e-01 7.125725e-01 7.074339e-01 5.708893e+00 5.686783e+00 5.672184e+00 5.656484e+00 5.637475e+00 5.607633e+00 5.575667e+00 5.550292e+00 5.536521e+00 5.511354e+00 5.488407e+00 5.461718e+00 5.446690e+00 5.444516e+00 5.445986e+00 5.453498e+00 5.493417e+00 5.553617e+00 5.613424e+00 5.651263e+00 5.684009e+00 5.710692e+00 5.713771e+00 5.706480e+00 5.703951e+00
<GCONST> 1.798013e+02
<STREAM> 2
<NUMMIXES> 2
<MIXTURE> 1 6.839845e-01
<MEAN> 1
 4.464456e+00
<VARIANCE> 1
 2.324177e-01
<GCONST> 3.786579e-01
<MIXTURE> 2 3.160509e-01
<MEAN> 0
<VARIANCE> 0
<GCONST> 0.000000e+00
<STREAM> 3
<NUMMIXES> 2
<MIXTURE> 1 6.605844e-01
<MEAN> 1
 5.056457e-03
<VARIANCE> 1
 7.061828e-03
<GCONST> -3.115174e+00
<MIXTURE> 2 3.394532e-01
<MEAN> 0
<VARIANCE> 0
<GCONST> 0.000000e+00
<STREAM> 4
<NUMMIXES> 2
<MIXTURE> 1 6.605836e-01
<MEAN> 1
 -3.180428e+06
<VARIANCE> 1
 6.358597e+16
<GCONST> 4.052905e+01
<MIXTURE> 2 3.394537e-01
<MEAN> 0
<VARIANCE> 0
<GCONST> 0.000000e+00
<STATE> 3
<STREAM> 1
<MEAN> 75
 2.490573e-01 2.491273e-01 2.484365e-01 2.475325e-01 2.473113e-01 2.467479e-01 2.458218e-01 2.447623e-01 2.440813e-01 2.435726e-01 2.429011e-01 2.420757e-01 2.418151e-01 2.417022e-01 2.419484e-01 2.420563e-01 2.419923e-01 2.434164e-01 2.436123e-01 2.440755e-01 2.444376e-01 2.447929e-01 2.441789e-01 2.447999e-01 2.455272e-01 -2.504681e-04 -7.643946e-06 -2.727611e-06 3.562216e-04 2.709520e-05 3.783340e-04 1.599160e-04 6.281057e-04 5.730258e-04 8.116207e-04 4.118644e-04 3.761561e-04 2.317966e-04 2.294513e-04 3.113970e-04 1.007565e-04 9.786920e-05 -2.974521e-04 -1.115648e-04 -3.164569e-04 1.737589e-04 -1.881414e-04 1.791292e-04 -6.409991e-05 3.885287e-04 1.740437e-04 3.697088e-04 3.833307e-04 6.453323e-04 8.016319e-04 1.006722e-03 5.979124e-04 1.265989e-03 4.671665e-04 1.298797e-03 1.033787e-03 1.664719e-03 1.232750e-03 1.939069e-03 1.382160e-03 1.614871e-03 2.112014e-03 1.879450e-03 2.155007e-03 1.830051e-03 2.311562e-03 2.031855e-03 2.637706e-03 2.353105e-03 2.276488e-03
<VARIANCE> 75
 1.403298e+00 1.400845e+00 1.400945e+00 1.396651e+00 1.395535e+00 1.389490e+00 1.385330e+00 1.378779e+00 1.377136e+00 1.371328e+00 1.368176e+00 1.360869e+00 1.359683e+00 1.357381e+00 1.358744e+00 1.356557e+00 1.360936e+00 1.367341e+00 1.376229e+00 1.381331e+00 1.389241e+00 1.392723e+00 1.395015e+00 1.394947e+00 1.399258e+00 6.950573e-01 6.966110e-01 6.954166e-01 6.955279e-01 6.939157e-01 6.923096e-01 6.879891e-01 6.876472e-01 6.841431e-01 6.838484e-01 6.815379e-01 6.801448e-01 6.774373e-01 6.802694e-01 6.783952e-01 6.822116e-01 6.822088e-01 6.911022e-01 6.928177e-01 7.031463e-01 7.022846e-01 7.083200e-01 7.086690e-01 7.130618e-01 7.064090e-01 5.671072e+00 5.653187e+00 5.643397e+00 5.631166e+00 5.617447e+00 5.591695e+00 5.565208e+00 5.540453e+00 5.529910e+00 5.506319e+00 5.485466e+00 5.455736e+00 5.437159e+00 5.431369e+00 5.430045e+00 5.429966e+00 5.458800e+00 5.503783e+00 5.554619e+00 5.588937e+00 5.623783e+00 5.655189e+00 5.661002e+00 5.656390e+00 5.655169e+00
<GCONST> 1.795808e+02
<STREAM> 2
<NUMMIXES> 2
<MIXTURE> 1 6.871451e-01
<MEAN> 1
 4.431792e+00
<VARIANCE> 1
 3.757895e-01
<GCONST> 8.591508e-01
<MIXTURE> 2 3.128912e-01
<MEAN> 0
<VARIANCE> 0
<GCONST> 0.000000e+00
<STREAM> 3
<NUMMIXES> 2
<MIXTURE> 1 6.639704e-01
<MEAN> 1
 6.369201e-03
<VARIANCE> 1
 9.468481e-03
<GCONST> -2.821910e+00
<MIXTURE> 2 3.360685e-01
<MEAN> 0
<VARIANCE> 0
<GCONST> 0.000000e+00
<STREAM> 4
<NUMMIXES> 2
<MIXTURE> 1 6.639698e-01
<MEAN> 1
 -3.338802e+06
<VARIANCE> 1
 6.675184e+16
<GCONST> 4.057763e+01
<MIXTURE> 2 3.360692e-01
<MEAN> 0
<VARIANCE> 0
<GCONST> 0.000000e+00
<STATE> 4
<STREAM> 1
<MEAN> 75
 2.474321e-01 2.474763e-01 2.474287e-01 2.468501e-01 2.470119e-01 2.465456e-01 2.459695e-01 2.448274e-01 2.444442e-01 2.440182e-01 2.432110e-01 2.423639e-01 2.420475e-01 2.417368e-01 2.415484e-01 2.415257e-01 2.407348e-01 2.420883e-01 2.418575e-01 2.421224e-01 2.421133e-01 2.424566e-01 2.413568e-01 2.418746e-01 2.426872e-01 -5.404745e-04 -1.139475e-04 -4.616100e-04 3.357055e-04 -3.996999e-04 4.950720e-04 -1.315181e-04 7.845268e-04 4.549110e-04 9.915575e-04 3.071239e-04 6.466050e-04 3.629930e-04 6.761811e-04 6.707225e-04 6.555961e-04 4.846354e-04 3.074303e-04 3.889818e-04 2.356921e-04 6.998787e-04 3.163498e-04 7.481014e-04 5.451934e-04 1.000945e-03 5.503155e-04 1.215962e-03 6.853067e-04 1.479030e-03 1.135349e-03 2.026773e-03 1.001933e-03 2.375214e-03 9.711180e-04 2.220376e-03 1.772944e-03 2.577937e-03 2.024425e-03 2.969244e-03 2.358286e-03 2.482634e-03 3.271803e-03 2.722705e-03 3.222048e-03 2.863844e-03 3.433995e-03 3.059998e-03 3.865039e-03 3.445031e-03 3.372358e-03
<VARIANCE> 75
 1.391951e+00 1.389693e+00 1.391941e+00 1.387917e+00 1.388389e+00 1.382494e+00 1.380152e+00 1.373568e+00 1.373631e+00 1.367728e+00 1.365978e+00 1.358264e+00 1.357520e+00 1.353915e+00 1.355623e+00 1.352204e+00 1.356063e+00 1.360459e+00 1.368531e+00 1.371548e+00 1.380013e+00 1.382085e+00 1.384501e+00 1.384305e+00 1.388481e+00 6.911215e-01 6.938739e-01 6.931957e-01 6.945467e-01 6.936187e-01 6.929237e-01 6.888720e-01 6.903493e-01 6.864851e-01 6.873224e-01 6.859264e-01 6.847950e-01 6.817462e-01 6.852027e-01 6.823603e-01 6.867275e-01 6.856226e-01 6.942682e-01 6.940918e-01 7.047666e-01 7.027091e-01 7.087015e-01 7.085135e-01 7.131077e-01 7.049981e-01 5.618986e+00 5.604176e+00 5.600034e+00 5.590903e+00 5.583033e+00 5.561213e+00 5.542339e+00 5.519123e+00 5.514337e+00 5.494157e+00 5.478120e+00 5.447520e+00 5.427407e+00 5.418130e+00 5.414589e+00 5.408122e+00 5.427690e+00 5.460357e+00 5.502127e+00 5.529908e+00 5.563208e+00 5.595725e+00 5.601871e+00 5.597073e+00 5.594849e+00
<GCONST> 1.793508e+02
<STREAM> 2
<NUMMIXES> 2
<MIXTURE> 1 6.920200e-01
<MEAN> 1
 4.385966e+00
<VARIANCE> 1
 5.721245e-01
<GCONST> 1.279478e+00
<MIXTURE> 2 3.080345e-01
<MEAN> 0
<VARIANCE> 0
<GCONST> 0.000000e+00
<STREAM> 3
<NUMMIXES> 2
<MIXTURE> 1 6.690344e-01
<MEAN> 1
 7.937442e-03
<VARIANCE> 1
 1.223026e-02
<GCONST> -2.565965e+00
<MIXTURE> 2 3.310219e-01
<MEAN> 0
<VARIANCE> 0
<GCONST> 0.000000e+00
<STREAM> 4
<NUMMIXES> 2
<MIXTURE> 1 6.690339e-01
<MEAN> 1
 -3.501504e+06
<VARIANCE> 1
 7.000573e+16
<GCONST> 4.062523e+01
<MIXTURE> 2 3.310227e-01
<MEAN> 0
<VARIANCE> 0
<GCONST> 0.000000e+00
<STATE> 5
<STREAM> 1
<MEAN> 75
 2.452925e-01 2.450970e-01 2.455245e-01 2.452777e-01 2.456560e-01 2.452772e-01 2.449089e-01 2.437704e-01 2.436765e-01 2.436066e-01 2.426475e-01 2.420720e-01 2.417348e-01 2.414355e-01 2.408585e-01 2.409323e-01 2.395704e-01 2.409965e-01 2.404328e-01 2.403676e-01 2.400488e-01 2.401542e-01 2.386880e-01 2.387440e-01 2.397196e-01 -7.738529e-04 9.414798e-05 -8.736851e-04 5.650199e-04 -7.793559e-04 8.614958e-04 -3.116520e-04 9.895687e-04 3.570418e-04 1.101006e-03 1.749306e-04 9.069318e-04 5.209281e-04 1.210528e-03 1.192893e-03 1.417136e-03 1.064301e-03 1.235324e-03 1.243897e-03 1.138310e-03 1.638080e-03 1.220443e-03 1.827903e-03 1.696176e-03 2.174053e-03 1.231523e-03 2.519357e-03 1.316852e-03 2.669296e-03 1.841055e-03 3.318656e-03 1.817675e-03 3.861178e-03 1.936815e-03 3.422139e-03 2.921762e-03 3.682125e-03 3.166383e-03 4.181047e-03 3.679206e-03 3.518207e-03 4.664451e-03 3.644962e-03 4.418487e-03 4.169475e-03 4.689341e-03 4.263653e-03 5.222698e-03 4.669758e-03 4.594291e-03
<VARIANCE> 75
 1.380253e+00 1.377503e+00 1.382242e+00 1.377767e+00 1.379751e+00 1.374092e+00 1.373326e+00 1.366667e+00 1.368867e+00 1.363077e+00 1.363319e+00 1.355309e+00 1.355868e+00 1.350872e+00 1.353726e+00 1.349296e+00 1.353576e+00 1.356873e+00 1.364859e+00 1.364942e+00 1.374414e+00 1.373983e+00 1.376330e+00 1.375921e+00 1.379421e+00 6.884116e-01 6.925350e-01 6.919013e-01 6.944697e-01 6.942515e-01 6.942321e-01 6.902110e-01 6.940684e-01 6.892378e-01 6.917462e-01 6.910353e-01 6.905477e-01 6.867825e-01 6.915051e-01 6.870373e-01 6.921434e-01 6.900123e-01 6.985589e-01 6.965742e-01 7.074819e-01 7.036617e-01 7.094715e-01 7.080336e-01 7.126985e-01 7.033678e-01 5.561536e+00 5.547724e+00 5.548682e+00 5.541147e+00 5.538528e+00 5.519755e+00 5.508887e+00 5.486949e+00 5.489010e+00 5.473745e+00 5.464216e+00 5.434510e+00 5.415649e+00 5.404020e+00 5.399990e+00 5.389691e+00 5.404050e+00 5.429280e+00 5.463825e+00 5.482713e+00 5.511909e+00 5.542117e+00 5.546554e+00 5.538564e+00 5.533548e+00
<GCONST> 1.791508e+02
<STREAM> 2
<NUMMIXES> 2
<MIXTURE> 1 6.987195e-01
<MEAN> 1
 4.326549e+00
<VARIANCE> 1
 8.196529e-01
<GCONST> 1.639003e+00
<MIXTURE> 2 3.013354e-01
<MEAN> 0
<VARIANCE> 0
<GCONST> 0.000000e+00
<STREAM> 3
<NUMMIXES> 2
<MIXTURE> 1 6.758943e-01
<MEAN> 1
 9.557028e-03
<VARIANCE> 1
 1.541489e-02
<GCONST> -2.334544e+00
<MIXTURE> 2 3.241638e-01
<MEAN> 0
<VARIANCE> 0
<GCONST> 0.000000e+00
<STREAM> 4
<NUMMIXES> 2
<MIXTURE> 1 6.758934e-01
<MEAN> 1
 -3.661670e+06
<VARIANCE> 1
 7.320828e+16
<GCONST> 4.066996e+01
<MIXTURE> 2 3.241644e-01
<MEAN> 0
<VARIANCE> 0
<GCONST> 0.000000e+00
<STATE> 6
<STREAM> 1
<MEAN> 75
 2.429065e-01 2.424034e-01 2.429385e-01 2.430572e-01 2.433266e-01 2.431394e-01 2.426628e-01 2.416496e-01 2.415727e-01 2.420889e-01 2.408262e-01 2.406847e-01 2.404161e-01 2.401653e-01 2.394800e-01 2.396228e-01 2.381781e-01 2.395636e-01 2.391109e-01 2.384672e-01 2.382553e-01 2.378098e-01 2.363950e-01 2.357073e-01 2.370630e-01 -7.828544e-04 6.113017e-04 -9.598071e-04 1.051164e-03 -8.174421e-04 1.516086e-03 -6.542145e-05 1.379585e-03 6.283573e-04 1.358096e-03 3.501850e-04 1.370880e-03 9.759441e-04 2.034123e-03 2.137145e-03 2.540280e-03 2.005652e-03 2.551538e-03 2.552544e-03 2.395377e-03 3.063266e-03 2.504747e-03 3.370644e-03 3.295179e-03 3.768566e-03 2.346691e-03 4.169397e-03 2.453025e-03 4.077210e-03 3.084900e-03 4.666462e-03 3.074267e-03 5.544387e-03 3.351583e-03 4.789727e-03 4.423348e-03 4.908062e-03 4.604190e-03 5.526446e-03 5.236750e-03 4.662859e-03 6.175652e-03 4.629878e-03 5.612332e-03 5.679677e-03 5.885663e-03 5.543908e-03 6.468319e-03 5.892569e-03 5.721466e-03
<VARIANCE> 75
 1.370227e+00 1.366186e+00 1.373609e+00 1.367878e+00 1.371143e+00 1.365863e+00 1.366196e+00 1.359210e+00 1.363989e+00 1.357989e+00 1.360930e+00 1.352315e+00 1.355339e+00 1.348772e+00 1.353691e+00 1.348489e+00 1.353968e+00 1.357080e+00 1.365612e+00 1.362279e+00 1.373212e+00 1.369621e+00 1.371853e+00 1.371305e+00 1.373998e+00 6.879574e-01 6.939037e-01 6.922288e-01 6.959687e-01 6.962718e-01 6.966947e-01 6.920555e-01 6.988510e-01 6.920142e-01 6.968045e-01 6.958029e-01 6.967046e-01 6.910617e-01 6.982071e-01 6.909076e-01 6.970294e-01 6.939524e-01 7.025158e-01 6.989513e-01 7.102196e-01 7.041199e-01 7.101229e-01 7.067568e-01 7.117160e-01 7.013925e-01 5.507559e+00 5.492433e+00 5.497104e+00 5.489637e+00 5.491280e+00 5.474123e+00 5.469883e+00 5.447886e+00 5.456696e+00 5.445981e+00 5.443177e+00 5.416008e+00 5.400953e+00 5.388330e+00 5.385267e+00 5.373816e+00 5.387457e+00 5.409785e+00 5.440426e+00 5.449483e+00 5.473680e+00 5.498741e+00 5.500802e+00 5.488006e+00 5.480036e+00
<GCONST> 1.790009e+02
<STREAM> 2
<NUMMIXES> 2
<MIXTURE> 1 7.071184e-01
<MEAN> 1
 4.255260e+00
<VARIANCE> 1
 1.107437e+00
<GCONST> 1.939926e+00
<MIXTURE> 2 2.929262e-01
<MEAN> 0
<VARIANCE> 0
<GCONST> 0.000000e+00
<STREAM> 3
<NUMMIXES> 2
<MIXTURE> 1 6.844336e-01
<MEAN> 1
 1.092213e-02
<VARIANCE> 1
 1.928041e-02
<GCONST> -2.110789e+00
<MIXTURE> 2 3.156129e-01
<MEAN> 0
<VARIANCE> 0
<GCONST> 0.000000e+00
<STREAM> 4
<NUMMIXES> 2
<MIXTURE> 1 6.844333e-01
<MEAN> 1
 -3.814223e+06
<VARIANCE> 1
 7.625872e+16
<GCONST> 4.071078e+01
<MIXTURE> 2 3.156135e-01
<MEAN> 0
<VARIANCE> 0
<GCONST> 0.000000e+00
<TRANSP> 7
 0.000000e+00 1.000000e+00 0.000000e+00 0.000000e+00 0.000000e+00 0.000000e+00 0.000000e+00
 0.000000e+00 7.213759e-01 2.786241e-01 0.000000e+00 0.000000e+00 0.000000e+00 0.000000e+00
 0.000000e+00 0.000000e+00 7.213772e-01 2.786229e-01 0.000000e+00 0.000000e+00 0.000000e+00
 0.000000e+00 0.000000e+00 0.000000e+00 7.213763e-01 2.786238e-01 0.000000e+00 0.000000e+00
 0.000000e+00 0.000000e+00 0.000000e+00 0.000000e+00 7.213756e-01 2.786244e-01 0.000000e+00
 0.000000e+00 0.000000e+00 0.000000e+00 0.000000e+00 0.000000e+00 7.213777e-01 2.786223e-01
 0.000000e+00 0.000000e+00 0.000000e+00 0.000000e+00 0.000000e+00 0.000000e+00 0.000000e+00
<ENDHMM>
~h "e"
<BEGINHMM>
<NUMSTATES> 7
<STATE> 2
<STREAM> 1
<MEAN> 75
 2.492912e-01 2.479037e-01 2.472141e-01 2.465322e-01 2.458815e-01 2.453908e-01 2.449334e-01 2.443341e-01 2.438809e-01 2.437343e-01 2.426246e-01 2.422663e-01 2.424431e-01 2.428762e-01 2.439444e-01 2.440846e-01 2.455145e-01 2.480494e-01 2.492885e-01 2.502901e-01 2.508916e-01 2.510256e-01 2.508817e-01 2.508050e-01 2.506543e-01 1.832496e-04 1.062718e-04 7.695751e-06 -6.465369e-05 -1.272256e-04 -1.541240e-04 -1.767264e-04 -2.440584e-04 -3.286873e-04 -3.476341e-04 -3.010123e-04 -3.300649e-04 -3.516474e-04 -2.729213e-04 -1.322108e-04 -4.312187e-05 -2.553081e-05 1.767441e-05 1.155674e-04 2.610937e-04 3.111789e-04 3.438792e-04 3.290514e-04 3.248462e-04 2.828313e-04 5.101040e-05 4.255655e-05 4.110695e-05 1.592538e-05 2.634875e-05 1.300545e-05 2.847961e-05 6.752787e-06 1.901179e-05 -9.330688e-06 -7.343479e-06 -3.571110e-05 -5.092379e-05 -4.341756e-05 -7.625553e-05 -4.635029e-05 -7.978571e-05 -3.136974e-05 -6.114715e-05 -7.594237e-06 -3.307592e-06 3.154296e-05 4.360359e-05 3.980100e-05 5.129864e-05
<VARIANCE> 75
 1.463360e+00 1.461044e+00 1.459212e+00 1.459136e+00 1.459420e+00 1.455468e+00 1.447654e+00 1.440826e+00 1.434433e+00 1.429394e+00 1.425093e+00 1.422701e+00 1.420288e+00 1.417779e+00 1.415508e+00 1.413896e+00 1.421804e+00 1.437477e+00 1.450888e+00 1.460247e+00 1.464006e+00 1.464342e+00 1.463464e+00 1.464398e+00 1.466533e+00 7.327085e-01 7.313275e-01 7.298211e-01 7.292840e-01 7.295420e-01 7.269633e-01 7.227654e-01 7.190472e-01 7.147918e-01 7.114515e-01 7.096260e-01 7.088614e-01 7.080400e-01 7.067305e-01 7.056980e-01 7.049544e-01 7.088795e-01 7.174276e-01 7.259271e-01 7.315375e-01 7.334972e-01 7.332358e-01 7.320516e-01 7.322956e-01 7.338201e-01 6.072888e+00 6.068539e+00 6.052952e+00 6.055710e+00 6.060385e+00 6.045186e+00 6.000394e+00 5.961676e+00 5.935701e+00 5.923708e+00 5.909642e+00 5.911777e+00 5.901363e+00 5.888340e+00 5.885949e+00 5.890360e+00 5.924829e+00 6.003345e+00 6.072782e+00 6.116944e+00 6.123032e+00 6.117844e+00 6.109166e+00 6.090049e+00 6.084498e+00
<GCONST> 1.837034e+02
<STREAM> 2
<NUMMIXES> 2
<MIXTURE> 1 6.529906e-01
<MEAN> 1
 4.515908e+00
<VARIANCE> 1
 1.055680e-02
<GCONST> -2.713108e+00
<MIXTURE> 2 3.470194e-01
<MEAN> 0
<VARIANCE> 0
<GCONST> 0.000000e+00
<STREAM> 3
<NUMMIXES> 2
<MIXTURE> 1 6.267281e-01
<MEAN> 1
 2.324371e-03
<VARIANCE> 1
 3.553591e-04
<GCONST> -6.104505e+00
<MIXTURE> 2 3.732836e-01
<MEAN> 0
<VARIANCE> 0
<GCONST> 0.000000e+00
<STREAM> 4
<NUMMIXES> 2
<MIXTURE> 1 6.267273e-01
<MEAN> 1
 -3.185750e+06
<VARIANCE> 1
 6.369218e+16
<GCONST> 4.053071e+01
<MIXTURE> 2 3.732844e-01
<MEAN> 0
<VARIANCE> 0
<GCONST> 0.000000e+00
<STATE> 3
<STREAM> 1
<MEAN> 75
 2.502616e-01 2.487251e-01 2.477541e-01 2.468102e-01 2.459156e-01 2.452936e-01 2.446779e-01 2.437942e-01 2.430153e-01 2.427761e-01 2.417287e-01 2.411192e-01 2.410977e-01 2.416592e-01 2.431233e-01 2.434676e-01 2.448960e-01 2.474927e-01 2.490835e-01 2.505298e-01 2.514458e-01 2.518028e-01 2.518088e-01 2.518418e-01 2.517157e-01 2.810107e-04 2.373267e-04 1.619461e-04 8.594879e-05 3.057951e-05 -8.075265e-06 -5.537365e-05 -1.400033e-04 -2.309196e-04 -2.617936e-04 -2.382894e-04 -3.076312e-04 -3.802245e-04 -3.608232e-04 -2.932204e-04 -2.291957e-04 -2.519311e-04 -2.128482e-04 -1.294613e-04 3.943872e-05 1.247642e-04 2.230615e-04 2.409029e-04 2.951787e-04 2.907247e-04 4.254747e-05 3.066380e-05 5.203136e-05 1.863553e-05 4.963949e-05 1.291861e-05 6.008404e-05 1.228368e-05 6.953045e-05 1.884229e-05 4.442548e-05 1.684204e-05 -3.838679e-06 3.828551e-05 -6.234832e-05 1.272233e-05 -9.990227e-05 8.945819e-06 -1.025272e-04 -1.823111e-05 -5.231379e-05 -5.733455e-06 7.484108e-06 7.213093e-07 2.765260e-05
<VARIANCE> 75
 1.473183e+00 1.471185e+00 1.470041e+00 1.470432e+00 1.471302e+00 1.467386e+00 1.459357e+00 1.451982e+00 1.444871e+00 1.439494e+00 1.434845e+00 1.431395e+00 1.427749e+00 1.424878e+00 1.422610e+00 1.420727e+00 1.427314e+00 1.441412e+00 1.454671e+00 1.464865e+00 1.469407e+00 1.470225e+00 1.469898e+00 1.471632e+00 1.474790e+00 7.371511e-01 7.360871e-01 7.350571e-01 7.349011e-01 7.355919e-01 7.331065e-01 7.287542e-01 7.247536e-01 7.202052e-01 7.166554e-01 7.146594e-01 7.133192e-01 7.117878e-01 7.102822e-01 7.091976e-01 7.084226e-01 7.116103e-01 7.192475e-01 7.273457e-01 7.332071e-01 7.354844e-01 7.354543e-01 7.345394e-01 7.351242e-01 7.372574e-01 6.105768e+00 6.104435e+00 6.092246e+00 6.097132e+00 6.105814e+00 6.089324e+00 6.042940e+00 6.001598e+00 5.973876e+00 5.961623e+00 5.945829e+00 5.944561e+00 5.930486e+00 5.914645e+00 5.910376e+00 5.914399e+00 5.941560e+00 6.013583e+00 6.082944e+00 6.130370e+00 6.138031e+00 6.135107e+00 6.128896e+00 6.110826e+00 6.110353e+00
<GCONST> 1.841028e+02
<STREAM> 2
<NUMMIXES> 2
<MIXTURE> 1 6.551700e-01
<MEAN> 1
 4.514242e+00
<VARIANCE> 1
 1.343406e-02
<GCONST> -2.472085e+00
<MIXTURE> 2 3.448409e-01
<MEAN> 0
<VARIANCE> 0
<GCONST> 0.000000e+00
<STREAM> 3
<NUMMIXES> 2
<MIXTURE> 1 6.288179e-01
<MEAN> 1
 2.359702e-03
<VARIANCE> 1
 3.553591e-04
<GCONST> -6.104505e+00
<MIXTURE> 2 3.711931e-01
<MEAN> 0
<VARIANCE> 0
<GCONST> 0.000000e+00
<STREAM> 4
<NUMMIXES> 2
<MIXTURE> 1 6.288169e-01
<MEAN> 1
 -3.105723e+06
<VARIANCE> 1
 6.209192e+16
<GCONST> 4.050527e+01
<MIXTURE> 2 3.711939e-01
<MEAN> 0
<VARIANCE> 0
<GCONST> 0.000000e+00
<STATE> 4
<STREAM> 1
<MEAN> 75
 2.511142e-01 2.496565e-01 2.486102e-01 2.475351e-01 2.465069e-01 2.458037e-01 2.449926e-01 2.438214e-01 2.427170e-01 2.423895e-01 2.413401e-01 2.403811e-01 2.400699e-01 2.405440e-01 2.421849e-01 2.425613e-01 2.438501e-01 2.463571e-01 2.481546e-01 2.498257e-01 2.510381e-01 2.516606e-01 2.519147e-01 2.521942e-01 2.522540e-01 2.345675e-04 2.367703e-04 2.221777e-04 1.750668e-04 1.670991e-04 1.365233e-04 9.157951e-05 3.575115e-06 -7.333746e-05 -9.892415e-05 -8.735945e-05 -1.615027e-04 -2.634183e-04 -2.790415e-04 -3.149835e-04 -2.829109e-04 -3.800280e-04 -3.420135e-04 -3.262961e-04 -1.725857e-04 -1.337994e-04 -5.902024e-06 -2.048910e-07 1.203055e-04 1.404616e-04 2.931803e-05 -1.077726e-05 4.773540e-05 -2.155290e-05 6.203470e-05 -1.711026e-05 1.033293e-04 5.895272e-07 1.370010e-04 3.138534e-05 9.773253e-05 6.658514e-05 1.156144e-05 1.550380e-04 -5.653012e-05 1.420465e-04 -1.226135e-04 1.329253e-04 -1.211551e-04 6.290269e-05 -4.762341e-05 1.307251e-05 1.771329e-05 -9.897165e-06 3.309455e-05
<VARIANCE> 75
 1.478384e+00 1.477131e+00 1.477008e+00 1.478348e+00 1.480355e+00 1.476894e+00 1.469154e+00 1.461715e+00 1.454276e+00 1.448920e+00 1.444150e+00 1.439667e+00 1.434622e+00 1.431034e+00 1.428401e+00 1.425852e+00 1.430755e+00 1.442839e+00 1.454984e+00 1.464880e+00 1.469753e+00 1.471069e+00 1.471347e+00 1.473776e+00 1.477857e+00 7.391440e-01 7.386265e-01 7.382073e-01 7.387227e-01 7.401441e-01 7.380408e-01 7.338170e-01 7.298674e-01 7.251996e-01 7.216532e-01 7.196179e-01 7.177505e-01 7.153988e-01 7.135485e-01 7.121894e-01 7.112054e-01 7.134227e-01 7.199455e-01 7.271164e-01 7.328220e-01 7.350591e-01 7.352442e-01 7.346165e-01 7.354888e-01 7.380804e-01 6.122351e+00 6.125506e+00 6.118514e+00 6.127634e+00 6.142679e+00 6.126946e+00 6.081220e+00 6.039317e+00 6.011410e+00 6.000062e+00 5.983488e+00 5.977784e+00 5.959213e+00 5.939210e+00 5.930796e+00 5.932447e+00 5.951164e+00 6.014847e+00 6.079482e+00 6.126286e+00 6.134380e+00 6.133577e+00 6.129876e+00 6.113757e+00 6.118225e+00
<GCONST> 1.843701e+02
<STREAM> 2
<NUMMIXES> 2
<MIXTURE> 1 6.566575e-01
<MEAN> 1
 4.511747e+00
<VARIANCE> 1
 2.019143e-02
<GCONST> -2.064620e+00
<MIXTURE> 2 3.433480e-01
<MEAN> 0
<VARIANCE> 0
<GCONST> 0.000000e+00
<STREAM> 3
<NUMMIXES> 2
<MIXTURE> 1 6.303821e-01
<MEAN> 1
 2.425028e-03
<VARIANCE> 1
 3.553591e-04
<GCONST> -6.104505e+00
<MIXTURE> 2 3.696221e-01
<MEAN> 0
<VARIANCE> 0
<GCONST> 0.000000e+00
<STREAM> 4
<NUMMIXES> 2
<MIXTURE> 1 6.303818e-01
<MEAN> 1
 -3.146113e+06
<VARIANCE> 1
 6.290168e+16
<GCONST> 4.051822e+01
<MIXTURE> 2 3.696230e-01
<MEAN> 0
<VARIANCE> 0
<GCONST> 0.000000e+00
<STATE> 5
<STREAM> 1
<MEAN> 75
 2.513396e-01 2.501583e-01 2.492691e-01 2.482772e-01 2.472992e-01 2.466573e-01 2.457286e-01 2.443782e-01 2.430392e-01 2.426790e-01 2.416162e-01 2.403023e-01 2.397135e-01 2.399430e-01 2.415867e-01 2.418307e-01 2.428750e-01 2.451325e-01 2.469258e-01 2.484848e-01 2.498115e-01 2.505823e-01 2.510278e-01 2.515863e-01 2.518946e-01 7.779401e-05 8.891983e-05 1.387631e-04 1.216733e-04 2.028628e-04 1.836264e-04 1.818782e-04 1.098796e-04 7.619476e-05 7.408124e-05 8.006766e-05 5.141727e-05 -7.142383e-05 -7.397006e-05 -2.362207e-04 -2.017668e-04 -3.966247e-04 -3.113786e-04 -3.960847e-04 -2.442694e-04 -3.220034e-04 -1.934918e-04 -2.583845e-04 -8.635176e-05 -7.979898e-05 5.811290e-05 -3.951555e-05 6.388733e-05 -9.378023e-05 9.117066e-05 -8.449703e-05 1.670010e-04 -3.826269e-05 2.339720e-04 4.070415e-05 1.650590e-04 1.354683e-04 -1.738477e-05 3.338051e-04 -9.615766e-05 3.509927e-04 -1.830708e-04 3.366133e-04 -1.320469e-04 2.465316e-04 2.445048e-05 1.114309e-04 1.113294e-04 5.785702e-05 1.088495e-04
<VARIANCE> 75
 1.477641e+00 1.477296e+00 1.478435e+00 1.481219e+00 1.484801e+00 1.482365e+00 1.475568e+00 1.468827e+00 1.461686e+00 1.456845e+00 1.452330e+00 1.447058e+00 1.440755e+00 1.436257e+00 1.433086e+00 1.429597e+00 1.432660e+00 1.442456e+00 1.452649e+00 1.460988e+00 1.465407e+00 1.466761e+00 1.467393e+00 1.470175e+00 1.474896e+00 7.381402e-01 7.382230e-01 7.384980e-01 7.399529e-01 7.423443e-01 7.409565e-01 7.371869e-01 7.338126e-01 7.292767e-01 7.260319e-01 7.241495e-01 7.219316e-01 7.188091e-01 7.165984e-01 7.147984e-01 7.135155e-01 7.146623e-01 7.200186e-01 7.257704e-01 7.309169e-01 7.325622e-01 7.328786e-01 7.322828e-01 7.333140e-01 7.360313e-01 6.117926e+00 6.126051e+00 6.125303e+00 6.140729e+00 6.163756e+00 6.151435e+00 6.109629e+00 6.070595e+00 6.044808e+00 6.035894e+00 6.019835e+00 6.009781e+00 5.986536e+00 5.961890e+00 5.948073e+00 5.945561e+00 5.955236e+00 6.009743e+00 6.065455e+00 6.107271e+00 6.113240e+00 6.112927e+00 6.110549e+00 6.096438e+00 6.105067e+00
<GCONST> 1.844816e+02
<STREAM> 2
<NUMMIXES> 2
<MIXTURE> 1 6.572523e-01
<MEAN> 1
 4.507655e+00
<VARIANCE> 1
 3.457101e-02
<GCONST> -1.526863e+00
<MIXTURE> 2 3.427523e-01
<MEAN> 0
<VARIANCE> 0
<GCONST> 0.000000e+00
<STREAM> 3
<NUMMIXES> 2
<MIXTURE> 1 6.311992e-01
<MEAN> 1
 2.554103e-03
<VARIANCE> 1
 5.614079e-04
<GCONST> -5.647186e+00
<MIXTURE> 2 3.688068e-01
<MEAN> 0
<VARIANCE> 0
<GCONST> 0.000000e+00
<STREAM> 4
<NUMMIXES> 2
<MIXTURE> 1 6.311979e-01
<MEAN> 1
 -3.306617e+06
<VARIANCE> 1
 6.611046e+16
<GCONST> 4.056798e+01
<MIXTURE> 2 3.688074e-01
<MEAN> 0
<VARIANCE> 0
<GCONST> 0.000000e+00
<STATE> 6
<STREAM> 1
<MEAN> 75
 2.507208e-01 2.498915e-01 2.492893e-01 2.485683e-01 2.478058e-01 2.473887e-01 2.465017e-01 2.451605e-01 2.437645e-01 2.434618e-01 2.424386e-01 2.408618e-01 2.401136e-01 2.400296e-01 2.415736e-01 2.415748e-01 2.423515e-01 2.442581e-01 2.458631e-01 2.470006e-01 2.482103e-01 2.489508e-01 2.493967e-01 2.501621e-01 2.506366e-01 -8.371583e-05 -1.375456e-04 -3.432040e-05 -7.231813e-05 1.270205e-04 7.906882e-05 1.548659e-04 1.085991e-04 1.391068e-04 1.885481e-04 1.762426e-04 2.594603e-04 1.001528e-04 1.921097e-04 -1.251907e-04 -3.211433e-05 -3.563995e-04 -1.434998e-04 -3.369830e-04 -1.278715e-04 -3.637481e-04 -2.414715e-04 -4.102767e-04 -1.995012e-04 -2.382949e-04 1.678646e-04 -2.753385e-05 1.514242e-04 -1.637249e-04 2.051175e-04 -1.606178e-04 2.777770e-04 -8.627726e-05 3.692727e-04 7.404597e-05 2.583109e-04 2.620565e-04 -9.868760e-05 6.037157e-04 -1.801071e-04 6.754145e-04 -2.796089e-04 6.245328e-04 -1.432062e-04 5.507849e-04 1.728837e-04 3.048794e-04 3.091353e-04 2.406337e-04 3.113216e-04
<VARIANCE> 75
 1.470703e+00 1.471046e+00 1.473371e+00 1.477718e+00 1.483107e+00 1.482129e+00 1.476970e+00 1.471767e+00 1.465760e+00 1.461894e+00 1.458127e+00 1.452473e+00 1.445430e+00 1.440083e+00 1.436592e+00 1.432079e+00 1.433450e+00 1.440891e+00 1.448728e+00 1.454477e+00 1.457662e+00 1.458341e+00 1.458923e+00 1.461434e+00 1.466352e+00 7.340912e-01 7.347535e-01 7.355289e-01 7.380793e-01 7.414292e-01 7.411156e-01 7.379798e-01 7.358903e-01 7.316775e-01 7.291113e-01 7.275626e-01 7.253634e-01 7.216130e-01 7.192889e-01 7.170227e-01 7.155259e-01 7.156461e-01 7.200263e-01 7.240218e-01 7.285550e-01 7.288495e-01 7.293477e-01 7.281969e-01 7.293516e-01 7.315329e-01 6.091590e+00 6.103465e+00 6.108549e+00 6.131064e+00 6.162689e+00 6.155881e+00 6.121831e+00 6.089501e+00 6.068668e+00 6.063596e+00 6.049668e+00 6.036278e+00 6.009608e+00 5.980742e+00 5.961831e+00 5.954077e+00 5.955280e+00 6.000481e+00 6.044894e+00 6.078317e+00 6.079612e+00 6.077351e+00 6.074265e+00 6.061152e+00 6.072228e+00
<GCONST> 1.844254e+02
<STREAM> 2
<NUMMIXES> 2
<MIXTURE> 1 6.569515e-01
<MEAN> 1
 4.500561e+00
<VARIANCE> 1
 6.289533e-02
<GCONST> -9.284065e-01
<MIXTURE> 2 3.430620e-01
<MEAN> 0
<VARIANCE> 0
<GCONST> 0.000000e+00
<STREAM> 3
<NUMMIXES> 2
<MIXTURE> 1 6.312023e-01
<MEAN> 1
 2.811253e-03
<VARIANCE> 1
 1.250203e-03
<GCONST> -4.846572e+00
<MIXTURE> 2 3.688092e-01
<MEAN> 0
<VARIANCE> 0
<GCONST> 0.000000e+00
<STREAM> 4
<NUMMIXES> 2
<MIXTURE> 1 6.312013e-01
<MEAN> 1
 -3.568396e+06
<VARIANCE> 1
 7.134413e+16
<GCONST> 4.064417e+01
<MIXTURE> 2 3.688098e-01
<MEAN> 0
<VARIANCE> 0
<GCONST> 0.000000e+00
<TRANSP> 7
 0.000000e+00 1.000000e+00 0.000000e+00 0.000000e+00 0.000000e+00 0.000000e+00 0.000000e+00
 0.000000e+00 7.169093e-01 2.830907e-01 0.000000e+00 0.000000e+00 0.000000e+00 0.000000e+00
 0.000000e+00 0.000000e+00 7.169071e-01 2.830929e-01 0.000000e+00 0.000000e+00 0.000000e+00
 0.000000e+00 0.000000e+00 0.000000e+00 7.169112e-01 2.830888e-01 0.000000e+00 0.000000e+00
 0.000000e+00 0.000000e+00 0.000000e+00 0.000000e+00 7.169100e-01 2.830900e-01 0.000000e+00
 0.000000e+00 0.000000e+00 0.000000e+00 0.000000e+00 0.000000e+00 7.169111e-01 2.830890e-01
 0.000000e+00 0.000000e+00 0.000000e+00 0.000000e+00 0.000000e+00 0.000000e+00 0.000000e+00
<ENDHMM>
~h "f"
<BEGINHMM>
<NUMSTATES> 7
<STATE> 2
<STREAM> 1
<MEAN> 75
 2.473938e-01 2.460470e-01 2.451827e-01 2.447242e-01 2.416886e-01 2.400783e-01 2.398319e-01 2.399074e-01 2.390295e-01 2.396492e-01 2.396163e-01 2.409064e-01 2.422028e-01 2.439236e-01 2.444585e-01 2.441468e-01 2.452693e-01 2.474339e-01 2.489006e-01 2.504565e-01 2.513708e-01 2.514505e-01 2.508051e-01 2.504600e-01 2.491717e-01 1.465118e-03 8.834538e-04 1.212536e-03 5.425087e-04 1.437228e-03 4.134797e-04 9.190460e-04 -3.762534e-04 1.525220e-04 -9.367662e-04 -2.738889e-04 -1.390687e-03 -6.955250e-04 -1.588234e-03 -5.637035e-04 -1.570978e-03 -4.025630e-04 -1.148677e-03 5.740095e-04 -3.899336e-04 1.275643e-03 -2.569978e-04 1.333881e-03 -2.969289e-04 9.120889e-04 -9.488664e-05 3.995711e-04 5.671282e-04 -6.766804e-04 1.071560e-03 -5.634900e-04 1.865943e-03 -5.640581e-04 2.186279e-03 -3.965755e-04 1.836593e-03 -2.107064e-04 5.207851e-04 -2.434128e-05 1.476163e-04 5.288564e-04 -2.351257e-04 8.524214e-04 -8.956506e-05 8.095768e-04 4.237574e-04 5.118076e-04 8.586654e-04 3.705546e-04 1.159662e-03
<VARIANCE> 75
 1.357613e+00 1.350398e+00 1.352847e+00 1.347221e+00 1.344627e+00 1.334570e+00 1.334220e+00 1.332251e+00 1.333638e+00 1.330140e+00 1.330672e+00 1.326419e+00 1.331701e+00 1.330549e+00 1.334797e+00 1.328064e+00 1.333542e+00 1.336441e+00 1.350594e+00 1.352268e+00 1.361814e+00 1.360378e+00 1.366703e+00 1.362924e+00 1.364955e+00 6.896783e-01 6.934919e-01 6.874676e-01 6.908432e-01 6.841374e-01 6.855660e-01 6.776870e-01 6.856155e-01 6.777608e-01 6.803389e-01 6.773033e-01 6.802699e-01 6.754777e-01 6.842638e-01 6.783354e-01 6.878350e-01 6.803768e-01 6.944602e-01 6.912775e-01 7.077546e-01 6.996299e-01 7.141081e-01 7.041507e-01 7.168727e-01 7.008255e-01 5.851403e+00 5.822121e+00 5.821717e+00 5.803101e+00 5.779049e+00 5.743738e+00 5.731571e+00 5.715699e+00 5.709133e+00 5.701001e+00 5.700737e+00 5.686891e+00 5.705105e+00 5.706161e+00 5.711219e+00 5.699817e+00 5.712053e+00 5.758000e+00 5.806479e+00 5.813725e+00 5.828292e+00 5.845882e+00 5.866520e+00 5.866581e+00 5.871838e+00
<GCONST> 1.797531e+02
<STREAM> 2
<NUMMIXES> 2
<MIXTURE> 1 5.649719e-01
<MEAN> 1
 4.486704e+00
<VARIANCE> 1
 1.302410e-01
<GCONST> -2.004917e-01
<MIXTURE> 2 4.350509e-01
<MEAN> 0
<VARIANCE> 0
<GCONST> 0.000000e+00
<STREAM> 3
<NUMMIXES> 2
<MIXTURE> 1 5.359195e-01
<MEAN> 1
 5.168146e-03
<VARIANCE> 1
 1.323819e-02
<GCONST> -2.486772e+00
<MIXTURE> 2 4.641038e-01
<MEAN> 0
<VARIANCE> 0
<GCONST> 0.000000e+00
<STREAM> 4
<NUMMIXES> 2
<MIXTURE> 1 5.359187e-01
<MEAN> 1
 -5.839254e+06
<VARIANCE> 1
 1.167412e+17
<GCONST> 4.113661e+01
<MIXTURE> 2 4.641045e-01
<MEAN> 0
<VARIANCE> 0
<GCONST> 0.000000e+00
<STATE> 3
<STREAM> 1
<MEAN> 75
 2.493648e-01 2.483596e-01 2.474920e-01 2.474280e-01 2.442715e-01 2.427324e-01 2.423084e-01 2.420083e-01 2.402914e-01 2.400837e-01 2.392816e-01 2.397968e-01 2.403599e-01 2.414399e-01 2.415629e-01 2.409422e-01 2.418615e-01 2.443935e-01 2.461539e-01 2.482438e-01 2.497077e-01 2.505482e-01 2.501116e-01 2.506412e-01 2.497521e-01 1.360633e-03 4.242692e-04 1.322121e-03 1.166352e-04 1.794674e-03 2.308866e-04 1.570320e-03 -2.104207e-04 1.196270e-03 -4.135775e-04 8.342976e-04 -9.009345e-04 2.055308e-04 -1.354299e-03 -6.058719e-05 -1.747423e-03 -3.472937e-04 -1.571406e-03 4.500626e-04 -8.151955e-04 9.473485e-04 -7.694971e-04 7.759710e-04 -6.801775e-04 2.945887e-04 2.813807e-04 2.393748e-04 1.135648e-03 -1.020154e-03 1.701512e-03 -9.963939e-04 2.321062e-03 -8.759471e-04 2.703948e-03 -3.390484e-04 2.382078e-03 6.296323e-05 9.489176e-04 4.027009e-04 6.802829e-04 1.009151e-03 1.718160e-04 1.321447e-03 3.716985e-04 1.296965e-03 8.126593e-04 8.027677e-04 1.189271e-03 6.346474e-04 1.457708e-03
<VARIANCE> 75
 1.364456e+00 1.356224e+00 1.360785e+00 1.354529e+00 1.353461e+00 1.342682e+00 1.343038e+00 1.339221e+00 1.340969e+00 1.334502e+00 1.335801e+00 1.328694e+00 1.335109e+00 1.331111e+00 1.337243e+00 1.328441e+00 1.336104e+00 1.336753e+00 1.353151e+00 1.353241e+00 1.366145e+00 1.362854e+00 1.372408e+00 1.367674e+00 1.373939e+00 6.949086e-01 7.031184e-01 6.943103e-01 7.015327e-01 6.922284e-01 6.976213e-01 6.853682e-01 6.980382e-01 6.846368e-01 6.897518e-01 6.832191e-01 6.891060e-01 6.797739e-01 6.926918e-01 6.824895e-01 6.965370e-01 6.845768e-01 7.027135e-01 6.951262e-01 7.159391e-01 7.040007e-01 7.221284e-01 7.088558e-01 7.252833e-01 7.059795e-01 5.880589e+00 5.852323e+00 5.861465e+00 5.845372e+00 5.827211e+00 5.792027e+00 5.781464e+00 5.762390e+00 5.754855e+00 5.737318e+00 5.735366e+00 5.710798e+00 5.726254e+00 5.719882e+00 5.726975e+00 5.710403e+00 5.722904e+00 5.763135e+00 5.810587e+00 5.815907e+00 5.833787e+00 5.847688e+00 5.871288e+00 5.874104e+00 5.886294e+00
<GCONST> 1.802099e+02
<STREAM> 2
<NUMMIXES> 2
<MIXTURE> 1 5.646707e-01
<MEAN> 1
 4.472193e+00
<VARIANCE> 1
 1.957133e-01
<GCONST> 2.067727e-01
<MIXTURE> 2 4.353419e-01
<MEAN> 0
<VARIANCE> 0
<GCONST> 0.000000e+00
<STREAM> 3
<NUMMIXES> 2
<MIXTURE> 1 5.356729e-01
<MEAN> 1
 5.631897e-03
<VARIANCE> 1
 1.674745e-02
<GCONST> -2.251632e+00
<MIXTURE> 2 4.643402e-01
<MEAN> 0
<VARIANCE> 0
<GCONST> 0.000000e+00
<STREAM> 4
<NUMMIXES> 2
<MIXTURE> 1 5.356718e-01
<MEAN> 1
 -5.181479e+06
<VARIANCE> 1
 1.035935e+17
<GCONST> 4.101713e+01
<MIXTURE> 2 4.643410e-01
<MEAN> 0
<VARIANCE> 0
<GCONST> 0.000000e+00
<STATE> 4
<STREAM> 1
<MEAN> 75
 2.495329e-01 2.491271e-01 2.485241e-01 2.490245e-01 2.461632e-01 2.449727e-01 2.448094e-01 2.444804e-01 2.426135e-01 2.418853e-01 2.407552e-01 2.406510e-01 2.406253e-01 2.408797e-01 2.403027e-01 2.391158e-01 2.392150e-01 2.415980e-01 2.430065e-01 2.454030e-01 2.468398e-01 2.483048e-01 2.475747e-01 2.491471e-01 2.482520e-01 1.241474e-03 -3.941004e-04 1.445089e-03 -6.442751e-04 2.046319e-03 -4.014400e-04 1.960261e-03 -5.462579e-04 1.896115e-03 -2.916574e-04 1.654853e-03 -4.949514e-04 1.110925e-03 -8.030243e-04 7.120592e-04 -1.338013e-03 7.531466e-05 -1.315909e-03 6.135313e-04 -6.082880e-04 7.548800e-04 -7.288533e-04 2.163558e-04 -6.312709e-04 -3.807370e-04 1.048999e-03 9.583076e-05 2.000760e-03 -1.244271e-03 2.552490e-03 -1.180861e-03 2.787495e-03 -8.329563e-04 3.064288e-03 -4.687416e-05 2.672083e-03 3.669404e-04 1.317817e-03 7.819287e-04 1.321016e-03 1.340434e-03 7.866623e-04 1.667344e-03 1.031104e-03 1.764060e-03 1.314451e-03 1.162202e-03 1.535819e-03 9.705375e-04 1.709973e-03
<VARIANCE> 75
 1.368013e+00 1.359604e+00 1.366629e+00 1.360713e+00 1.362141e+00 1.351602e+00 1.353866e+00 1.348626e+00 1.352033e+00 1.342545e+00 1.345541e+00 1.335247e+00 1.342789e+00 1.335364e+00 1.342992e+00 1.331768e+00 1.340729e+00 1.338002e+00 1.355838e+00 1.353382e+00 1.369866e+00 1.363771e+00 1.377188e+00 1.370535e+00 1.382584e+00 6.995860e-01 7.146304e-01 7.013498e-01 7.140441e-01 7.015643e-01 7.123924e-01 6.949719e-01 7.137094e-01 6.939852e-01 7.030047e-01 6.917860e-01 7.013673e-01 6.865131e-01 7.034268e-01 6.884240e-01 7.060254e-01 6.893640e-01 7.100045e-01 6.979302e-01 7.214009e-01 7.063568e-01 7.263435e-01 7.107052e-01 7.294882e-01 7.083535e-01 5.885867e+00 5.860836e+00 5.881450e+00 5.872968e+00 5.864316e+00 5.834725e+00 5.831459e+00 5.813122e+00 5.809265e+00 5.784281e+00 5.782735e+00 5.748929e+00 5.760895e+00 5.745728e+00 5.751206e+00 5.727570e+00 5.735081e+00 5.764852e+00 5.804442e+00 5.804951e+00 5.822967e+00 5.832323e+00 5.855990e+00 5.859587e+00 5.876025e+00
<GCONST> 1.806768e+02
<STREAM> 2
<NUMMIXES> 2
<MIXTURE> 1 5.660539e-01
<MEAN> 1
 4.453811e+00
<VARIANCE> 1
 2.772846e-01
<GCONST> 5.551662e-01
<MIXTURE> 2 4.339585e-01
<MEAN> 0
<VARIANCE> 0
<GCONST> 0.000000e+00
<STREAM> 3
<NUMMIXES> 2
<MIXTURE> 1 5.372334e-01
<MEAN> 1
 5.876966e-03
<VARIANCE> 1
 1.972098e-02
<GCONST> -2.088195e+00
<MIXTURE> 2 4.627776e-01
<MEAN> 0
<VARIANCE> 0
<GCONST> 0.000000e+00
<STREAM> 4
<NUMMIXES> 2
<MIXTURE> 1 5.372328e-01
<MEAN> 1
 -4.664974e+06
<VARIANCE> 1
 9.326902e+16
<GCONST> 4.091214e+01
<MIXTURE> 2 4.627785e-01
<MEAN> 0
<VARIANCE> 0
<GCONST> 0.000000e+00
<STATE> 5
<STREAM> 1
<MEAN> 75
 2.481455e-01 2.482259e-01 2.482083e-01 2.491585e-01 2.470504e-01 2.462198e-01 2.466382e-01 2.462980e-01 2.447866e-01 2.437415e-01 2.426720e-01 2.422305e-01 2.419469e-01 2.416576e-01 2.404167e-01 2.389188e-01 2.378065e-01 2.400375e-01 2.404849e-01 2.433039e-01 2.439429e-01 2.460725e-01 2.442331e-01 2.469115e-01 2.452495e-01 1.339859e-03 -1.389733e-03 1.666258e-03 -1.582039e-03 2.178241e-03 -1.176174e-03 2.236488e-03 -9.221155e-04 2.315468e-03 -3.582025e-04 1.976382e-03 -2.344032e-04 1.623153e-03 -1.708514e-04 1.298968e-03 -6.010979e-04 5.395876e-04 -5.516126e-04 9.428856e-04 1.999952e-04 8.714634e-04 -4.371628e-05 4.434702e-05 -1.691328e-05 -6.513016e-04 2.113470e-03 2.428140e-04 3.013813e-03 -1.134880e-03 3.325019e-03 -1.057363e-03 3.065038e-03 -3.219694e-04 3.278795e-03 5.106777e-04 2.813648e-03 6.808236e-04 1.761168e-03 9.992078e-04 2.063623e-03 1.292797e-03 1.549822e-03 1.630265e-03 1.758454e-03 1.939906e-03 1.877544e-03 1.419302e-03 1.896087e-03 1.251339e-03 1.978651e-03
<VARIANCE> 75
 1.368742e+00 1.360514e+00 1.369950e+00 1.365166e+00 1.369969e+00 1.360338e+00 1.365358e+00 1.358719e+00 1.364890e+00 1.352638e+00 1.358345e+00 1.345182e+00 1.354066e+00 1.343692e+00 1.352809e+00 1.339563e+00 1.349656e+00 1.343129e+00 1.362459e+00 1.356405e+00 1.377186e+00 1.366867e+00 1.384851e+00 1.374374e+00 1.392959e+00 7.040075e-01 7.276704e-01 7.079033e-01 7.267210e-01 7.106978e-01 7.271305e-01 7.046219e-01 7.289865e-01 7.035629e-01 7.169292e-01 7.008805e-01 7.140201e-01 6.943879e-01 7.139862e-01 6.955097e-01 7.145473e-01 6.949214e-01 7.159807e-01 7.006758e-01 7.248461e-01 7.081431e-01 7.279909e-01 7.112180e-01 7.309580e-01 7.089325e-01 5.869009e+00 5.846887e+00 5.878196e+00 5.880566e+00 5.883862e+00 5.863125e+00 5.870605e+00 5.855502e+00 5.858244e+00 5.828944e+00 5.829631e+00 5.791223e+00 5.800043e+00 5.779463e+00 5.781548e+00 5.752771e+00 5.752289e+00 5.771459e+00 5.798622e+00 5.793181e+00 5.807860e+00 5.812165e+00 5.832153e+00 5.833050e+00 5.848715e+00
<GCONST> 1.811333e+02
<STREAM> 2
<NUMMIXES> 2
<MIXTURE> 1 5.694884e-01
<MEAN> 1
 4.432135e+00
<VARIANCE> 1
 3.728431e-01
<GCONST> 8.512796e-01
<MIXTURE> 2 4.305193e-01
<MEAN> 0
<VARIANCE> 0
<GCONST> 0.000000e+00
<STREAM> 3
<NUMMIXES> 2
<MIXTURE> 1 5.409420e-01
<MEAN> 1
 6.054647e-03
<VARIANCE> 1
 2.270972e-02
<GCONST> -1.947085e+00
<MIXTURE> 2 4.590667e-01
<MEAN> 0
<VARIANCE> 0
<GCONST> 0.000000e+00
<STREAM> 4
<NUMMIXES> 2
<MIXTURE> 1 5.409411e-01
<MEAN> 1
 -4.315844e+06
<VARIANCE> 1
 8.628929e+16
<GCONST> 4.083436e+01
<MIXTURE> 2 4.590676e-01
<MEAN> 0
<VARIANCE> 0
<GCONST> 0.000000e+00
<STATE> 6
<STREAM> 1
<MEAN> 75
 2.460907e-01 2.460948e-01 2.470259e-01 2.479414e-01 2.470102e-01 2.462348e-01 2.474528e-01 2.469696e-01 2.460990e-01 2.448898e-01 2.439612e-01 2.434995e-01 2.430830e-01 2.428512e-01 2.408544e-01 2.397756e-01 2.370645e-01 2.397470e-01 2.387495e-01 2.425332e-01 2.417449e-01 2.448209e-01 2.412267e-01 2.449364e-01 2.419140e-01 1.735578e-03 -2.138458e-03 1.952489e-03 -2.327809e-03 2.094429e-03 -1.661387e-03 2.407141e-03 -9.060453e-04 2.460425e-03 -3.374447e-04 1.836683e-03 7.876661e-06 1.742759e-03 4.635173e-04 1.644255e-03 2.019252e-04 9.632672e-04 3.315322e-04 1.427356e-03 1.185234e-03 1.446480e-03 9.434595e-04 6.017636e-04 9.383992e-04 -1.120837e-04 3.120859e-03 9.233544e-04 3.797273e-03 -5.529991e-04 3.683245e-03 -5.575200e-04 3.088887e-03 5.579987e-04 3.377666e-03 1.005244e-03 2.912405e-03 7.922526e-04 2.371970e-03 9.165106e-04 2.892862e-03 8.316366e-04 2.447953e-03 1.159174e-03 2.538628e-03 1.707907e-03 2.569501e-03 1.375697e-03 2.415434e-03 1.286160e-03 2.416464e-03
<VARIANCE> 75
 1.368890e+00 1.360439e+00 1.372011e+00 1.368378e+00 1.377167e+00 1.368511e+00 1.376617e+00 1.368391e+00 1.377965e+00 1.363318e+00 1.372378e+00 1.357053e+00 1.367838e+00 1.355510e+00 1.367051e+00 1.351995e+00 1.364525e+00 1.353766e+00 1.375923e+00 1.364960e+00 1.391164e+00 1.375083e+00 1.397551e+00 1.381607e+00 1.405287e+00 7.081605e-01 7.396500e-01 7.129412e-01 7.365108e-01 7.178317e-01 7.379314e-01 7.122080e-01 7.395948e-01 7.112011e-01 7.277825e-01 7.084937e-01 7.237355e-01 7.020609e-01 7.221251e-01 7.030922e-01 7.212508e-01 7.015530e-01 7.216795e-01 7.044652e-01 7.287574e-01 7.111325e-01 7.297851e-01 7.125415e-01 7.325452e-01 7.094843e-01 5.840243e+00 5.817997e+00 5.856850e+00 5.869978e+00 5.885524e+00 5.873755e+00 5.891441e+00 5.880317e+00 5.889887e+00 5.859669e+00 5.862174e+00 5.824970e+00 5.830586e+00 5.810359e+00 5.808992e+00 5.779053e+00 5.771036e+00 5.783038e+00 5.798038e+00 5.787535e+00 5.798420e+00 5.798508e+00 5.812449e+00 5.807495e+00 5.817602e+00
<GCONST> 1.815615e+02
<STREAM> 2
<NUMMIXES> 2
<MIXTURE> 1 5.752588e-01
<MEAN> 1
 4.407753e+00
<VARIANCE> 1
 4.799193e-01
<GCONST> 1.103740e+00
<MIXTURE> 2 4.247507e-01
<MEAN> 0
<VARIANCE> 0
<GCONST> 0.000000e+00
<STREAM> 3
<NUMMIXES> 2
<MIXTURE> 1 5.470335e-01
<MEAN> 1
 6.507879e-03
<VARIANCE> 1
 2.648631e-02
<GCONST> -1.793250e+00
<MIXTURE> 2 4.529755e-01
<MEAN> 0
<VARIANCE> 0
<GCONST> 0.000000e+00
<STREAM> 4
<NUMMIXES> 2
<MIXTURE> 1 5.470325e-01
<MEAN> 1
 -4.140469e+06
<VARIANCE> 1
 8.278206e+16
<GCONST> 4.079286e+01
<MIXTURE> 2 4.529764e-01
<MEAN> 0
<VARIANCE> 0
<GCONST> 0.000000e+00
<TRANSP> 7
 0.000000e+00 1.000000e+00 0.000000e+00 0.000000e+00 0.000000e+00 0.000000e+00 0.000000e+00
 0.000000e+00 7.199533e-01 2.800466e-01 0.000000e+00 0.000000e+00 0.000000e+00 0.000000e+00
 0.000000e+00 0.000000e+00 7.199503e-01 2.800497e-01 0.000000e+00 0.000000e+00 0.000000e+00
 0.000000e+00 0.000000e+00 0.000000e+00 7.199527e-01 2.800473e-01 0.000000e+00 0.000000e+00
 0.000000e+00 0.000000e+00 0.000000e+00 0.000000e+00 7.199536e-01 2.800464e-01 0.000000e+00
 0.000000e+00 0.000000e+00 0.000000e+00 0.000000e+00 0.000000e+00 7.199520e-01 2.800480e-01
 0.000000e+00 0.000000e+00 0.000000e+00 0.000000e+00 0.000000e+00 0.000000e+00 0.000000e+00
<ENDHMM>
~h "g"
<BEGINHMM>
<NUMSTATES> 7
<STATE> 2
<STREAM> 1
<MEAN> 75
 2.475819e-01 2.478543e-01 2.475117e-01 2.466589e-01 2.459936e-01 2.452224e-01 2.446524e-01 2.449438e-01 2.448214e-01 2.448950e-01 2.448763e-01 2.446978e-01 2.443696e-01 2.451196e-01 2.457507e-01 2.460142e-01 2.471560e-01 2.491879e-01 2.501589e-01 2.500907e-01 2.507685e-01 2.507693e-01 2.506571e-01 2.500879e-01 2.490919e-01 4.737008e-04 4.875301e-04 4.706288e-04 4.887504e-04 5.075639e-04 3.669265e-04 3.114857e-04 1.076277e-04 -2.236175e-05 -3.296712e-04 -3.324416e-04 -5.886280e-04 -5.143243e-04 -7.612347e-04 -4.643672e-04 -6.190245e-04 -1.872941e-04 -4.835001e-04 -1.647116e-04 -2.648518e-04 4.858198e-05 1.374753e-04 1.396078e-04 4.788078e-04 3.148252e-04 2.345704e-04 -2.145225e-04 1.370031e-04 -1.930951e-04 1.919933e-04 -1.772144e-05 3.264111e-04 5.922932e-05 3.620875e-04 7.672305e-05 3.151998e-04 -2.378435e-05 2.355231e-04 -4.459848e-05 1.631989e-04 -1.016913e-04 1.044571e-04 -7.712562e-05 8.809380e-05 -3.806339e-05 1.134195e-04 3.182136e-04 2.041212e-04 7.905322e-05 -3.410564e-04
<VARIANCE> 75
 1.452238e+00 1.450022e+00 1.448296e+00 1.447796e+00 1.447875e+00 1.446186e+00 1.443653e+00 1.448131e+00 1.453311e+00 1.457021e+00 1.458648e+00 1.459542e+00 1.455799e+00 1.453131e+00 1.454079e+00 1.452353e+00 1.449109e+00 1.454647e+00 1.459136e+00 1.458297e+00 1.461272e+00 1.467812e+00 1.473760e+00 1.471475e+00 1.464226e+00 7.195208e-01 7.165310e-01 7.148766e-01 7.148896e-01 7.147977e-01 7.143354e-01 7.134923e-01 7.154671e-01 7.176698e-01 7.199501e-01 7.217048e-01 7.241245e-01 7.225521e-01 7.215250e-01 7.209334e-01 7.203984e-01 7.181380e-01 7.222280e-01 7.230256e-01 7.257483e-01 7.241098e-01 7.280189e-01 7.315999e-01 7.316787e-01 7.272702e-01 5.775005e+00 5.770667e+00 5.754701e+00 5.737959e+00 5.746073e+00 5.756425e+00 5.730967e+00 5.719595e+00 5.723754e+00 5.740704e+00 5.750583e+00 5.771267e+00 5.762511e+00 5.738647e+00 5.733926e+00 5.725088e+00 5.698110e+00 5.727202e+00 5.762048e+00 5.759945e+00 5.773861e+00 5.822345e+00 5.875256e+00 5.872772e+00 5.824661e+00
<GCONST> 1.828274e+02
<STREAM> 2
<NUMMIXES> 2
<MIXTURE> 1 7.410619e-01
<MEAN> 1
 4.517721e+00
<VARIANCE> 1
 1.913684e-02
<GCONST> -2.118263e+00
<MIXTURE> 2 2.589377e-01
<MEAN> 0
<VARIANCE> 0
<GCONST> 0.000000e+00
<STREAM> 3
<NUMMIXES> 2
<MIXTURE> 1 7.164277e-01
<MEAN> 1
 2.313327e-03
<VARIANCE> 1
 3.553591e-04
<GCONST> -6.104505e+00
<MIXTURE> 2 2.835732e-01
<MEAN> 0
<VARIANCE> 0
<GCONST> 0.000000e+00
<STREAM> 4
<NUMMIXES> 2
<MIXTURE> 1 7.164277e-01
<MEAN> 1
 -1.648403e+06
<VARIANCE> 1
 3.296290e+16
<GCONST> 3.987204e+01
<MIXTURE> 2 2.835741e-01
<MEAN> 0
<VARIANCE> 0
<GCONST> 0.000000e+00
<STATE> 3
<STREAM> 1
<MEAN> 75
 2.483802e-01 2.489357e-01 2.484895e-01 2.479782e-01 2.472993e-01 2.465241e-01 2.459476e-01 2.461021e-01 2.455844e-01 2.452630e-01 2.448466e-01 2.442308e-01 2.434380e-01 2.438717e-01 2.443103e-01 2.447041e-01 2.459634e-01 2.481557e-01 2.493819e-01 2.495300e-01 2.502880e-01 2.502604e-01 2.503532e-01 2.500464e-01 2.494548e-01 2.597968e-04 2.719599e-04 3.221057e-04 3.119577e-04 4.510400e-04 3.066781e-04 5.109468e-04 2.972498e-04 4.203822e-04 2.455455e-05 1.847080e-04 -2.961429e-04 -5.754875e-05 -5.608031e-04 -1.233178e-04 -6.359378e-04 -5.374243e-05 -6.951133e-04 -3.545156e-04 -6.409320e-04 -2.723667e-04 -1.103161e-04 -2.684284e-04 2.984214e-04 -4.662713e-05 3.988044e-04 -3.786413e-04 2.416326e-04 -3.699912e-04 2.657901e-04 -2.200431e-04 3.618230e-04 -1.631808e-04 4.260214e-04 -5.982257e-05 5.000087e-04 -3.807130e-05 5.108081e-04 4.974310e-05 4.656294e-04 3.806106e-05 3.996487e-04 6.885361e-05 3.333823e-04 1.047251e-04 3.308186e-04 6.583231e-04 4.185867e-04 2.144116e-04 -5.264306e-04
<VARIANCE> 75
