#!/bin/bash

file="/home/maimei/Documents/STUDIES/9.lukukausi/08_Speech_Recognition/Project/Code/project/model_train/monophone/monophones0"

cat $file | while read line
do

echo "~h \"$line\"
<BEGINHMM>
<NUMSTATES> 7
<STATE> 2
<STREAM> 1
<MEAN> 75
 2.437025e-01 2.437811e-01 2.438416e-01 2.427483e-01 2.424347e-01 2.412053e-01 2.416160e-01 2.404205e-01 2.404671e-01 2.399707e-01 2.392434e-01 2.386675e-01 2.388938e-01 2.381842e-01 2.377658e-01 2.377682e-01 2.373862e-01 2.388586e-01 2.395920e-01 2.398827e-01 2.398811e-01 2.407778e-01 2.396190e-01 2.400042e-01 2.389861e-01 -7.946459e-04 -2.021979e-04 2.131090e-03 1.050957e-03 2.322382e-03 1.704675e-03 2.800538e-03 1.727819e-03 3.206203e-03 1.734620e-03 2.942375e-03 2.002218e-03 3.202356e-03 2.182914e-03 3.764750e-03 2.268789e-03 3.388327e-03 2.608810e-03 3.609279e-03 2.598688e-03 4.050693e-03 2.707666e-03 3.652028e-03 3.068970e-03 3.685686e-03 2.453155e-03 3.680415e-03 2.672323e-03 3.190463e-03 3.210263e-03 3.050172e-03 3.065271e-03 3.318152e-03 3.346919e-03 2.800975e-03 3.811817e-03 2.791348e-03 3.549939e-03 3.252452e-03 3.522863e-03 2.877926e-03 3.862933e-03 2.872908e-03 3.548875e-03 3.301105e-03 3.766319e-03 2.914775e-03 4.192218e-03 2.889302e-03 3.695988e-03
<VARIANCE> 75
 1.347055e+00 1.339448e+00 1.345939e+00 1.336073e+00 1.340905e+00 1.333053e+00 1.336749e+00 1.327269e+00 1.334866e+00 1.323934e+00 1.328075e+00 1.320082e+00 1.324779e+00 1.314726e+00 1.324726e+00 1.313216e+00 1.324483e+00 1.326729e+00 1.340852e+00 1.337297e+00 1.353157e+00 1.344748e+00 1.354281e+00 1.347700e+00 1.355206e+00 6.830572e-01 6.941684e-01 6.820620e-01 6.897621e-01 6.828210e-01 6.887211e-01 6.772732e-01 6.895368e-01 6.758913e-01 6.842647e-01 6.762787e-01 6.827182e-01 6.710593e-01 6.839234e-01 6.703217e-01 6.802204e-01 6.740617e-01 6.872666e-01 6.805136e-01 6.981001e-01 6.860521e-01 6.976379e-01 6.897195e-01 6.992118e-01 6.866651e-01 5.456847e+00 5.439151e+00 5.437139e+00 5.419954e+00 5.417924e+00 5.393109e+00 5.390078e+00 5.367397e+00 5.367231e+00 5.353509e+00 5.348264e+00 5.329003e+00 5.333387e+00 5.318292e+00 5.322446e+00 5.315312e+00 5.338394e+00 5.373236e+00 5.415373e+00 5.416725e+00 5.432550e+00 5.434401e+00 5.440035e+00 5.428756e+00 5.431812e+00
<GCONST> 1.776906e+02
<STREAM> 2
<NUMMIXES> 2
<MIXTURE> 1 5.000000e-01
<MEAN> 1
 4.268963e+00
<VARIANCE> 1
 1.055351e+00
<GCONST> 1.891750e+00
<MIXTURE> 2 5.000000e-01
<MEAN> 0
<VARIANCE> 0
<GCONST> 0.000000e+00
<STREAM> 3
<NUMMIXES> 2
<MIXTURE> 1 5.000000e-01
<MEAN> 1
 8.303641e-03
<VARIANCE> 1
 3.538144e-02
<GCONST> -1.503691e+00
<MIXTURE> 2 5.000000e-01
<MEAN> 0
<VARIANCE> 0
<GCONST> 0.000000e+00
<STREAM> 4
<NUMMIXES> 2
<MIXTURE> 1 5.000000e-01
<MEAN> 1
 -4.350823e+06
<VARIANCE> 1
 8.699753e+16
<GCONST> 4.084253e+01
<MIXTURE> 2 5.000000e-01
<MEAN> 0
<VARIANCE> 0
<GCONST> 0.000000e+00
<STATE> 3
<STREAM> 1
<MEAN> 75
 2.437025e-01 2.437811e-01 2.438416e-01 2.427483e-01 2.424347e-01 2.412053e-01 2.416160e-01 2.404205e-01 2.404671e-01 2.399707e-01 2.392434e-01 2.386675e-01 2.388938e-01 2.381842e-01 2.377658e-01 2.377682e-01 2.373862e-01 2.388586e-01 2.395920e-01 2.398827e-01 2.398811e-01 2.407778e-01 2.396190e-01 2.400042e-01 2.389861e-01 -7.946459e-04 -2.021979e-04 2.131090e-03 1.050957e-03 2.322382e-03 1.704675e-03 2.800538e-03 1.727819e-03 3.206203e-03 1.734620e-03 2.942375e-03 2.002218e-03 3.202356e-03 2.182914e-03 3.764750e-03 2.268789e-03 3.388327e-03 2.608810e-03 3.609279e-03 2.598688e-03 4.050693e-03 2.707666e-03 3.652028e-03 3.068970e-03 3.685686e-03 2.453155e-03 3.680415e-03 2.672323e-03 3.190463e-03 3.210263e-03 3.050172e-03 3.065271e-03 3.318152e-03 3.346919e-03 2.800975e-03 3.811817e-03 2.791348e-03 3.549939e-03 3.252452e-03 3.522863e-03 2.877926e-03 3.862933e-03 2.872908e-03 3.548875e-03 3.301105e-03 3.766319e-03 2.914775e-03 4.192218e-03 2.889302e-03 3.695988e-03
<VARIANCE> 75
 1.347055e+00 1.339448e+00 1.345939e+00 1.336073e+00 1.340905e+00 1.333053e+00 1.336749e+00 1.327269e+00 1.334866e+00 1.323934e+00 1.328075e+00 1.320082e+00 1.324779e+00 1.314726e+00 1.324726e+00 1.313216e+00 1.324483e+00 1.326729e+00 1.340852e+00 1.337297e+00 1.353157e+00 1.344748e+00 1.354281e+00 1.347700e+00 1.355206e+00 6.830572e-01 6.941684e-01 6.820620e-01 6.897621e-01 6.828210e-01 6.887211e-01 6.772732e-01 6.895368e-01 6.758913e-01 6.842647e-01 6.762787e-01 6.827182e-01 6.710593e-01 6.839234e-01 6.703217e-01 6.802204e-01 6.740617e-01 6.872666e-01 6.805136e-01 6.981001e-01 6.860521e-01 6.976379e-01 6.897195e-01 6.992118e-01 6.866651e-01 5.456847e+00 5.439151e+00 5.437139e+00 5.419954e+00 5.417924e+00 5.393109e+00 5.390078e+00 5.367397e+00 5.367231e+00 5.353509e+00 5.348264e+00 5.329003e+00 5.333387e+00 5.318292e+00 5.322446e+00 5.315312e+00 5.338394e+00 5.373236e+00 5.415373e+00 5.416725e+00 5.432550e+00 5.434401e+00 5.440035e+00 5.428756e+00 5.431812e+00
<GCONST> 1.776906e+02
<STREAM> 2
<NUMMIXES> 2
<MIXTURE> 1 5.000000e-01
<MEAN> 1
 4.268963e+00
<VARIANCE> 1
 1.055351e+00
<GCONST> 1.891750e+00
<MIXTURE> 2 5.000000e-01
<MEAN> 0
<VARIANCE> 0
<GCONST> 0.000000e+00
<STREAM> 3
<NUMMIXES> 2
<MIXTURE> 1 5.000000e-01
<MEAN> 1
 8.303641e-03
<VARIANCE> 1
 3.538144e-02
<GCONST> -1.503691e+00
<MIXTURE> 2 5.000000e-01
<MEAN> 0
<VARIANCE> 0
<GCONST> 0.000000e+00
<STREAM> 4
<NUMMIXES> 2
<MIXTURE> 1 5.000000e-01
<MEAN> 1
 -4.350823e+06
<VARIANCE> 1
 8.699753e+16
<GCONST> 4.084253e+01
<MIXTURE> 2 5.000000e-01
<MEAN> 0
<VARIANCE> 0
<GCONST> 0.000000e+00
<STATE> 4
<STREAM> 1
<MEAN> 75
 2.437025e-01 2.437811e-01 2.438416e-01 2.427483e-01 2.424347e-01 2.412053e-01 2.416160e-01 2.404205e-01 2.404671e-01 2.399707e-01 2.392434e-01 2.386675e-01 2.388938e-01 2.381842e-01 2.377658e-01 2.377682e-01 2.373862e-01 2.388586e-01 2.395920e-01 2.398827e-01 2.398811e-01 2.407778e-01 2.396190e-01 2.400042e-01 2.389861e-01 -7.946459e-04 -2.021979e-04 2.131090e-03 1.050957e-03 2.322382e-03 1.704675e-03 2.800538e-03 1.727819e-03 3.206203e-03 1.734620e-03 2.942375e-03 2.002218e-03 3.202356e-03 2.182914e-03 3.764750e-03 2.268789e-03 3.388327e-03 2.608810e-03 3.609279e-03 2.598688e-03 4.050693e-03 2.707666e-03 3.652028e-03 3.068970e-03 3.685686e-03 2.453155e-03 3.680415e-03 2.672323e-03 3.190463e-03 3.210263e-03 3.050172e-03 3.065271e-03 3.318152e-03 3.346919e-03 2.800975e-03 3.811817e-03 2.791348e-03 3.549939e-03 3.252452e-03 3.522863e-03 2.877926e-03 3.862933e-03 2.872908e-03 3.548875e-03 3.301105e-03 3.766319e-03 2.914775e-03 4.192218e-03 2.889302e-03 3.695988e-03
<VARIANCE> 75
 1.347055e+00 1.339448e+00 1.345939e+00 1.336073e+00 1.340905e+00 1.333053e+00 1.336749e+00 1.327269e+00 1.334866e+00 1.323934e+00 1.328075e+00 1.320082e+00 1.324779e+00 1.314726e+00 1.324726e+00 1.313216e+00 1.324483e+00 1.326729e+00 1.340852e+00 1.337297e+00 1.353157e+00 1.344748e+00 1.354281e+00 1.347700e+00 1.355206e+00 6.830572e-01 6.941684e-01 6.820620e-01 6.897621e-01 6.828210e-01 6.887211e-01 6.772732e-01 6.895368e-01 6.758913e-01 6.842647e-01 6.762787e-01 6.827182e-01 6.710593e-01 6.839234e-01 6.703217e-01 6.802204e-01 6.740617e-01 6.872666e-01 6.805136e-01 6.981001e-01 6.860521e-01 6.976379e-01 6.897195e-01 6.992118e-01 6.866651e-01 5.456847e+00 5.439151e+00 5.437139e+00 5.419954e+00 5.417924e+00 5.393109e+00 5.390078e+00 5.367397e+00 5.367231e+00 5.353509e+00 5.348264e+00 5.329003e+00 5.333387e+00 5.318292e+00 5.322446e+00 5.315312e+00 5.338394e+00 5.373236e+00 5.415373e+00 5.416725e+00 5.432550e+00 5.434401e+00 5.440035e+00 5.428756e+00 5.431812e+00
<GCONST> 1.776906e+02
<STREAM> 2
<NUMMIXES> 2
<MIXTURE> 1 5.000000e-01
<MEAN> 1
 4.268963e+00
<VARIANCE> 1
 1.055351e+00
<GCONST> 1.891750e+00
<MIXTURE> 2 5.000000e-01
<MEAN> 0
<VARIANCE> 0
<GCONST> 0.000000e+00
<STREAM> 3
<NUMMIXES> 2
<MIXTURE> 1 5.000000e-01
<MEAN> 1
 8.303641e-03
<VARIANCE> 1
 3.538144e-02
<GCONST> -1.503691e+00
<MIXTURE> 2 5.000000e-01
<MEAN> 0
<VARIANCE> 0
<GCONST> 0.000000e+00
<STREAM> 4
<NUMMIXES> 2
<MIXTURE> 1 5.000000e-01
<MEAN> 1
 -4.350823e+06
<VARIANCE> 1
 8.699753e+16
<GCONST> 4.084253e+01
<MIXTURE> 2 5.000000e-01
<MEAN> 0
<VARIANCE> 0
<GCONST> 0.000000e+00
<STATE> 5
<STREAM> 1
<MEAN> 75
 2.437025e-01 2.437811e-01 2.438416e-01 2.427483e-01 2.424347e-01 2.412053e-01 2.416160e-01 2.404205e-01 2.404671e-01 2.399707e-01 2.392434e-01 2.386675e-01 2.388938e-01 2.381842e-01 2.377658e-01 2.377682e-01 2.373862e-01 2.388586e-01 2.395920e-01 2.398827e-01 2.398811e-01 2.407778e-01 2.396190e-01 2.400042e-01 2.389861e-01 -7.946459e-04 -2.021979e-04 2.131090e-03 1.050957e-03 2.322382e-03 1.704675e-03 2.800538e-03 1.727819e-03 3.206203e-03 1.734620e-03 2.942375e-03 2.002218e-03 3.202356e-03 2.182914e-03 3.764750e-03 2.268789e-03 3.388327e-03 2.608810e-03 3.609279e-03 2.598688e-03 4.050693e-03 2.707666e-03 3.652028e-03 3.068970e-03 3.685686e-03 2.453155e-03 3.680415e-03 2.672323e-03 3.190463e-03 3.210263e-03 3.050172e-03 3.065271e-03 3.318152e-03 3.346919e-03 2.800975e-03 3.811817e-03 2.791348e-03 3.549939e-03 3.252452e-03 3.522863e-03 2.877926e-03 3.862933e-03 2.872908e-03 3.548875e-03 3.301105e-03 3.766319e-03 2.914775e-03 4.192218e-03 2.889302e-03 3.695988e-03
<VARIANCE> 75
 1.347055e+00 1.339448e+00 1.345939e+00 1.336073e+00 1.340905e+00 1.333053e+00 1.336749e+00 1.327269e+00 1.334866e+00 1.323934e+00 1.328075e+00 1.320082e+00 1.324779e+00 1.314726e+00 1.324726e+00 1.313216e+00 1.324483e+00 1.326729e+00 1.340852e+00 1.337297e+00 1.353157e+00 1.344748e+00 1.354281e+00 1.347700e+00 1.355206e+00 6.830572e-01 6.941684e-01 6.820620e-01 6.897621e-01 6.828210e-01 6.887211e-01 6.772732e-01 6.895368e-01 6.758913e-01 6.842647e-01 6.762787e-01 6.827182e-01 6.710593e-01 6.839234e-01 6.703217e-01 6.802204e-01 6.740617e-01 6.872666e-01 6.805136e-01 6.981001e-01 6.860521e-01 6.976379e-01 6.897195e-01 6.992118e-01 6.866651e-01 5.456847e+00 5.439151e+00 5.437139e+00 5.419954e+00 5.417924e+00 5.393109e+00 5.390078e+00 5.367397e+00 5.367231e+00 5.353509e+00 5.348264e+00 5.329003e+00 5.333387e+00 5.318292e+00 5.322446e+00 5.315312e+00 5.338394e+00 5.373236e+00 5.415373e+00 5.416725e+00 5.432550e+00 5.434401e+00 5.440035e+00 5.428756e+00 5.431812e+00
<GCONST> 1.776906e+02
<STREAM> 2
<NUMMIXES> 2
<MIXTURE> 1 5.000000e-01
<MEAN> 1
 4.268963e+00
<VARIANCE> 1
 1.055351e+00
<GCONST> 1.891750e+00
<MIXTURE> 2 5.000000e-01
<MEAN> 0
<VARIANCE> 0
<GCONST> 0.000000e+00
<STREAM> 3
<NUMMIXES> 2
<MIXTURE> 1 5.000000e-01
<MEAN> 1
 8.303641e-03
<VARIANCE> 1
 3.538144e-02
<GCONST> -1.503691e+00
<MIXTURE> 2 5.000000e-01
<MEAN> 0
<VARIANCE> 0
<GCONST> 0.000000e+00
<STREAM> 4
<NUMMIXES> 2
<MIXTURE> 1 5.000000e-01
<MEAN> 1
 -4.350823e+06
<VARIANCE> 1
 8.699753e+16
<GCONST> 4.084253e+01
<MIXTURE> 2 5.000000e-01
<MEAN> 0
<VARIANCE> 0
<GCONST> 0.000000e+00
<STATE> 6
<STREAM> 1
<MEAN> 75
 2.437025e-01 2.437811e-01 2.438416e-01 2.427483e-01 2.424347e-01 2.412053e-01 2.416160e-01 2.404205e-01 2.404671e-01 2.399707e-01 2.392434e-01 2.386675e-01 2.388938e-01 2.381842e-01 2.377658e-01 2.377682e-01 2.373862e-01 2.388586e-01 2.395920e-01 2.398827e-01 2.398811e-01 2.407778e-01 2.396190e-01 2.400042e-01 2.389861e-01 -7.946459e-04 -2.021979e-04 2.131090e-03 1.050957e-03 2.322382e-03 1.704675e-03 2.800538e-03 1.727819e-03 3.206203e-03 1.734620e-03 2.942375e-03 2.002218e-03 3.202356e-03 2.182914e-03 3.764750e-03 2.268789e-03 3.388327e-03 2.608810e-03 3.609279e-03 2.598688e-03 4.050693e-03 2.707666e-03 3.652028e-03 3.068970e-03 3.685686e-03 2.453155e-03 3.680415e-03 2.672323e-03 3.190463e-03 3.210263e-03 3.050172e-03 3.065271e-03 3.318152e-03 3.346919e-03 2.800975e-03 3.811817e-03 2.791348e-03 3.549939e-03 3.252452e-03 3.522863e-03 2.877926e-03 3.862933e-03 2.872908e-03 3.548875e-03 3.301105e-03 3.766319e-03 2.914775e-03 4.192218e-03 2.889302e-03 3.695988e-03
<VARIANCE> 75
 1.347055e+00 1.339448e+00 1.345939e+00 1.336073e+00 1.340905e+00 1.333053e+00 1.336749e+00 1.327269e+00 1.334866e+00 1.323934e+00 1.328075e+00 1.320082e+00 1.324779e+00 1.314726e+00 1.324726e+00 1.313216e+00 1.324483e+00 1.326729e+00 1.340852e+00 1.337297e+00 1.353157e+00 1.344748e+00 1.354281e+00 1.347700e+00 1.355206e+00 6.830572e-01 6.941684e-01 6.820620e-01 6.897621e-01 6.828210e-01 6.887211e-01 6.772732e-01 6.895368e-01 6.758913e-01 6.842647e-01 6.762787e-01 6.827182e-01 6.710593e-01 6.839234e-01 6.703217e-01 6.802204e-01 6.740617e-01 6.872666e-01 6.805136e-01 6.981001e-01 6.860521e-01 6.976379e-01 6.897195e-01 6.992118e-01 6.866651e-01 5.456847e+00 5.439151e+00 5.437139e+00 5.419954e+00 5.417924e+00 5.393109e+00 5.390078e+00 5.367397e+00 5.367231e+00 5.353509e+00 5.348264e+00 5.329003e+00 5.333387e+00 5.318292e+00 5.322446e+00 5.315312e+00 5.338394e+00 5.373236e+00 5.415373e+00 5.416725e+00 5.432550e+00 5.434401e+00 5.440035e+00 5.428756e+00 5.431812e+00
<GCONST> 1.776906e+02
<STREAM> 2
<NUMMIXES> 2
<MIXTURE> 1 5.000000e-01
<MEAN> 1
 4.268963e+00
<VARIANCE> 1
 1.055351e+00
<GCONST> 1.891750e+00
<MIXTURE> 2 5.000000e-01
<MEAN> 0
<VARIANCE> 0
<GCONST> 0.000000e+00
<STREAM> 3
<NUMMIXES> 2
<MIXTURE> 1 5.000000e-01
<MEAN> 1
 8.303641e-03
<VARIANCE> 1
 3.538144e-02
<GCONST> -1.503691e+00
<MIXTURE> 2 5.000000e-01
<MEAN> 0
<VARIANCE> 0
<GCONST> 0.000000e+00
<STREAM> 4
<NUMMIXES> 2
<MIXTURE> 1 5.000000e-01
<MEAN> 1
 -4.350823e+06
<VARIANCE> 1
 8.699753e+16
<GCONST> 4.084253e+01
<MIXTURE> 2 5.000000e-01
<MEAN> 0
<VARIANCE> 0
<GCONST> 0.000000e+00
<TRANSP> 7
 0.000000e+00 1.000000e+00 0.000000e+00 0.000000e+00 0.000000e+00 0.000000e+00 0.000000e+00
 0.000000e+00 6.000000e-01 4.000000e-01 0.000000e+00 0.000000e+00 0.000000e+00 0.000000e+00
 0.000000e+00 0.000000e+00 6.000000e-01 4.000000e-01 0.000000e+00 0.000000e+00 0.000000e+00
 0.000000e+00 0.000000e+00 0.000000e+00 6.000000e-01 4.000000e-01 0.000000e+00 0.000000e+00
 0.000000e+00 0.000000e+00 0.000000e+00 0.000000e+00 6.000000e-01 4.000000e-01 0.000000e+00
 0.000000e+00 0.000000e+00 0.000000e+00 0.000000e+00 0.000000e+00 6.000000e-01 4.000000e-01
 0.000000e+00 0.000000e+00 0.000000e+00 0.000000e+00 0.000000e+00 0.000000e+00 0.000000e+00
<ENDHMM>"
done
