~o
<STREAMINFO> 4 75 1 1 1
<MSDINFO> 4 0 1 1 1
<VECSIZE> 78<NULLD><USER><DIAGC>
~h "#"
<BEGINHMM>
<NUMSTATES> 7
<STATE> 2
<STREAM> 1
<MEAN> 75
 4.526976e-01 5.332659e-01 5.434247e-01 5.170529e-01 4.498174e-01 3.097954e-01 2.534515e-01 2.334240e-01 2.054463e-01 1.924271e-01 1.717304e-01 1.602823e-01 1.475333e-01 1.387727e-01 1.232276e-01 1.194956e-01 1.114806e-01 1.183497e-01 1.146789e-01 1.182905e-01 1.224738e-01 1.329069e-01 1.507895e-01 1.660614e-01 2.278082e-01 -1.219565e-01 -8.693341e-02 6.233541e-03 3.118142e-02 1.057704e-01 1.040530e-01 4.593227e-02 3.339068e-02 2.889434e-02 2.505745e-02 2.574309e-02 1.921006e-02 1.819011e-02 1.906749e-02 1.556090e-02 9.543166e-03 4.426562e-03 3.181734e-03 7.083717e-03 -6.554403e-03 5.538998e-03 -2.361463e-02 -3.659552e-03 -4.451245e-02 -6.307554e-02 -2.227127e-02 1.005963e-02 -4.081390e-02 -3.417859e-02 -7.744744e-02 8.313939e-02 3.708103e-02 -5.219176e-03 1.911254e-02 -1.194001e-02 1.581522e-02 -2.323882e-03 1.026483e-02 -6.991124e-03 1.588229e-02 -4.396959e-03 1.485825e-02 -8.168837e-03 7.079184e-03 5.024694e-03 9.428853e-03 8.854776e-03 1.429674e-02 4.681847e-02 5.595775e-02
<VARIANCE> 75
 1.047337e+00 9.461406e-01 9.011853e-01 6.921477e-01 5.120401e-01 1.908223e-01 1.434525e-01 1.215644e-01 1.133414e-01 1.039572e-01 1.024610e-01 1.051920e-01 1.074182e-01 1.013531e-01 1.077832e-01 1.063021e-01 1.102129e-01 1.121297e-01 1.259765e-01 1.254916e-01 1.719979e-01 1.652048e-01 2.171721e-01 2.266835e-01 4.469880e-01 5.985128e-01 7.510202e-01 5.594203e-01 4.289980e-01 2.264121e-01 1.535179e-01 6.931324e-02 5.885835e-02 4.718464e-02 4.763147e-02 4.722601e-02 4.449683e-02 4.168402e-02 4.513594e-02 4.060765e-02 4.131689e-02 4.170778e-02 4.532738e-02 5.894726e-02 1.390781e-01 1.593278e-01 2.113407e-01 1.699915e-01 2.908998e-01 3.422022e-01 3.323507e+00 3.532995e+00 3.389329e+00 2.733675e+00 1.728050e+00 7.333848e-01 6.086893e-01 4.982944e-01 4.671350e-01 4.478651e-01 4.319184e-01 4.226678e-01 4.216540e-01 4.009350e-01 4.007559e-01 3.952385e-01 4.014660e-01 4.174520e-01 4.479107e-01 4.759878e-01 5.789047e-01 6.400633e-01 7.902854e-01 1.018150e+00 1.847286e+00
<GCONST> 3.546417e+01
<STREAM> 2
<NUMMIXES> 2
<MIXTURE> 1 5.061854e-02
<MEAN> 1
 6.652368e-01
<VARIANCE> 1
 3.111209e+00
<GCONST> 2.972888e+00
<MIXTURE> 2 9.493768e-01
<MEAN> 0
<VARIANCE> 0
<GCONST> 0.000000e+00
<STREAM> 3
<NUMMIXES> 2
<MIXTURE> 1 4.966766e-02
<MEAN> 1
 1.128461e-01
<VARIANCE> 1
 3.357658e+00
<GCONST> 3.049121e+00
<MIXTURE> 2 9.503275e-01
<MEAN> 0
<VARIANCE> 0
<GCONST> 0.000000e+00
<STREAM> 4
<NUMMIXES> 2
<MIXTURE> 1 4.966783e-02
<MEAN> 1
 3.623862e-01
<VARIANCE> 1
 8.940651e+14
<GCONST> 3.626468e+01
<MIXTURE> 2 9.503275e-01
<MEAN> 0
<VARIANCE> 0
<GCONST> 0.000000e+00
<STATE> 3
<STREAM> 1
<MEAN> 75
 1.001179e-01 8.910240e-02 9.616578e-02 1.359604e-01 2.276938e-01 3.891937e-01 4.646848e-01 4.873485e-01 5.205673e-01 4.784872e-01 4.819954e-01 4.777399e-01 3.413553e-01 2.477359e-01 2.265868e-01 1.946622e-01 1.770396e-01 1.525366e-01 1.442471e-01 1.238367e-01 1.279341e-01 1.062470e-01 1.042143e-01 9.199812e-02 6.906362e-02 1.621931e-02 1.198640e-03 -2.426398e-02 -6.448475e-02 -1.312192e-01 -1.176998e-01 -5.458540e-02 -3.186579e-02 -2.539812e-03 1.464363e-02 -6.706982e-03 6.999253e-02 1.118618e-01 5.854086e-02 2.652467e-02 2.929484e-02 2.795073e-02 1.878241e-02 2.843963e-02 2.394879e-03 1.739197e-02 2.289158e-02 8.866944e-03 1.543178e-02 1.095174e-03 1.100407e-02 1.402059e-02 3.955326e-02 5.229624e-02 7.764007e-02 -8.262543e-02 -4.419080e-02 7.799566e-03 -6.866364e-02 4.220456e-02 -3.474693e-03 -1.364606e-01 4.548016e-02 6.779835e-02 -7.878227e-03 1.233449e-02 -7.854536e-03 1.942353e-02 -2.027087e-03 1.678564e-02 3.686547e-05 1.989478e-02 2.681639e-03 2.337490e-02 -1.787529e-02
<VARIANCE> 75
 3.818922e-01 3.579034e-01 3.773866e-01 4.836219e-01 7.426717e-01 1.041285e+00 1.050902e+00 1.006401e+00 9.779208e-01 6.814747e-01 6.318447e-01 5.892747e-01 2.805618e-01 1.492887e-01 1.376231e-01 1.281934e-01 1.468485e-01 1.758393e-01 2.265499e-01 2.340865e-01 2.599859e-01 2.772612e-01 3.148410e-01 4.530903e-01 6.253153e-01 2.748424e-01 2.246062e-01 2.247570e-01 2.982386e-01 4.137504e-01 4.945197e-01 5.618653e-01 5.692003e-01 4.694134e-01 4.529092e-01 3.596480e-01 2.364440e-01 1.657565e-01 8.845030e-02 5.836157e-02 5.553292e-02 8.107206e-02 1.759930e-01 2.027614e-01 2.716742e-01 1.688995e-01 1.601775e-01 1.704853e-01 1.805588e-01 2.287490e-01 1.395061e+00 1.360540e+00 1.514839e+00 2.112111e+00 3.211310e+00 4.131974e+00 4.249613e+00 4.244191e+00 3.945471e+00 3.046104e+00 2.960429e+00 2.380637e+00 1.180659e+00 7.409499e-01 6.423197e-01 6.228741e-01 6.710235e-01 8.219921e-01 9.782827e-01 1.012010e+00 1.088410e+00 1.110838e+00 1.160222e+00 1.248101e+00 1.336039e+00
<GCONST> 8.672404e+01
<STREAM> 2
<NUMMIXES> 2
<MIXTURE> 1 1.829696e-01
<MEAN> 1
 2.783955e+00
<VARIANCE> 1
 4.500796e+00
<GCONST> 3.342131e+00
<MIXTURE> 2 8.170233e-01
<MEAN> 0
<VARIANCE> 0
<GCONST> 0.000000e+00
<STREAM> 3
<NUMMIXES> 2
<MIXTURE> 1 1.737758e-01
<MEAN> 1
 9.301120e-02
<VARIANCE> 1
 3.194401e-01
<GCONST> 6.966916e-01
<MIXTURE> 2 8.262176e-01
<MEAN> 0
<VARIANCE> 0
<GCONST> 0.000000e+00
<STREAM> 4
<NUMMIXES> 2
<MIXTURE> 1 1.737758e-01
<MEAN> 1
 6.183915e-02
<VARIANCE> 1
 8.940651e+14
<GCONST> 3.626468e+01
<MIXTURE> 2 8.262176e-01
<MEAN> 0
<VARIANCE> 0
<GCONST> 0.000000e+00
<STATE> 4
<STREAM> 1
<MEAN> 75
 1.485431e-01 1.310585e-01 1.110139e-01 1.010512e-01 8.513698e-02 7.799534e-02 6.074590e-02 5.415872e-02 5.949638e-02 9.538633e-02 1.108016e-01 1.120650e-01 2.230882e-01 2.797447e-01 3.125466e-01 3.288726e-01 3.540669e-01 3.722101e-01 3.853939e-01 3.867509e-01 3.750048e-01 3.945616e-01 3.341687e-01 2.277671e-01 1.826369e-01 1.464623e-02 2.508366e-02 7.625705e-03 1.871831e-02 3.241457e-03 1.400585e-02 1.824036e-02 -1.309034e-02 -9.986179e-03 -3.593663e-02 -6.119050e-04 -6.420616e-02 -7.597826e-02 -5.637219e-02 -9.028977e-03 -2.473544e-02 -3.857206e-03 -9.530345e-03 5.630201e-03 2.400266e-02 4.313078e-03 3.576876e-02 8.252169e-02 9.843630e-02 3.967327e-02 2.918218e-02 -5.348247e-03 2.213866e-02 -6.412458e-03 2.113065e-02 -7.741336e-03 1.571844e-02 6.884947e-03 6.321650e-02 -8.934624e-04 2.504762e-02 1.302718e-01 -9.704344e-04 -2.861574e-03 3.833073e-02 3.003297e-02 4.761305e-02 3.480133e-02 2.435695e-02 5.356401e-02 4.351524e-02 -6.529242e-03 -4.088999e-02 1.007335e-01 6.899240e-02
<VARIANCE> 75
 3.108940e-01 2.895387e-01 2.853076e-01 2.708561e-01 2.659296e-01 2.588217e-01 2.685310e-01 2.580987e-01 2.839806e-01 4.684304e-01 5.201812e-01 5.140546e-01 7.984782e-01 8.585639e-01 8.956680e-01 8.679824e-01 9.321249e-01 1.046446e+00 1.214665e+00 1.090537e+00 1.199988e+00 1.156772e+00 1.140134e+00 5.092542e-01 3.832570e-01 1.654150e-01 1.634376e-01 1.462483e-01 1.460780e-01 1.410338e-01 1.456911e-01 1.867245e-01 3.116395e-01 3.147816e-01 3.965161e-01 4.201977e-01 5.502411e-01 5.192433e-01 6.922737e-01 6.253927e-01 7.171338e-01 6.705128e-01 7.268981e-01 6.520733e-01 7.166943e-01 6.359181e-01 6.460676e-01 4.607787e-01 4.448693e-01 2.174600e-01 1.347867e+00 1.234963e+00 1.177362e+00 1.137074e+00 1.115380e+00 1.090594e+00 1.071774e+00 1.055968e+00 1.312999e+00 1.870623e+00 1.944824e+00 2.216614e+00 3.134886e+00 3.398588e+00 3.555335e+00 3.581786e+00 3.879346e+00 4.246671e+00 4.517127e+00 4.320791e+00 4.398118e+00 4.322369e+00 3.528369e+00 1.810875e+00 1.657728e+00
<GCONST> 1.170768e+02
<STREAM> 2
<NUMMIXES> 2
<MIXTURE> 1 3.715701e-01
<MEAN> 1
 2.232720e+00
<VARIANCE> 1
 4.607155e+00
<GCONST> 3.365488e+00
<MIXTURE> 2 6.284229e-01
<MEAN> 0
<VARIANCE> 0
<GCONST> 0.000000e+00
<STREAM> 3
<NUMMIXES> 2
<MIXTURE> 1 3.581917e-01
<MEAN> 1
 7.570785e-02
<VARIANCE> 1
 8.479240e-02
<GCONST> -6.296723e-01
<MIXTURE> 2 6.418016e-01
<MEAN> 0
<VARIANCE> 0
<GCONST> 0.000000e+00
<STREAM> 4
<NUMMIXES> 2
<MIXTURE> 1 3.581913e-01
<MEAN> 1
 -1.078884e+07
<VARIANCE> 1
 2.156604e+17
<GCONST> 4.175036e+01
<MIXTURE> 2 6.418019e-01
<MEAN> 0
<VARIANCE> 0
<GCONST> 0.000000e+00
<STATE> 5
<STREAM> 1
<MEAN> 75
 3.469214e-01 3.384908e-01 3.615291e-01 3.532150e-01 3.418702e-01 3.315310e-01 2.446754e-01 1.786285e-01 1.640218e-01 1.246248e-01 1.164429e-01 8.736426e-02 9.246288e-02 6.640954e-02 7.252052e-02 6.683899e-02 2.760923e-02 5.389550e-02 4.454429e-02 5.914429e-02 6.863544e-02 7.649848e-02 1.183740e-01 2.451390e-01 2.965962e-01 -1.804223e-04 -9.966269e-04 1.606749e-02 1.359441e-02 2.621905e-02 7.241964e-02 8.272845e-02 7.352880e-02 3.773670e-02 5.064479e-02 2.370152e-02 3.561877e-02 2.609885e-02 3.396669e-02 2.567632e-02 2.957064e-02 2.574996e-02 4.558129e-02 2.974391e-02 2.766192e-02 4.472398e-02 1.969164e-02 -3.568957e-02 -3.561284e-02 2.437809e-02 3.049946e-02 6.736617e-02 4.374431e-02 5.393415e-02 5.962944e-02 -2.850454e-02 9.928656e-02 1.053657e-01 2.727565e-02 5.745163e-02 3.735172e-02 3.864460e-02 2.668899e-02 4.038569e-02 1.855793e-02 3.121655e-02 9.787783e-03 2.123590e-02 3.617734e-02 1.310766e-02 9.017315e-03 6.132719e-02 1.020740e-01 -6.051705e-02 -1.739056e-02
<VARIANCE> 75
 1.280524e+00 1.269923e+00 1.284045e+00 1.258754e+00 1.220987e+00 1.180899e+00 7.426272e-01 5.640348e-01 5.758628e-01 4.957288e-01 4.790850e-01 4.583526e-01 4.341292e-01 3.914749e-01 4.233989e-01 4.788388e-01 6.533742e-01 5.312749e-01 5.301509e-01 6.140778e-01 7.034937e-01 6.298919e-01 7.916130e-01 1.337988e+00 1.425602e+00 7.975242e-01 8.788781e-01 8.046101e-01 8.427219e-01 7.886891e-01 6.924722e-01 5.261425e-01 3.792447e-01 2.976623e-01 2.987073e-01 2.581734e-01 2.658852e-01 2.346613e-01 2.448637e-01 2.097358e-01 2.307295e-01 2.222965e-01 2.996960e-01 2.730333e-01 3.224280e-01 3.221579e-01 4.002399e-01 5.319463e-01 6.066281e-01 7.220689e-01 5.140787e+00 5.116183e+00 5.140736e+00 5.001444e+00 4.782919e+00 4.208993e+00 2.751632e+00 2.295784e+00 2.052264e+00 1.840455e+00 1.728826e+00 1.612783e+00 1.516755e+00 1.404357e+00 1.360972e+00 1.306266e+00 1.314572e+00 1.302530e+00 1.443344e+00 1.756826e+00 1.861066e+00 2.002231e+00 2.954838e+00 4.695448e+00 4.873789e+00
<GCONST> 1.290403e+02
<STREAM> 2
<NUMMIXES> 2
<MIXTURE> 1 6.270963e-01
<MEAN> 1
 2.137581e+00
<VARIANCE> 1
 4.864909e+00
<GCONST> 3.419925e+00
<MIXTURE> 2 3.728981e-01
<MEAN> 0
<VARIANCE> 0
<GCONST> 0.000000e+00
<STREAM> 3
<NUMMIXES> 2
<MIXTURE> 1 6.186335e-01
<MEAN> 1
 4.311961e-02
<VARIANCE> 1
 1.511159e-01
<GCONST> -5.183125e-02
<MIXTURE> 2 3.813609e-01
<MEAN> 0
<VARIANCE> 0
<GCONST> 0.000000e+00
<STREAM> 4
<NUMMIXES> 2
<MIXTURE> 1 6.186337e-01
<MEAN> 1
 2.621129e-02
<VARIANCE> 1
 8.940651e+14
<GCONST> 3.626468e+01
<MIXTURE> 2 3.813609e-01
<MEAN> 0
<VARIANCE> 0
<GCONST> 0.000000e+00
<STATE> 6
<STREAM> 1
<MEAN> 75
 1.003166e-01 9.386228e-02 8.053693e-02 8.040565e-02 9.196413e-02 9.044790e-02 2.019458e-01 2.539272e-01 2.579593e-01 2.928963e-01 2.818172e-01 3.027357e-01 2.939625e-01 3.133367e-01 2.819061e-01 2.876007e-01 2.913868e-01 2.441964e-01 2.402086e-01 2.148549e-01 1.990712e-01 1.824635e-01 1.697544e-01 1.539898e-01 1.432303e-01 3.762742e-02 3.488024e-02 3.310496e-02 2.874473e-02 2.179827e-02 -2.652309e-02 -4.840198e-02 -2.223013e-03 1.927895e-02 2.090244e-02 3.088672e-02 3.744580e-02 3.299506e-02 4.485194e-02 4.872436e-02 5.412082e-02 6.087809e-02 5.307271e-02 3.906288e-02 3.254430e-02 3.173535e-02 2.255836e-02 2.043438e-02 1.778702e-02 1.123181e-02 1.129132e-02 5.441507e-03 2.906974e-03 1.250833e-02 1.844674e-03 1.002432e-01 -5.084657e-02 -4.115136e-02 1.029713e-02 -1.827908e-02 5.408346e-03 -5.992058e-03 4.307240e-03 -1.062572e-02 5.200595e-03 -9.108923e-03 2.062526e-02 2.040341e-02 1.838624e-02 -7.204850e-03 2.019648e-02 -8.300651e-03 1.690182e-02 -5.043985e-03 1.577609e-02
<VARIANCE> 75
 6.675951e-01 5.953294e-01 6.517296e-01 5.687326e-01 6.645411e-01 6.514634e-01 1.164182e+00 1.213951e+00 1.288647e+00 1.222996e+00 1.290926e+00 1.209238e+00 1.288355e+00 1.204095e+00 1.291628e+00 1.053198e+00 9.291383e-01 8.858057e-01 8.086303e-01 7.695109e-01 7.382635e-01 6.981358e-01 6.632120e-01 6.308891e-01 6.160154e-01 2.822282e-01 2.796905e-01 2.438476e-01 2.818535e-01 2.648398e-01 4.191248e-01 4.327022e-01 5.717338e-01 5.664166e-01 5.897897e-01 5.616922e-01 5.843758e-01 5.445061e-01 5.733314e-01 5.279792e-01 5.458599e-01 4.831627e-01 4.461316e-01 4.011036e-01 3.895512e-01 3.554221e-01 3.401924e-01 3.218291e-01 3.185493e-01 2.994394e-01 2.111725e+00 1.959798e+00 1.859408e+00 1.831419e+00 2.005097e+00 2.454748e+00 3.941782e+00 4.116263e+00 4.218778e+00 4.218379e+00 4.195483e+00 4.123428e+00 4.163463e+00 4.092752e+00 4.029116e+00 3.861749e+00 3.728111e+00 3.442903e+00 3.266550e+00 3.083128e+00 2.938665e+00 2.782073e+00 2.647704e+00 2.532808e+00 2.468295e+00
<GCONST> 1.400817e+02
<STREAM> 2
<NUMMIXES> 2
<MIXTURE> 1 5.165080e-01
<MEAN> 1
 2.509159e+00
<VARIANCE> 1
 4.953056e+00
<GCONST> 3.437882e+00
<MIXTURE> 2 4.834872e-01
<MEAN> 0
<VARIANCE> 0
<GCONST> 0.000000e+00
<STREAM> 3
<NUMMIXES> 2
<MIXTURE> 1 4.965763e-01
<MEAN> 1
 1.322224e-02
<VARIANCE> 1
 2.636661e-01
<GCONST> 5.048052e-01
<MIXTURE> 2 5.034191e-01
<MEAN> 0
<VARIANCE> 0
<GCONST> 0.000000e+00
<STREAM> 4
<NUMMIXES> 2
<MIXTURE> 1 4.965767e-01
<MEAN> 1
 -5.470906e+06
<VARIANCE> 1
 1.093882e+17
<GCONST> 4.107156e+01
<MIXTURE> 2 5.034187e-01
<MEAN> 0
<VARIANCE> 0
<GCONST> 0.000000e+00
<TRANSP> 7
 0.000000e+00 1.000000e+00 0.000000e+00 0.000000e+00 0.000000e+00 0.000000e+00 0.000000e+00
 0.000000e+00 0.000000e+00 1.000000e+00 0.000000e+00 0.000000e+00 0.000000e+00 0.000000e+00
 0.000000e+00 0.000000e+00 0.000000e+00 1.000000e+00 0.000000e+00 0.000000e+00 0.000000e+00
 0.000000e+00 0.000000e+00 0.000000e+00 0.000000e+00 1.000000e+00 0.000000e+00 0.000000e+00
 0.000000e+00 0.000000e+00 0.000000e+00 0.000000e+00 0.000000e+00 1.000000e+00 0.000000e+00
 0.000000e+00 0.000000e+00 0.000000e+00 0.000000e+00 0.000000e+00 0.000000e+00 1.000000e+00
 0.000000e+00 0.000000e+00 0.000000e+00 0.000000e+00 0.000000e+00 0.000000e+00 0.000000e+00
<ENDHMM>
~h "@"
<BEGINHMM>
<NUMSTATES> 7
<STATE> 2
<STREAM> 1
<MEAN> 75
 1.419514e-02 -1.268061e-02 -1.634885e-02 -3.281331e-02 -2.417445e-02 -2.989700e-02 -2.133079e-02 -2.861154e-02 1.396792e-02 2.315944e-01 3.692125e-01 4.229594e-01 4.848219e-01 5.380623e-01 6.629467e-01 8.210855e-01 9.008100e-01 9.207053e-01 6.704686e-01 2.558101e-01 1.218472e-01 6.147128e-02 6.570429e-03 -9.817690e-03 3.767341e-02 5.180148e-02 1.269651e-02 7.568405e-03 9.269950e-04 -4.228996e-03 -4.092458e-03 -3.049778e-03 -1.979999e-02 -1.313637e-01 -1.765345e-01 -9.400852e-02 -5.553205e-02 -5.378322e-02 -8.329843e-02 -1.376660e-01 -1.153746e-01 -4.540214e-02 1.179334e-01 3.350826e-01 2.756876e-01 9.812428e-02 5.736988e-02 3.467349e-02 -1.737119e-02 -5.386587e-02 5.366480e-02 2.345409e-02 -1.231963e-02 2.408319e-02 -1.460272e-02 1.401256e-02 -1.686530e-02 4.955627e-02 1.711386e-01 -8.509483e-02 -8.805715e-02 7.992193e-03 -1.194361e-02 7.086118e-02 3.552708e-02 -8.143485e-02 -6.924159e-02 -2.688329e-01 -1.556173e-01 2.829618e-01 7.720377e-02 1.040543e-02 4.145019e-02 6.559729e-02 7.422283e-03
<VARIANCE> 75
 4.059050e-01 3.325974e-01 3.307897e-01 3.168657e-01 3.124837e-01 3.273468e-01 3.449126e-01 3.561793e-01 5.308996e-01 1.744792e+00 2.124142e+00 2.275958e+00 2.368776e+00 2.634699e+00 3.089136e+00 3.728012e+00 3.852077e+00 3.911930e+00 2.746205e+00 1.013476e+00 6.157160e-01 5.840591e-01 3.906718e-01 4.025319e-01 6.924194e-01 2.854404e-01 1.523621e-01 1.438285e-01 1.404982e-01 1.446194e-01 1.469986e-01 1.520941e-01 2.017286e-01 5.167997e-01 6.631128e-01 1.044600e+00 1.181870e+00 1.303353e+00 1.492551e+00 1.790917e+00 2.002268e+00 2.228526e+00 1.876507e+00 1.252239e+00 7.806685e-01 3.395785e-01 2.163503e-01 2.150790e-01 2.479841e-01 3.273345e-01 1.907962e+00 1.650707e+00 1.520738e+00 1.458105e+00 1.432311e+00 1.458016e+00 1.489711e+00 1.710538e+00 3.308159e+00 7.058398e+00 8.390081e+00 9.416793e+00 1.026277e+01 1.182973e+01 1.437144e+01 1.701266e+01 1.801429e+01 1.718824e+01 1.112534e+01 5.028527e+00 3.657900e+00 2.867738e+00 2.159413e+00 2.337637e+00 3.319855e+00
<GCONST> 1.532987e+02
<STREAM> 2
<NUMMIXES> 2
<MIXTURE> 1 7.593874e-01
<MEAN> 1
 4.512513e+00
<VARIANCE> 1
 1.055680e-02
<GCONST> -2.713108e+00
<MIXTURE> 2 2.406140e-01
<MEAN> 0
<VARIANCE> 0
<GCONST> 0.000000e+00
<STREAM> 3
<NUMMIXES> 2
<MIXTURE> 1 7.287279e-01
<MEAN> 1
 2.684583e-03
<VARIANCE> 1
 3.553591e-04
<GCONST> -6.104505e+00
<MIXTURE> 2 2.712721e-01
<MEAN> 0
<VARIANCE> 0
<GCONST> 0.000000e+00
<STREAM> 4
<NUMMIXES> 2
<MIXTURE> 1 7.287276e-01
<MEAN> 1
 -8.512508e+06
<VARIANCE> 1
 1.701712e+17
<GCONST> 4.151346e+01
<MIXTURE> 2 2.712723e-01
<MEAN> 0
<VARIANCE> 0
<GCONST> 0.000000e+00
<STATE> 3
<STREAM> 1
<MEAN> 75
 7.998133e-02 -2.377136e-02 -3.574960e-02 -2.719358e-02 -4.337154e-02 -5.350943e-02 -6.158422e-02 -5.355684e-02 -6.843932e-02 -7.615730e-02 -9.234408e-02 -8.881041e-02 -8.369964e-02 -5.072770e-02 -2.267592e-02 2.508023e-02 1.519736e-01 4.300335e-01 1.061269e+00 1.653911e+00 1.797766e+00 1.225306e+00 4.640880e-01 2.032571e-01 8.858457e-02 4.121530e-02 5.509311e-02 -7.413765e-04 1.118403e-03 1.056287e-02 7.156228e-03 -2.900021e-03 3.849505e-04 9.216012e-03 1.049995e-02 3.731669e-03 -6.589556e-03 -2.017098e-02 -3.113381e-02 -3.859477e-02 -8.855395e-02 -2.033596e-01 -4.517723e-01 -6.053216e-01 -3.608291e-01 2.190057e-01 6.691241e-01 5.135237e-01 1.904251e-01 7.003796e-02 -1.161357e-01 8.877476e-02 2.153646e-02 -2.446709e-02 5.358299e-03 2.114038e-03 1.690300e-02 -2.326543e-02 5.685057e-03 -6.630525e-03 2.076309e-02 -7.220069e-04 2.640736e-02 -4.233991e-03 1.929932e-02 7.934528e-02 1.504961e-01 3.460867e-01 -4.799610e-02 -4.526955e-01 -7.143701e-01 -1.909689e-01 5.026804e-01 1.528612e-01 9.629364e-02
<VARIANCE> 75
 9.844718e-01 3.960189e-01 3.176736e-01 3.039832e-01 2.787912e-01 2.551098e-01 2.305629e-01 2.190998e-01 1.929565e-01 1.789480e-01 1.731851e-01 1.869124e-01 2.088008e-01 2.482127e-01 3.232474e-01 5.054992e-01 1.131515e+00 2.419179e+00 4.892007e+00 6.039353e+00 5.870415e+00 3.953132e+00 1.288882e+00 6.350082e-01 5.675609e-01 2.576554e-01 2.728636e-01 1.354742e-01 1.248368e-01 1.161074e-01 1.089683e-01 1.011996e-01 8.771060e-02 8.134963e-02 7.555856e-02 7.592335e-02 8.067246e-02 9.477120e-02 1.192980e-01 1.726885e-01 3.552544e-01 7.418826e-01 1.611343e+00 2.510871e+00 3.652886e+00 3.402650e+00 2.013829e+00 1.089369e+00 3.754239e-01 3.166712e-01 3.910766e+00 2.190513e+00 1.911602e+00 1.679544e+00 1.460880e+00 1.279967e+00 1.149318e+00 1.032401e+00 9.003171e-01 8.284096e-01 8.167993e-01 8.808174e-01 9.638643e-01 1.096734e+00 1.406017e+00 2.478695e+00 5.483758e+00 1.225001e+01 2.406104e+01 3.163696e+01 2.955216e+01 1.746725e+01 6.643854e+00 4.356365e+00 3.528220e+00
<GCONST> 1.196283e+02
<STREAM> 2
<NUMMIXES> 2
<MIXTURE> 1 8.262037e-01
<MEAN> 1
 4.517438e+00
<VARIANCE> 1
 1.055680e-02
<GCONST> -2.713108e+00
<MIXTURE> 2 1.737980e-01
<MEAN> 0
<VARIANCE> 0
<GCONST> 0.000000e+00
<STREAM> 3
<NUMMIXES> 2
<MIXTURE> 1 8.045653e-01
<MEAN> 1
 2.548835e-03
<VARIANCE> 1
 3.553591e-04
<GCONST> -6.104505e+00
<MIXTURE> 2 1.954358e-01
<MEAN> 0
<VARIANCE> 0
<GCONST> 0.000000e+00
<STREAM> 4
<NUMMIXES> 2
<MIXTURE> 1 8.045652e-01
<MEAN> 1
 2.002716e-05
<VARIANCE> 1
 8.940651e+14
<GCONST> 3.626468e+01
<MIXTURE> 2 1.954359e-01
<MEAN> 0
<VARIANCE> 0
<GCONST> 0.000000e+00
<STATE> 4
<STREAM> 1
<MEAN> 75
 3.061214e-01 2.255939e-01 3.123391e-02 -4.463281e-02 -5.608273e-02 -5.612636e-02 -3.840247e-02 -5.656478e-02 -5.555835e-02 -5.551389e-02 -4.736001e-02 -6.444251e-02 -7.122499e-02 -8.715335e-02 -7.878862e-02 -6.693365e-02 -3.898261e-02 -1.025648e-02 -3.132463e-03 1.810953e-02 1.255907e-01 9.257210e-01 1.840636e+00 1.972058e+00 1.308427e+00 1.527067e-01 1.371824e-01 1.338055e-01 4.131286e-02 2.994569e-03 -1.181545e-02 -2.633894e-03 6.338085e-03 -1.835405e-03 -5.475243e-03 3.230363e-03 1.065888e-02 1.051674e-02 2.645465e-03 -1.216054e-02 -2.161386e-02 -2.931774e-02 -1.840498e-02 -1.541023e-02 -6.593162e-02 -4.556324e-01 -8.568478e-01 -5.185916e-01 2.718125e-01 7.256321e-01 1.488193e-01 -1.083740e-01 1.224584e-01 6.648742e-02 1.202248e-02 1.749107e-02 -3.553129e-02 1.744400e-02 -1.292088e-03 6.764643e-03 -2.492377e-02 1.077681e-02 -1.090925e-02 2.589931e-02 3.390854e-03 1.461565e-02 2.337304e-04 -2.172989e-02 1.509909e-02 8.744567e-02 6.921646e-01 1.099694e-01 -7.936298e-01 -8.030080e-01 -1.143899e-01
<VARIANCE> 75
 1.049735e+00 1.204498e+00 4.495676e-01 3.133594e-01 2.969332e-01 2.807688e-01 2.870125e-01 2.842242e-01 2.913417e-01 2.785651e-01 2.451025e-01 2.223591e-01 2.212840e-01 2.362143e-01 2.596946e-01 3.134394e-01 3.436114e-01 4.111888e-01 3.774825e-01 4.888849e-01 9.478921e-01 4.671381e+00 6.651625e+00 6.167629e+00 3.992030e+00 6.099645e-01 3.385178e-01 3.178989e-01 1.387889e-01 1.167710e-01 1.153578e-01 1.170961e-01 1.226182e-01 1.194175e-01 1.151007e-01 1.096058e-01 1.025553e-01 1.008336e-01 1.067833e-01 1.247657e-01 1.350999e-01 1.659006e-01 1.674836e-01 2.166661e-01 3.291338e-01 1.347267e+00 2.092626e+00 3.659043e+00 3.748406e+00 2.185723e+00 6.220788e+00 5.120105e+00 2.586144e+00 2.024799e+00 1.823395e+00 1.724951e+00 1.624964e+00 1.496882e+00 1.416552e+00 1.317846e+00 1.158937e+00 1.038471e+00 1.017041e+00 1.088712e+00 1.192888e+00 1.328762e+00 1.453268e+00 1.582096e+00 1.591008e+00 2.335214e+00 7.319177e+00 2.414660e+01 3.520480e+01 3.163228e+01 1.789251e+01
<GCONST> 1.165011e+02
<STREAM> 2
<NUMMIXES> 2
<MIXTURE> 1 7.847063e-01
<MEAN> 1
 4.518674e+00
<VARIANCE> 1
 1.055680e-02
<GCONST> -2.713108e+00
<MIXTURE> 2 2.152964e-01
<MEAN> 0
<VARIANCE> 0
<GCONST> 0.000000e+00
<STREAM> 3
<NUMMIXES> 2
<MIXTURE> 1 7.614954e-01
<MEAN> 1
 2.431479e-03
<VARIANCE> 1
 3.553591e-04
<GCONST> -6.104505e+00
<MIXTURE> 2 2.385077e-01
<MEAN> 0
<VARIANCE> 0
<GCONST> 0.000000e+00
<STREAM> 4
<NUMMIXES> 2
<MIXTURE> 1 7.614952e-01
<MEAN> 1
 -2.708435e-04
<VARIANCE> 1
 8.940651e+14
<GCONST> 3.626468e+01
<MIXTURE> 2 2.385078e-01
<MEAN> 0
<VARIANCE> 0
<GCONST> 0.000000e+00
<STATE> 5
<STREAM> 1
<MEAN> 75
 1.789513e+00 1.368448e+00 6.741337e-01 2.449532e-01 8.808336e-02 1.521051e-03 -5.174857e-02 -6.018226e-02 -5.434228e-02 -4.020685e-02 -5.120069e-02 -5.385803e-02 -5.716912e-02 -5.046938e-02 -5.794314e-02 -5.865549e-02 -7.018714e-02 -6.243838e-02 -4.617484e-02 -3.537458e-02 -4.423469e-03 1.403373e-02 8.459285e-02 2.351502e-01 9.817076e-01 1.779566e-01 5.655163e-01 5.663127e-01 2.972162e-01 1.229862e-01 6.983649e-02 3.033330e-02 9.122118e-04 -1.070550e-02 -2.957560e-03 5.091108e-03 1.243962e-03 -2.834411e-03 -9.159760e-04 2.639179e-03 4.498495e-03 1.039056e-03 -1.242216e-02 -1.358399e-02 -2.244186e-02 -2.555829e-02 -4.612219e-02 -1.129145e-01 -4.516213e-01 -7.397315e-01 -5.057983e-01 -2.726441e-01 2.680016e-01 2.787510e-01 7.607084e-02 3.723463e-02 4.669354e-02 1.542315e-02 1.007060e-02 -2.362351e-02 7.368679e-03 -1.539756e-05 9.443471e-03 -1.516847e-02 7.619265e-03 -1.065007e-02 1.948404e-02 7.165913e-03 -3.196760e-03 1.996165e-02 -1.081939e-02 5.284351e-02 8.145151e-02 5.956760e-01 -1.948527e-02
<VARIANCE> 75
 5.807377e+00 4.262717e+00 1.989823e+00 6.918005e-01 4.815009e-01 3.944851e-01 3.491998e-01 3.304156e-01 3.352619e-01 3.259751e-01 3.072976e-01 2.895302e-01 2.766813e-01 2.738372e-01 2.684946e-01 2.793711e-01 3.184782e-01 3.361892e-01 3.787480e-01 3.378064e-01 4.277170e-01 4.187347e-01 8.111166e-01 1.431954e+00 4.796245e+00 3.700979e+00 2.345936e+00 1.211679e+00 5.065644e-01 2.145355e-01 1.719457e-01 1.495321e-01 1.439396e-01 1.383777e-01 1.362353e-01 1.326001e-01 1.279962e-01 1.233891e-01 1.216212e-01 1.245530e-01 1.327481e-01 1.382659e-01 1.561595e-01 1.510022e-01 1.850456e-01 1.742390e-01 3.033881e-01 4.623461e-01 1.490492e+00 2.187506e+00 2.938977e+01 1.933480e+01 8.949673e+00 4.585709e+00 3.063005e+00 2.383524e+00 2.062778e+00 1.942398e+00 1.876437e+00 1.707442e+00 1.522002e+00 1.373658e+00 1.281210e+00 1.212542e+00 1.174610e+00 1.199215e+00 1.293450e+00 1.403137e+00 1.491477e+00 1.459258e+00 1.674352e+00 1.982652e+00 3.697024e+00 9.123645e+00 2.409694e+01
<GCONST> 1.170879e+02
<STREAM> 2
<NUMMIXES> 2
<MIXTURE> 1 7.634562e-01
<MEAN> 1
 4.520338e+00
<VARIANCE> 1
 1.055680e-02
<GCONST> -2.713108e+00
<MIXTURE> 2 2.365487e-01
<MEAN> 0
<VARIANCE> 0
<GCONST> 0.000000e+00
<STREAM> 3
<NUMMIXES> 2
<MIXTURE> 1 7.396193e-01
<MEAN> 1
 2.408389e-03
<VARIANCE> 1
 3.553591e-04
<GCONST> -6.104505e+00
<MIXTURE> 2 2.603866e-01
<MEAN> 0
<VARIANCE> 0
<GCONST> 0.000000e+00
<STREAM> 4
<NUMMIXES> 2
<MIXTURE> 1 7.396188e-01
<MEAN> 1
 7.057190e-05
<VARIANCE> 1
 8.940651e+14
<GCONST> 3.626468e+01
<MIXTURE> 2 2.603870e-01
<MEAN> 0
<VARIANCE> 0
<GCONST> 0.000000e+00
<STATE> 6
<STREAM> 1
<MEAN> 75
 1.426993e-01 4.804867e-01 9.706298e-01 1.087318e+00 9.975080e-01 9.218081e-01 8.066133e-01 6.857474e-01 5.453047e-01 3.332040e-01 1.539318e-01 5.943573e-02 3.374070e-03 -4.234494e-02 -6.768885e-02 -7.870908e-02 -7.875502e-02 -8.628019e-02 -8.745196e-02 -8.903448e-02 -9.641249e-02 -7.947315e-02 -6.752166e-02 -2.082300e-02 2.009869e-03 -2.115920e-01 -4.138835e-01 -3.026527e-01 -1.405164e-02 8.235268e-02 9.421246e-02 1.175199e-01 1.308210e-01 1.764697e-01 1.960698e-01 1.381743e-01 7.736406e-02 5.141076e-02 3.560889e-02 1.758801e-02 5.261613e-03 3.719961e-03 4.471175e-03 1.644533e-03 4.992921e-03 -5.786404e-03 -1.600554e-02 -3.068389e-02 -3.625459e-02 -3.918883e-02 2.499034e-01 1.532538e-01 -3.740878e-01 -2.081946e-01 1.451859e-02 -4.208626e-02 -9.386340e-03 -2.048821e-02 -7.313211e-02 3.345398e-02 8.393925e-02 4.114969e-02 1.219759e-02 2.118916e-02 1.581807e-02 1.008601e-02 -5.993173e-03 5.444000e-03 3.441991e-04 -5.272420e-03 2.540932e-02 -5.109637e-03 3.600749e-02 -2.369184e-02 2.991283e-02
<VARIANCE> 75
 1.101676e+00 2.756877e+00 4.504264e+00 4.401486e+00 3.820719e+00 3.521356e+00 3.141563e+00 2.785724e+00 2.334952e+00 1.553918e+00 8.947729e-01 5.584485e-01 3.913531e-01 2.753076e-01 2.130420e-01 1.632716e-01 1.561247e-01 1.487969e-01 1.475814e-01 1.684092e-01 1.484361e-01 2.196330e-01 2.256485e-01 4.751351e-01 4.905660e-01 9.014838e-01 1.502270e+00 2.059497e+00 2.521108e+00 2.384836e+00 2.038044e+00 1.789902e+00 1.494547e+00 1.106670e+00 7.567245e-01 4.527639e-01 2.657192e-01 1.686394e-01 1.168518e-01 8.171445e-02 7.063189e-02 6.115391e-02 6.133861e-02 6.618433e-02 6.171691e-02 8.564461e-02 8.217609e-02 1.642470e-01 1.656733e-01 3.005224e-01 5.880957e+00 1.324996e+01 1.941751e+01 1.909228e+01 1.743921e+01 1.598231e+01 1.387203e+01 1.191201e+01 9.401553e+00 6.318226e+00 4.128883e+00 2.816874e+00 2.051627e+00 1.580322e+00 1.300591e+00 1.078385e+00 9.697388e-01 8.605185e-01 8.415341e-01 8.558180e-01 8.563337e-01 1.021451e+00 1.222952e+00 1.917144e+00 2.169174e+00
<GCONST> 1.302245e+02
<STREAM> 2
<NUMMIXES> 2
<MIXTURE> 1 7.175782e-01
<MEAN> 1
 4.528659e+00
<VARIANCE> 1
 1.055680e-02
<GCONST> -2.713108e+00
<MIXTURE> 2 2.824178e-01
<MEAN> 0
<VARIANCE> 0
<GCONST> 0.000000e+00
<STREAM> 3
<NUMMIXES> 2
<MIXTURE> 1 6.900694e-01
<MEAN> 1
 2.266564e-03
<VARIANCE> 1
 3.553591e-04
<GCONST> -6.104505e+00
<MIXTURE> 2 3.099252e-01
<MEAN> 0
<VARIANCE> 0
<GCONST> 0.000000e+00
<STREAM> 4
<NUMMIXES> 2
<MIXTURE> 1 6.900696e-01
<MEAN> 1
 1.960993e-04
<VARIANCE> 1
 8.940651e+14
<GCONST> 3.626468e+01
<MIXTURE> 2 3.099249e-01
<MEAN> 0
<VARIANCE> 0
<GCONST> 0.000000e+00
<TRANSP> 7
 0.000000e+00 1.000000e+00 0.000000e+00 0.000000e+00 0.000000e+00 0.000000e+00 0.000000e+00
 0.000000e+00 0.000000e+00 1.000000e+00 0.000000e+00 0.000000e+00 0.000000e+00 0.000000e+00
 0.000000e+00 0.000000e+00 0.000000e+00 1.000000e+00 0.000000e+00 0.000000e+00 0.000000e+00
 0.000000e+00 0.000000e+00 0.000000e+00 0.000000e+00 1.000000e+00 0.000000e+00 0.000000e+00
 0.000000e+00 0.000000e+00 0.000000e+00 0.000000e+00 0.000000e+00 1.000000e+00 0.000000e+00
 0.000000e+00 0.000000e+00 0.000000e+00 0.000000e+00 0.000000e+00 0.000000e+00 1.000000e+00
 0.000000e+00 0.000000e+00 0.000000e+00 0.000000e+00 0.000000e+00 0.000000e+00 0.000000e+00
<ENDHMM>
~h "a"
<BEGINHMM>
<NUMSTATES> 7
<STATE> 2
<STREAM> 1
<MEAN> 75
 8.620926e-02 1.656330e-01 3.124803e-01 4.861429e-01 6.772195e-01 8.033618e-01 8.225499e-01 6.374473e-01 3.191482e-01 2.274415e-01 2.366261e-01 2.250453e-01 1.973315e-01 2.405723e-01 2.430294e-01 1.284170e-01 4.933378e-02 2.321666e-02 4.609199e-02 5.063945e-02 1.108389e-01 1.055347e-01 3.004806e-02 1.327927e-02 4.882889e-02 -4.840227e-02 -1.157891e-01 -1.603825e-01 -1.810604e-01 -1.537924e-01 -6.657504e-02 8.981052e-02 2.612573e-01 2.147025e-01 4.188322e-02 1.416652e-03 2.340868e-02 -6.071985e-03 -2.056903e-02 5.297615e-02 9.057809e-02 4.788520e-02 -2.947412e-03 -1.714738e-02 -3.235714e-02 -2.884034e-02 4.201530e-02 4.429153e-02 -1.219254e-02 -3.269498e-02 6.595736e-02 5.960685e-02 2.871811e-02 5.296089e-03 -7.001530e-02 -1.084807e-01 -2.151481e-01 -1.321493e-01 2.383775e-01 1.107929e-01 -1.744008e-02 -2.434154e-02 8.232111e-02 -3.318875e-02 -1.156838e-01 4.464375e-02 5.176827e-02 4.409612e-02 -2.088947e-02 5.339279e-02 -6.773979e-02 -6.587406e-02 5.997622e-02 5.310889e-02 -7.025607e-03
<VARIANCE> 75
 7.363443e-01 1.330318e+00 1.995360e+00 2.861700e+00 3.476744e+00 3.984463e+00 3.794622e+00 3.001097e+00 1.427917e+00 1.387314e+00 1.503314e+00 1.547285e+00 1.206667e+00 1.592831e+00 1.453173e+00 9.131474e-01 5.068372e-01 6.486387e-01 6.749522e-01 8.687308e-01 1.012743e+00 1.092370e+00 5.968774e-01 6.064065e-01 6.811876e-01 5.320603e-01 6.788232e-01 1.113679e+00 1.486048e+00 1.925246e+00 2.115721e+00 2.000736e+00 1.421813e+00 1.115749e+00 7.090743e-01 7.235228e-01 6.729409e-01 7.908720e-01 6.638473e-01 6.159225e-01 4.665810e-01 3.504182e-01 2.679232e-01 3.673621e-01 4.057695e-01 4.778723e-01 3.874216e-01 4.037873e-01 3.008980e-01 3.566687e-01 3.575701e+00 6.185648e+00 9.155910e+00 1.247601e+01 1.516191e+01 1.687903e+01 1.545111e+01 1.128612e+01 6.810502e+00 7.093550e+00 6.828929e+00 6.116741e+00 5.557286e+00 6.493898e+00 5.382209e+00 3.512070e+00 2.553407e+00 2.897861e+00 3.060255e+00 3.701372e+00 4.199660e+00 4.358561e+00 2.933486e+00 2.747513e+00 2.996075e+00
<GCONST> 1.773333e+02
<STREAM> 2
<NUMMIXES> 2
<MIXTURE> 1 8.568698e-01
<MEAN> 1
 4.514131e+00
<VARIANCE> 1
 1.055680e-02
<GCONST> -2.713108e+00
<MIXTURE> 2 1.431303e-01
<MEAN> 0
<VARIANCE> 0
<GCONST> 0.000000e+00
<STREAM> 3
<NUMMIXES> 2
<MIXTURE> 1 8.314812e-01
<MEAN> 1
 2.647965e-03
<VARIANCE> 1
 3.553591e-04
<GCONST> -6.104505e+00
<MIXTURE> 2 1.685192e-01
<MEAN> 0
<VARIANCE> 0
<GCONST> 0.000000e+00
<STREAM> 4
<NUMMIXES> 2
<MIXTURE> 1 8.314818e-01
<MEAN> 1
 -3.144741e-04
<VARIANCE> 1
 8.940651e+14
<GCONST> 3.626468e+01
<MIXTURE> 2 1.685187e-01
<MEAN> 0
<VARIANCE> 0
<GCONST> 0.000000e+00
<STATE> 3
<STREAM> 1
<MEAN> 75
 1.571930e-01 9.538470e-02 4.090115e-02 1.478764e-02 2.605793e-02 6.281394e-02 1.027609e-01 3.415973e-01 6.402375e-01 4.768060e-01 3.492032e-01 3.930197e-01 4.019087e-01 3.793574e-01 4.265065e-01 4.294382e-01 2.687156e-01 1.732315e-01 1.137837e-01 1.398327e-01 1.496952e-01 2.261806e-01 3.186634e-01 2.573112e-01 1.959402e-01 4.131520e-02 5.480195e-02 3.809361e-02 5.815073e-03 -2.242471e-02 -3.877739e-02 -1.404894e-01 -2.635985e-01 -6.109110e-02 1.519379e-01 4.233360e-02 -2.353858e-02 1.049963e-02 -1.121055e-02 -2.475813e-02 7.863162e-02 1.277571e-01 7.391277e-02 1.463460e-02 -1.800188e-02 -4.285753e-02 -8.756091e-02 -1.720866e-02 6.212316e-02 3.543467e-02 -3.003913e-02 2.075023e-03 3.728784e-02 3.463846e-02 1.990392e-02 7.567874e-03 1.973758e-01 4.636314e-02 -4.668873e-01 3.525665e-02 1.745579e-01 -4.051132e-02 -3.797579e-02 7.427137e-02 -3.868955e-02 -1.625010e-01 7.203491e-02 3.631498e-02 8.283613e-02 -1.483160e-02 6.330348e-02 1.157032e-02 -1.566013e-01 -3.799968e-03 4.924207e-02
<VARIANCE> 75
 1.381174e+00 8.477424e-01 7.091794e-01 4.943129e-01 7.074704e-01 6.746927e-01 1.058796e+00 2.231882e+00 3.653201e+00 2.330046e+00 2.021956e+00 2.174291e+00 2.346518e+00 1.953850e+00 2.436209e+00 2.251329e+00 1.522746e+00 9.718698e-01 9.519911e-01 1.005779e+00 1.305588e+00 1.502261e+00 2.155859e+00 1.702644e+00 1.538218e+00 5.460938e-01 5.009685e-01 3.104555e-01 3.344456e-01 2.669725e-01 4.172662e-01 7.187241e-01 1.208415e+00 1.244280e+00 1.544812e+00 1.164879e+00 1.124618e+00 1.084149e+00 1.247526e+00 1.113476e+00 1.012901e+00 8.020892e-01 5.861878e-01 4.696465e-01 5.444273e-01 6.144081e-01 8.804466e-01 8.238434e-01 9.412079e-01 7.744472e-01 5.114860e+00 3.333208e+00 2.828315e+00 2.368731e+00 2.719642e+00 2.840952e+00 5.086366e+00 9.859374e+00 1.238190e+01 8.819387e+00 9.225515e+00 9.389848e+00 8.867243e+00 8.310585e+00 9.587379e+00 8.228246e+00 5.596498e+00 4.143342e+00 3.882682e+00 4.244199e+00 5.195420e+00 6.384139e+00 8.297094e+00 7.035459e+00 6.293195e+00
<GCONST> 1.827512e+02
<STREAM> 2
<NUMMIXES> 2
<MIXTURE> 1 8.696980e-01
<MEAN> 1
 4.512395e+00
<VARIANCE> 1
 1.055680e-02
<GCONST> -2.713108e+00
<MIXTURE> 2 1.303020e-01
<MEAN> 0
<VARIANCE> 0
<GCONST> 0.000000e+00
<STREAM> 3
<NUMMIXES> 2
<MIXTURE> 1 8.609900e-01
<MEAN> 1
 2.931092e-03
<VARIANCE> 1
 3.553591e-04
<GCONST> -6.104505e+00
<MIXTURE> 2 1.390100e-01
<MEAN> 0
<VARIANCE> 0
<GCONST> 0.000000e+00
<STREAM> 4
<NUMMIXES> 2
<MIXTURE> 1 8.609891e-01
<MEAN> 1
 -1.460314e-04
<VARIANCE> 1
 8.940651e+14
<GCONST> 3.626468e+01
<MIXTURE> 2 1.390110e-01
<MEAN> 0
<VARIANCE> 0
<GCONST> 0.000000e+00
<STATE> 4
<STREAM> 1
<MEAN> 75
 1.415805e-01 1.836536e-01 2.181470e-01 2.415688e-01 2.619531e-01 2.814552e-01 3.172498e-01 3.378386e-01 4.286325e-01 6.488550e-01 5.307599e-01 3.542921e-01 3.748231e-01 3.783347e-01 3.347348e-01 3.805762e-01 3.855138e-01 1.945131e-01 7.996151e-02 1.009206e-02 2.761239e-02 1.523042e-02 3.275250e-02 1.266577e-01 7.761574e-02 -6.295475e-02 -3.797456e-02 -2.767796e-02 -1.960894e-02 -1.855941e-02 -2.432171e-02 -2.682847e-02 -5.308213e-02 -1.517996e-01 -4.738188e-02 1.513859e-01 7.724152e-02 -9.026363e-03 2.007012e-02 -3.742363e-03 -2.088960e-02 9.518173e-02 1.503263e-01 9.099578e-02 2.368531e-02 -6.867616e-03 -6.327125e-03 -5.602314e-02 -2.478578e-02 2.721617e-02 -2.992820e-02 -1.440221e-02 -1.017680e-02 -2.328357e-03 -4.205096e-03 2.371155e-02 -1.263934e-02 6.294133e-02 1.260505e-01 -3.390289e-01 -5.459480e-02 1.982897e-01 -1.928572e-02 -4.712470e-02 8.021232e-02 -4.069100e-02 -1.829138e-01 8.100861e-02 4.395622e-02 8.811915e-02 -2.707643e-02 2.699867e-02 7.666304e-02 -1.454298e-01 3.550824e-02
<VARIANCE> 75
 1.183905e+00 1.587808e+00 1.517620e+00 1.772397e+00 1.724351e+00 1.970623e+00 1.894399e+00 2.160828e+00 2.461113e+00 3.711128e+00 2.612635e+00 2.036425e+00 2.093810e+00 2.243260e+00 1.836985e+00 2.313370e+00 2.090668e+00 1.256588e+00 6.254374e-01 5.395128e-01 5.582783e-01 7.485835e-01 5.788104e-01 1.295835e+00 8.340213e-01 6.317222e-01 6.847273e-01 8.581916e-01 8.474865e-01 9.817616e-01 9.629407e-01 1.086503e+00 1.147458e+00 1.587111e+00 1.399910e+00 1.587057e+00 1.219792e+00 1.097023e+00 1.015191e+00 1.169708e+00 1.025766e+00 9.009597e-01 6.531891e-01 3.961372e-01 2.627380e-01 2.963052e-01 2.595438e-01 5.003386e-01 3.344795e-01 5.344041e-01 4.955148e+00 5.977766e+00 6.128628e+00 6.869380e+00 6.884027e+00 7.387170e+00 7.416940e+00 8.567500e+00 1.086722e+01 1.356745e+01 1.009883e+01 9.496853e+00 9.543468e+00 8.798787e+00 8.121415e+00 9.374555e+00 7.839221e+00 4.777524e+00 3.093148e+00 2.628036e+00 2.685079e+00 2.888634e+00 2.935405e+00 4.828457e+00 3.673576e+00
<GCONST> 1.857421e+02
<STREAM> 2
<NUMMIXES> 2
<MIXTURE> 1 8.570049e-01
<MEAN> 1
 4.533310e+00
<VARIANCE> 1
 1.055680e-02
<GCONST> -2.713108e+00
<MIXTURE> 2 1.429953e-01
<MEAN> 0
<VARIANCE> 0
<GCONST> 0.000000e+00
<STREAM> 3
<NUMMIXES> 2
<MIXTURE> 1 8.427521e-01
<MEAN> 1
 2.067106e-03
<VARIANCE> 1
 3.553591e-04
<GCONST> -6.104505e+00
<MIXTURE> 2 1.572477e-01
<MEAN> 0
<VARIANCE> 0
<GCONST> 0.000000e+00
<STREAM> 4
<NUMMIXES> 2
<MIXTURE> 1 8.427506e-01
<MEAN> 1
 -5.245209e-05
<VARIANCE> 1
 8.940651e+14
<GCONST> 3.626468e+01
<MIXTURE> 2 1.572488e-01
<MEAN> 0
<VARIANCE> 0
<GCONST> 0.000000e+00
<STATE> 5
<STREAM> 1
<MEAN> 75
 -1.161536e-01 -6.176744e-02 -5.244435e-02 -5.324648e-02 -4.461734e-02 -2.547660e-02 -1.164593e-02 4.851581e-02 1.289351e-01 2.935868e-01 6.164100e-01 9.187038e-01 1.117540e+00 1.319626e+00 1.286809e+00 5.977554e-01 3.216003e-01 2.848927e-01 7.615611e-02 8.486748e-03 -5.789261e-02 -2.210338e-02 -4.544382e-02 -3.497712e-02 -1.263809e-02 -2.814428e-03 -3.213380e-02 -6.744332e-03 -5.193017e-03 -1.460442e-02 -1.652997e-02 -3.910186e-02 -7.171411e-02 -1.237076e-01 -2.419654e-01 -3.141775e-01 -2.519402e-01 -1.966732e-01 -7.738066e-02 3.677473e-01 4.861327e-01 1.570226e-01 1.235857e-01 1.375430e-01 6.595022e-02 1.328076e-02 -5.323235e-03 7.815739e-03 -1.413277e-02 1.466023e-02 1.021850e-01 -4.158186e-02 -1.439805e-02 1.027930e-02 6.759260e-03 -5.582509e-03 4.648070e-02 2.046610e-02 7.751488e-02 1.560142e-01 -1.730861e-02 -1.074932e-01 -9.760514e-03 -2.349456e-01 -6.582269e-01 4.111401e-01 2.431638e-01 -1.624340e-01 1.410414e-01 6.384890e-03 1.031111e-01 -5.770870e-02 3.262357e-02 2.292034e-02 -7.490340e-02
<VARIANCE> 75
 1.587006e-01 2.790382e-01 5.020108e-01 3.014905e-01 4.009131e-01 3.691171e-01 5.680212e-01 6.249764e-01 1.212751e+00 1.889024e+00 3.638143e+00 4.549977e+00 5.216938e+00 5.681917e+00 5.472938e+00 2.259304e+00 1.800643e+00 1.541779e+00 8.746288e-01 3.698304e-01 2.826926e-01 2.645102e-01 3.721253e-01 1.728414e-01 6.520320e-01 1.025203e-01 1.434941e-01 1.303929e-01 2.055580e-01 1.422650e-01 2.284531e-01 2.374053e-01 4.339014e-01 6.299387e-01 1.278538e+00 1.806381e+00 2.652630e+00 3.232582e+00 3.462113e+00 2.395039e+00 1.987263e+00 9.266583e-01 6.203856e-01 4.198977e-01 2.262333e-01 1.188121e-01 1.285907e-01 7.972987e-02 2.400047e-01 7.573297e-02 1.119534e+00 1.447299e+00 1.767159e+00 1.387925e+00 1.713214e+00 1.777148e+00 2.287767e+00 2.931742e+00 5.142704e+00 8.796124e+00 1.548405e+01 2.004437e+01 2.446661e+01 2.722394e+01 2.174030e+01 9.860022e+00 9.142948e+00 6.667669e+00 3.972745e+00 2.498406e+00 1.995239e+00 1.883918e+00 1.832632e+00 1.545583e+00 2.569627e+00
<GCONST> 1.472482e+02
<STREAM> 2
<NUMMIXES> 2
<MIXTURE> 1 8.399037e-01
<MEAN> 1
 4.539672e+00
<VARIANCE> 1
 1.055680e-02
<GCONST> -2.713108e+00
<MIXTURE> 2 1.600967e-01
<MEAN> 0
<VARIANCE> 0
<GCONST> 0.000000e+00
<STREAM> 3
<NUMMIXES> 2
<MIXTURE> 1 8.175964e-01
<MEAN> 1
 1.726732e-03
<VARIANCE> 1
 3.553591e-04
<GCONST> -6.104505e+00
<MIXTURE> 2 1.824035e-01
<MEAN> 0
<VARIANCE> 0
<GCONST> 0.000000e+00
<STREAM> 4
<NUMMIXES> 2
<MIXTURE> 1 8.175955e-01
<MEAN> 1
 2.579093e-04
<VARIANCE> 1
 8.940651e+14
<GCONST> 3.626468e+01
<MIXTURE> 2 1.824050e-01
<MEAN> 0
<VARIANCE> 0
<GCONST> 0.000000e+00
<STATE> 6
<STREAM> 1
<MEAN> 75
 -3.752705e-02 -7.357943e-02 -6.742381e-02 -5.428641e-02 -7.870027e-02 -7.461159e-02 -8.168104e-02 -8.533342e-02 -7.301384e-02 -5.013970e-02 -4.946557e-02 -5.541706e-02 -5.737734e-02 -3.251833e-02 1.189050e-01 6.400107e-01 9.059054e-01 1.000914e+00 1.040991e+00 9.336278e-01 8.791431e-01 7.387065e-01 5.839455e-01 2.783945e-01 1.309374e-01 6.645931e-02 1.688848e-02 -7.215270e-03 6.499220e-03 1.157504e-02 2.444610e-04 4.630979e-03 -5.899452e-03 -1.836677e-02 -1.316806e-02 1.741762e-03 3.747267e-03 -1.215788e-02 -8.880945e-02 -3.379022e-01 -3.953927e-01 -1.804408e-01 -6.682476e-02 3.250598e-02 7.747185e-02 9.492630e-02 1.473803e-01 2.326347e-01 2.272147e-01 1.117381e-01 6.193568e-02 4.446089e-02 8.539774e-03 -3.619054e-02 2.836955e-02 -9.769078e-03 3.625829e-03 1.539248e-02 1.017511e-02 -2.050586e-02 -1.138704e-02 2.998946e-03 2.950718e-02 1.279815e-01 3.707282e-01 -2.518837e-01 -1.797710e-01 -5.529574e-02 -1.459139e-01 5.065314e-02 -8.821987e-02 -1.774746e-02 -1.531707e-01 1.588331e-01 7.937085e-02
<VARIANCE> 75
 2.317513e-01 1.644143e-01 2.037396e-01 3.043813e-01 1.658707e-01 2.157938e-01 1.822410e-01 2.810490e-01 2.658520e-01 4.158751e-01 3.309608e-01 2.823710e-01 1.968697e-01 3.455280e-01 1.169590e+00 3.873757e+00 4.369058e+00 4.652076e+00 4.482428e+00 4.205704e+00 3.930230e+00 3.556237e+00 2.887272e+00 1.550385e+00 8.754815e-01 1.557407e-01 7.664310e-02 8.807892e-02 6.900377e-02 1.054566e-01 6.622287e-02 1.093542e-01 9.797657e-02 1.532051e-01 1.286109e-01 1.614536e-01 1.160330e-01 1.433970e-01 3.346113e-01 1.073789e+00 1.490263e+00 2.534094e+00 2.731844e+00 2.706564e+00 2.571103e+00 2.277292e+00 1.937589e+00 1.333733e+00 9.275577e-01 4.947287e-01 1.912220e+00 1.533665e+00 1.507455e+00 1.505903e+00 1.090794e+00 1.171507e+00 1.049034e+00 1.222455e+00 1.272055e+00 1.563150e+00 1.223130e+00 1.077747e+00 1.077350e+00 2.270076e+00 7.363166e+00 1.610049e+01 1.831904e+01 2.048264e+01 2.030010e+01 1.910019e+01 1.776645e+01 1.548248e+01 1.164595e+01 6.559227e+00 4.411822e+00
<GCONST> 1.374070e+02
<STREAM> 2
<NUMMIXES> 2
<MIXTURE> 1 7.814580e-01
<MEAN> 1
 4.549863e+00
<VARIANCE> 1
 1.055680e-02
<GCONST> -2.713108e+00
<MIXTURE> 2 2.185437e-01
<MEAN> 0
<VARIANCE> 0
<GCONST> 0.000000e+00
<STREAM> 3
<NUMMIXES> 2
<MIXTURE> 1 7.483605e-01
<MEAN> 1
 2.670994e-03
<VARIANCE> 1
 3.553591e-04
<GCONST> -6.104505e+00
<MIXTURE> 2 2.516405e-01
<MEAN> 0
<VARIANCE> 0
<GCONST> 0.000000e+00
<STREAM> 4
<NUMMIXES> 2
<MIXTURE> 1 7.483615e-01
<MEAN> 1
 1.640320e-04
<VARIANCE> 1
 8.940651e+14
<GCONST> 3.626468e+01
<MIXTURE> 2 2.516399e-01
<MEAN> 0
<VARIANCE> 0
<GCONST> 0.000000e+00
<TRANSP> 7
 0.000000e+00 1.000000e+00 0.000000e+00 0.000000e+00 0.000000e+00 0.000000e+00 0.000000e+00
 0.000000e+00 0.000000e+00 1.000000e+00 0.000000e+00 0.000000e+00 0.000000e+00 0.000000e+00
 0.000000e+00 0.000000e+00 0.000000e+00 1.000000e+00 0.000000e+00 0.000000e+00 0.000000e+00
 0.000000e+00 0.000000e+00 0.000000e+00 0.000000e+00 1.000000e+00 0.000000e+00 0.000000e+00
 0.000000e+00 0.000000e+00 0.000000e+00 0.000000e+00 0.000000e+00 1.000000e+00 0.000000e+00
 0.000000e+00 0.000000e+00 0.000000e+00 0.000000e+00 0.000000e+00 0.000000e+00 1.000000e+00
 0.000000e+00 0.000000e+00 0.000000e+00 0.000000e+00 0.000000e+00 0.000000e+00 0.000000e+00
<ENDHMM>
~h "b"
<BEGINHMM>
<NUMSTATES> 7
<STATE> 2
<STREAM> 1
<MEAN> 75
 -3.169325e-02 -4.686719e-02 -5.550400e-02 -4.737353e-02 -4.329863e-02 -4.386940e-02 -3.638728e-02 -1.761299e-02 3.800917e-02 1.455050e-01 3.758984e-01 5.433080e-01 7.054145e-01 8.637481e-01 9.509029e-01 1.020350e+00 1.025857e+00 6.849865e-01 2.722780e-01 1.402432e-01 6.425546e-02 2.457774e-02 4.117906e-03 -2.107978e-03 -1.024577e-02 1.838319e-02 1.033994e-02 -1.070842e-03 -8.023484e-03 -5.045355e-03 -5.426155e-03 -1.366813e-02 -3.618584e-02 -7.925590e-02 -1.688743e-01 -2.026646e-01 -1.663940e-01 -1.617316e-01 -1.217194e-01 -7.619648e-02 -3.514130e-02 1.694377e-01 3.769878e-01 2.758408e-01 1.089941e-01 6.300651e-02 3.198481e-02 1.443093e-02 6.593705e-03 1.980822e-03 6.877182e-03 6.756165e-03 1.626156e-02 -2.274105e-03 -4.756952e-03 4.406068e-03 1.078657e-02 3.285150e-02 5.540237e-02 1.266299e-01 -6.029494e-02 -6.571553e-03 -3.553196e-03 -7.529490e-02 -1.682439e-02 -6.824610e-02 -3.604526e-01 -7.677191e-02 2.820732e-01 5.697716e-02 3.995482e-02 2.313979e-02 1.451174e-02 5.126832e-03 9.607160e-03
<VARIANCE> 75
 2.534362e-01 2.118107e-01 1.973873e-01 2.317469e-01 2.809691e-01 2.887219e-01 3.283908e-01 3.692212e-01 5.615330e-01 9.154777e-01 1.922654e+00 2.401218e+00 2.897286e+00 3.209296e+00 3.371978e+00 3.452733e+00 3.539746e+00 2.320282e+00 8.274214e-01 5.680099e-01 5.035948e-01 4.680955e-01 4.813154e-01 4.837810e-01 4.543839e-01 1.372773e-01 9.390751e-02 9.551074e-02 1.053952e-01 1.174952e-01 1.365717e-01 1.478127e-01 2.081359e-01 3.098109e-01 6.191458e-01 8.483492e-01 1.302014e+00 1.577705e+00 1.819808e+00 2.002880e+00 2.080307e+00 1.607789e+00 1.070363e+00 6.697630e-01 2.785392e-01 2.298326e-01 2.188288e-01 2.131489e-01 2.144582e-01 2.016985e-01 1.196298e+00 1.102604e+00 1.026313e+00 1.109602e+00 1.169343e+00 1.202828e+00 1.354156e+00 1.609438e+00 2.379141e+00 4.207216e+00 7.697365e+00 9.918211e+00 1.238758e+01 1.409409e+01 1.515571e+01 1.586836e+01 1.446040e+01 8.641441e+00 3.944861e+00 3.057081e+00 2.476703e+00 2.257842e+00 2.196750e+00 2.113692e+00 1.981635e+00
<GCONST> 1.360416e+02
<STREAM> 2
<NUMMIXES> 2
<MIXTURE> 1 6.945158e-01
<MEAN> 1
 4.521671e+00
<VARIANCE> 1
 1.055680e-02
<GCONST> -2.713108e+00
<MIXTURE> 2 3.054823e-01
<MEAN> 0
<VARIANCE> 0
<GCONST> 0.000000e+00
<STREAM> 3
<NUMMIXES> 2
<MIXTURE> 1 6.626296e-01
<MEAN> 1
 2.331329e-03
<VARIANCE> 1
 3.553591e-04
<GCONST> -6.104505e+00
<MIXTURE> 2 3.373684e-01
<MEAN> 0
<VARIANCE> 0
<GCONST> 0.000000e+00
<STREAM> 4
<NUMMIXES> 2
<MIXTURE> 1 6.626292e-01
<MEAN> 1
 -8.919271e+06
<VARIANCE> 1
 1.783057e+17
<GCONST> 4.156015e+01
<MIXTURE> 2 3.373688e-01
<MEAN> 0
<VARIANCE> 0
<GCONST> 0.000000e+00
<STATE> 3
<STREAM> 1
<MEAN> 75
 8.028379e-02 1.148054e-01 1.181534e-01 1.072674e-01 1.026755e-01 1.040077e-01 5.404903e-02 1.802424e-02 3.030151e-04 -1.243740e-02 -2.514581e-02 -3.777772e-03 1.125561e-02 2.973960e-02 4.952060e-02 9.317577e-02 2.369509e-01 1.032025e+00 1.775383e+00 1.240990e+00 5.558975e-01 3.170044e-01 1.909010e-01 1.223426e-01 7.342900e-02 -3.287321e-02 -2.069095e-02 1.119724e-03 5.140573e-03 9.654239e-04 2.411433e-02 4.110319e-02 2.663469e-02 1.701825e-02 1.330183e-02 -3.853148e-03 -1.889152e-02 -1.607260e-02 -1.923486e-02 -3.204166e-02 -9.377002e-02 -4.683921e-01 -7.612911e-01 -1.019297e-01 6.072474e-01 4.595725e-01 1.840609e-01 9.745707e-02 5.719088e-02 3.390395e-02 4.939693e-03 -2.650235e-02 -1.262300e-02 4.939425e-03 4.596192e-03 -4.841959e-02 1.490557e-02 1.477279e-02 4.361211e-03 2.967286e-03 3.498013e-02 -8.048931e-03 3.859038e-03 6.938186e-04 2.227004e-02 1.042920e-01 6.503046e-01 -5.530453e-02 -1.268962e+00 -1.518195e-01 4.381497e-01 1.073067e-01 6.235795e-02 1.806028e-02 2.677208e-02
<VARIANCE> 75
 9.785557e-01 1.018208e+00 1.012985e+00 9.837192e-01 9.689270e-01 8.639895e-01 6.243944e-01 5.788331e-01 5.600939e-01 5.260286e-01 5.161552e-01 5.315748e-01 5.441001e-01 5.702185e-01 5.920906e-01 7.417046e-01 1.218811e+00 4.305524e+00 5.696912e+00 3.680314e+00 1.292592e+00 7.726247e-01 6.926112e-01 6.609074e-01 6.601506e-01 4.190927e-01 4.901686e-01 4.920655e-01 4.829910e-01 4.485292e-01 3.830129e-01 3.417207e-01 2.780813e-01 2.567410e-01 2.492971e-01 2.456129e-01 2.516510e-01 2.650265e-01 2.725102e-01 3.165193e-01 4.520779e-01 1.340355e+00 1.954002e+00 2.527380e+00 1.994608e+00 1.067856e+00 4.317864e-01 3.330903e-01 3.198878e-01 3.247217e-01 3.996744e+00 3.943202e+00 3.930355e+00 3.808401e+00 3.677277e+00 3.204335e+00 2.486483e+00 2.301109e+00 2.158970e+00 2.095673e+00 2.126926e+00 2.177775e+00 2.213916e+00 2.306235e+00 2.485542e+00 3.260519e+00 7.728763e+00 2.154708e+01 2.511342e+01 1.441942e+01 5.713030e+00 4.070758e+00 3.258653e+00 3.047018e+00 2.978464e+00
<GCONST> 1.508154e+02
<STREAM> 2
<NUMMIXES> 2
<MIXTURE> 1 7.229000e-01
<MEAN> 1
 4.496478e+00
<VARIANCE> 1
 1.055680e-02
<GCONST> -2.713108e+00
<MIXTURE> 2 2.771007e-01
<MEAN> 0
<VARIANCE> 0
<GCONST> 0.000000e+00
<STREAM> 3
<NUMMIXES> 2
<MIXTURE> 1 6.895307e-01
<MEAN> 1
 2.723597e-03
<VARIANCE> 1
 3.553591e-04
<GCONST> -6.104505e+00
<MIXTURE> 2 3.104695e-01
<MEAN> 0
<VARIANCE> 0
<GCONST> 0.000000e+00
<STREAM> 4
<NUMMIXES> 2
<MIXTURE> 1 6.895305e-01
<MEAN> 1
 -9.441376e-05
<VARIANCE> 1
 8.940651e+14
<GCONST> 3.626468e+01
<MIXTURE> 2 3.104698e-01
<MEAN> 0
<VARIANCE> 0
<GCONST> 0.000000e+00
<STATE> 4
<STREAM> 1
<MEAN> 75
 5.700785e-02 6.545973e-02 2.361296e-02 6.054267e-02 2.847381e-02 5.564903e-02 9.270573e-02 1.474908e-01 1.343031e-01 1.338696e-01 1.293302e-01 1.227034e-01 1.097530e-01 1.362523e-01 1.120665e-01 8.222157e-02 7.080293e-02 7.829139e-02 1.267861e-01 1.102336e+00 1.777682e+00 7.424032e-01 3.501816e-01 2.950600e-01 1.644632e-01 4.230768e-02 1.735142e-02 4.334221e-03 -2.070840e-03 3.603796e-03 -3.038104e-02 -4.658473e-02 -2.099649e-02 6.073326e-03 8.209432e-04 2.643545e-03 9.808047e-03 -6.552926e-03 -4.959354e-03 2.262774e-02 2.152230e-02 6.567962e-03 -2.351242e-02 -5.087983e-01 -8.229904e-01 1.829753e-01 7.128530e-01 2.219689e-01 9.138256e-02 7.176761e-02 9.941688e-02 -5.476876e-02 8.107746e-02 -6.749459e-02 5.783892e-02 9.473776e-03 1.964223e-02 -6.971384e-02 1.246950e-02 -4.654525e-03 -1.324497e-03 -1.093232e-02 4.086468e-02 -4.679377e-02 -9.224271e-03 1.236095e-02 1.789803e-02 4.413040e-02 9.244182e-01 -3.034914e-01 -1.694648e+00 6.492275e-01 3.314535e-01 -7.195996e-02 1.140434e-01
<VARIANCE> 75
 6.615726e-01 6.322173e-01 6.412873e-01 5.833312e-01 5.535529e-01 6.672119e-01 9.523488e-01 9.544455e-01 9.618828e-01 9.949621e-01 9.806272e-01 9.909166e-01 1.008661e+00 9.689683e-01 9.211276e-01 6.457287e-01 6.513830e-01 6.852729e-01 8.771451e-01 4.903646e+00 5.905392e+00 1.866929e+00 9.185132e-01 8.666911e-01 8.161547e-01 3.124684e-01 2.905264e-01 2.799767e-01 2.650584e-01 2.806803e-01 3.508369e-01 3.866565e-01 4.558268e-01 4.671945e-01 4.611324e-01 4.693186e-01 4.677589e-01 4.636821e-01 4.555221e-01 3.770151e-01 3.585070e-01 3.056098e-01 3.670585e-01 1.469694e+00 1.872929e+00 2.021737e+00 1.768895e+00 5.728083e-01 4.029139e-01 3.727369e-01 2.923600e+00 2.790794e+00 2.753560e+00 2.486877e+00 2.401204e+00 2.970121e+00 3.778721e+00 3.912307e+00 3.977222e+00 4.055892e+00 4.055745e+00 4.164489e+00 4.239079e+00 4.095315e+00 3.644240e+00 2.860651e+00 2.834812e+00 3.006964e+00 7.438157e+00 2.460417e+01 2.217131e+01 6.610938e+00 5.445519e+00 4.196937e+00 3.792704e+00
<GCONST> 1.551743e+02
<STREAM> 2
<NUMMIXES> 2
<MIXTURE> 1 7.208461e-01
<MEAN> 1
 4.487484e+00
<VARIANCE> 1
 1.055680e-02
<GCONST> -2.713108e+00
<MIXTURE> 2 2.791541e-01
<MEAN> 0
<VARIANCE> 0
<GCONST> 0.000000e+00
<STREAM> 3
<NUMMIXES> 2
<MIXTURE> 1 6.961526e-01
<MEAN> 1
 1.407383e-03
<VARIANCE> 1
 3.553591e-04
<GCONST> -6.104505e+00
<MIXTURE> 2 3.038476e-01
<MEAN> 0
<VARIANCE> 0
<GCONST> 0.000000e+00
<STREAM> 4
<NUMMIXES> 2
<MIXTURE> 1 6.961524e-01
<MEAN> 1
 6.961823e-04
<VARIANCE> 1
 8.940651e+14
<GCONST> 3.626468e+01
<MIXTURE> 2 3.038474e-01
<MEAN> 0
<VARIANCE> 0
<GCONST> 0.000000e+00
<STATE> 5
<STREAM> 1
<MEAN> 75
 4.771130e-01 2.459926e-01 1.634419e-01 5.384584e-02 2.605453e-02 -2.187924e-02 -2.031346e-02 -5.301997e-02 -4.324099e-02 -5.752343e-02 -5.190194e-02 -6.553506e-02 -5.865596e-02 -7.982382e-02 -6.399961e-02 -4.672642e-02 -2.609198e-02 -1.442692e-02 1.111367e-02 2.582073e-02 2.121285e-01 9.701453e-01 1.296888e+00 1.346356e+00 1.289428e+00 3.338607e-01 1.556783e-01 9.563197e-02 6.753561e-02 3.447402e-02 2.085685e-02 1.553289e-02 1.020017e-02 8.751824e-05 3.149523e-03 5.193872e-03 2.837022e-03 6.741836e-03 3.038684e-03 -1.574732e-02 -1.968814e-02 -1.593008e-02 -1.740193e-02 -1.879544e-02 -9.837118e-02 -4.676247e-01 -5.384438e-01 -1.841785e-01 6.747635e-03 2.123858e-01 2.179490e-01 1.423527e-01 -2.622701e-02 8.076285e-02 -2.315534e-02 4.544845e-02 -3.616345e-02 4.423263e-02 -2.353396e-02 1.615663e-02 -1.855686e-02 2.288138e-02 -3.010862e-02 3.806095e-02 3.310658e-03 3.370582e-03 -1.065104e-02 1.266162e-02 -9.378802e-03 1.685049e-01 5.662112e-01 -4.310892e-01 -2.745545e-01 -1.051259e-01 -3.057467e-01
<VARIANCE> 75
 1.013400e+00 6.132044e-01 4.695003e-01 3.951294e-01 3.287051e-01 2.934699e-01 2.670051e-01 2.386962e-01 2.065984e-01 1.967794e-01 1.733922e-01 1.608291e-01 1.497615e-01 1.702828e-01 1.973568e-01 3.438408e-01 3.664783e-01 3.843201e-01 4.051478e-01 4.743123e-01 1.320198e+00 4.571933e+00 4.735442e+00 4.554006e+00 3.866987e+00 7.444863e-01 2.814686e-01 1.889737e-01 1.498384e-01 1.317867e-01 1.178698e-01 1.061522e-01 9.845547e-02 8.997624e-02 7.925606e-02 7.537015e-02 6.914923e-02 6.943054e-02 7.224192e-02 1.162116e-01 1.287754e-01 1.667974e-01 1.781822e-01 2.014229e-01 4.226696e-01 1.304421e+00 1.689550e+00 2.909034e+00 2.840723e+00 2.261844e+00 5.014040e+00 3.252432e+00 2.424531e+00 2.069847e+00 1.773942e+00 1.595333e+00 1.432516e+00 1.237316e+00 1.082477e+00 9.853683e-01 8.408248e-01 7.586806e-01 7.352677e-01 8.073616e-01 1.025815e+00 1.455115e+00 1.517480e+00 1.631843e+00 1.743314e+00 2.669667e+00 8.645191e+00 2.028216e+01 2.198082e+01 2.183557e+01 1.794883e+01
<GCONST> 1.064316e+02
<STREAM> 2
<NUMMIXES> 2
<MIXTURE> 1 7.245177e-01
<MEAN> 1
 4.522069e+00
<VARIANCE> 1
 1.055680e-02
<GCONST> -2.713108e+00
<MIXTURE> 2 2.754804e-01
<MEAN> 0
<VARIANCE> 0
<GCONST> 0.000000e+00
<STREAM> 3
<NUMMIXES> 2
<MIXTURE> 1 6.907323e-01
<MEAN> 1
 2.378141e-03
<VARIANCE> 1
 3.553591e-04
<GCONST> -6.104505e+00
<MIXTURE> 2 3.092667e-01
<MEAN> 0
<VARIANCE> 0
<GCONST> 0.000000e+00
<STREAM> 4
<NUMMIXES> 2
<MIXTURE> 1 6.907320e-01
<MEAN> 1
 3.767014e-05
<VARIANCE> 1
 8.940651e+14
<GCONST> 3.626468e+01
<MIXTURE> 2 3.092671e-01
<MEAN> 0
<VARIANCE> 0
<GCONST> 0.000000e+00
<STATE> 6
<STREAM> 1
<MEAN> 75
 7.248132e-01 8.819010e-01 9.354337e-01 9.179318e-01 7.944808e-01 6.938891e-01 6.110551e-01 4.599769e-01 3.390590e-01 1.705358e-01 5.275869e-02 2.306160e-02 -2.247865e-02 -2.943323e-02 -5.014395e-02 -4.936729e-02 -6.516679e-02 -6.328461e-02 -7.651606e-02 -6.911913e-02 -5.529143e-02 -3.941853e-02 -4.764959e-02 -1.614061e-02 9.753254e-02 -2.647245e-01 -1.017909e-01 -1.414240e-02 7.051279e-02 1.079825e-01 8.566283e-02 1.145855e-01 1.368646e-01 1.453330e-01 1.414229e-01 7.219394e-02 3.589978e-02 2.437243e-02 1.353480e-02 9.977532e-03 6.470314e-03 5.912164e-03 6.413873e-03 3.262609e-03 -8.319268e-03 -1.217789e-02 -2.393335e-03 -1.163188e-02 -7.195483e-02 -1.803969e-01 -2.225480e-01 -1.043513e-01 -7.025024e-02 -9.907909e-02 3.009417e-02 2.139691e-02 -7.099667e-02 2.817723e-02 -3.867580e-02 5.296969e-02 8.809477e-02 -1.623222e-02 3.598334e-02 -1.935450e-02 2.133182e-02 -1.528531e-02 1.294332e-02 -1.646635e-02 1.939611e-02 3.137189e-03 3.626350e-03 -2.176559e-02 3.881123e-02 8.082758e-02 1.327391e-01
<VARIANCE> 75
 3.640591e+00 3.833435e+00 3.788395e+00 3.452999e+00 2.957226e+00 2.600192e+00 2.418842e+00 1.796003e+00 1.448031e+00 6.912266e-01 4.165843e-01 3.276783e-01 2.708054e-01 2.410389e-01 2.211845e-01 1.924000e-01 1.783074e-01 1.619005e-01 1.654161e-01 1.758183e-01 2.570640e-01 2.789502e-01 2.299691e-01 3.751315e-01 1.004970e+00 1.673258e+00 2.157156e+00 2.141147e+00 1.959560e+00 1.722885e+00 1.475584e+00 1.150755e+00 9.633008e-01 5.676452e-01 4.004018e-01 1.959603e-01 1.317662e-01 1.099559e-01 9.709468e-02 8.719030e-02 7.927430e-02 6.917811e-02 6.766947e-02 7.041210e-02 9.265837e-02 1.006044e-01 1.098892e-01 1.540653e-01 3.008708e-01 6.448218e-01 1.490935e+01 1.639584e+01 1.656490e+01 1.510043e+01 1.307084e+01 1.170964e+01 1.020367e+01 7.639688e+00 5.769877e+00 3.206818e+00 2.327278e+00 1.746263e+00 1.487042e+00 1.330387e+00 1.202819e+00 1.059610e+00 9.377782e-01 8.351378e-01 8.468044e-01 9.238490e-01 1.117134e+00 1.108229e+00 1.125234e+00 2.091464e+00 4.881635e+00
<GCONST> 1.250246e+02
<STREAM> 2
<NUMMIXES> 2
<MIXTURE> 1 7.534472e-01
<MEAN> 1
 4.528560e+00
<VARIANCE> 1
 1.055680e-02
<GCONST> -2.713108e+00
<MIXTURE> 2 2.465521e-01
<MEAN> 0
<VARIANCE> 0
<GCONST> 0.000000e+00
<STREAM> 3
<NUMMIXES> 2
<MIXTURE> 1 7.304487e-01
<MEAN> 1
 2.541709e-03
<VARIANCE> 1
 3.553591e-04
<GCONST> -6.104505e+00
<MIXTURE> 2 2.695506e-01
<MEAN> 0
<VARIANCE> 0
<GCONST> 0.000000e+00
<STREAM> 4
<NUMMIXES> 2
<MIXTURE> 1 7.304475e-01
<MEAN> 1
 -9.989738e-05
<VARIANCE> 1
 8.940651e+14
<GCONST> 3.626468e+01
<MIXTURE> 2 2.695511e-01
<MEAN> 0
<VARIANCE> 0
<GCONST> 0.000000e+00
<TRANSP> 7
 0.000000e+00 1.000000e+00 0.000000e+00 0.000000e+00 0.000000e+00 0.000000e+00 0.000000e+00
 0.000000e+00 0.000000e+00 1.000000e+00 0.000000e+00 0.000000e+00 0.000000e+00 0.000000e+00
 0.000000e+00 0.000000e+00 0.000000e+00 1.000000e+00 0.000000e+00 0.000000e+00 0.000000e+00
 0.000000e+00 0.000000e+00 0.000000e+00 0.000000e+00 1.000000e+00 0.000000e+00 0.000000e+00
 0.000000e+00 0.000000e+00 0.000000e+00 0.000000e+00 0.000000e+00 1.000000e+00 0.000000e+00
 0.000000e+00 0.000000e+00 0.000000e+00 0.000000e+00 0.000000e+00 0.000000e+00 1.000000e+00
 0.000000e+00 0.000000e+00 0.000000e+00 0.000000e+00 0.000000e+00 0.000000e+00 0.000000e+00
<ENDHMM>
~h "d"
<BEGINHMM>
<NUMSTATES> 7
<STATE> 2
<STREAM> 1
<MEAN> 75
 9.695899e-01 6.022784e-01 2.584383e-01 1.457991e-01 7.428747e-02 -8.484736e-03 -5.292574e-02 -6.847125e-02 -7.651147e-02 -8.055381e-02 -8.953708e-02 -9.401284e-02 -9.585400e-02 -8.810587e-02 -7.850070e-02 -6.955868e-02 -5.670598e-02 -4.801795e-03 7.686992e-02 3.164978e-01 5.024652e-01 5.734591e-01 6.550045e-01 8.858377e-01 1.145760e+00 2.610408e-01 3.577476e-01 2.301729e-01 9.410068e-02 7.743965e-02 6.522202e-02 3.002441e-02 1.128861e-02 5.743316e-03 7.316507e-03 7.275955e-03 3.966909e-03 -2.644052e-03 -9.411594e-03 -8.308828e-03 -1.033501e-02 -3.148349e-02 -6.683984e-02 -1.619992e-01 -2.169451e-01 -1.317986e-01 -7.864828e-02 -1.579939e-01 -2.462467e-01 -1.167070e-01 -2.237611e-01 2.257256e-02 2.328254e-01 4.324682e-02 -9.993081e-03 4.008844e-02 3.104397e-02 7.466435e-03 3.269929e-03 -5.609386e-03 3.893641e-03 2.412563e-03 1.156311e-02 8.978290e-04 -1.166225e-03 4.894470e-03 3.555234e-02 2.795988e-02 1.627667e-01 -4.887655e-02 -1.172635e-01 9.338844e-03 1.489697e-01 2.558714e-02 -2.850699e-01
<VARIANCE> 75
 3.528919e+00 2.176333e+00 8.993495e-01 7.253222e-01 6.164680e-01 3.862674e-01 2.471963e-01 1.881844e-01 1.604416e-01 1.496277e-01 1.292684e-01 1.004415e-01 9.204839e-02 1.144897e-01 1.882017e-01 2.350553e-01 2.866013e-01 5.164714e-01 8.738435e-01 1.963276e+00 2.501448e+00 2.628633e+00 2.779157e+00 3.656096e+00 4.300359e+00 1.741401e+00 1.088406e+00 6.578229e-01 3.219046e-01 2.368520e-01 1.744257e-01 1.082883e-01 7.506136e-02 6.120967e-02 5.416223e-02 4.351635e-02 4.204151e-02 4.305169e-02 6.049641e-02 7.627847e-02 1.040778e-01 1.661815e-01 2.724090e-01 6.312397e-01 8.714885e-01 1.218408e+00 1.431163e+00 1.768370e+00 2.089587e+00 2.348367e+00 1.493310e+01 8.629481e+00 4.419435e+00 3.695290e+00 2.798508e+00 1.956606e+00 1.477724e+00 1.193091e+00 1.027510e+00 9.087455e-01 7.616148e-01 6.536061e-01 6.190380e-01 6.910985e-01 8.745450e-01 9.844652e-01 1.350693e+00 2.338058e+00 4.446517e+00 7.971940e+00 9.557356e+00 1.060050e+01 1.263629e+01 1.715660e+01 1.970320e+01
<GCONST> 1.166578e+02
<STREAM> 2
<NUMMIXES> 2
<MIXTURE> 1 6.905321e-01
<MEAN> 1
 4.531329e+00
<VARIANCE> 1
 1.055680e-02
<GCONST> -2.713108e+00
<MIXTURE> 2 3.094661e-01
<MEAN> 0
<VARIANCE> 0
<GCONST> 0.000000e+00
<STREAM> 3
<NUMMIXES> 2
<MIXTURE> 1 6.625650e-01
<MEAN> 1
 2.493534e-03
<VARIANCE> 1
 3.553591e-04
<GCONST> -6.104505e+00
<MIXTURE> 2 3.374336e-01
<MEAN> 0
<VARIANCE> 0
<GCONST> 0.000000e+00
<STREAM> 4
<NUMMIXES> 2
<MIXTURE> 1 6.625627e-01
<MEAN> 1
 -5.856215e+06
<VARIANCE> 1
 1.170898e+17
<GCONST> 4.113959e+01
<MIXTURE> 2 3.374354e-01
<MEAN> 0
<VARIANCE> 0
<GCONST> 0.000000e+00
<STATE> 3
<STREAM> 1
<MEAN> 75
 4.281227e-01 1.007159e+00 1.447366e+00 1.648235e+00 1.715613e+00 9.492400e-01 3.560998e-01 1.780786e-01 2.241220e-02 -3.580858e-02 -8.395681e-02 -8.110584e-02 -9.858735e-02 -8.041014e-02 -9.540492e-02 -9.026174e-02 -9.492821e-02 -8.328138e-02 -9.935036e-02 -1.099653e-01 -1.113934e-01 -8.447817e-02 -9.203589e-02 -6.439246e-02 -5.748573e-02 -4.663160e-01 -5.127890e-01 -3.242964e-01 -1.396732e-01 3.462586e-01 6.787574e-01 3.866513e-01 1.709612e-01 1.108564e-01 5.600967e-02 2.492550e-02 8.793346e-03 -7.342733e-05 -1.604649e-03 5.204366e-03 3.263969e-04 -3.003817e-03 3.176282e-03 1.448729e-02 7.178368e-03 -1.188698e-02 -9.213213e-03 -1.054471e-02 -1.816669e-02 -7.232819e-02 2.348882e-01 -1.379536e-01 -2.401896e-01 -1.324639e-01 -8.427874e-01 1.653364e-01 4.103032e-01 2.437952e-02 9.870863e-02 1.349379e-02 5.299716e-02 -1.980192e-02 3.789991e-02 -3.316007e-02 1.925178e-02 -1.064262e-02 1.736467e-02 -2.897493e-02 6.923594e-03 8.952855e-03 3.034422e-02 -3.274551e-02 3.465783e-02 -1.829446e-02 1.287575e-01
<VARIANCE> 75
 2.304477e+00 4.387322e+00 5.149221e+00 5.074275e+00 4.914265e+00 2.450972e+00 6.876934e-01 3.885701e-01 2.643093e-01 2.067157e-01 1.974539e-01 1.830045e-01 1.606236e-01 1.450098e-01 1.218638e-01 1.137117e-01 1.169411e-01 1.071916e-01 9.713400e-02 1.021135e-01 1.159871e-01 2.040624e-01 1.273831e-01 1.340629e-01 1.096608e-01 1.350428e+00 2.179919e+00 3.149999e+00 3.642719e+00 2.451999e+00 1.457621e+00 5.808047e-01 1.554544e-01 1.052762e-01 8.274765e-02 7.218143e-02 6.257990e-02 6.069156e-02 5.299358e-02 5.020700e-02 4.758044e-02 4.650714e-02 4.531140e-02 4.314743e-02 4.474032e-02 7.053697e-02 5.141607e-02 7.174386e-02 4.834156e-02 2.074598e-01 1.135406e+01 2.051581e+01 2.572691e+01 2.775580e+01 2.358030e+01 1.041739e+01 4.255772e+00 2.762463e+00 1.852106e+00 1.514845e+00 1.393817e+00 1.268304e+00 1.128106e+00 9.784381e-01 8.299958e-01 7.558853e-01 7.186088e-01 6.391764e-01 5.445717e-01 5.413214e-01 6.500794e-01 8.020933e-01 5.890182e-01 5.967927e-01 1.057259e+00
<GCONST> 8.408768e+01
<STREAM> 2
<NUMMIXES> 2
<MIXTURE> 1 6.669259e-01
<MEAN> 1
 4.532157e+00
<VARIANCE> 1
 1.055680e-02
<GCONST> -2.713108e+00
<MIXTURE> 2 3.330744e-01
<MEAN> 0
<VARIANCE> 0
<GCONST> 0.000000e+00
<STREAM> 3
<NUMMIXES> 2
<MIXTURE> 1 6.381251e-01
<MEAN> 1
 2.587188e-03
<VARIANCE> 1
 3.553591e-04
<GCONST> -6.104505e+00
<MIXTURE> 2 3.618757e-01
<MEAN> 0
<VARIANCE> 0
<GCONST> 0.000000e+00
<STREAM> 4
<NUMMIXES> 2
<MIXTURE> 1 6.381266e-01
<MEAN> 1
 3.814697e-06
<VARIANCE> 1
 8.940651e+14
<GCONST> 3.626468e+01
<MIXTURE> 2 3.618743e-01
<MEAN> 0
<VARIANCE> 0
<GCONST> 0.000000e+00
<STATE> 4
<STREAM> 1
<MEAN> 75
 -9.481615e-02 -6.975411e-02 -6.113401e-02 -4.354969e-02 6.566676e-02 1.233396e+00 2.048516e+00 2.086962e+00 1.492334e+00 5.715795e-01 2.914552e-01 1.169692e-01 1.031810e-02 -6.997281e-02 -7.648751e-02 -8.499208e-02 -8.139959e-02 -9.897846e-02 -9.906171e-02 -9.197078e-02 -8.257715e-02 -8.282636e-02 -7.232110e-02 -1.151482e-01 -1.084284e-01 -2.105645e-02 -1.673182e-02 -1.253572e-02 -6.326109e-02 -6.393394e-01 -9.954758e-01 -4.330529e-01 2.705016e-01 7.538266e-01 6.001616e-01 2.309121e-01 1.437860e-01 9.626851e-02 4.567014e-02 1.013928e-02 4.748382e-03 8.111768e-03 1.084732e-02 -1.840398e-03 -7.397936e-03 -3.398903e-03 -3.611855e-03 1.656877e-02 1.708305e-02 -2.424299e-03 7.861162e-03 -1.552250e-02 7.445316e-03 9.291059e-02 1.064443e+00 -3.415761e-01 -7.740135e-01 -6.453926e-01 -3.358570e-01 6.290767e-01 1.061324e-01 6.903175e-02 2.802122e-02 7.299988e-02 -9.500515e-05 1.596788e-02 -2.132673e-02 1.695403e-02 8.473653e-03 3.161366e-03 -1.244669e-02 1.267445e-02 -5.078379e-02 4.765280e-02 -1.127367e-02
<VARIANCE> 75
 8.324125e-02 9.896334e-02 1.000865e-01 1.541266e-01 6.059039e-01 5.539919e+00 6.197308e+00 5.545146e+00 3.725016e+00 9.896041e-01 4.383546e-01 3.715472e-01 2.744620e-01 2.370747e-01 2.109876e-01 1.620147e-01 1.393401e-01 1.340749e-01 1.162371e-01 9.664651e-02 7.552080e-02 7.819740e-02 1.909063e-01 9.976803e-02 1.414571e-01 4.179846e-02 3.843491e-02 5.703621e-02 1.742490e-01 1.477257e+00 1.861879e+00 4.061148e+00 3.781815e+00 1.902579e+00 9.812388e-01 2.248327e-01 1.369957e-01 1.114946e-01 9.091105e-02 6.960753e-02 6.270885e-02 5.426526e-02 4.839525e-02 4.397792e-02 3.584547e-02 3.367921e-02 5.877465e-02 3.467905e-02 6.747047e-02 3.728834e-02 4.493257e-01 4.756948e-01 4.959165e-01 9.962717e-01 7.121773e+00 2.813811e+01 3.499765e+01 3.126606e+01 1.787536e+01 5.459968e+00 3.610366e+00 2.323414e+00 1.796535e+00 1.550551e+00 1.396845e+00 1.143415e+00 9.655495e-01 8.423534e-01 7.621101e-01 6.539133e-01 5.382846e-01 5.591030e-01 7.393467e-01 5.201531e-01 6.450993e-01
<GCONST> 7.408483e+01
<STREAM> 2
<NUMMIXES> 2
<MIXTURE> 1 6.372733e-01
<MEAN> 1
 4.527326e+00
<VARIANCE> 1
 1.055680e-02
<GCONST> -2.713108e+00
<MIXTURE> 2 3.627286e-01
<MEAN> 0
<VARIANCE> 0
<GCONST> 0.000000e+00
<STREAM> 3
<NUMMIXES> 2
<MIXTURE> 1 6.060500e-01
<MEAN> 1
 2.438473e-03
<VARIANCE> 1
 3.553591e-04
<GCONST> -6.104505e+00
<MIXTURE> 2 3.939517e-01
<MEAN> 0
<VARIANCE> 0
<GCONST> 0.000000e+00
<STREAM> 4
<NUMMIXES> 2
<MIXTURE> 1 6.060501e-01
<MEAN> 1
 -9.226799e-05
<VARIANCE> 1
 8.940651e+14
<GCONST> 3.626468e+01
<MIXTURE> 2 3.939515e-01
<MEAN> 0
<VARIANCE> 0
<GCONST> 0.000000e+00
<STATE> 5
<STREAM> 1
<MEAN> 75
 -8.821900e-02 -1.052603e-01 -8.811086e-02 -7.967377e-02 -4.842517e-02 -1.269937e-02 4.533145e-02 2.301237e-01 9.875029e-01 1.897962e+00 1.877465e+00 1.245593e+00 6.522872e-01 3.441853e-01 1.660006e-01 4.101716e-02 -2.017024e-02 -6.927627e-02 -5.671962e-02 -6.464417e-02 -7.429589e-02 -8.868441e-02 -6.443849e-02 -3.489962e-02 -6.006138e-02 1.735584e-02 1.335219e-03 -1.308083e-02 -2.011937e-02 -3.374260e-02 -4.638967e-02 -1.233800e-01 -4.750616e-01 -8.382141e-01 -4.499747e-01 3.185810e-01 6.054720e-01 4.477482e-01 2.416970e-01 1.521994e-01 9.563246e-02 5.754822e-02 1.980086e-02 -1.123618e-03 1.178397e-02 1.497540e-02 -3.279956e-03 -2.607463e-02 -2.342152e-03 1.940677e-02 -1.558162e-03 3.496218e-02 -7.427153e-03 2.134158e-02 3.630707e-03 2.349783e-02 1.323154e-01 5.790414e-01 1.544140e-01 -9.250035e-01 -6.133618e-01 2.448778e-02 2.850658e-01 1.277486e-01 4.745190e-02 5.981657e-02 1.384833e-02 6.088287e-02 -2.245693e-02 6.614743e-04 -3.621483e-03 3.851733e-02 7.749276e-03 -5.233042e-02 1.123321e-02
<VARIANCE> 75
 1.405347e-01 1.203832e-01 1.422830e-01 1.447098e-01 1.782790e-01 3.253445e-01 5.279403e-01 1.399803e+00 4.390654e+00 6.145878e+00 5.148797e+00 3.248872e+00 1.323289e+00 6.896943e-01 3.957236e-01 2.672408e-01 2.069102e-01 1.790927e-01 1.756263e-01 1.599460e-01 1.580732e-01 1.451035e-01 1.596466e-01 2.853651e-01 1.660407e-01 5.840751e-02 5.664789e-02 5.471886e-02 6.808697e-02 1.096240e-01 1.669741e-01 4.362147e-01 1.298261e+00 2.177279e+00 3.301507e+00 3.331118e+00 1.937134e+00 9.483675e-01 3.317105e-01 1.669758e-01 9.530170e-02 7.350697e-02 6.531166e-02 5.922061e-02 6.312151e-02 5.831644e-02 6.321961e-02 9.682247e-02 6.784347e-02 9.822842e-02 6.428433e-01 5.926191e-01 6.589591e-01 6.806132e-01 8.244319e-01 1.374913e+00 2.741407e+00 8.557504e+00 2.296949e+01 3.246694e+01 2.700289e+01 1.562170e+01 7.089383e+00 4.010138e+00 2.334240e+00 1.676423e+00 1.402536e+00 1.325728e+00 1.241095e+00 1.100023e+00 9.659935e-01 8.909610e-01 9.904203e-01 1.149013e+00 7.655590e-01
<GCONST> 9.329406e+01
<STREAM> 2
<NUMMIXES> 2
<MIXTURE> 1 5.876839e-01
<MEAN> 1
 4.524876e+00
<VARIANCE> 1
 1.055680e-02
<GCONST> -2.713108e+00
<MIXTURE> 2 4.123174e-01
<MEAN> 0
<VARIANCE> 0
<GCONST> 0.000000e+00
<STREAM> 3
<NUMMIXES> 2
<MIXTURE> 1 5.643994e-01
<MEAN> 1
 2.322412e-03
<VARIANCE> 1
 3.553591e-04
<GCONST> -6.104505e+00
<MIXTURE> 2 4.356018e-01
<MEAN> 0
<VARIANCE> 0
<GCONST> 0.000000e+00
<STREAM> 4
<NUMMIXES> 2
<MIXTURE> 1 5.643997e-01
<MEAN> 1
 7.742643e-05
<VARIANCE> 1
 8.940651e+14
<GCONST> 3.626468e+01
<MIXTURE> 2 4.356014e-01
<MEAN> 0
<VARIANCE> 0
<GCONST> 0.000000e+00
<STATE> 6
<STREAM> 1
<MEAN> 75
 -1.297466e-02 -3.199142e-02 -5.316775e-02 -5.943681e-02 -7.223000e-02 -5.809470e-02 -3.503829e-02 6.208360e-03 1.062322e-01 1.611507e-01 2.943452e-01 7.330424e-01 1.087465e+00 9.859190e-01 8.525046e-01 6.876878e-01 5.007209e-01 3.456422e-01 2.285959e-01 1.789386e-01 1.278384e-01 1.193010e-01 8.861885e-02 7.596342e-02 5.908896e-02 2.225917e-02 2.417256e-02 1.343177e-02 1.263887e-02 -3.761034e-04 -1.115693e-02 -3.175229e-02 -6.735230e-02 -7.680519e-02 -9.211182e-02 -2.881112e-01 -3.956517e-01 -1.286980e-01 1.118165e-01 1.446089e-01 1.688612e-01 1.662762e-01 1.301639e-01 8.358724e-02 4.953533e-02 3.227322e-02 1.830843e-02 2.221459e-02 1.484701e-02 3.756668e-02 8.145679e-03 -3.715459e-04 1.637834e-02 -4.862368e-03 2.533597e-02 1.254324e-02 2.338136e-02 6.531020e-02 -4.046080e-02 8.076756e-02 3.081876e-01 -7.870940e-02 -4.538212e-01 -2.504142e-02 -2.900656e-02 -2.095267e-02 3.470851e-02 3.623806e-02 6.770707e-02 -2.029680e-03 4.685840e-02 -2.104714e-02 2.396070e-02 -9.198308e-03 -2.139270e-02
<VARIANCE> 75
 2.139795e-01 1.437114e-01 1.106053e-01 1.139359e-01 1.068145e-01 1.315190e-01 2.563970e-01 4.074625e-01 9.177932e-01 1.043527e+00 1.587094e+00 3.441893e+00 4.390071e+00 3.544275e+00 2.951818e+00 2.245199e+00 1.687512e+00 1.075867e+00 8.131578e-01 7.086806e-01 6.212888e-01 5.819443e-01 5.374771e-01 5.195137e-01 4.856675e-01 9.304525e-02 7.581257e-02 7.642999e-02 7.722743e-02 1.063867e-01 1.200378e-01 1.704420e-01 3.400527e-01 4.068642e-01 6.793483e-01 1.250269e+00 1.709293e+00 2.141204e+00 2.265220e+00 1.716256e+00 1.312787e+00 9.061073e-01 6.558819e-01 4.717368e-01 3.893875e-01 3.641497e-01 3.189798e-01 3.224553e-01 2.985143e-01 2.112763e-01 1.091815e+00 8.000064e-01 6.655857e-01 6.584836e-01 6.450759e-01 7.655407e-01 1.228390e+00 2.078086e+00 3.606654e+00 4.307688e+00 8.025166e+00 1.590921e+01 1.902922e+01 1.642317e+01 1.399220e+01 1.066327e+01 7.762801e+00 5.145872e+00 3.913406e+00 3.362817e+00 2.991468e+00 2.806419e+00 2.575025e+00 2.422611e+00 2.103701e+00
<GCONST> 1.316690e+02
<STREAM> 2
<NUMMIXES> 2
<MIXTURE> 1 4.580421e-01
<MEAN> 1
 4.340999e+00
<VARIANCE> 1
 8.449726e-01
<GCONST> 1.669426e+00
<MIXTURE> 2 5.419564e-01
<MEAN> 0
<VARIANCE> 0
<GCONST> 0.000000e+00
<STREAM> 3
<NUMMIXES> 2
<MIXTURE> 1 4.297330e-01
<MEAN> 1
 9.897197e-03
<VARIANCE> 1
 2.758086e-02
<GCONST> -1.752756e+00
<MIXTURE> 2 5.702661e-01
<MEAN> 0
<VARIANCE> 0
<GCONST> 0.000000e+00
<STREAM> 4
<NUMMIXES> 2
<MIXTURE> 1 4.297340e-01
<MEAN> 1
 3.770828e-03
<VARIANCE> 1
 8.940651e+14
<GCONST> 3.626468e+01
<MIXTURE> 2 5.702644e-01
<MEAN> 0
<VARIANCE> 0
<GCONST> 0.000000e+00
<TRANSP> 7
 0.000000e+00 1.000000e+00 0.000000e+00 0.000000e+00 0.000000e+00 0.000000e+00 0.000000e+00
 0.000000e+00 0.000000e+00 1.000000e+00 0.000000e+00 0.000000e+00 0.000000e+00 0.000000e+00
 0.000000e+00 0.000000e+00 0.000000e+00 1.000000e+00 0.000000e+00 0.000000e+00 0.000000e+00
 0.000000e+00 0.000000e+00 0.000000e+00 0.000000e+00 1.000000e+00 0.000000e+00 0.000000e+00
 0.000000e+00 0.000000e+00 0.000000e+00 0.000000e+00 0.000000e+00 1.000000e+00 0.000000e+00
 0.000000e+00 0.000000e+00 0.000000e+00 0.000000e+00 0.000000e+00 0.000000e+00 1.000000e+00
 0.000000e+00 0.000000e+00 0.000000e+00 0.000000e+00 0.000000e+00 0.000000e+00 0.000000e+00
<ENDHMM>
~h "e"
<BEGINHMM>
<NUMSTATES> 7
<STATE> 2
<STREAM> 1
<MEAN> 75
 -4.323967e-02 -3.815924e-02 -5.489096e-02 -3.929409e-02 -6.372504e-02 -6.544755e-02 -7.583533e-02 -7.271956e-02 -8.106583e-02 -6.098926e-02 -3.713323e-02 4.225373e-03 4.518980e-02 1.151039e-01 2.016181e-01 4.733383e-01 6.750972e-01 9.769743e-01 1.252170e+00 1.371062e+00 1.332047e+00 5.149277e-01 1.429683e-01 6.082813e-02 -5.112819e-02 2.341097e-02 3.628884e-03 -1.158648e-03 2.587048e-03 1.065112e-02 2.940332e-03 -6.741076e-05 -1.054612e-03 -9.386148e-03 -2.603749e-02 -3.671178e-02 -4.324353e-02 -5.479667e-02 -7.890975e-02 -1.787434e-01 -2.320671e-01 -2.430948e-01 -2.786534e-01 -1.889117e-01 -3.354221e-02 4.300792e-01 5.932031e-01 2.261637e-01 9.456602e-02 2.153481e-02 6.301542e-02 -2.321297e-02 3.200165e-02 -3.648599e-02 2.240017e-02 -9.086250e-03 1.540588e-02 -1.244510e-02 2.772337e-02 2.928472e-03 1.614550e-02 -4.040687e-03 2.443930e-02 1.860187e-02 1.793997e-01 -8.305409e-02 9.152107e-02 -2.866514e-02 -1.593719e-01 -1.544896e-01 -7.716111e-01 4.543660e-01 2.971983e-01 -2.858435e-02 1.763894e-01
<VARIANCE> 75
 3.404116e-01 2.708468e-01 1.878686e-01 1.976660e-01 1.942056e-01 1.737901e-01 1.450568e-01 1.776157e-01 1.678371e-01 3.409655e-01 4.079179e-01 5.978735e-01 7.585930e-01 9.971805e-01 1.451648e+00 2.749810e+00 3.443330e+00 4.615834e+00 5.193110e+00 5.416508e+00 5.073682e+00 1.700524e+00 6.171419e-01 4.283131e-01 2.730065e-01 1.895135e-01 9.288967e-02 9.498920e-02 7.674843e-02 7.639711e-02 7.182402e-02 7.459266e-02 6.765348e-02 1.187477e-01 1.329833e-01 2.225672e-01 2.781688e-01 3.887148e-01 5.525605e-01 9.721467e-01 1.299307e+00 2.095821e+00 2.601916e+00 3.204457e+00 3.398951e+00 2.051120e+00 1.411441e+00 4.070573e-01 1.691894e-01 2.249198e-01 1.757552e+00 1.660376e+00 1.302484e+00 1.196186e+00 1.011950e+00 8.321313e-01 7.709351e-01 8.180539e-01 9.185020e-01 1.440183e+00 1.739093e+00 2.433068e+00 3.171027e+00 4.386351e+00 7.052246e+00 1.196832e+01 1.596643e+01 2.173039e+01 2.553661e+01 2.722662e+01 2.137137e+01 7.827633e+00 4.713964e+00 2.770132e+00 2.359354e+00
<GCONST> 1.314810e+02
<STREAM> 2
<NUMMIXES> 2
<MIXTURE> 1 8.738371e-01
<MEAN> 1
 4.524812e+00
<VARIANCE> 1
 1.055680e-02
<GCONST> -2.713108e+00
<MIXTURE> 2 1.261638e-01
<MEAN> 0
<VARIANCE> 0
<GCONST> 0.000000e+00
<STREAM> 3
<NUMMIXES> 2
<MIXTURE> 1 8.555131e-01
<MEAN> 1
 1.988477e-03
<VARIANCE> 1
 3.553591e-04
<GCONST> -6.104505e+00
<MIXTURE> 2 1.444876e-01
<MEAN> 0
<VARIANCE> 0
<GCONST> 0.000000e+00
<STREAM> 4
<NUMMIXES> 2
<MIXTURE> 1 8.555129e-01
<MEAN> 1
 -6.151199e-05
<VARIANCE> 1
 8.940651e+14
<GCONST> 3.626468e+01
<MIXTURE> 2 1.444874e-01
<MEAN> 0
<VARIANCE> 0
<GCONST> 0.000000e+00
<STATE> 3
<STREAM> 1
<MEAN> 75
 3.868101e-01 1.203808e-01 2.771547e-02 -5.416062e-02 -4.946713e-02 -5.303130e-02 -4.178192e-02 -4.974087e-02 -5.420917e-02 -6.953368e-02 -6.865337e-02 -7.842313e-02 -8.512476e-02 -1.046330e-01 -9.123652e-02 -8.715542e-02 -7.412681e-02 -5.758451e-02 -4.753315e-02 -4.720581e-02 8.437777e-02 1.069025e+00 1.554754e+00 1.618657e+00 1.690556e+00 4.503925e-01 1.813379e-01 8.820812e-02 3.912834e-02 -1.504688e-03 -3.457179e-03 -2.089221e-03 2.116306e-03 6.233195e-03 4.929121e-03 2.029916e-03 4.389707e-03 1.024450e-02 1.825660e-03 -1.099276e-02 -9.664728e-03 -1.642980e-02 -1.524603e-02 -7.317709e-03 -6.719065e-02 -5.578918e-01 -7.319905e-01 -2.694220e-01 -6.082881e-02 3.051708e-01 3.734874e-01 1.776768e-01 1.034473e-02 8.925501e-02 -7.889275e-03 1.472001e-02 -1.646738e-02 5.474377e-03 -1.186707e-02 1.671303e-02 -9.433631e-03 4.757679e-03 -1.398045e-02 3.466231e-02 -6.735776e-03 6.681956e-03 5.436464e-03 -6.201672e-03 -7.647389e-03 1.269989e-01 8.507671e-01 -5.092832e-01 -4.291477e-01 5.845806e-03 -7.399114e-01
<VARIANCE> 75
 1.280708e+00 6.203284e-01 4.989418e-01 3.389940e-01 3.492880e-01 3.009814e-01 2.621055e-01 2.255945e-01 2.151819e-01 1.838262e-01 2.466737e-01 1.833925e-01 1.593715e-01 1.913506e-01 1.920521e-01 2.026285e-01 1.947331e-01 1.780205e-01 1.821854e-01 1.706398e-01 8.921606e-01 5.635319e+00 6.114290e+00 6.055300e+00 5.678372e+00 9.571283e-01 3.517338e-01 1.744174e-01 1.696428e-01 1.256027e-01 1.205889e-01 1.011165e-01 9.505689e-02 8.139621e-02 9.703044e-02 7.594439e-02 8.271147e-02 7.406367e-02 7.037021e-02 7.959700e-02 7.881673e-02 7.779127e-02 7.732901e-02 7.288992e-02 2.582746e-01 1.482095e+00 1.896415e+00 3.885988e+00 4.245626e+00 3.164777e+00 6.688728e+00 4.027644e+00 3.011818e+00 2.251293e+00 2.100502e+00 1.813324e+00 1.507596e+00 1.282966e+00 1.102181e+00 1.003985e+00 1.063239e+00 8.376936e-01 7.860683e-01 8.515131e-01 8.600960e-01 8.899862e-01 8.503062e-01 8.034703e-01 7.565573e-01 1.354446e+00 8.025952e+00 2.565035e+01 2.997708e+01 3.187053e+01 2.755382e+01
<GCONST> 1.017108e+02
<STREAM> 2
<NUMMIXES> 2
<MIXTURE> 1 9.005718e-01
<MEAN> 1
 4.523504e+00
<VARIANCE> 1
 1.055680e-02
<GCONST> -2.713108e+00
<MIXTURE> 2 9.942768e-02
<MEAN> 0
<VARIANCE> 0
<GCONST> 0.000000e+00
<STREAM> 3
<NUMMIXES> 2
<MIXTURE> 1 8.832160e-01
<MEAN> 1
 1.704414e-03
<VARIANCE> 1
 3.553591e-04
<GCONST> -6.104505e+00
<MIXTURE> 2 1.167835e-01
<MEAN> 0
<VARIANCE> 0
<GCONST> 0.000000e+00
<STREAM> 4
<NUMMIXES> 2
<MIXTURE> 1 8.832160e-01
<MEAN> 1
 6.073713e-05
<VARIANCE> 1
 8.940651e+14
<GCONST> 3.626468e+01
<MIXTURE> 2 1.167834e-01
<MEAN> 0
<VARIANCE> 0
<GCONST> 0.000000e+00
<STATE> 4
<STREAM> 1
<MEAN> 75
 1.583590e+00 1.885195e+00 1.847176e+00 1.241203e+00 4.430832e-01 1.222648e-01 1.132298e-02 -7.353756e-02 -7.886961e-02 -8.835940e-02 -7.483278e-02 -6.676698e-02 -7.866679e-02 -9.504992e-02 -9.248647e-02 -1.050561e-01 -1.011200e-01 -1.251509e-01 -1.261355e-01 -1.214460e-01 -1.051308e-01 -8.373633e-02 -5.589116e-02 -2.757967e-03 4.504025e-02 -5.664335e-01 -1.268027e-01 3.282743e-01 7.069325e-01 5.648165e-01 2.201506e-01 9.965786e-02 4.618382e-02 8.024452e-03 -2.807833e-03 -1.296927e-02 1.428891e-04 1.246789e-02 5.636040e-03 3.514349e-03 5.676635e-04 7.028613e-03 1.070436e-02 -3.849253e-03 -1.432242e-02 -2.255007e-02 -2.627021e-02 -4.131391e-02 -5.254302e-02 -3.750994e-01 -5.462073e-01 -3.477378e-01 -5.718309e-01 -1.957270e-01 4.857664e-01 2.176653e-01 3.110518e-02 7.934167e-02 -2.738621e-03 2.872402e-02 -4.433332e-03 -1.867095e-02 -6.655338e-03 1.815428e-02 -1.491199e-02 1.887535e-02 -3.032256e-02 2.319217e-02 5.929426e-03 1.445147e-02 2.742487e-03 4.346027e-03 2.751777e-02 -3.170674e-03 6.488243e-01
<VARIANCE> 75
 6.530994e+00 6.586523e+00 5.956100e+00 4.164484e+00 1.280147e+00 5.773852e-01 4.176330e-01 3.004647e-01 2.590514e-01 1.988010e-01 1.572592e-01 2.358870e-01 1.504045e-01 1.172041e-01 1.327546e-01 1.025941e-01 1.105945e-01 1.096259e-01 9.783760e-02 1.077366e-01 1.164325e-01 1.431788e-01 1.630267e-01 4.384434e-01 6.295866e-01 3.557018e+00 4.624847e+00 3.760114e+00 2.059927e+00 1.100388e+00 3.080054e-01 1.642074e-01 1.253182e-01 8.898007e-02 7.389527e-02 8.202341e-02 5.812267e-02 6.833518e-02 5.488098e-02 4.354706e-02 4.831075e-02 4.182765e-02 4.315303e-02 4.371541e-02 4.317443e-02 5.282317e-02 6.187373e-02 1.403991e-01 1.939183e-01 1.223507e+00 3.232930e+01 3.510850e+01 3.026187e+01 1.785977e+01 6.717532e+00 4.556212e+00 3.059028e+00 2.274810e+00 1.946559e+00 1.584855e+00 1.374475e+00 1.349210e+00 9.378846e-01 7.916551e-01 7.641266e-01 6.251866e-01 5.982436e-01 5.926284e-01 6.029056e-01 6.395565e-01 6.649123e-01 7.274705e-01 9.868056e-01 1.980104e+00 6.030695e+00
<GCONST> 8.687318e+01
<STREAM> 2
<NUMMIXES> 2
<MIXTURE> 1 8.718306e-01
<MEAN> 1
 4.529194e+00
<VARIANCE> 1
 1.055680e-02
<GCONST> -2.713108e+00
<MIXTURE> 2 1.281680e-01
<MEAN> 0
<VARIANCE> 0
<GCONST> 0.000000e+00
<STREAM> 3
<NUMMIXES> 2
<MIXTURE> 1 8.518201e-01
<MEAN> 1
 1.956454e-03
<VARIANCE> 1
 3.553591e-04
<GCONST> -6.104505e+00
<MIXTURE> 2 1.481787e-01
<MEAN> 0
<VARIANCE> 0
<GCONST> 0.000000e+00
<STREAM> 4
<NUMMIXES> 2
<MIXTURE> 1 8.518195e-01
<MEAN> 1
 1.020432e-04
<VARIANCE> 1
 8.940651e+14
<GCONST> 3.626468e+01
<MIXTURE> 2 1.481794e-01
<MEAN> 0
<VARIANCE> 0
<GCONST> 0.000000e+00
<STATE> 5
<STREAM> 1
<MEAN> 75
 -3.172250e-02 -1.885557e-02 1.904363e-01 7.887984e-01 1.408379e+00 1.504307e+00 1.415941e+00 1.189306e+00 7.179965e-01 2.702032e-01 4.471233e-02 -4.461837e-02 -5.783850e-02 -6.293356e-02 -6.718542e-02 -6.457941e-02 -7.245862e-02 -6.126933e-02 -7.726455e-02 -8.591259e-02 -9.764747e-02 -1.049270e-01 -1.108663e-01 -9.293664e-02 -2.931887e-02 9.696417e-03 -1.123717e-01 -4.060452e-01 -6.095947e-01 -3.560526e-01 -2.096019e-03 1.594219e-01 3.521215e-01 4.654282e-01 3.437744e-01 1.605236e-01 5.158339e-02 9.355379e-03 5.038381e-03 -6.384719e-04 5.966797e-04 -1.518361e-03 2.117855e-03 9.683234e-03 6.499187e-03 7.028603e-03 6.975716e-03 -5.031737e-03 -4.287332e-02 -5.029259e-02 4.322988e-02 2.018113e-01 3.915130e-01 1.578601e-02 -5.333862e-01 -1.909052e-01 -1.391114e-01 -2.511981e-01 1.984999e-02 2.277129e-01 1.425876e-01 7.956214e-02 9.727821e-03 1.077953e-03 1.242959e-02 -1.429093e-02 1.798526e-02 -2.423834e-02 7.983566e-03 -2.091773e-03 2.556307e-03 -1.489646e-03 2.706716e-02 4.924167e-02 -3.397044e-02
<VARIANCE> 75
 2.672423e-01 2.935081e-01 1.426882e+00 4.290699e+00 6.008699e+00 5.638940e+00 5.212836e+00 4.464062e+00 2.790650e+00 1.086697e+00 4.957700e-01 3.393703e-01 4.018807e-01 3.051823e-01 2.566235e-01 2.629200e-01 2.289889e-01 2.298540e-01 2.205172e-01 2.043799e-01 2.120160e-01 1.908121e-01 2.031694e-01 2.264781e-01 5.284629e-01 1.934411e-01 4.251788e-01 1.191221e+00 2.038180e+00 3.120637e+00 3.823557e+00 3.353362e+00 2.407816e+00 1.434350e+00 7.237071e-01 2.677471e-01 1.717736e-01 1.231045e-01 1.328410e-01 1.120338e-01 9.855840e-02 1.023130e-01 9.348407e-02 9.406070e-02 9.377499e-02 8.556354e-02 8.586043e-02 8.765331e-02 1.687921e-01 1.907702e-01 1.132266e+00 2.345487e+00 8.418438e+00 2.019900e+01 2.737985e+01 2.692095e+01 2.491078e+01 1.930006e+01 1.099809e+01 5.280367e+00 3.475354e+00 2.673575e+00 2.463190e+00 1.922407e+00 1.652893e+00 1.536191e+00 1.341217e+00 1.245141e+00 1.118520e+00 1.052768e+00 1.018489e+00 9.237053e-01 9.783651e-01 1.319213e+00 2.266561e+00
<GCONST> 1.258307e+02
<STREAM> 2
<NUMMIXES> 2
<MIXTURE> 1 8.341005e-01
<MEAN> 1
 4.524676e+00
<VARIANCE> 1
 1.055680e-02
<GCONST> -2.713108e+00
<MIXTURE> 2 1.658996e-01
<MEAN> 0
<VARIANCE> 0
<GCONST> 0.000000e+00
<STREAM> 3
<NUMMIXES> 2
<MIXTURE> 1 8.111119e-01
<MEAN> 1
 2.323159e-03
<VARIANCE> 1
 3.553591e-04
<GCONST> -6.104505e+00
<MIXTURE> 2 1.888884e-01
<MEAN> 0
<VARIANCE> 0
<GCONST> 0.000000e+00
<STREAM> 4
<NUMMIXES> 2
<MIXTURE> 1 8.111125e-01
<MEAN> 1
 1.146793e-04
<VARIANCE> 1
 8.940651e+14
<GCONST> 3.626468e+01
<MIXTURE> 2 1.888875e-01
<MEAN> 0
<VARIANCE> 0
<GCONST> 0.000000e+00
<STATE> 6
<STREAM> 1
<MEAN> 75
 -5.807525e-02 -1.057014e-01 -9.721538e-02 5.684959e-02 2.120709e-01 1.577843e-01 1.269716e-01 2.332498e-01 5.326645e-01 8.361006e-01 9.175206e-01 9.125983e-01 8.467340e-01 7.099676e-01 4.843039e-01 3.686388e-01 2.948713e-01 2.247656e-01 1.429071e-01 6.138372e-02 -1.336107e-02 -5.688575e-02 -6.407118e-02 -9.816277e-02 -1.028778e-01 1.918445e-02 1.952001e-02 -8.309440e-02 -1.560080e-01 -5.141891e-02 4.203170e-02 -4.043635e-02 -2.061932e-01 -3.016047e-01 -1.912612e-01 -3.729652e-02 3.479335e-02 9.799242e-02 1.796562e-01 1.691919e-01 9.482636e-02 7.324581e-02 7.795900e-02 8.334886e-02 7.973431e-02 6.076594e-02 2.773814e-02 2.127703e-02 1.904728e-02 -1.790034e-02 -5.644666e-02 5.597088e-02 1.480424e-01 2.535577e-03 -2.129163e-01 2.286207e-02 1.400963e-01 1.935734e-01 -1.889417e-03 -2.230219e-01 -8.709195e-02 -6.052830e-02 -7.307640e-02 -9.023362e-02 1.090966e-01 4.158351e-02 1.916052e-04 -9.285372e-03 3.038306e-03 5.417176e-03 3.231660e-02 3.743639e-02 -2.583874e-02 3.252722e-02 4.193582e-02
<VARIANCE> 75
 4.046450e-01 1.276380e-01 1.549347e-01 1.007816e+00 1.717950e+00 1.164912e+00 9.991173e-01 1.601478e+00 3.091679e+00 4.091467e+00 4.113384e+00 3.971348e+00 3.713885e+00 3.218053e+00 2.350366e+00 2.045358e+00 1.814373e+00 1.562876e+00 1.103215e+00 8.158181e-01 4.038455e-01 2.955717e-01 2.404644e-01 1.482069e-01 1.125289e-01 9.703996e-02 1.136622e-01 2.775796e-01 4.681017e-01 5.261127e-01 6.535790e-01 6.901161e-01 1.066964e+00 1.533838e+00 2.057242e+00 2.382771e+00 2.303898e+00 2.070580e+00 1.663947e+00 1.393348e+00 1.065488e+00 9.022288e-01 6.975885e-01 5.507708e-01 3.236912e-01 2.283583e-01 1.247240e-01 8.505502e-02 6.646431e-02 1.104443e-01 1.477145e+00 6.638553e-01 1.551410e+00 4.320147e+00 5.485465e+00 3.962867e+00 4.478644e+00 7.695882e+00 1.323293e+01 1.656073e+01 1.697793e+01 1.669464e+01 1.540314e+01 1.285939e+01 9.715287e+00 8.461716e+00 7.237031e+00 5.869216e+00 4.332512e+00 3.216730e+00 1.955890e+00 1.623344e+00 1.256344e+00 9.281341e-01 9.806589e-01
<GCONST> 1.572063e+02
<STREAM> 2
<NUMMIXES> 2
<MIXTURE> 1 7.709255e-01
<MEAN> 1
 4.530678e+00
<VARIANCE> 1
 1.055680e-02
<GCONST> -2.713108e+00
<MIXTURE> 2 2.290722e-01
<MEAN> 0
<VARIANCE> 0
<GCONST> 0.000000e+00
<STREAM> 3
<NUMMIXES> 2
<MIXTURE> 1 7.402435e-01
<MEAN> 1
 2.202943e-03
<VARIANCE> 1
 3.553591e-04
<GCONST> -6.104505e+00
<MIXTURE> 2 2.597534e-01
<MEAN> 0
<VARIANCE> 0
<GCONST> 0.000000e+00
<STREAM> 4
<NUMMIXES> 2
<MIXTURE> 1 7.402442e-01
<MEAN> 1
 1.007318e-05
<VARIANCE> 1
 8.940651e+14
<GCONST> 3.626468e+01
<MIXTURE> 2 2.597530e-01
<MEAN> 0
<VARIANCE> 0
<GCONST> 0.000000e+00
<TRANSP> 7
 0.000000e+00 1.000000e+00 0.000000e+00 0.000000e+00 0.000000e+00 0.000000e+00 0.000000e+00
 0.000000e+00 0.000000e+00 1.000000e+00 0.000000e+00 0.000000e+00 0.000000e+00 0.000000e+00
 0.000000e+00 0.000000e+00 0.000000e+00 1.000000e+00 0.000000e+00 0.000000e+00 0.000000e+00
 0.000000e+00 0.000000e+00 0.000000e+00 0.000000e+00 1.000000e+00 0.000000e+00 0.000000e+00
 0.000000e+00 0.000000e+00 0.000000e+00 0.000000e+00 0.000000e+00 1.000000e+00 0.000000e+00
 0.000000e+00 0.000000e+00 0.000000e+00 0.000000e+00 0.000000e+00 0.000000e+00 1.000000e+00
 0.000000e+00 0.000000e+00 0.000000e+00 0.000000e+00 0.000000e+00 0.000000e+00 0.000000e+00
<ENDHMM>
~h "f"
<BEGINHMM>
<NUMSTATES> 7
<STATE> 2
<STREAM> 1
<MEAN> 75
 2.263381e-01 9.122743e-02 2.977435e-02 3.758171e-02 1.189181e-02 -7.858947e-03 -1.299722e-02 -5.961210e-03 -5.851761e-03 -1.639485e-03 3.013408e-02 8.441525e-02 1.280490e-01 1.575564e-01 1.866981e-01 2.114543e-01 2.556666e-01 3.796920e-01 5.576192e-01 8.357921e-01 9.907344e-01 9.243660e-01 5.559417e-01 2.688504e-01 2.046371e-01 5.396382e-02 1.041643e-01 2.989968e-02 9.563250e-03 2.269232e-02 1.554386e-02 3.559233e-03 -2.265310e-03 -8.635629e-04 -1.656971e-02 -3.931491e-02 -4.647973e-02 -3.613572e-02 -3.054567e-02 -2.839442e-02 -3.508287e-02 -8.326227e-02 -1.496297e-01 -2.292360e-01 -2.191385e-01 -5.184425e-02 2.084665e-01 3.224280e-01 1.724231e-01 3.739896e-02 -1.763218e-01 7.423975e-02 7.060511e-02 -2.728336e-02 2.445237e-03 1.063372e-02 1.364608e-02 -5.558339e-03 2.125054e-03 2.415946e-02 2.235753e-02 -7.052016e-03 -1.055925e-02 1.715254e-04 -1.656909e-03 1.703754e-02 7.878452e-02 5.720592e-02 1.067146e-01 -1.147071e-01 -2.154300e-01 -3.043271e-01 7.140138e-02 2.178555e-01 4.756340e-02
<VARIANCE> 75
 1.338627e+00 5.969937e-01 3.563425e-01 4.287954e-01 3.635037e-01 2.804259e-01 2.686606e-01 2.909601e-01 2.910341e-01 3.248547e-01 5.360239e-01 8.011625e-01 9.919231e-01 1.041765e+00 1.090306e+00 1.173838e+00 1.362421e+00 1.919467e+00 2.594125e+00 3.593804e+00 3.893377e+00 3.540682e+00 1.981633e+00 8.697310e-01 8.129378e-01 3.776069e-01 4.010296e-01 2.199662e-01 1.581904e-01 1.538203e-01 1.321384e-01 1.238017e-01 1.227560e-01 1.384534e-01 1.961061e-01 2.802651e-01 3.836989e-01 4.552813e-01 5.131363e-01 5.505391e-01 6.198560e-01 8.088756e-01 1.072717e+00 1.558356e+00 1.901630e+00 2.138578e+00 1.664640e+00 1.120320e+00 6.699828e-01 4.590933e-01 4.867027e+00 2.473307e+00 2.149461e+00 1.992298e+00 1.629823e+00 1.384111e+00 1.321559e+00 1.350865e+00 1.349429e+00 1.652891e+00 2.533312e+00 3.604625e+00 4.346046e+00 4.558175e+00 4.922797e+00 5.531616e+00 6.776009e+00 9.345544e+00 1.319230e+01 1.787582e+01 1.905234e+01 1.584504e+01 8.688165e+00 4.568616e+00 4.273829e+00
<GCONST> 1.486861e+02
<STREAM> 2
<NUMMIXES> 2
<MIXTURE> 1 3.893053e-01
<MEAN> 1
 4.491468e+00
<VARIANCE> 1
 1.307218e-02
<GCONST> -2.499392e+00
<MIXTURE> 2 6.106947e-01
<MEAN> 0
<VARIANCE> 0
<GCONST> 0.000000e+00
<STREAM> 3
<NUMMIXES> 2
<MIXTURE> 1 3.566826e-01
<MEAN> 1
 3.392487e-03
<VARIANCE> 1
 3.553591e-04
<GCONST> -6.104505e+00
<MIXTURE> 2 6.433178e-01
<MEAN> 0
<VARIANCE> 0
<GCONST> 0.000000e+00
<STREAM> 4
<NUMMIXES> 2
<MIXTURE> 1 3.566819e-01
<MEAN> 1
 -2.517581e+04
<VARIANCE> 1
 8.940651e+14
<GCONST> 3.626468e+01
<MIXTURE> 2 6.433177e-01
<MEAN> 0
<VARIANCE> 0
<GCONST> 0.000000e+00
<STATE> 3
<STREAM> 1
<MEAN> 75
 1.144908e+00 8.228469e-01 3.028728e-01 1.456525e-01 1.028836e-01 5.147928e-02 2.520992e-02 2.558947e-03 -1.808777e-03 3.537685e-04 6.012648e-03 -3.213152e-03 -3.707498e-03 -4.171491e-03 -1.749249e-02 -3.168210e-02 -3.281762e-02 -2.707446e-02 -1.984988e-02 -6.784588e-03 2.777249e-02 1.847808e-01 6.091675e-01 9.079866e-01 1.027060e+00 1.474106e-01 4.136907e-01 3.358212e-01 1.010421e-01 5.093610e-02 4.213911e-02 2.568885e-02 1.567629e-02 3.840302e-03 -1.847574e-03 3.251183e-03 8.398919e-03 3.907636e-03 7.646189e-03 1.378651e-02 8.220557e-03 -1.190566e-04 -4.097348e-03 -7.678627e-03 -2.098201e-02 -9.328081e-02 -2.895987e-01 -3.622254e-01 -2.143031e-01 -1.181930e-01 -3.361594e-01 -2.025461e-01 3.513944e-01 1.099413e-01 -9.162940e-03 2.532204e-02 6.485691e-03 1.583952e-02 7.964592e-03 6.643803e-03 -1.754470e-02 7.015498e-03 3.609180e-03 -1.016960e-02 -3.190081e-03 1.012308e-02 6.094815e-03 2.416350e-03 4.059753e-03 2.186207e-02 1.232221e-01 2.689780e-01 -1.188440e-01 -1.666491e-01 -2.075522e-02
<VARIANCE> 75
 4.157999e+00 3.023267e+00 8.879613e-01 4.711074e-01 5.082051e-01 4.446131e-01 3.801041e-01 3.466524e-01 3.453351e-01 3.451718e-01 3.292441e-01 3.432395e-01 3.286257e-01 3.217214e-01 2.826451e-01 2.543405e-01 2.706696e-01 2.803205e-01 2.835891e-01 3.077958e-01 4.077156e-01 1.177644e+00 3.058350e+00 3.957163e+00 4.094574e+00 2.200662e+00 1.328860e+00 8.426040e-01 2.963456e-01 1.995611e-01 1.912342e-01 1.681378e-01 1.566279e-01 1.495885e-01 1.496468e-01 1.540903e-01 1.495718e-01 1.528045e-01 1.391577e-01 1.292242e-01 1.226230e-01 1.200654e-01 1.264307e-01 1.347746e-01 1.596879e-01 3.710681e-01 9.077860e-01 1.406723e+00 2.117146e+00 2.517532e+00 2.143824e+01 1.361166e+01 4.634849e+00 2.934946e+00 2.509565e+00 2.162793e+00 1.923990e+00 1.772045e+00 1.718882e+00 1.649572e+00 1.540672e+00 1.470580e+00 1.398244e+00 1.318676e+00 1.132142e+00 1.031681e+00 1.071689e+00 1.069831e+00 1.117579e+00 1.248834e+00 2.272445e+00 6.783801e+00 1.478021e+01 1.958956e+01 2.160793e+01
<GCONST> 1.208482e+02
<STREAM> 2
<NUMMIXES> 2
<MIXTURE> 1 4.203545e-01
<MEAN> 1
 4.490402e+00
<VARIANCE> 1
 1.239158e-02
<GCONST> -2.552860e+00
<MIXTURE> 2 5.796458e-01
<MEAN> 0
<VARIANCE> 0
<GCONST> 0.000000e+00
<STREAM> 3
<NUMMIXES> 2
<MIXTURE> 1 3.884874e-01
<MEAN> 1
 3.478860e-03
<VARIANCE> 1
 3.553591e-04
<GCONST> -6.104505e+00
<MIXTURE> 2 6.115131e-01
<MEAN> 0
<VARIANCE> 0
<GCONST> 0.000000e+00
<STREAM> 4
<NUMMIXES> 2
<MIXTURE> 1 3.884873e-01
<MEAN> 1
 -3.280044e-04
<VARIANCE> 1
 8.940651e+14
<GCONST> 3.626468e+01
<MIXTURE> 2 6.115125e-01
<MEAN> 0
<VARIANCE> 0
<GCONST> 0.000000e+00
<STATE> 4
<STREAM> 1
<MEAN> 75
 1.762873e-01 7.021601e-01 1.286428e+00 1.291462e+00 1.219630e+00 1.042951e+00 4.661458e-01 1.895983e-01 1.083008e-01 4.142506e-02 1.513530e-02 8.564487e-03 5.082399e-03 -1.034416e-02 3.672540e-04 -1.172478e-02 -1.791170e-02 -2.819751e-02 -2.858323e-02 -4.089953e-02 -5.229546e-02 -3.817539e-02 -1.114684e-02 5.177677e-03 9.980649e-03 -3.369470e-01 -5.575505e-01 -2.999032e-01 2.468876e-02 1.147386e-01 3.704093e-01 4.209344e-01 1.770030e-01 7.698393e-02 4.907671e-02 2.072414e-02 8.729330e-03 1.158458e-02 5.013465e-03 2.977775e-03 1.078306e-02 9.060604e-03 7.803262e-03 9.142859e-03 1.416497e-02 1.322972e-04 -1.866677e-02 -1.770344e-02 -7.197760e-03 -1.158935e-02 3.825368e-01 6.346221e-02 -5.706030e-01 -7.342983e-02 -1.092872e-01 -4.009823e-01 2.913137e-01 1.880596e-01 1.286316e-02 4.079963e-02 1.982637e-02 3.838830e-03 -1.257905e-02 2.473646e-02 -1.941770e-02 6.564095e-03 -6.094113e-03 1.045928e-02 -1.361349e-02 1.242057e-03 2.592056e-02 1.214643e-02 -1.066107e-02 -9.824703e-03 1.830615e-02
<VARIANCE> 75
 1.084908e+00 3.401709e+00 5.177392e+00 4.701702e+00 4.363906e+00 3.669949e+00 1.425662e+00 4.913768e-01 3.711938e-01 3.070374e-01 2.884358e-01 2.783692e-01 2.514127e-01 2.245016e-01 2.392487e-01 2.044968e-01 1.821594e-01 1.659146e-01 1.423001e-01 1.394928e-01 1.453599e-01 1.980928e-01 3.161329e-01 3.491375e-01 2.957566e-01 9.985025e-01 1.737509e+00 2.504195e+00 3.150631e+00 2.694279e+00 1.628588e+00 1.034002e+00 3.942922e-01 1.615355e-01 1.332232e-01 1.155374e-01 1.076274e-01 9.881772e-02 9.679675e-02 8.756676e-02 8.444239e-02 7.305888e-02 6.420985e-02 5.892568e-02 5.454640e-02 6.861452e-02 1.027330e-01 1.242528e-01 1.400095e-01 1.757332e-01 6.698715e+00 1.793853e+01 2.647372e+01 2.614587e+01 2.457805e+01 1.804591e+01 7.398324e+00 3.248800e+00 2.114924e+00 1.834906e+00 1.728964e+00 1.616613e+00 1.456259e+00 1.339468e+00 1.292417e+00 1.131978e+00 9.937425e-01 8.980392e-01 7.966499e-01 7.845539e-01 8.401619e-01 1.100418e+00 1.378546e+00 1.334182e+00 1.285642e+00
<GCONST> 1.075841e+02
<STREAM> 2
<NUMMIXES> 2
<MIXTURE> 1 4.483427e-01
<MEAN> 1
 4.499679e+00
<VARIANCE> 1
 1.056080e-02
<GCONST> -2.712729e+00
<MIXTURE> 2 5.516574e-01
<MEAN> 0
<VARIANCE> 0
<GCONST> 0.000000e+00
<STREAM> 3
<NUMMIXES> 2
<MIXTURE> 1 4.213628e-01
<MEAN> 1
 2.924566e-03
<VARIANCE> 1
 3.553591e-04
<GCONST> -6.104505e+00
<MIXTURE> 2 5.786367e-01
<MEAN> 0
<VARIANCE> 0
<GCONST> 0.000000e+00
<STREAM> 4
<NUMMIXES> 2
<MIXTURE> 1 4.213626e-01
<MEAN> 1
 -3.337860e-04
<VARIANCE> 1
 8.940651e+14
<GCONST> 3.626468e+01
<MIXTURE> 2 5.786367e-01
<MEAN> 0
<VARIANCE> 0
<GCONST> 0.000000e+00
<STATE> 5
<STREAM> 1
<MEAN> 75
 6.032407e-03 1.541288e-02 4.514833e-02 2.586349e-01 2.201394e-01 3.609548e-01 1.006748e+00 1.286489e+00 1.255790e+00 9.123904e-01 3.351056e-01 1.750245e-01 1.201004e-01 7.516427e-02 5.486602e-02 3.536949e-02 3.048477e-02 1.883827e-02 1.834957e-02 1.766786e-03 9.773478e-03 -5.737484e-03 1.588042e-02 3.262645e-02 3.968798e-02 6.628167e-04 -1.760655e-02 -1.185151e-01 -8.326429e-02 -5.004322e-02 -3.948988e-01 -4.671059e-01 -1.270567e-01 1.810735e-01 4.543174e-01 3.630130e-01 1.045462e-01 4.981004e-02 3.455711e-02 2.091812e-02 1.118530e-02 1.012109e-02 8.331195e-03 9.849527e-03 2.729673e-03 6.645049e-03 -4.622677e-03 -1.028312e-02 -1.229501e-02 1.475499e-02 1.776065e-02 2.243900e-02 1.786564e-01 -2.461345e-01 1.795181e-01 5.110582e-01 -3.597159e-01 -3.099298e-01 -3.067766e-01 -2.367121e-01 4.131939e-01 1.019571e-01 7.316802e-03 2.009275e-02 2.558288e-03 1.553399e-02 -1.007715e-02 1.113105e-02 -1.377802e-02 2.604398e-02 -3.081792e-02 3.478984e-02 -1.003286e-03 -1.257592e-02 -2.716386e-02
<VARIANCE> 75
 3.733931e-01 4.508519e-01 4.760230e-01 1.652586e+00 1.111846e+00 1.912238e+00 4.458712e+00 4.999363e+00 4.594415e+00 3.306668e+00 9.751843e-01 5.443267e-01 4.762823e-01 4.681890e-01 4.469903e-01 4.319344e-01 3.635092e-01 3.408135e-01 3.412459e-01 3.401662e-01 3.411493e-01 3.310852e-01 3.639868e-01 5.199398e-01 5.342621e-01 2.018121e-01 1.990218e-01 5.281503e-01 3.960494e-01 9.445146e-01 1.531124e+00 1.977156e+00 2.892677e+00 2.611519e+00 1.503876e+00 9.465089e-01 3.159047e-01 2.238909e-01 1.979056e-01 1.954650e-01 1.710517e-01 1.619194e-01 1.535565e-01 1.526974e-01 1.546763e-01 1.624269e-01 2.123652e-01 2.261295e-01 2.627079e-01 2.333135e-01 1.747465e+00 1.897458e+00 2.991544e+00 5.642820e+00 4.951084e+00 1.159971e+01 2.351492e+01 2.752274e+01 2.510154e+01 1.620309e+01 5.842215e+00 3.272556e+00 2.493809e+00 2.272925e+00 2.194571e+00 2.108833e+00 1.883921e+00 1.715263e+00 1.626035e+00 1.542177e+00 1.534842e+00 1.506941e+00 1.737796e+00 2.122953e+00 2.059621e+00
<GCONST> 1.375317e+02
<STREAM> 2
<NUMMIXES> 2
<MIXTURE> 1 4.819562e-01
<MEAN> 1
 4.493528e+00
<VARIANCE> 1
 1.185378e-01
<GCONST> -2.946463e-01
<MIXTURE> 2 5.180439e-01
<MEAN> 0
<VARIANCE> 0
<GCONST> 0.000000e+00
<STREAM> 3
<NUMMIXES> 2
<MIXTURE> 1 4.551125e-01
<MEAN> 1
 9.432181e-03
<VARIANCE> 1
 3.050378e-02
<GCONST> -1.652028e+00
<MIXTURE> 2 5.448881e-01
<MEAN> 0
<VARIANCE> 0
<GCONST> 0.000000e+00
<STREAM> 4
<NUMMIXES> 2
<MIXTURE> 1 4.551120e-01
<MEAN> 1
 1.559496e-03
<VARIANCE> 1
 8.940651e+14
<GCONST> 3.626468e+01
<MIXTURE> 2 5.448885e-01
<MEAN> 0
<VARIANCE> 0
<GCONST> 0.000000e+00
<STATE> 6
<STREAM> 1
<MEAN> 75
 3.244758e-02 2.927975e-02 2.453926e-02 4.901232e-02 2.218584e-01 1.997207e-01 1.898720e-01 1.388152e-01 1.530350e-01 4.255540e-01 8.317891e-01 8.669319e-01 6.979523e-01 6.092321e-01 4.430841e-01 3.213504e-01 1.863379e-01 1.531743e-01 9.948009e-02 9.398882e-02 5.313680e-02 5.559077e-02 2.335890e-02 5.117309e-02 5.084240e-02 2.206999e-02 3.085630e-03 6.675227e-03 -1.141493e-01 -5.762297e-02 3.874358e-03 4.628112e-02 1.293038e-02 -1.341032e-01 -3.408060e-01 -2.134450e-01 6.525308e-02 1.321040e-01 1.247314e-01 1.418392e-01 1.210428e-01 8.358668e-02 4.448342e-02 3.511195e-02 2.649130e-02 2.311698e-02 2.017802e-02 3.529193e-03 -8.235080e-03 -4.797074e-03 3.556414e-02 -3.832998e-03 3.522883e-02 1.455687e-01 -1.809870e-01 2.574535e-02 -3.793954e-02 8.525861e-02 2.590722e-01 1.556392e-01 -3.703153e-01 -1.839339e-01 8.073969e-02 -5.423208e-02 4.461822e-02 1.368654e-02 8.642004e-02 7.715161e-03 4.413075e-02 -1.200628e-02 4.240167e-02 -2.265899e-02 4.970980e-02 -8.529332e-03 5.217610e-03
<VARIANCE> 75
 3.392783e-01 2.699850e-01 3.938161e-01 4.189974e-01 1.482356e+00 9.999431e-01 1.207809e+00 7.127506e-01 1.048558e+00 2.125777e+00 3.937207e+00 3.609753e+00 3.043736e+00 2.383080e+00 1.905655e+00 1.263564e+00 9.605901e-01 7.029994e-01 6.907025e-01 5.051757e-01 4.754050e-01 3.897223e-01 4.469942e-01 4.006426e-01 5.562758e-01 1.898589e-01 2.441128e-01 2.351572e-01 6.882933e-01 5.048056e-01 9.271329e-01 5.362443e-01 8.053493e-01 8.691690e-01 1.504680e+00 1.785208e+00 2.199586e+00 1.841469e+00 1.508825e+00 1.093730e+00 8.935068e-01 6.261812e-01 5.768518e-01 4.143504e-01 4.552720e-01 3.163589e-01 3.401731e-01 2.734116e-01 3.671529e-01 2.717818e-01 1.510415e+00 1.367082e+00 1.643656e+00 2.723747e+00 5.147899e+00 3.915225e+00 4.691818e+00 3.563219e+00 5.522540e+00 1.145569e+01 1.865841e+01 1.837343e+01 1.543048e+01 1.239215e+01 9.455715e+00 6.565417e+00 4.512945e+00 3.476774e+00 2.948508e+00 2.313500e+00 1.970985e+00 1.831511e+00 1.804906e+00 1.848117e+00 2.082486e+00
<GCONST> 1.577026e+02
<STREAM> 2
<NUMMIXES> 2
<MIXTURE> 1 4.875703e-01
<MEAN> 1
 3.901068e+00
<VARIANCE> 1
 2.294784e+00
<GCONST> 2.668516e+00
<MIXTURE> 2 5.124296e-01
<MEAN> 0
<VARIANCE> 0
<GCONST> 0.000000e+00
<STREAM> 3
<NUMMIXES> 2
<MIXTURE> 1 4.457555e-01
<MEAN> 1
 2.290726e-02
<VARIANCE> 1
 1.003658e-01
<GCONST> -4.610569e-01
<MIXTURE> 2 5.542454e-01
<MEAN> 0
<VARIANCE> 0
<GCONST> 0.000000e+00
<STREAM> 4
<NUMMIXES> 2
<MIXTURE> 1 4.457559e-01
<MEAN> 1
 1.246071e-02
<VARIANCE> 1
 8.940651e+14
<GCONST> 3.626468e+01
<MIXTURE> 2 5.542450e-01
<MEAN> 0
<VARIANCE> 0
<GCONST> 0.000000e+00
<TRANSP> 7
 0.000000e+00 1.000000e+00 0.000000e+00 0.000000e+00 0.000000e+00 0.000000e+00 0.000000e+00
 0.000000e+00 0.000000e+00 1.000000e+00 0.000000e+00 0.000000e+00 0.000000e+00 0.000000e+00
 0.000000e+00 0.000000e+00 0.000000e+00 1.000000e+00 0.000000e+00 0.000000e+00 0.000000e+00
 0.000000e+00 0.000000e+00 0.000000e+00 0.000000e+00 1.000000e+00 0.000000e+00 0.000000e+00
 0.000000e+00 0.000000e+00 0.000000e+00 0.000000e+00 0.000000e+00 1.000000e+00 0.000000e+00
 0.000000e+00 0.000000e+00 0.000000e+00 0.000000e+00 0.000000e+00 0.000000e+00 1.000000e+00
 0.000000e+00 0.000000e+00 0.000000e+00 0.000000e+00 0.000000e+00 0.000000e+00 0.000000e+00
<ENDHMM>
~h "g"
<BEGINHMM>
<NUMSTATES> 7
<STATE> 2
<STREAM> 1
<MEAN> 75
 -3.540339e-02 -4.918042e-02 -4.346383e-02 -2.475274e-02 -6.607741e-03 3.321739e-02 1.114877e-01 3.779927e-01 6.307234e-01 7.754551e-01 9.078345e-01 9.911559e-01 1.036499e+00 9.661463e-01 4.844860e-01 1.727946e-01 1.199184e-01 9.689020e-02 7.063392e-02 1.671436e-02 -5.584493e-03 -3.891683e-02 -1.905507e-02 -5.237724e-02 -2.162789e-02 9.502612e-03 2.137522e-03 -1.540210e-02 -1.968145e-02 -2.929271e-02 -5.695882e-02 -1.724867e-01 -2.614425e-01 -1.995120e-01 -1.368120e-01 -1.018307e-01 -6.088503e-02 1.501077e-02 2.758637e-01 3.937861e-01 1.834116e-01 4.274753e-02 3.072887e-02 4.186863e-02 3.643811e-02 2.487612e-02 2.897525e-03 4.008735e-03 3.250126e-03 -1.089639e-02 -3.737901e-03 1.983085e-02 1.424845e-02 -5.356626e-03 2.106988e-02 3.928892e-02 1.859575e-01 -1.598196e-02 -1.110824e-01 -2.128913e-02 -5.444489e-02 -3.113954e-02 -1.151543e-01 -4.084351e-01 1.727601e-01 2.578495e-01 1.607263e-02 -1.816677e-03 -1.695391e-02 3.776347e-02 -6.289902e-03 5.351792e-02 -5.419082e-02 6.211293e-02 -3.572677e-02
<VARIANCE> 75
 3.381253e-01 3.130671e-01 3.209373e-01 4.084921e-01 4.535116e-01 6.680794e-01 9.238590e-01 2.357050e+00 3.254397e+00 3.695756e+00 3.934400e+00 4.172234e+00 4.221380e+00 4.032903e+00 1.837405e+00 8.341517e-01 7.335207e-01 9.703740e-01 7.949437e-01 6.687509e-01 3.950808e-01 3.088512e-01 3.241942e-01 2.584963e-01 4.421245e-01 1.598277e-01 1.435457e-01 1.650982e-01 1.772266e-01 2.571506e-01 3.358160e-01 7.609934e-01 1.090652e+00 1.688220e+00 2.060621e+00 2.312743e+00 2.469557e+00 2.490500e+00 1.697580e+00 1.210309e+00 5.320800e-01 3.756899e-01 3.391572e-01 3.912049e-01 2.770284e-01 2.172217e-01 1.554355e-01 1.190020e-01 1.670851e-01 1.602388e-01 1.497048e+00 1.380983e+00 1.489457e+00 1.697000e+00 1.909167e+00 2.769108e+00 4.867657e+00 9.996922e+00 1.345462e+01 1.605819e+01 1.799803e+01 1.923393e+01 1.939445e+01 1.589328e+01 7.591607e+00 4.767202e+00 4.146245e+00 4.300192e+00 3.681959e+00 3.027738e+00 2.093444e+00 1.814720e+00 1.628279e+00 1.492840e+00 1.970129e+00
<GCONST> 1.518917e+02
<STREAM> 2
<NUMMIXES> 2
<MIXTURE> 1 9.002491e-01
<MEAN> 1
 4.522406e+00
<VARIANCE> 1
 1.055680e-02
<GCONST> -2.713108e+00
<MIXTURE> 2 9.975073e-02
<MEAN> 0
<VARIANCE> 0
<GCONST> 0.000000e+00
<STREAM> 3
<NUMMIXES> 2
<MIXTURE> 1 8.816615e-01
<MEAN> 1
 1.843888e-03
<VARIANCE> 1
 3.553591e-04
<GCONST> -6.104505e+00
<MIXTURE> 2 1.183382e-01
<MEAN> 0
<VARIANCE> 0
<GCONST> 0.000000e+00
<STREAM> 4
<NUMMIXES> 2
<MIXTURE> 1 8.816616e-01
<MEAN> 1
 6.985664e-04
<VARIANCE> 1
 8.940651e+14
<GCONST> 3.626468e+01
<MIXTURE> 2 1.183380e-01
<MEAN> 0
<VARIANCE> 0
<GCONST> 0.000000e+00
<STATE> 3
<STREAM> 1
<MEAN> 75
