~o
<STREAMINFO> 4 75 1 1 1
<MSDINFO> 4 0 1 1 1
<VECSIZE> 78<NULLD><USER><DIAGC>
~h "#"
<BEGINHMM>
<NUMSTATES> 7
<STATE> 2
<STREAM> 1
<MEAN> 75
 3.155875e-01 3.554691e-01 3.575407e-01 3.578406e-01 3.371927e-01 2.942697e-01 2.636415e-01 2.478938e-01 2.304750e-01 2.225174e-01 2.093465e-01 2.047095e-01 1.958176e-01 1.912323e-01 1.831778e-01 1.808375e-01 1.747018e-01 1.759191e-01 1.745674e-01 1.754976e-01 1.798312e-01 1.910965e-01 1.992748e-01 2.071004e-01 2.258579e-01 -6.063815e-02 -4.231410e-02 -2.220710e-03 4.501252e-03 3.359769e-02 4.034843e-02 2.679596e-02 1.990021e-02 1.721482e-02 1.382601e-02 1.333262e-02 1.073375e-02 1.005811e-02 9.615641e-03 8.674899e-03 6.702383e-03 4.246601e-03 3.481208e-03 1.583355e-03 -6.180736e-04 -3.097248e-04 -1.518462e-02 -1.594929e-03 -1.580014e-02 -9.992629e-03 -4.872676e-03 5.553204e-03 -5.676460e-03 -1.144003e-02 -2.537609e-02 1.729705e-02 1.734446e-02 7.164176e-04 1.275145e-02 -3.964605e-03 1.112117e-02 -1.634445e-03 8.802145e-03 -1.529414e-03 7.864550e-03 -3.634770e-04 9.704802e-03 2.836110e-04 6.317066e-03 8.628360e-03 4.920834e-03 6.632307e-03 1.398244e-02 1.828937e-02 1.267976e-02
<VARIANCE> 75
 4.741636e-01 4.672791e-01 4.585922e-01 3.760159e-01 2.858450e-01 1.671148e-01 1.350975e-01 1.177506e-01 1.117648e-01 1.076767e-01 1.056658e-01 1.058494e-01 1.059749e-01 1.036959e-01 1.047590e-01 1.043457e-01 1.045669e-01 1.059852e-01 1.117514e-01 1.182343e-01 1.452570e-01 1.569778e-01 1.841453e-01 1.987696e-01 2.629307e-01 2.467545e-01 3.092385e-01 2.291842e-01 1.833875e-01 1.281175e-01 9.545825e-02 6.013419e-02 5.065496e-02 4.555383e-02 4.412910e-02 4.389989e-02 4.313496e-02 4.256253e-02 4.347188e-02 4.268617e-02 4.290766e-02 4.349146e-02 4.445568e-02 4.756956e-02 5.803178e-02 7.737346e-02 1.065582e-01 1.045628e-01 1.440712e-01 1.506336e-01 1.493063e+00 1.665590e+00 1.697079e+00 1.531807e+00 1.127993e+00 6.684314e-01 5.300539e-01 4.556600e-01 4.324494e-01 4.178296e-01 4.087251e-01 4.069207e-01 4.068482e-01 3.996780e-01 3.969928e-01 3.972255e-01 3.971531e-01 4.039243e-01 4.191558e-01 4.539190e-01 5.190759e-01 5.781127e-01 6.679807e-01 7.620385e-01 1.019749e+00
<GCONST> 1.580515e+01
<STREAM> 2
<NUMMIXES> 2
<MIXTURE> 1 7.587354e-02
<MEAN> 1
 6.804975e-01
<VARIANCE> 1
 2.252267e+00
<GCONST> 2.649814e+00
<MIXTURE> 2 9.241241e-01
<MEAN> 0
<VARIANCE> 0
<GCONST> 0.000000e+00
<STREAM> 3
<NUMMIXES> 2
<MIXTURE> 1 7.501501e-02
<MEAN> 1
 2.113611e-01
<VARIANCE> 1
 1.196885e+00
<GCONST> 2.017599e+00
<MIXTURE> 2 9.249828e-01
<MEAN> 0
<VARIANCE> 0
<GCONST> 0.000000e+00
<STREAM> 4
<NUMMIXES> 2
<MIXTURE> 1 7.501478e-02
<MEAN> 1
 3.095757e-01
<VARIANCE> 1
 8.940651e+14
<GCONST> 3.626468e+01
<MIXTURE> 2 9.249828e-01
<MEAN> 0
<VARIANCE> 0
<GCONST> 0.000000e+00
<STATE> 3
<STREAM> 1
<MEAN> 75
 1.480488e-01 1.171131e-01 1.234045e-01 1.200074e-01 1.789447e-01 2.812689e-01 3.597202e-01 3.868018e-01 4.251439e-01 4.349422e-01 4.429593e-01 3.854732e-01 2.972648e-01 2.386601e-01 2.182925e-01 1.948958e-01 1.761611e-01 1.549219e-01 1.394387e-01 1.296012e-01 1.345920e-01 1.230377e-01 1.120574e-01 1.067661e-01 6.554130e-02 1.992466e-02 1.169708e-02 4.975986e-03 -2.031688e-02 -8.036236e-02 -8.006810e-02 -5.046047e-02 -2.230961e-02 -2.161088e-02 1.214852e-03 2.144047e-02 8.726819e-02 7.031488e-02 5.267543e-02 1.966205e-02 3.585442e-02 1.442335e-02 3.617075e-02 2.109951e-02 2.784882e-03 1.136000e-02 3.511385e-02 9.979960e-04 3.368629e-02 2.530195e-02 -1.746297e-02 4.503914e-02 1.317807e-02 7.583349e-02 6.710922e-02 -1.267423e-02 -1.928005e-02 2.026225e-02 -9.831637e-04 1.356068e-02 -4.087014e-02 -1.565241e-02 6.267503e-02 4.896266e-02 2.261013e-02 1.926340e-02 1.970409e-02 2.630912e-02 1.914283e-02 2.220322e-02 3.340719e-02 2.116559e-02 2.427324e-02 2.340561e-02 -8.325465e-05
<VARIANCE> 75
 3.602250e-01 2.284252e-01 2.644958e-01 2.434096e-01 5.018749e-01 7.134784e-01 8.051271e-01 7.936249e-01 8.120140e-01 7.769555e-01 7.477564e-01 4.539680e-01 2.283944e-01 1.571848e-01 1.443854e-01 1.270580e-01 1.263421e-01 1.319472e-01 1.498803e-01 1.467971e-01 1.615028e-01 1.760022e-01 2.000346e-01 3.204492e-01 4.811220e-01 1.857793e-01 1.830228e-01 1.262476e-01 2.098552e-01 2.622840e-01 3.603396e-01 4.056212e-01 4.503167e-01 4.326026e-01 4.366726e-01 3.446262e-01 2.623629e-01 1.508723e-01 9.788555e-02 7.133333e-02 6.677069e-02 7.061242e-02 7.651993e-02 1.069088e-01 1.674068e-01 9.515966e-02 1.033022e-01 1.418216e-01 1.779700e-01 3.742259e-01 1.361264e+00 9.939755e-01 9.915901e-01 1.160880e+00 2.278881e+00 3.190166e+00 3.576031e+00 3.676978e+00 3.801202e+00 3.748608e+00 3.412472e+00 2.125010e+00 1.080361e+00 6.918346e-01 5.861384e-01 5.331730e-01 5.270591e-01 5.494127e-01 5.829794e-01 5.871819e-01 6.393555e-01 6.602560e-01 6.989589e-01 7.850136e-01 8.888221e-01
<GCONST> 6.837208e+01
<STREAM> 2
<NUMMIXES> 2
<MIXTURE> 1 3.017335e-01
<MEAN> 1
 1.140051e+00
<VARIANCE> 1
 3.574827e+00
<GCONST> 3.111794e+00
<MIXTURE> 2 6.982613e-01
<MEAN> 0
<VARIANCE> 0
<GCONST> 0.000000e+00
<STREAM> 3
<NUMMIXES> 2
<MIXTURE> 1 2.977549e-01
<MEAN> 1
 1.949052e-01
<VARIANCE> 1
 6.246367e-01
<GCONST> 1.367292e+00
<MIXTURE> 2 7.022399e-01
<MEAN> 0
<VARIANCE> 0
<GCONST> 0.000000e+00
<STREAM> 4
<NUMMIXES> 2
<MIXTURE> 1 2.977537e-01
<MEAN> 1
 1.122786e-01
<VARIANCE> 1
 8.940651e+14
<GCONST> 3.626468e+01
<MIXTURE> 2 7.022401e-01
<MEAN> 0
<VARIANCE> 0
<GCONST> 0.000000e+00
<STATE> 4
<STREAM> 1
<MEAN> 75
 6.631257e-02 6.159803e-02 3.830954e-02 4.047486e-02 2.360886e-02 2.765451e-02 1.992102e-02 9.140223e-03 -6.056868e-03 2.566167e-02 1.721742e-02 9.388318e-02 1.767282e-01 2.333252e-01 2.554942e-01 2.922619e-01 3.214523e-01 3.785551e-01 4.131357e-01 4.328311e-01 4.441993e-01 4.671084e-01 4.581752e-01 1.783358e-01 1.307899e-01 4.338200e-03 2.675218e-02 -1.891413e-02 1.833725e-02 -2.476153e-02 1.657189e-02 -1.949173e-02 3.261656e-02 -8.088963e-03 -5.287279e-02 7.930917e-04 -9.556095e-02 -2.933220e-02 -5.591670e-02 2.984729e-02 -3.006160e-02 4.109214e-02 -1.597549e-02 3.860078e-02 1.486488e-02 4.385668e-02 1.760181e-02 1.839358e-01 1.843170e-01 6.603214e-02 9.843262e-02 -1.795338e-02 6.049744e-02 -2.435052e-02 4.906446e-02 -1.984305e-02 3.339431e-02 -2.711285e-03 3.755031e-02 1.288973e-02 1.074582e-01 8.010978e-02 2.302041e-02 3.882384e-02 7.993147e-02 5.547290e-02 9.309378e-02 6.413023e-02 8.518331e-02 8.073584e-02 8.241834e-02 5.860449e-02 -1.874536e-01 2.611713e-01 1.556749e-01
<VARIANCE> 75
 1.753518e-01 1.640864e-01 1.632891e-01 1.497657e-01 1.472732e-01 1.394781e-01 1.377016e-01 1.470767e-01 1.857942e-01 2.424154e-01 3.746618e-01 5.909513e-01 9.420695e-01 9.051211e-01 1.077594e+00 9.873894e-01 1.234826e+00 1.438800e+00 1.784612e+00 1.796741e+00 2.082066e+00 2.027540e+00 2.163431e+00 4.801099e-01 2.764654e-01 1.030390e-01 9.524290e-02 8.662819e-02 8.365063e-02 8.493145e-02 8.385132e-02 7.954282e-02 1.388282e-01 3.811419e-01 6.730506e-01 6.888245e-01 9.316989e-01 8.390988e-01 1.185154e+00 9.698250e-01 1.214901e+00 1.125817e+00 1.466511e+00 1.348756e+00 1.692110e+00 1.511691e+00 1.713607e+00 1.086518e+00 1.177093e+00 3.235584e-01 1.043766e+00 8.935694e-01 8.245460e-01 7.568008e-01 6.973273e-01 6.601533e-01 6.239007e-01 6.085723e-01 6.503179e-01 8.754780e-01 1.373777e+00 2.439765e+00 3.671613e+00 4.001637e+00 4.385096e+00 4.552146e+00 5.463016e+00 6.666276e+00 7.853197e+00 8.136951e+00 8.629416e+00 8.818914e+00 7.412588e+00 2.214424e+00 1.855018e+00
<GCONST> 1.203149e+02
<STREAM> 2
<NUMMIXES> 2
<MIXTURE> 1 5.429940e-01
<MEAN> 1
 1.716855e+00
<VARIANCE> 1
 4.361072e+00
<GCONST> 3.310595e+00
<MIXTURE> 2 4.570016e-01
<MEAN> 0
<VARIANCE> 0
<GCONST> 0.000000e+00
<STREAM> 3
<NUMMIXES> 2
<MIXTURE> 1 5.108000e-01
<MEAN> 1
 5.490691e-02
<VARIANCE> 1
 5.095986e-02
<GCONST> -1.138840e+00
<MIXTURE> 2 4.891951e-01
<MEAN> 0
<VARIANCE> 0
<GCONST> 0.000000e+00
<STREAM> 4
<NUMMIXES> 2
<MIXTURE> 1 5.108002e-01
<MEAN> 1
 -1.370539e+07
<VARIANCE> 1
 2.739199e+17
<GCONST> 4.198949e+01
<MIXTURE> 2 4.891952e-01
<MEAN> 0
<VARIANCE> 0
<GCONST> 0.000000e+00
<STATE> 5
<STREAM> 1
<MEAN> 75
 4.035116e-01 3.876140e-01 4.017357e-01 3.907535e-01 3.984840e-01 3.763982e-01 1.670249e-01 8.167224e-02 1.073214e-01 3.505844e-02 6.774099e-02 1.981336e-02 6.535901e-02 2.867436e-02 7.575127e-02 3.836583e-02 5.559356e-02 4.269521e-02 7.101641e-02 6.066790e-02 5.148185e-02 7.809430e-02 6.551584e-02 3.190736e-01 3.730140e-01 2.789356e-02 9.792489e-03 5.321437e-02 1.665465e-02 5.456416e-02 1.403607e-01 2.033777e-01 4.087657e-02 6.952970e-02 7.652938e-02 1.749134e-02 4.361231e-02 1.535330e-02 3.313013e-02 2.126658e-02 3.461082e-02 1.402516e-02 3.533593e-02 1.983421e-02 3.398489e-02 3.349993e-02 4.110366e-02 -7.660113e-02 -9.322664e-02 1.128874e-02 3.713131e-03 7.720686e-02 2.990720e-02 7.795572e-02 3.910745e-02 -1.451765e-01 2.024966e-01 1.479169e-01 1.277208e-02 1.017458e-01 1.064145e-02 5.052074e-02 5.536491e-03 4.336429e-02 -1.876712e-02 3.994763e-02 -1.603447e-02 2.476100e-02 -1.092939e-02 1.392859e-02 -1.785160e-02 1.686935e-02 2.141954e-01 -1.542977e-01 -7.343975e-02
<VARIANCE> 75
 2.229410e+00 2.214066e+00 2.324231e+00 2.252964e+00 2.308518e+00 2.279238e+00 1.002823e+00 7.341298e-01 7.794197e-01 6.085647e-01 5.800841e-01 5.677678e-01 5.380237e-01 5.287511e-01 5.335389e-01 5.488899e-01 6.195180e-01 5.889180e-01 6.074157e-01 6.643913e-01 9.281427e-01 8.704336e-01 1.017509e+00 2.294631e+00 2.507541e+00 1.488185e+00 1.665568e+00 1.527860e+00 1.662525e+00 1.569144e+00 1.286694e+00 1.066784e+00 8.859155e-01 4.628565e-01 3.726571e-01 3.105459e-01 2.918893e-01 2.727779e-01 2.706671e-01 2.542466e-01 2.564192e-01 2.553650e-01 2.793162e-01 2.673784e-01 2.997924e-01 3.121021e-01 4.231769e-01 7.656840e-01 8.645223e-01 1.213766e+00 8.987058e+00 9.025661e+00 9.139315e+00 9.114923e+00 9.167984e+00 7.726688e+00 3.703603e+00 3.234199e+00 2.864006e+00 2.410783e+00 2.210913e+00 2.088561e+00 1.967291e+00 1.886634e+00 1.857529e+00 1.834487e+00 1.888388e+00 1.918190e+00 1.983786e+00 2.018846e+00 2.125006e+00 2.214287e+00 3.615299e+00 7.829872e+00 8.332606e+00
<GCONST> 1.545757e+02
<STREAM> 2
<NUMMIXES> 2
<MIXTURE> 1 8.365559e-01
<MEAN> 1
 2.628720e+00
<VARIANCE> 1
 4.865142e+00
<GCONST> 3.419973e+00
<MIXTURE> 2 1.634464e-01
<MEAN> 0
<VARIANCE> 0
<GCONST> 0.000000e+00
<STREAM> 3
<NUMMIXES> 2
<MIXTURE> 1 8.196175e-01
<MEAN> 1
 9.344287e-03
<VARIANCE> 1
 2.250026e-01
<GCONST> 3.462338e-01
<MIXTURE> 2 1.803838e-01
<MEAN> 0
<VARIANCE> 0
<GCONST> 0.000000e+00
<STREAM> 4
<NUMMIXES> 2
<MIXTURE> 1 8.196175e-01
<MEAN> 1
 5.100751e-03
<VARIANCE> 1
 8.940651e+14
<GCONST> 3.626468e+01
<MIXTURE> 2 1.803838e-01
<MEAN> 0
<VARIANCE> 0
<GCONST> 0.000000e+00
<STATE> 6
<STREAM> 1
<MEAN> 75
 1.794840e-01 1.799443e-01 1.816007e-01 1.800685e-01 1.816964e-01 1.814731e-01 2.957203e-01 3.326423e-01 3.236751e-01 3.366458e-01 3.146431e-01 2.971779e-01 2.522778e-01 2.483395e-01 2.190303e-01 2.274359e-01 2.114884e-01 2.155373e-01 2.017546e-01 2.038599e-01 1.997115e-01 1.891898e-01 1.915454e-01 1.872999e-01 1.882700e-01 6.845016e-03 7.251341e-03 5.472092e-03 6.661411e-03 5.385842e-03 -5.052396e-02 -6.675988e-02 -9.063905e-03 7.705188e-03 1.317990e-02 2.820560e-02 4.303388e-02 3.616630e-02 2.865953e-02 2.024327e-02 2.076999e-02 1.747159e-02 1.800362e-02 1.535847e-02 1.472622e-02 1.357328e-02 6.477285e-03 5.082958e-03 3.563130e-03 3.104922e-03 5.449811e-03 2.852064e-04 1.438535e-03 -4.465291e-04 1.526670e-03 1.117178e-01 -7.846288e-02 -3.962808e-02 7.943388e-03 -1.916829e-02 -1.103720e-02 -1.460424e-02 2.247032e-02 1.410902e-03 1.022412e-02 -6.117429e-03 1.346494e-02 -8.286837e-03 1.318700e-02 -6.900529e-03 1.349465e-02 8.660648e-05 8.469017e-03 -4.459033e-03 6.995917e-03
<VARIANCE> 75
 1.343823e+00 1.320552e+00 1.339062e+00 1.327016e+00 1.352934e+00 1.341877e+00 2.031294e+00 2.065786e+00 2.096358e+00 2.008434e+00 2.021889e+00 1.835469e+00 1.747621e+00 1.641261e+00 1.696301e+00 1.587954e+00 1.598841e+00 1.557451e+00 1.548193e+00 1.475311e+00 1.384199e+00 1.338515e+00 1.324845e+00 1.317740e+00 1.320647e+00 6.439589e-01 6.509229e-01 6.379518e-01 6.452435e-01 6.417688e-01 8.373563e-01 8.487944e-01 1.043926e+00 1.025258e+00 1.020961e+00 9.537663e-01 9.109505e-01 8.363875e-01 8.141818e-01 7.719092e-01 7.851180e-01 7.522188e-01 7.504031e-01 7.277012e-01 7.292406e-01 6.908418e-01 6.604028e-01 6.526056e-01 6.536605e-01 6.450118e-01 5.229607e+00 5.198637e+00 5.190664e+00 5.180172e+00 5.187802e+00 5.827868e+00 7.887666e+00 7.965575e+00 8.031981e+00 7.920411e+00 7.666280e+00 7.051145e+00 6.609975e+00 6.336742e+00 6.221244e+00 6.073925e+00 5.974414e+00 5.827721e+00 5.736601e+00 5.623765e+00 5.490974e+00 5.443895e+00 5.385938e+00 5.344513e+00 5.330172e+00
<GCONST> 1.873523e+02
<STREAM> 2
<NUMMIXES> 2
<MIXTURE> 1 7.432083e-01
<MEAN> 1
 4.043237e+00
<VARIANCE> 1
 1.626570e+00
<GCONST> 2.324351e+00
<MIXTURE> 2 2.567913e-01
<MEAN> 0
<VARIANCE> 0
<GCONST> 0.000000e+00
<STREAM> 3
<NUMMIXES> 2
<MIXTURE> 1 7.216153e-01
<MEAN> 1
 6.012400e-03
<VARIANCE> 1
 6.658274e-02
<GCONST> -8.714328e-01
<MIXTURE> 2 2.783845e-01
<MEAN> 0
<VARIANCE> 0
<GCONST> 0.000000e+00
<STREAM> 4
<NUMMIXES> 2
<MIXTURE> 1 7.216152e-01
<MEAN> 1
 -4.667043e+06
<VARIANCE> 1
 9.329263e+16
<GCONST> 4.091239e+01
<MIXTURE> 2 2.783846e-01
<MEAN> 0
<VARIANCE> 0
<GCONST> 0.000000e+00
<TRANSP> 7
 0.000000e+00 1.000000e+00 0.000000e+00 0.000000e+00 0.000000e+00 0.000000e+00 0.000000e+00
 0.000000e+00 0.000000e+00 1.000000e+00 0.000000e+00 0.000000e+00 0.000000e+00 0.000000e+00
 0.000000e+00 0.000000e+00 0.000000e+00 1.000000e+00 0.000000e+00 0.000000e+00 0.000000e+00
 0.000000e+00 0.000000e+00 0.000000e+00 0.000000e+00 1.000000e+00 0.000000e+00 0.000000e+00
 0.000000e+00 0.000000e+00 0.000000e+00 0.000000e+00 0.000000e+00 1.000000e+00 0.000000e+00
 0.000000e+00 0.000000e+00 0.000000e+00 0.000000e+00 0.000000e+00 0.000000e+00 1.000000e+00
 0.000000e+00 0.000000e+00 0.000000e+00 0.000000e+00 0.000000e+00 0.000000e+00 0.000000e+00
<ENDHMM>
~h "@"
<BEGINHMM>
<NUMSTATES> 7
<STATE> 2
<STREAM> 1
<MEAN> 75
 -8.237964e-02 -9.921331e-02 -1.052690e-01 -9.522542e-02 -1.019638e-01 -1.026228e-01 -1.054444e-01 -1.008717e-01 -9.439211e-02 2.975969e-01 5.585384e-01 6.371625e-01 7.138712e-01 7.706068e-01 9.718243e-01 1.214471e+00 1.365252e+00 7.862152e-01 2.366388e-01 8.788076e-02 -9.638906e-03 -4.666882e-02 -8.621097e-02 -8.669895e-02 -4.113120e-02 2.510239e-02 9.796336e-03 -3.046124e-03 -2.458091e-03 3.055747e-03 1.056692e-03 -2.045662e-03 -6.215913e-03 -1.995890e-01 -3.264358e-01 -1.686903e-01 -7.573725e-02 -6.558829e-02 -1.274931e-01 -2.201522e-01 -1.938418e-01 2.166817e-01 5.648651e-01 3.495213e-01 1.236615e-01 6.787828e-02 3.779141e-02 1.935718e-02 -2.375890e-02 -2.063339e-02 1.868277e-02 9.750994e-03 1.629294e-02 -1.715085e-02 5.116102e-03 -3.287522e-04 6.760767e-03 1.754049e-03 3.846807e-01 -1.351636e-01 -1.835397e-01 -4.080301e-04 -1.907960e-02 1.431902e-01 3.896568e-02 -9.735433e-02 -7.339098e-01 3.293052e-02 4.056966e-01 5.314952e-02 6.593144e-02 1.488961e-03 4.059714e-02 4.673535e-02 -5.180863e-02
<VARIANCE> 75
 7.891087e-02 6.359337e-02 6.016920e-02 5.087401e-02 4.112058e-02 3.786936e-02 3.729730e-02 4.310411e-02 4.908409e-02 2.134403e+00 3.018581e+00 3.143277e+00 3.230188e+00 3.427496e+00 4.127566e+00 4.791224e+00 5.052096e+00 2.777770e+00 7.023825e-01 3.228951e-01 2.276847e-01 2.319505e-01 1.353835e-01 1.054947e-01 3.866791e-01 4.692139e-02 1.909976e-02 1.686527e-02 1.574964e-02 1.315326e-02 1.160874e-02 1.239575e-02 1.368709e-02 5.433110e-01 7.613459e-01 1.429855e+00 1.748246e+00 1.862293e+00 2.163215e+00 2.501783e+00 2.931429e+00 2.258914e+00 1.446912e+00 6.496776e-01 1.565334e-01 1.009562e-01 5.895068e-02 5.553944e-02 1.062007e-01 6.229291e-02 6.442696e-01 5.164835e-01 4.735977e-01 4.111966e-01 3.427763e-01 3.088272e-01 3.086312e-01 3.213279e-01 2.194096e+00 9.081030e+00 1.199251e+01 1.325713e+01 1.427768e+01 1.614170e+01 2.014532e+01 2.390339e+01 2.197409e+01 1.096680e+01 4.137440e+00 2.570396e+00 1.834827e+00 1.581366e+00 1.135991e+00 1.220210e+00 1.710990e+00
<GCONST> 9.098775e+01
<STREAM> 2
<NUMMIXES> 2
<MIXTURE> 1 7.611072e-01
<MEAN> 1
 4.521917e+00
<VARIANCE> 1
 1.055680e-02
<GCONST> -2.713108e+00
<MIXTURE> 2 2.388889e-01
<MEAN> 0
<VARIANCE> 0
<GCONST> 0.000000e+00
<STREAM> 3
<NUMMIXES> 2
<MIXTURE> 1 7.376658e-01
<MEAN> 1
 2.188730e-03
<VARIANCE> 1
 3.553591e-04
<GCONST> -6.104505e+00
<MIXTURE> 2 2.623300e-01
<MEAN> 0
<VARIANCE> 0
<GCONST> 0.000000e+00
<STREAM> 4
<NUMMIXES> 2
<MIXTURE> 1 7.376655e-01
<MEAN> 1
 -3.520628e+07
<VARIANCE> 1
 7.028789e+17
<GCONST> 4.293184e+01
<MIXTURE> 2 2.623302e-01
<MEAN> 0
<VARIANCE> 0
<GCONST> 0.000000e+00
<STATE> 3
<STREAM> 1
<MEAN> 75
 -7.658856e-02 -5.254919e-02 -1.006045e-01 -5.907398e-02 -1.098980e-01 -8.168722e-02 -1.099359e-01 -7.376966e-02 -1.067490e-01 -1.186543e-01 -1.245508e-01 -1.153924e-01 -1.186004e-01 -7.077524e-02 -8.190329e-02 -6.110971e-02 -2.643231e-02 1.017975e+00 1.760712e+00 1.985157e+00 2.140222e+00 6.852289e-01 2.330476e-01 1.560010e-01 -3.562390e-02 3.213786e-02 9.041499e-03 6.742440e-04 2.865358e-03 1.040946e-02 -9.127702e-04 -5.110969e-03 -2.774688e-03 2.064991e-02 8.217489e-03 -2.957959e-03 -4.277396e-03 -2.334969e-02 -1.889405e-02 -5.456768e-03 -2.785271e-02 -5.380546e-01 -8.912714e-01 -4.805572e-01 -1.830700e-01 6.552386e-01 9.561100e-01 2.669443e-01 1.354513e-01 7.040396e-02 1.169845e-01 -7.213525e-02 8.785503e-02 -9.228072e-02 7.823948e-02 -5.625453e-02 6.398638e-02 -6.970993e-02 2.132522e-02 5.562984e-03 1.594273e-02 -1.326497e-02 4.988464e-02 -5.810445e-02 3.211489e-02 1.323874e-02 1.007707e+00 -3.040269e-01 -5.258757e-01 -7.530460e-02 -1.605643e+00 1.004214e+00 3.766004e-01 -1.113985e-01 2.432415e-01
<VARIANCE> 75
 2.693374e-01 1.243915e-01 1.012023e-01 8.353962e-02 6.463842e-02 6.081066e-02 5.971976e-02 4.358735e-02 3.598177e-02 3.945740e-02 3.908283e-02 3.928960e-02 3.440901e-02 2.607441e-02 2.510690e-02 2.846894e-02 1.603058e-01 5.100589e+00 6.247285e+00 5.982812e+00 5.585989e+00 1.156654e+00 3.841887e-01 3.253858e-01 1.690725e-01 1.005433e-01 5.501204e-02 2.697297e-02 2.240225e-02 2.121804e-02 1.870709e-02 1.654327e-02 1.532914e-02 1.168519e-02 1.068715e-02 1.036573e-02 9.758399e-03 8.594388e-03 7.845384e-03 8.689175e-03 4.084697e-02 1.317970e+00 1.666871e+00 3.846926e+00 4.770588e+00 2.232887e+00 1.492309e+00 2.137486e-01 9.850094e-02 1.479317e-01 1.573080e+00 1.157081e+00 9.375989e-01 7.341918e-01 5.826962e-01 5.382950e-01 4.829065e-01 3.680145e-01 2.965323e-01 3.090661e-01 3.366878e-01 3.392180e-01 2.986072e-01 2.381188e-01 2.046406e-01 3.117288e-01 5.158758e+00 2.497690e+01 3.320281e+01 3.627456e+01 2.698899e+01 5.216020e+00 4.287986e+00 2.327986e+00 1.903001e+00
<GCONST> 3.421468e+01
<STREAM> 2
<NUMMIXES> 2
<MIXTURE> 1 7.268311e-01
<MEAN> 1
 4.527374e+00
<VARIANCE> 1
 1.055680e-02
<GCONST> -2.713108e+00
<MIXTURE> 2 2.731668e-01
<MEAN> 0
<VARIANCE> 0
<GCONST> 0.000000e+00
<STREAM> 3
<NUMMIXES> 2
<MIXTURE> 1 7.006651e-01
<MEAN> 1
 2.636831e-03
<VARIANCE> 1
 3.553591e-04
<GCONST> -6.104505e+00
<MIXTURE> 2 2.993327e-01
<MEAN> 0
<VARIANCE> 0
<GCONST> 0.000000e+00
<STREAM> 4
<NUMMIXES> 2
<MIXTURE> 1 7.006651e-01
<MEAN> 1
 6.591996e-05
<VARIANCE> 1
 8.940651e+14
<GCONST> 3.626468e+01
<MIXTURE> 2 2.993327e-01
<MEAN> 0
<VARIANCE> 0
<GCONST> 0.000000e+00
<STATE> 4
<STREAM> 1
<MEAN> 75
 3.245104e-01 -2.441132e-02 3.390595e-02 -1.665694e-01 -3.067032e-02 -1.319961e-01 -1.890449e-02 -1.520280e-01 -7.362542e-02 -1.240160e-01 -5.427805e-02 -1.210079e-01 -9.181288e-02 -1.557855e-01 -1.035475e-01 -1.424769e-01 -6.768566e-02 -9.510955e-02 -5.282151e-02 -8.748773e-02 -4.499905e-02 1.809213e+00 2.445179e+00 2.431560e+00 9.314957e-01 1.238006e-01 1.455218e-01 6.966612e-02 3.116184e-02 -1.803497e-02 -6.975024e-03 9.619595e-03 2.665933e-02 -1.376730e-02 -1.033309e-02 -1.686671e-03 1.766074e-02 1.652534e-02 5.209027e-03 -6.438211e-03 -1.851662e-02 -2.465583e-02 -8.453066e-03 -4.279243e-03 -4.396323e-03 -9.479920e-01 -1.244346e+00 -3.122751e-01 7.561681e-01 1.105147e+00 -4.451188e-01 4.116301e-01 -2.589327e-01 3.363311e-01 -2.380323e-01 2.153463e-01 -2.467620e-01 2.116059e-01 -1.282691e-01 1.199947e-01 -1.364145e-01 9.701174e-02 -9.403384e-02 1.144768e-01 -9.217937e-02 1.156597e-01 -1.026936e-01 6.997053e-02 -7.655726e-02 7.693793e-02 1.808434e+00 -1.219952e+00 -6.486733e-01 -1.492386e+00 7.877685e-01
<VARIANCE> 75
 6.212531e-01 3.510712e-01 1.511108e-01 1.289517e-01 1.248284e-01 1.063899e-01 7.392228e-02 6.230345e-02 6.650283e-02 6.152973e-02 4.458846e-02 3.480885e-02 3.844979e-02 3.834587e-02 4.074154e-02 3.409272e-02 2.744394e-02 2.546501e-02 2.156064e-02 2.398954e-02 3.199781e-02 7.556270e+00 6.317296e+00 6.200133e+00 1.350309e+00 1.425777e-01 1.530428e-01 7.681838e-02 3.753946e-02 2.982492e-02 2.795854e-02 2.267626e-02 1.921781e-02 1.973179e-02 1.821735e-02 1.635924e-02 1.229867e-02 1.046718e-02 1.051540e-02 1.003461e-02 8.723969e-03 8.145684e-03 7.116594e-03 7.973480e-03 9.160415e-03 1.937393e+00 1.663216e+00 5.701940e+00 2.759146e+00 1.610590e+00 3.450463e+00 2.078933e+00 1.374151e+00 1.185333e+00 1.159379e+00 9.877384e-01 7.019002e-01 5.643917e-01 5.745686e-01 5.190713e-01 3.701458e-01 2.779873e-01 2.803465e-01 3.158172e-01 3.378929e-01 3.103190e-01 2.548305e-01 2.105272e-01 1.732492e-01 1.798222e-01 6.996852e+00 3.886143e+01 4.229070e+01 3.315221e+01 7.401801e+00
<GCONST> 1.301195e+01
<STREAM> 2
<NUMMIXES> 2
<MIXTURE> 1 7.169587e-01
<MEAN> 1
 4.526452e+00
<VARIANCE> 1
 1.055680e-02
<GCONST> -2.713108e+00
<MIXTURE> 2 2.830332e-01
<MEAN> 0
<VARIANCE> 0
<GCONST> 0.000000e+00
<STREAM> 3
<NUMMIXES> 2
<MIXTURE> 1 6.885515e-01
<MEAN> 1
 2.593849e-03
<VARIANCE> 1
 3.553591e-04
<GCONST> -6.104505e+00
<MIXTURE> 2 3.114412e-01
<MEAN> 0
<VARIANCE> 0
<GCONST> 0.000000e+00
<STREAM> 4
<NUMMIXES> 2
<MIXTURE> 1 6.885529e-01
<MEAN> 1
 1.712566e-04
<VARIANCE> 1
 8.940651e+14
<GCONST> 3.626468e+01
<MIXTURE> 2 3.114390e-01
<MEAN> 0
<VARIANCE> 0
<GCONST> 0.000000e+00
<STATE> 5
<STREAM> 1
<MEAN> 75
 1.771009e+00 1.981269e+00 6.098983e-01 2.421563e-01 9.796509e-02 -1.607105e-02 -8.118480e-02 -8.499303e-02 -8.428228e-02 -9.725937e-02 -9.530772e-02 -1.003601e-01 -9.594676e-02 -1.101496e-01 -8.767071e-02 -1.031743e-01 -1.412104e-01 -1.191283e-01 -1.234425e-01 -1.091247e-01 -7.758014e-02 -7.728967e-02 -3.929280e-02 8.133322e-03 1.573415e+00 -8.162554e-02 5.802265e-01 8.682669e-01 2.573361e-01 1.304883e-01 9.053385e-02 3.534023e-02 2.479163e-03 6.084356e-03 5.956557e-03 2.296607e-03 4.780396e-04 4.479363e-03 -3.479504e-03 -3.266869e-03 2.624949e-02 6.230478e-03 -8.722316e-03 -5.259575e-03 -2.365506e-02 -1.575542e-02 -1.844864e-02 -4.193355e-02 -8.080215e-01 -9.051086e-01 2.544349e-01 -1.582441e+00 9.994079e-01 2.236013e-01 3.056626e-02 5.008189e-02 6.413364e-02 3.517947e-03 -1.284508e-02 1.502553e-02 -6.580421e-03 1.077266e-02 -1.856698e-02 3.558756e-02 -3.648848e-02 -2.200371e-02 6.045967e-02 -2.857240e-02 2.003541e-02 1.751954e-02 -3.281288e-02 3.639814e-02 1.156222e-02 1.522752e+00 -1.323282e+00
<VARIANCE> 75
 5.625922e+00 5.125221e+00 1.180069e+00 3.015266e-01 3.068568e-01 1.582055e-01 1.427904e-01 1.279989e-01 1.067440e-01 8.825719e-02 8.031689e-02 6.278360e-02 5.727207e-02 5.628111e-02 4.289550e-02 3.526813e-02 3.851905e-02 3.702144e-02 3.678968e-02 3.376757e-02 2.839158e-02 2.890617e-02 1.895760e-01 3.423275e-01 6.879086e+00 4.338320e+00 1.999635e+00 1.330287e+00 2.065034e-01 7.698778e-02 6.188886e-02 4.356742e-02 3.227872e-02 2.774309e-02 2.512629e-02 2.083682e-02 2.084495e-02 1.850666e-02 1.675248e-02 1.457592e-02 1.102016e-02 1.053726e-02 1.045307e-02 9.629604e-03 9.626057e-03 9.153320e-03 5.123723e-02 9.019337e-02 1.849188e+00 1.608611e+00 3.300640e+01 2.419955e+01 5.069645e+00 3.823551e+00 2.169604e+00 1.598332e+00 1.320022e+00 1.242689e+00 1.049325e+00 8.744258e-01 7.255531e-01 5.815980e-01 5.091206e-01 4.534191e-01 3.525794e-01 2.873282e-01 2.997227e-01 3.193652e-01 3.192499e-01 2.914095e-01 2.453309e-01 3.557644e-01 9.088541e-01 7.372894e+00 3.144706e+01
<GCONST> 2.442170e+01
<STREAM> 2
<NUMMIXES> 2
<MIXTURE> 1 7.029398e-01
<MEAN> 1
 4.526518e+00
<VARIANCE> 1
 1.055680e-02
<GCONST> -2.713108e+00
<MIXTURE> 2 2.970552e-01
<MEAN> 0
<VARIANCE> 0
<GCONST> 0.000000e+00
<STREAM> 3
<NUMMIXES> 2
<MIXTURE> 1 6.770011e-01
<MEAN> 1
 2.565130e-03
<VARIANCE> 1
 3.553591e-04
<GCONST> -6.104505e+00
<MIXTURE> 2 3.229937e-01
<MEAN> 0
<VARIANCE> 0
<GCONST> 0.000000e+00
<STREAM> 4
<NUMMIXES> 2
<MIXTURE> 1 6.770008e-01
<MEAN> 1
 2.543073e-04
<VARIANCE> 1
 8.940651e+14
<GCONST> 3.626468e+01
<MIXTURE> 2 3.229940e-01
<MEAN> 0
<VARIANCE> 0
<GCONST> 0.000000e+00
<STATE> 6
<STREAM> 1
<MEAN> 75
 2.472029e-02 -7.180899e-03 1.101733e+00 1.151684e+00 1.047265e+00 1.098851e+00 9.831182e-01 8.373067e-01 6.542290e-01 3.500929e-01 1.020770e-01 4.534441e-02 -4.304215e-02 -4.770982e-02 -1.142486e-01 -7.754360e-02 -1.028598e-01 -9.426793e-02 -1.122360e-01 -9.660950e-02 -1.306303e-01 -9.818821e-02 -1.181744e-01 -7.093719e-02 -4.446720e-02 1.173199e-01 -5.391356e-01 -5.808793e-01 2.299302e-02 2.270859e-02 3.049731e-02 1.290781e-01 1.642839e-01 2.456766e-01 2.780461e-01 1.536744e-01 7.443238e-02 4.820862e-02 3.484175e-02 1.475116e-02 -5.600982e-03 8.669630e-03 4.961596e-03 1.905075e-03 9.845833e-03 8.215969e-04 -5.770434e-03 -1.326933e-02 -3.676373e-02 -1.486656e-01 1.689518e-01 1.144739e+00 -1.054706e+00 -1.545666e-01 1.531815e-01 -1.692966e-01 -3.218154e-02 -3.992636e-02 -1.222370e-01 5.802570e-02 1.896224e-01 -3.295268e-02 8.691682e-02 -6.099352e-02 1.024368e-01 -6.143410e-02 3.446473e-02 -2.618009e-02 3.206833e-02 -4.812559e-02 6.730485e-02 -5.293507e-02 6.744376e-02 -2.015781e-02 2.453553e-01
<VARIANCE> 75
 3.293546e-01 2.250756e-01 5.281699e+00 4.423069e+00 3.999772e+00 3.750894e+00 3.581931e+00 2.829793e+00 2.521598e+00 1.124603e+00 6.099234e-01 2.446838e-01 1.508147e-01 1.144293e-01 9.545460e-02 8.310646e-02 6.853672e-02 6.090406e-02 5.094934e-02 4.876592e-02 4.643276e-02 4.261807e-02 4.013248e-02 1.780521e-01 3.020477e-01 4.652263e-01 1.460891e+00 1.211939e+00 2.876216e+00 2.548491e+00 2.306667e+00 1.976210e+00 1.720248e+00 1.006355e+00 6.996580e-01 2.536817e-01 1.347348e-01 5.253595e-02 3.500243e-02 2.795733e-02 2.388776e-02 2.151437e-02 1.878722e-02 1.716010e-02 1.489510e-02 1.466859e-02 1.342490e-02 4.701206e-02 7.807065e-02 4.705257e-01 9.405384e-01 5.853304e+00 2.174089e+01 1.951770e+01 1.903171e+01 1.823627e+01 1.624894e+01 1.298854e+01 1.001941e+01 4.942598e+00 3.145729e+00 1.760749e+00 1.300255e+00 1.012082e+00 8.733167e-01 7.543819e-01 6.310722e-01 5.239608e-01 4.438318e-01 3.971948e-01 3.729967e-01 3.384320e-01 4.227204e-01 8.810259e-01 2.407734e+00
<GCONST> 8.476714e+01
<STREAM> 2
<NUMMIXES> 2
<MIXTURE> 1 6.893929e-01
<MEAN> 1
 4.528466e+00
<VARIANCE> 1
 1.055680e-02
<GCONST> -2.713108e+00
<MIXTURE> 2 3.106064e-01
<MEAN> 0
<VARIANCE> 0
<GCONST> 0.000000e+00
<STREAM> 3
<NUMMIXES> 2
<MIXTURE> 1 6.627017e-01
<MEAN> 1
 2.458008e-03
<VARIANCE> 1
 3.553591e-04
<GCONST> -6.104505e+00
<MIXTURE> 2 3.372971e-01
<MEAN> 0
<VARIANCE> 0
<GCONST> 0.000000e+00
<STREAM> 4
<NUMMIXES> 2
<MIXTURE> 1 6.627021e-01
<MEAN> 1
 1.433920e-04
<VARIANCE> 1
 8.940651e+14
<GCONST> 3.626468e+01
<MIXTURE> 2 3.372971e-01
<MEAN> 0
<VARIANCE> 0
<GCONST> 0.000000e+00
<TRANSP> 7
 0.000000e+00 1.000000e+00 0.000000e+00 0.000000e+00 0.000000e+00 0.000000e+00 0.000000e+00
 0.000000e+00 0.000000e+00 1.000000e+00 0.000000e+00 0.000000e+00 0.000000e+00 0.000000e+00
 0.000000e+00 0.000000e+00 0.000000e+00 1.000000e+00 0.000000e+00 0.000000e+00 0.000000e+00
 0.000000e+00 0.000000e+00 0.000000e+00 0.000000e+00 1.000000e+00 0.000000e+00 0.000000e+00
 0.000000e+00 0.000000e+00 0.000000e+00 0.000000e+00 0.000000e+00 1.000000e+00 0.000000e+00
 0.000000e+00 0.000000e+00 0.000000e+00 0.000000e+00 0.000000e+00 0.000000e+00 1.000000e+00
 0.000000e+00 0.000000e+00 0.000000e+00 0.000000e+00 0.000000e+00 0.000000e+00 0.000000e+00
<ENDHMM>
~h "a"
<BEGINHMM>
<NUMSTATES> 7
<STATE> 2
<STREAM> 1
<MEAN> 75
 9.066243e-02 8.109373e-02 1.391856e-01 3.860511e-01 6.353924e-01 6.861542e-01 7.856050e-01 1.362313e+00 4.191839e-01 9.502031e-02 2.084381e-01 4.735258e-01 4.149488e-01 5.010122e-01 4.863258e-01 4.091693e-02 8.543819e-02 -8.261112e-02 -1.451803e-02 -1.258848e-01 -1.584455e-02 -7.047653e-02 -3.713576e-02 -8.825059e-02 -1.816840e-02 -4.604119e-02 -2.235945e-02 -1.521410e-01 -2.436973e-01 -1.450176e-01 -7.173575e-02 -3.306851e-01 1.860054e-01 6.352761e-01 1.075729e-01 -1.918822e-01 -1.051055e-01 -2.052639e-02 -4.125313e-02 2.312000e-01 1.998428e-01 5.989540e-02 5.531428e-02 2.337631e-02 3.903288e-03 -2.721577e-02 9.801004e-03 9.461503e-03 -1.084815e-02 -3.881401e-02 -1.181486e-01 7.120422e-02 1.878887e-01 -4.990939e-03 -2.049931e-01 5.381384e-02 4.682003e-01 -1.523161e+00 6.342726e-01 4.365330e-01 1.584550e-01 -3.204145e-01 1.439716e-01 -9.285668e-02 -4.399666e-01 4.870597e-01 -2.097760e-01 2.268070e-01 -1.844404e-01 2.254326e-01 -1.633654e-01 9.260074e-02 -8.230589e-02 1.267884e-01 -6.647962e-02
<VARIANCE> 75
 6.959229e-01 9.099408e-01 8.768976e-01 2.491297e+00 3.157765e+00 3.521456e+00 3.501891e+00 5.915456e+00 9.832654e-01 8.692580e-01 6.718639e-01 3.139258e+00 1.622597e+00 3.055341e+00 1.886259e+00 4.597867e-01 1.721111e-01 1.307524e-01 8.934034e-02 1.404969e-01 1.496898e-01 2.799302e-01 1.830717e-01 2.335382e-01 2.526490e-01 3.630525e-01 3.828553e-01 8.672198e-01 1.059976e+00 1.652659e+00 1.918655e+00 2.861122e+00 1.251692e+00 1.779498e+00 3.233632e-01 1.052671e+00 5.843817e-01 1.661364e+00 9.286701e-01 8.331845e-01 4.597505e-01 8.793544e-02 4.056073e-02 4.358210e-02 3.950427e-02 8.821722e-02 7.249716e-02 1.080419e-01 9.316243e-02 1.951733e-01 2.828466e+00 3.430101e+00 4.875701e+00 1.081219e+01 1.365584e+01 1.528164e+01 1.933039e+01 2.097129e+01 4.041178e+00 5.302967e+00 5.793549e+00 1.143988e+01 8.309903e+00 1.203051e+01 6.367814e+00 2.011000e+00 1.624104e+00 1.009715e+00 8.498294e-01 9.049670e-01 1.002979e+00 1.173948e+00 8.715316e-01 1.014490e+00 1.335916e+00
<GCONST> 1.378611e+02
<STREAM> 2
<NUMMIXES> 2
<MIXTURE> 1 7.278270e-01
<MEAN> 1
 4.528055e+00
<VARIANCE> 1
 1.137936e-02
<GCONST> -2.638077e+00
<MIXTURE> 2 2.721728e-01
<MEAN> 0
<VARIANCE> 0
<GCONST> 0.000000e+00
<STREAM> 3
<NUMMIXES> 2
<MIXTURE> 1 7.005717e-01
<MEAN> 1
 2.351943e-03
<VARIANCE> 1
 3.553591e-04
<GCONST> -6.104505e+00
<MIXTURE> 2 2.994280e-01
<MEAN> 0
<VARIANCE> 0
<GCONST> 0.000000e+00
<STREAM> 4
<NUMMIXES> 2
<MIXTURE> 1 7.005712e-01
<MEAN> 1
 -5.448805e-05
<VARIANCE> 1
 8.940651e+14
<GCONST> 3.626468e+01
<MIXTURE> 2 2.994279e-01
<MEAN> 0
<VARIANCE> 0
<GCONST> 0.000000e+00
<STATE> 3
<STREAM> 1
<MEAN> 75
 -1.504100e-01 -2.184688e-02 -1.076375e-01 -3.717051e-02 -1.052828e-01 -4.557815e-02 -1.005664e-01 3.788528e-02 1.998806e+00 6.667472e-01 1.369531e-01 4.324875e-01 8.668963e-01 7.900082e-01 9.126135e-01 9.057685e-01 1.234456e-01 2.507812e-01 -5.121967e-02 9.289467e-02 -1.411574e-01 5.772127e-02 -1.994932e-02 1.845258e-02 -1.044794e-01 1.446520e-02 -2.368759e-02 9.652905e-03 -2.695953e-03 3.358053e-03 -5.991146e-03 -4.133733e-02 -1.042839e+00 -3.100248e-01 9.315444e-01 1.191198e-01 -3.639953e-01 -1.790541e-01 -2.280462e-02 -6.281504e-02 3.893022e-01 3.236560e-01 8.206075e-02 8.601061e-02 4.701665e-02 1.911623e-02 -5.733982e-02 2.114018e-02 4.208188e-02 8.752873e-03 2.773111e-01 -2.188252e-01 1.560765e-01 -1.411098e-01 1.277226e-01 -1.144278e-01 1.952940e-01 1.805327e+00 -3.294305e+00 8.033202e-01 8.302017e-01 1.534774e-01 -5.168422e-01 2.008933e-01 -1.233872e-01 -7.824219e-01 9.015194e-01 -4.285021e-01 4.423856e-01 -3.801050e-01 4.284138e-01 -2.763692e-01 1.202750e-01 -1.596275e-01 2.325471e-01
<VARIANCE> 75
 1.059572e-01 6.603958e-02 1.118341e-01 4.547659e-02 8.625247e-02 3.928412e-02 1.430055e-01 3.040140e-01 8.374645e+00 1.398301e+00 1.386239e+00 1.024378e+00 4.896348e+00 2.432968e+00 4.833771e+00 2.743105e+00 7.999821e-01 3.025299e-01 2.795129e-01 2.043399e-01 2.292458e-01 2.491014e-01 5.199788e-01 2.842065e-01 2.298286e-01 5.465860e-02 4.260745e-02 1.826095e-02 3.678124e-02 1.202998e-02 4.338898e-02 8.248533e-02 2.148456e+00 4.130962e-01 2.718078e+00 5.582556e-01 1.720798e+00 9.992436e-01 2.839537e+00 1.599173e+00 1.372232e+00 7.823633e-01 1.805279e-01 1.052550e-01 9.195660e-02 8.691012e-02 1.547236e-01 1.245273e-01 1.718632e-01 1.110930e-01 5.681673e-01 5.143322e-01 5.668180e-01 3.792200e-01 4.325954e-01 4.285677e-01 7.806296e-01 9.227359e+00 2.455349e+01 4.352880e+00 7.405713e+00 8.920581e+00 1.846699e+01 1.336664e+01 2.003958e+01 1.012326e+01 2.839197e+00 2.547607e+00 1.542338e+00 1.319345e+00 1.256535e+00 1.637842e+00 2.073180e+00 1.327325e+00 1.160906e+00
<GCONST> 1.002009e+02
<STREAM> 2
<NUMMIXES> 2
<MIXTURE> 1 6.712523e-01
<MEAN> 1
 4.536850e+00
<VARIANCE> 1
 1.055680e-02
<GCONST> -2.713108e+00
<MIXTURE> 2 3.287474e-01
<MEAN> 0
<VARIANCE> 0
<GCONST> 0.000000e+00
<STREAM> 3
<NUMMIXES> 2
<MIXTURE> 1 6.390803e-01
<MEAN> 1
 2.343504e-03
<VARIANCE> 1
 3.553591e-04
<GCONST> -6.104505e+00
<MIXTURE> 2 3.609193e-01
<MEAN> 0
<VARIANCE> 0
<GCONST> 0.000000e+00
<STREAM> 4
<NUMMIXES> 2
<MIXTURE> 1 6.390786e-01
<MEAN> 1
 3.128981e-04
<VARIANCE> 1
 8.940651e+14
<GCONST> 3.626468e+01
<MIXTURE> 2 3.609209e-01
<MEAN> 0
<VARIANCE> 0
<GCONST> 0.000000e+00
<STATE> 4
<STREAM> 1
<MEAN> 75
 -1.318678e-03 -1.347983e-01 8.903116e-03 -7.658410e-02 -2.730489e-03 -7.437611e-02 -9.807855e-03 -6.890863e-02 7.536200e-02 2.017063e+00 6.692865e-01 1.343029e-01 4.168402e-01 8.623884e-01 7.806077e-01 8.974563e-01 8.889292e-01 1.052136e-01 2.420855e-01 -6.713966e-02 7.634748e-02 -1.557263e-01 3.313188e-02 -4.937901e-02 -6.219193e-03 5.522817e-04 -4.340362e-03 -3.306936e-02 6.626431e-03 -5.433717e-03 5.339541e-03 -4.626174e-03 -3.946956e-02 -1.039041e+00 -2.952058e-01 9.399707e-01 1.243508e-01 -3.573977e-01 -1.845687e-01 -2.503427e-02 -5.983399e-02 3.888277e-01 3.272161e-01 9.045047e-02 8.129231e-02 4.876077e-02 2.186976e-02 -5.395678e-02 2.033653e-02 4.390813e-02 -2.515883e-01 2.762607e-01 -2.326342e-01 1.622897e-01 -1.478587e-01 1.353017e-01 -1.251128e-01 1.992077e-01 1.801380e+00 -3.299302e+00 7.924119e-01 8.224867e-01 1.748274e-01 -5.278070e-01 2.044409e-01 -1.203752e-01 -7.829318e-01 9.158773e-01 -4.384127e-01 4.487743e-01 -3.730699e-01 4.141000e-01 -2.741179e-01 1.214816e-01 -1.643993e-01
<VARIANCE> 75
 1.967078e-01 2.085069e-01 1.803377e-01 2.257684e-01 1.627671e-01 2.139730e-01 1.693898e-01 2.803903e-01 4.267441e-01 8.326654e+00 1.349524e+00 1.311255e+00 9.159987e-01 4.843592e+00 2.372039e+00 4.834066e+00 2.690653e+00 6.885601e-01 2.060996e-01 1.721864e-01 9.995469e-02 1.171990e-01 8.416063e-02 3.651190e-01 1.076048e-01 5.994213e-02 7.564493e-02 9.036248e-02 7.518438e-02 9.439783e-02 7.264954e-02 1.051688e-01 1.423145e-01 2.212093e+00 4.291436e-01 2.671225e+00 5.213856e-01 1.670637e+00 9.488344e-01 2.822248e+00 1.531425e+00 1.322180e+00 7.362908e-01 1.257828e-01 5.356692e-02 3.711630e-02 2.831692e-02 8.918738e-02 3.044121e-02 9.467525e-02 9.162039e-01 9.357570e-01 9.581259e-01 1.007533e+00 8.756009e-01 1.036094e+00 1.095492e+00 1.488967e+00 9.910461e+00 2.470009e+01 4.325356e+00 7.152566e+00 8.471189e+00 1.827441e+01 1.324690e+01 2.027822e+01 1.010882e+01 2.611840e+00 2.178214e+00 1.201681e+00 9.651681e-01 8.794689e-01 1.041741e+00 1.432115e+00 6.098039e-01
<GCONST> 1.041568e+02
<STREAM> 2
<NUMMIXES> 2
<MIXTURE> 1 6.452809e-01
<MEAN> 1
 4.544516e+00
<VARIANCE> 1
 1.055680e-02
<GCONST> -2.713108e+00
<MIXTURE> 2 3.547186e-01
<MEAN> 0
<VARIANCE> 0
<GCONST> 0.000000e+00
<STREAM> 3
<NUMMIXES> 2
<MIXTURE> 1 6.185687e-01
<MEAN> 1
 2.807357e-03
<VARIANCE> 1
 3.553591e-04
<GCONST> -6.104505e+00
<MIXTURE> 2 3.814315e-01
<MEAN> 0
<VARIANCE> 0
<GCONST> 0.000000e+00
<STREAM> 4
<NUMMIXES> 2
<MIXTURE> 1 6.185665e-01
<MEAN> 1
 1.009082e-04
<VARIANCE> 1
 8.940651e+14
<GCONST> 3.626468e+01
<MIXTURE> 2 3.814335e-01
<MEAN> 0
<VARIANCE> 0
<GCONST> 0.000000e+00
<STATE> 5
<STREAM> 1
<MEAN> 75
 -1.248919e-01 -6.323256e-02 -1.355989e-01 -9.128800e-02 -1.158149e-01 -9.010155e-02 -1.122603e-01 -5.684905e-02 -8.587079e-02 -1.326486e-02 8.047867e-01 1.103879e+00 1.161098e+00 1.366436e+00 1.645636e+00 6.676788e-01 4.617347e-01 4.218949e-01 2.076708e-02 5.517803e-02 -6.910411e-02 7.580800e-03 -1.014829e-01 -1.767094e-02 -8.148103e-02 2.925518e-03 3.147606e-03 1.515439e-02 -1.037356e-02 -1.600039e-03 -3.163273e-03 -1.672576e-02 -1.087503e-02 -2.281750e-02 -4.493924e-01 -5.602442e-01 -1.786852e-01 -1.321287e-01 -2.335638e-01 3.540901e-01 5.885590e-01 1.262931e-01 2.235846e-01 1.840311e-01 5.051112e-02 2.284222e-02 1.433097e-02 1.007742e-02 -9.185713e-03 1.880728e-02 1.285841e-01 -1.354425e-01 1.147609e-01 -6.666928e-02 5.137463e-02 -4.833995e-02 7.596737e-02 -8.272022e-02 1.031780e-01 7.478487e-01 -5.187595e-01 -2.463848e-01 1.369847e-01 6.934258e-02 -1.247112e+00 7.659709e-01 1.622550e-01 -3.608454e-01 4.371869e-01 -1.495694e-01 2.044500e-01 -1.817699e-01 1.896749e-01 -1.516960e-01 8.733752e-02
<VARIANCE> 75
 5.535689e-02 5.350339e-02 5.108396e-02 4.904699e-02 5.562202e-02 3.691670e-02 4.994809e-02 2.736932e-02 6.754686e-02 1.837581e-01 4.516141e+00 4.638875e+00 4.990693e+00 4.887964e+00 5.956329e+00 1.677105e+00 2.268463e+00 1.436221e+00 3.856695e-01 1.919370e-01 1.531666e-01 1.080920e-01 1.072093e-01 8.895993e-02 2.088213e-01 1.892551e-02 1.583136e-02 1.341369e-02 1.836331e-02 1.142766e-02 1.842446e-02 8.938983e-03 2.057882e-02 4.841746e-02 1.164704e+00 1.238019e+00 2.946821e+00 3.145049e+00 3.719610e+00 2.025379e+00 2.379480e+00 7.602857e-01 5.846928e-01 3.509481e-01 7.960878e-02 4.154219e-02 3.219671e-02 2.568559e-02 5.342984e-02 2.391279e-02 4.843296e-01 3.862639e-01 3.728441e-01 3.740270e-01 3.694466e-01 3.130918e-01 3.275508e-01 2.879104e-01 4.461337e-01 4.932018e+00 1.945352e+01 2.147903e+01 2.441961e+01 2.728965e+01 2.492768e+01 8.729187e+00 1.111197e+01 5.882613e+00 2.316192e+00 1.820818e+00 1.363620e+00 1.125848e+00 1.008314e+00 9.376611e-01 1.022633e+00
<GCONST> 6.984347e+01
<STREAM> 2
<NUMMIXES> 2
<MIXTURE> 1 6.983753e-01
<MEAN> 1
 4.551096e+00
<VARIANCE> 1
 1.055680e-02
<GCONST> -2.713108e+00
<MIXTURE> 2 3.016234e-01
<MEAN> 0
<VARIANCE> 0
<GCONST> 0.000000e+00
<STREAM> 3
<NUMMIXES> 2
<MIXTURE> 1 6.689642e-01
<MEAN> 1
 1.745536e-03
<VARIANCE> 1
 3.553591e-04
<GCONST> -6.104505e+00
<MIXTURE> 2 3.310345e-01
<MEAN> 0
<VARIANCE> 0
<GCONST> 0.000000e+00
<STREAM> 4
<NUMMIXES> 2
<MIXTURE> 1 6.689633e-01
<MEAN> 1
 -2.438107e+07
<VARIANCE> 1
 4.870270e+17
<GCONST> 4.256497e+01
<MIXTURE> 2 3.310353e-01
<MEAN> 0
<VARIANCE> 0
<GCONST> 0.000000e+00
<STATE> 6
<STREAM> 1
<MEAN> 75
 2.303132e-02 -4.689675e-02 -4.590789e-02 -7.888260e-02 -8.349906e-02 -8.835210e-02 -9.144864e-02 -1.090125e-01 -9.735663e-02 -1.112131e-01 -9.790020e-02 -1.013059e-01 -8.604829e-02 -9.215975e-02 -3.115819e-02 6.363393e-01 7.083023e-01 8.297341e-01 1.009024e+00 9.825220e-01 9.785371e-01 8.384619e-01 7.233674e-01 4.318275e-01 3.268446e-01 9.644537e-02 3.420569e-02 1.545609e-02 1.836918e-02 4.381837e-03 2.859425e-03 1.140718e-02 3.688011e-03 -5.925484e-04 -1.476348e-03 -3.700936e-03 -5.031714e-03 -4.495952e-03 -2.889993e-02 -3.666974e-01 -3.721480e-01 -1.025223e-01 -1.519536e-01 -7.422079e-02 1.548071e-02 7.186165e-02 1.250239e-01 2.029128e-01 1.987370e-01 1.435361e-01 5.648939e-02 7.159993e-02 -3.161589e-02 3.010736e-02 -2.094742e-03 2.827620e-03 -1.835453e-02 3.043824e-02 -1.980379e-02 2.380426e-02 -1.707328e-02 2.065744e-02 -1.849093e-02 6.638155e-02 6.108022e-01 -5.893792e-01 4.711270e-02 5.551923e-02 -2.123185e-01 1.764043e-02 -1.330980e-01 2.277120e-02 -1.752806e-01 1.833751e-01 -7.575019e-02
<VARIANCE> 75
 2.071988e-01 1.362179e-01 1.125521e-01 9.095486e-02 8.104995e-02 7.671560e-02 5.807941e-02 6.199399e-02 4.523907e-02 6.153594e-02 5.065734e-02 4.364153e-02 4.334291e-02 3.376848e-02 2.333378e-01 3.773112e+00 3.279136e+00 3.918576e+00 4.038755e+00 4.043789e+00 3.768330e+00 3.516404e+00 2.860726e+00 1.891072e+00 1.385239e+00 1.658062e-01 3.986362e-02 3.036093e-02 2.765382e-02 2.414494e-02 1.826198e-02 2.047619e-02 1.485140e-02 2.183749e-02 1.399591e-02 1.702522e-02 1.248783e-02 1.100353e-02 6.288036e-02 9.624920e-01 8.980533e-01 2.255413e+00 2.174831e+00 2.380508e+00 2.409930e+00 2.252058e+00 1.958599e+00 1.453447e+00 1.083286e+00 6.051562e-01 1.663181e+00 1.293280e+00 1.051422e+00 8.960856e-01 7.730966e-01 6.584902e-01 5.379220e-01 4.910590e-01 4.240096e-01 4.017959e-01 3.498851e-01 3.347523e-01 3.002287e-01 4.543692e-01 4.311120e+00 1.455513e+01 1.407791e+01 1.789860e+01 1.902932e+01 1.895610e+01 1.792420e+01 1.598687e+01 1.257836e+01 8.646774e+00 6.290772e+00
<GCONST> 8.368818e+01
<STREAM> 2
<NUMMIXES> 2
<MIXTURE> 1 6.739576e-01
<MEAN> 1
 4.555636e+00
<VARIANCE> 1
 1.055680e-02
<GCONST> -2.713108e+00
<MIXTURE> 2 3.260377e-01
<MEAN> 0
<VARIANCE> 0
<GCONST> 0.000000e+00
<STREAM> 3
<NUMMIXES> 2
<MIXTURE> 1 6.463102e-01
<MEAN> 1
 2.079074e-03
<VARIANCE> 1
 3.553591e-04
<GCONST> -6.104505e+00
<MIXTURE> 2 3.536850e-01
<MEAN> 0
<VARIANCE> 0
<GCONST> 0.000000e+00
<STREAM> 4
<NUMMIXES> 2
<MIXTURE> 1 6.463104e-01
<MEAN> 1
 6.093234e-05
<VARIANCE> 1
 8.940651e+14
<GCONST> 3.626468e+01
<MIXTURE> 2 3.536842e-01
<MEAN> 0
<VARIANCE> 0
<GCONST> 0.000000e+00
<TRANSP> 7
 0.000000e+00 1.000000e+00 0.000000e+00 0.000000e+00 0.000000e+00 0.000000e+00 0.000000e+00
 0.000000e+00 0.000000e+00 1.000000e+00 0.000000e+00 0.000000e+00 0.000000e+00 0.000000e+00
 0.000000e+00 0.000000e+00 0.000000e+00 1.000000e+00 0.000000e+00 0.000000e+00 0.000000e+00
 0.000000e+00 0.000000e+00 0.000000e+00 0.000000e+00 1.000000e+00 0.000000e+00 0.000000e+00
 0.000000e+00 0.000000e+00 0.000000e+00 0.000000e+00 0.000000e+00 1.000000e+00 0.000000e+00
 0.000000e+00 0.000000e+00 0.000000e+00 0.000000e+00 0.000000e+00 0.000000e+00 1.000000e+00
 0.000000e+00 0.000000e+00 0.000000e+00 0.000000e+00 0.000000e+00 0.000000e+00 0.000000e+00
<ENDHMM>
~h "b"
<BEGINHMM>
<NUMSTATES> 7
<STATE> 2
<STREAM> 1
<MEAN> 75
 -9.583562e-02 -8.487530e-02 -1.157854e-01 -9.549399e-02 -1.088199e-01 -1.024178e-01 -1.121433e-01 -7.420968e-02 -5.676834e-02 5.111502e-02 4.775447e-01 6.843673e-01 8.319212e-01 9.785728e-01 1.088524e+00 1.196382e+00 1.346116e+00 7.299519e-01 1.957932e-01 1.056072e-01 -2.613897e-02 -3.277539e-02 -9.394994e-02 -6.827574e-02 -9.583282e-02 7.633777e-03 9.317318e-03 3.158053e-03 -6.463301e-03 1.567731e-03 1.828778e-03 -1.460285e-02 -2.761915e-02 -6.002994e-02 -2.633655e-01 -3.119875e-01 -1.739306e-01 -1.498044e-01 -1.316957e-01 -1.092104e-01 -1.249822e-01 2.356756e-01 5.777950e-01 3.133408e-01 1.124592e-01 6.987746e-02 3.421556e-02 1.674648e-02 -8.541881e-04 -1.790774e-03 3.632931e-02 -4.076765e-02 5.020306e-02 -3.576284e-02 1.960273e-02 -1.613489e-02 4.332774e-02 -2.273377e-02 8.991295e-02 3.192925e-01 -2.210958e-01 -5.729139e-02 3.837375e-03 -4.192794e-02 -3.460970e-03 3.760784e-02 -7.639475e-01 8.483813e-02 4.451291e-01 -4.312578e-02 1.279159e-01 -5.207359e-02 8.672753e-02 -5.013806e-02 5.121212e-02
<VARIANCE> 75
 6.437752e-02 5.490305e-02 4.800770e-02 4.376465e-02 4.102747e-02 4.745976e-02 4.187818e-02 1.691478e-01 2.672706e-01 6.187360e-01 2.741298e+00 3.127930e+00 3.602942e+00 3.834063e+00 4.163566e+00 4.202339e+00 4.667590e+00 2.099264e+00 5.595760e-01 3.280623e-01 2.016731e-01 1.251602e-01 1.067599e-01 1.087003e-01 9.254286e-02 2.183753e-02 1.656004e-02 1.487048e-02 1.376709e-02 1.528023e-02 1.260498e-02 4.479153e-02 6.828938e-02 1.833145e-01 7.526382e-01 9.576544e-01 1.776585e+00 2.028408e+00 2.348470e+00 2.531919e+00 2.857076e+00 1.866160e+00 1.277499e+00 4.803327e-01 1.236856e-01 7.699436e-02 4.668244e-02 3.798476e-02 2.878803e-02 3.185086e-02 4.761339e-01 4.148733e-01 3.818538e-01 3.565088e-01 3.259124e-01 3.175240e-01 4.200530e-01 7.939590e-01 1.276964e+00 4.223462e+00 1.084250e+01 1.291510e+01 1.571401e+01 1.754614e+01 1.925744e+01 2.070387e+01 1.877034e+01 7.882443e+00 3.473974e+00 2.190507e+00 1.478197e+00 1.106358e+00 9.514444e-01 8.870175e-01 7.818436e-01
<GCONST> 8.258115e+01
<STREAM> 2
<NUMMIXES> 2
<MIXTURE> 1 7.319337e-01
<MEAN> 1
 4.521722e+00
<VARIANCE> 1
 1.055680e-02
<GCONST> -2.713108e+00
<MIXTURE> 2 2.680629e-01
<MEAN> 0
<VARIANCE> 0
<GCONST> 0.000000e+00
<STREAM> 3
<NUMMIXES> 2
<MIXTURE> 1 7.045768e-01
<MEAN> 1
 2.074673e-03
<VARIANCE> 1
 3.553591e-04
<GCONST> -6.104505e+00
<MIXTURE> 2 2.954199e-01
<MEAN> 0
<VARIANCE> 0
<GCONST> 0.000000e+00
<STREAM> 4
<NUMMIXES> 2
<MIXTURE> 1 7.045757e-01
<MEAN> 1
 -6.700000e+01
<VARIANCE> 1
 8.940651e+14
<GCONST> 3.626468e+01
<MIXTURE> 2 2.954208e-01
<MEAN> 0
<VARIANCE> 0
<GCONST> 0.000000e+00
<STATE> 3
<STREAM> 1
<MEAN> 75
 -1.084531e-01 -1.362608e-02 -8.081689e-02 -9.381767e-02 -1.300191e-01 -3.857922e-02 -8.463898e-02 -1.006606e-01 -1.070838e-01 -1.259449e-01 -1.428742e-01 -6.870493e-02 -8.705827e-02 -4.527893e-02 -6.743072e-02 -6.159681e-02 -4.367095e-02 2.255319e+00 3.716222e+00 1.268963e+00 4.349754e-01 3.059950e-01 3.350744e-02 1.811845e-02 -9.065640e-02 -3.198090e-02 -1.771219e-02 3.590013e-02 2.044006e-02 -2.778902e-02 -2.418857e-02 2.986352e-02 1.069827e-02 1.398605e-02 1.703998e-02 -2.816170e-02 -3.145706e-02 -1.108144e-02 -1.043567e-02 9.909328e-03 -1.086011e-02 -1.151310e+00 -1.872858e+00 5.027826e-01 1.642545e+00 4.825880e-01 2.021601e-01 1.451627e-01 5.949478e-02 4.458898e-02 1.285133e-01 -1.602279e-01 5.907713e-02 -2.445162e-02 1.163814e-01 -1.266151e-01 3.164466e-02 1.056265e-02 -1.244626e-02 1.582854e-03 9.246844e-02 -9.274464e-02 6.167328e-02 -6.087044e-02 2.434784e-02 1.610073e-02 2.268858e+00 -8.610780e-01 -3.914255e+00 1.621999e+00 7.112976e-01 -1.445837e-01 2.642339e-01 -9.190360e-02 1.244944e-01
<VARIANCE> 75
 1.831265e-01 1.143023e-01 6.831095e-02 6.508720e-02 7.071337e-02 5.346380e-02 5.950857e-02 5.115903e-02 4.201460e-02 5.098637e-02 5.494321e-02 5.696990e-02 5.394525e-02 4.535273e-02 2.646504e-02 2.604497e-02 4.460295e-02 7.950056e+00 4.947665e+00 2.064934e+00 5.024858e-01 4.443429e-01 2.219348e-01 1.600356e-01 1.728244e-01 3.824281e-02 3.425083e-02 2.412837e-02 2.048491e-02 2.064975e-02 2.326478e-02 1.665208e-02 1.575134e-02 1.166003e-02 1.257034e-02 1.719153e-02 1.612456e-02 1.590773e-02 1.096453e-02 1.038879e-02 1.319253e-02 2.050638e+00 1.344502e+00 3.866849e+00 1.760501e+00 4.581883e-01 1.394390e-01 9.822585e-02 7.672999e-02 4.904206e-02 1.250417e+00 8.446306e-01 5.443270e-01 5.187399e-01 5.287490e-01 4.279405e-01 3.483828e-01 2.765376e-01 3.092369e-01 3.831927e-01 3.844407e-01 3.261501e-01 2.926689e-01 2.198126e-01 1.578764e-01 1.696193e-01 7.239305e+00 4.985056e+01 3.313438e+01 7.226679e+00 5.930934e+00 2.898567e+00 1.953536e+00 1.368240e+00 1.279174e+00
<GCONST> 1.408066e+01
<STREAM> 2
<NUMMIXES> 2
<MIXTURE> 1 7.064195e-01
<MEAN> 1
 4.525010e+00
<VARIANCE> 1
 1.055680e-02
<GCONST> -2.713108e+00
<MIXTURE> 2 2.935806e-01
<MEAN> 0
<VARIANCE> 0
<GCONST> 0.000000e+00
<STREAM> 3
<NUMMIXES> 2
<MIXTURE> 1 6.820093e-01
<MEAN> 1
 1.924461e-03
<VARIANCE> 1
 3.553591e-04
<GCONST> -6.104505e+00
<MIXTURE> 2 3.179904e-01
<MEAN> 0
<VARIANCE> 0
<GCONST> 0.000000e+00
<STREAM> 4
<NUMMIXES> 2
<MIXTURE> 1 6.820089e-01
<MEAN> 1
 -6.879080e-05
<VARIANCE> 1
 8.940651e+14
<GCONST> 3.626468e+01
<MIXTURE> 2 3.179910e-01
<MEAN> 0
<VARIANCE> 0
<GCONST> 0.000000e+00
<STATE> 4
<STREAM> 1
<MEAN> 75
 -7.652071e-02 -1.247534e-01 -8.040726e-02 -3.682339e-02 -7.956354e-02 -1.258308e-01 -8.922699e-02 -5.331613e-02 -7.982200e-02 -1.240761e-01 -9.125230e-02 -1.519825e-01 -1.117416e-01 -7.379070e-02 -6.947929e-02 -5.700052e-02 -5.729832e-02 -7.017425e-02 -1.706383e-02 2.943780e+00 3.588609e+00 9.661117e-01 4.048474e-01 1.946829e-01 2.097631e-02 4.019221e-02 3.010359e-03 -4.399747e-02 -5.437288e-03 4.287335e-02 5.114319e-03 -3.883831e-02 -3.369018e-03 3.390220e-02 6.661445e-03 9.156150e-03 1.005071e-02 -3.926310e-02 -2.112355e-02 -7.561877e-03 -6.372504e-03 3.851458e-03 -2.203683e-02 -1.509550e+00 -1.799123e+00 9.873697e-01 1.590857e+00 3.916506e-01 1.941440e-01 1.222280e-01 -1.317253e-02 9.605092e-02 5.725004e-03 -8.606978e-02 -8.975010e-03 8.380985e-02 -9.662025e-04 -6.626981e-02 -1.593303e-02 7.567631e-02 -9.017497e-02 9.409406e-02 -1.087975e-03 -3.900525e-02 4.487530e-03 -1.402423e-02 -1.230551e-02 7.143325e-02 2.907240e+00 -2.331163e+00 -3.282333e+00 2.049650e+00 3.550487e-01 4.696189e-02 1.121700e-01
<VARIANCE> 75
 1.605329e-01 1.710106e-01 1.567573e-01 9.936695e-02 5.405224e-02 6.977963e-02 7.775186e-02 6.546652e-02 4.694987e-02 4.164068e-02 4.368270e-02 5.844427e-02 6.836434e-02 5.644801e-02 5.148336e-02 2.820115e-02 2.723645e-02 3.775932e-02 7.573473e-02 8.259356e+00 5.223346e+00 1.630914e+00 3.824322e-01 4.233579e-01 1.995926e-01 6.161651e-02 4.410334e-02 3.559763e-02 2.724980e-02 1.984162e-02 2.080305e-02 2.393775e-02 1.956916e-02 1.569698e-02 1.195528e-02 1.315427e-02 1.738975e-02 1.606556e-02 1.629473e-02 1.128669e-02 1.143740e-02 1.112512e-02 2.130343e-02 2.145929e+00 1.447433e+00 3.754840e+00 1.775303e+00 3.194480e-01 1.046828e-01 1.111499e-01 1.305022e+00 1.327861e+00 1.202844e+00 8.413556e-01 5.437945e-01 5.563210e-01 5.832907e-01 4.405093e-01 2.880195e-01 2.627288e-01 3.279163e-01 4.232386e-01 4.385802e-01 3.596441e-01 2.544629e-01 1.825486e-01 1.787294e-01 2.348881e-01 7.634717e+00 5.450690e+01 3.539019e+01 4.262040e+00 5.866197e+00 3.044047e+00 2.090303e+00
<GCONST> 1.293157e+01
<STREAM> 2
<NUMMIXES> 2
<MIXTURE> 1 7.238874e-01
<MEAN> 1
 4.519681e+00
<VARIANCE> 1
 1.055680e-02
<GCONST> -2.713108e+00
<MIXTURE> 2 2.761121e-01
<MEAN> 0
<VARIANCE> 0
<GCONST> 0.000000e+00
<STREAM> 3
<NUMMIXES> 2
<MIXTURE> 1 6.939182e-01
<MEAN> 1
 2.030639e-03
<VARIANCE> 1
 3.553591e-04
<GCONST> -6.104505e+00
<MIXTURE> 2 3.060816e-01
<MEAN> 0
<VARIANCE> 0
<GCONST> 0.000000e+00
<STREAM> 4
<NUMMIXES> 2
<MIXTURE> 1 6.939173e-01
<MEAN> 1
 2.024438e-04
<VARIANCE> 1
 8.940651e+14
<GCONST> 3.626468e+01
<MIXTURE> 2 3.060823e-01
<MEAN> 0
<VARIANCE> 0
<GCONST> 0.000000e+00
<STATE> 5
<STREAM> 1
<MEAN> 75
 4.681568e-01 1.288966e-01 8.679201e-02 -6.008618e-02 -3.947926e-02 -1.044305e-01 -7.172865e-02 -1.133609e-01 -6.811405e-02 -9.875043e-02 -8.394205e-02 -1.110255e-01 -8.272856e-02 -1.261902e-01 -1.067148e-01 -1.178010e-01 -9.640549e-02 -1.006394e-01 -6.453148e-02 -7.157623e-02 1.709124e-01 1.149279e+00 1.506756e+00 1.545687e+00 1.578520e+00 5.923731e-01 1.916634e-01 9.517381e-02 6.269660e-02 2.030780e-02 1.507143e-02 4.246053e-03 -3.938929e-03 -7.656217e-03 8.062987e-03 7.042350e-03 -1.042963e-03 7.800535e-03 1.089273e-02 -5.003005e-03 -5.407153e-03 -8.893691e-03 -1.530224e-02 -1.469445e-02 -1.193138e-01 -6.096219e-01 -6.667848e-01 -1.981172e-01 -3.612412e-02 1.114817e-01 5.060285e-01 2.967656e-01 -1.014564e-01 1.733996e-01 -8.575557e-02 9.746189e-02 -7.337023e-02 8.841559e-02 -7.756942e-02 4.436298e-02 -3.787970e-02 5.345351e-02 -7.012171e-02 6.440331e-02 -3.175073e-02 3.644948e-02 -2.754382e-02 4.048402e-02 -4.136188e-02 2.518169e-01 7.384145e-01 -6.195420e-01 -3.211495e-01 -5.220614e-03 -2.964739e-01
<VARIANCE> 75
 7.890326e-01 2.960249e-01 2.439596e-01 1.528260e-01 1.308459e-01 1.055332e-01 8.905739e-02 8.289699e-02 7.346245e-02 5.409054e-02 4.925865e-02 4.622920e-02 4.247889e-02 4.482845e-02 4.682904e-02 4.473791e-02 3.539159e-02 3.101025e-02 2.878826e-02 4.001972e-02 9.058710e-01 5.228770e+00 5.134895e+00 5.032511e+00 4.578504e+00 1.002066e+00 1.556408e-01 6.930435e-02 5.505967e-02 3.711193e-02 2.872072e-02 2.506148e-02 2.351316e-02 1.998099e-02 1.809270e-02 1.501681e-02 1.478022e-02 1.397074e-02 1.311802e-02 1.303105e-02 1.073965e-02 1.035394e-02 9.273743e-03 1.180542e-02 2.380333e-01 1.337872e+00 1.652595e+00 3.431204e+00 3.492991e+00 3.167434e+00 3.970774e+00 2.805304e+00 1.716612e+00 1.301784e+00 1.111914e+00 9.581814e-01 8.206480e-01 7.162306e-01 5.785776e-01 4.516447e-01 3.942402e-01 3.663363e-01 3.302422e-01 3.243505e-01 3.361934e-01 3.242399e-01 2.880135e-01 2.512531e-01 2.191994e-01 1.017059e+00 7.673421e+00 2.298060e+01 2.470085e+01 2.572576e+01 2.394881e+01
<GCONST> 3.208445e+01
<STREAM> 2
<NUMMIXES> 2
<MIXTURE> 1 7.124000e-01
<MEAN> 1
 4.526343e+00
<VARIANCE> 1
 1.190621e-02
<GCONST> -2.592818e+00
<MIXTURE> 2 2.875942e-01
<MEAN> 0
<VARIANCE> 0
<GCONST> 0.000000e+00
<STREAM> 3
<NUMMIXES> 2
<MIXTURE> 1 6.855954e-01
<MEAN> 1
 1.986280e-03
<VARIANCE> 1
 3.553591e-04
<GCONST> -6.104505e+00
<MIXTURE> 2 3.143986e-01
<MEAN> 0
<VARIANCE> 0
<GCONST> 0.000000e+00
<STREAM> 4
<NUMMIXES> 2
<MIXTURE> 1 6.855948e-01
<MEAN> 1
 -3.102571e-05
<VARIANCE> 1
 8.940651e+14
<GCONST> 3.626468e+01
<MIXTURE> 2 3.143988e-01
<MEAN> 0
<VARIANCE> 0
<GCONST> 0.000000e+00
<STATE> 6
<STREAM> 1
<MEAN> 75
 7.681652e-01 9.563187e-01 9.364174e-01 9.210937e-01 8.795831e-01 8.842898e-01 7.945661e-01 5.538585e-01 4.118806e-01 3.292279e-01 5.146159e-02 -2.124069e-02 -7.412855e-02 -7.641596e-02 -9.310618e-02 -8.794504e-02 -1.051530e-01 -9.860388e-02 -1.175365e-01 -1.030791e-01 -1.111735e-01 -8.982871e-02 -9.676370e-02 -7.786611e-02 -2.175990e-02 -4.240022e-01 -8.466153e-02 2.214926e-02 3.189098e-02 1.578110e-02 3.922505e-02 1.644984e-01 1.887476e-01 1.111245e-01 1.828519e-01 1.771309e-01 6.306081e-02 2.742428e-02 1.003804e-02 7.258540e-03 6.606427e-03 5.794941e-03 7.101533e-03 2.155125e-03 -2.969574e-03 -5.799225e-03 -5.412068e-03 -5.861894e-03 -3.761849e-02 -9.512890e-02 -4.637281e-01 -2.159898e-01 -3.082559e-03 -1.996809e-02 5.044800e-02 -1.001090e-01 -1.487347e-01 9.712210e-02 5.710331e-02 -1.992964e-01 2.108423e-01 2.052471e-02 4.972449e-02 -1.393115e-02 2.256829e-02 -2.128828e-02 2.463634e-02 -2.419363e-02 3.406978e-02 -2.270180e-02 2.864630e-02 -2.623213e-02 2.437892e-02 3.954257e-02 7.650585e-02
<VARIANCE> 75
 4.057818e+00 4.004952e+00 3.796982e+00 3.437220e+00 3.414180e+00 3.337617e+00 3.199737e+00 2.122348e+00 1.930888e+00 1.523015e+00 3.623880e-01 1.539703e-01 1.320843e-01 9.736416e-02 8.612026e-02 7.463462e-02 6.506033e-02 5.414128e-02 4.871656e-02 4.555264e-02 4.781137e-02 8.651984e-02 5.172292e-02 1.015895e-01 4.052180e-01 1.341809e+00 2.308763e+00 2.210457e+00 2.134077e+00 2.025270e+00 1.928288e+00 1.515483e+00 1.355383e+00 9.134970e-01 5.031511e-01 3.525988e-01 7.064800e-02 3.737170e-02 3.423778e-02 2.709065e-02 2.348976e-02 2.030189e-02 1.766537e-02 1.427473e-02 1.519298e-02 2.463860e-02 1.636894e-02 3.876255e-02 1.093647e-01 2.750604e-01 1.622889e+01 1.650659e+01 1.642169e+01 1.554335e+01 1.549423e+01 1.509241e+01 1.307039e+01 9.245766e+00 8.200833e+00 5.491072e+00 1.883868e+00 1.398364e+00 1.015999e+00 8.563668e-01 7.347984e-01 6.220168e-01 5.305674e-01 4.601430e-01 4.072069e-01 3.668628e-01 3.928496e-01 4.541266e-01 3.982527e-01 8.327940e-01 2.102072e+00
<GCONST> 8.811348e+01
<STREAM> 2
<NUMMIXES> 2
<MIXTURE> 1 7.602912e-01
<MEAN> 1
 4.520445e+00
<VARIANCE> 1
 1.055680e-02
<GCONST> -2.713108e+00
<MIXTURE> 2 2.397048e-01
<MEAN> 0
<VARIANCE> 0
<GCONST> 0.000000e+00
<STREAM> 3
<NUMMIXES> 2
<MIXTURE> 1 7.336823e-01
<MEAN> 1
 1.803309e-03
<VARIANCE> 1
 3.827254e-04
<GCONST> -6.030316e+00
<MIXTURE> 2 2.663123e-01
<MEAN> 0
<VARIANCE> 0
<GCONST> 0.000000e+00
<STREAM> 4
<NUMMIXES> 2
<MIXTURE> 1 7.336835e-01
<MEAN> 1
 2.726667e-05
<VARIANCE> 1
 8.940651e+14
<GCONST> 3.626468e+01
<MIXTURE> 2 2.663126e-01
<MEAN> 0
<VARIANCE> 0
<GCONST> 0.000000e+00
<TRANSP> 7
 0.000000e+00 1.000000e+00 0.000000e+00 0.000000e+00 0.000000e+00 0.000000e+00 0.000000e+00
 0.000000e+00 0.000000e+00 1.000000e+00 0.000000e+00 0.000000e+00 0.000000e+00 0.000000e+00
 0.000000e+00 0.000000e+00 0.000000e+00 1.000000e+00 0.000000e+00 0.000000e+00 0.000000e+00
 0.000000e+00 0.000000e+00 0.000000e+00 0.000000e+00 1.000000e+00 0.000000e+00 0.000000e+00
 0.000000e+00 0.000000e+00 0.000000e+00 0.000000e+00 0.000000e+00 1.000000e+00 0.000000e+00
 0.000000e+00 0.000000e+00 0.000000e+00 0.000000e+00 0.000000e+00 0.000000e+00 1.000000e+00
 0.000000e+00 0.000000e+00 0.000000e+00 0.000000e+00 0.000000e+00 0.000000e+00 0.000000e+00
<ENDHMM>
~h "d"
<BEGINHMM>
<NUMSTATES> 7
<STATE> 2
<STREAM> 1
<MEAN> 75
 8.685380e-01 3.889202e-01 1.470955e-01 3.867881e-02 9.847991e-03 -6.480463e-02 -8.794641e-02 -8.914497e-02 -7.555223e-02 -9.063252e-02 -1.007433e-01 -1.052020e-01 -9.751064e-02 -1.019663e-01 -1.067393e-01 -1.061804e-01 -1.073880e-01 -8.001343e-02 7.806162e-02 4.415691e-01 6.086410e-01 6.915500e-01 7.550079e-01 8.630040e-01 1.333042e+00 5.244842e-01 3.604021e-01 1.777019e-01 7.030197e-02 5.255107e-02 4.980829e-02 1.136958e-02 -6.005689e-03 5.712300e-04 1.274089e-02 7.742921e-03 -1.510997e-03 -2.033039e-03 5.088841e-03 3.538343e-03 1.100520e-03 -1.310027e-02 -9.163497e-02 -2.603284e-01 -2.653779e-01 -1.261443e-01 -7.330391e-02 -8.596766e-02 -2.898097e-01 -2.887450e-01 8.563073e-02 2.304071e-01 1.369370e-01 8.271108e-02 -4.113951e-02 5.319042e-02 2.035490e-02 1.508850e-02 -3.061644e-02 4.894395e-03 7.440570e-03 1.018071e-02 -1.230309e-02 6.651467e-04 4.910092e-03 -9.166962e-04 2.886632e-02 1.264842e-01 2.090641e-01 -1.917567e-01 -8.840784e-02 -1.961394e-02 4.434413e-02 3.594234e-01 -3.554935e-01
<VARIANCE> 75
 2.786808e+00 1.168158e+00 3.663700e-01 2.606621e-01 3.165759e-01 1.452677e-01 1.017738e-01 9.090850e-02 7.182705e-02 6.118982e-02 5.374844e-02 5.021304e-02 4.404962e-02 3.673819e-02 3.372620e-02 3.487721e-02 3.583046e-02 1.390432e-01 8.977473e-01 2.517381e+00 2.830964e+00 2.975672e+00 2.985674e+00 3.281248e+00 4.746959e+00 1.608648e+00 6.890408e-01 2.684806e-01 1.250724e-01 7.311402e-02 7.306457e-02 3.089915e-02 2.250658e-02 2.126929e-02 1.873503e-02 1.629034e-02 1.533970e-02 1.357968e-02 1.168212e-02 1.105066e-02 1.043536e-02 3.568538e-02 2.212322e-01 6.704983e-01 9.813242e-01 1.505399e+00 1.629874e+00 1.800629e+00 2.392029e+00 2.599090e+00 1.142802e+01 5.343911e+00 2.603109e+00 2.031055e+00 1.663780e+00 1.057372e+00 9.248470e-01 7.873635e-01 6.386987e-01 5.269220e-01 4.569741e-01 4.279346e-01 3.818335e-01 3.167054e-01 2.777267e-01 2.690962e-01 3.593845e-01 1.292223e+00 4.970093e+00 9.938471e+00 1.122329e+01 1.238356e+01 1.325024e+01 1.693748e+01 2.392413e+01
<GCONST> 6.945341e+01
<STREAM> 2
<NUMMIXES> 2
<MIXTURE> 1 6.634678e-01
<MEAN> 1
 4.532668e+00
<VARIANCE> 1
 1.055680e-02
<GCONST> -2.713108e+00
<MIXTURE> 2 3.365248e-01
<MEAN> 0
<VARIANCE> 0
<GCONST> 0.000000e+00
<STREAM> 3
<NUMMIXES> 2
<MIXTURE> 1 6.378272e-01
<MEAN> 1
 2.289947e-03
<VARIANCE> 1
 3.553591e-04
<GCONST> -6.104505e+00
<MIXTURE> 2 3.621651e-01
<MEAN> 0
<VARIANCE> 0
<GCONST> 0.000000e+00
<STREAM> 4
<NUMMIXES> 2
<MIXTURE> 1 6.378274e-01
<MEAN> 1
 -6.242298e+06
<VARIANCE> 1
 1.248066e+17
<GCONST> 4.120342e+01
<MIXTURE> 2 3.621646e-01
<MEAN> 0
<VARIANCE> 0
<GCONST> 0.000000e+00
<STATE> 3
<STREAM> 1
<MEAN> 75
 7.488811e-01 1.315895e+00 1.526334e+00 1.680322e+00 1.706346e+00 6.288790e-01 1.938120e-01 1.539078e-01 -5.257863e-02 -2.820252e-02 -1.056443e-01 -5.870347e-02 -1.168952e-01 -6.003433e-02 -1.102980e-01 -8.300906e-02 -1.131086e-01 -7.321705e-02 -1.225201e-01 -1.103071e-01 -1.256321e-01 -1.061539e-01 -1.119655e-01 -6.935233e-02 -8.383127e-02 -6.504258e-01 -3.922235e-01 -1.882832e-01 -9.418747e-02 5.236123e-01 7.535240e-01 2.379081e-01 1.245405e-01 9.225919e-02 2.856044e-02 1.650864e-02 6.942322e-03 9.360972e-04 -2.208456e-03 1.251584e-02 2.736825e-03 -3.874653e-03 5.672900e-03 1.987339e-02 2.427926e-03 -2.267802e-03 -7.097416e-03 -1.748689e-02 -1.376492e-02 -4.221339e-02 -1.591976e-01 -3.520833e-01 -5.813314e-02 -1.326997e-01 -1.106433e+00 6.371029e-01 3.919965e-01 -1.641241e-01 2.295084e-01 -1.011019e-01 1.241256e-01 -1.027648e-01 1.147787e-01 -1.077402e-01 7.632773e-02 -5.602999e-02 7.065347e-02 -8.979954e-02 6.130724e-02 -2.746753e-02 3.652802e-02 -2.664512e-02 4.870456e-02 -5.622079e-02 1.133411e-01
<VARIANCE> 75
 3.870009e+00 5.033148e+00 5.183430e+00 4.834364e+00 4.821436e+00 1.013261e+00 3.167293e-01 2.747764e-01 1.533246e-01 1.303828e-01 1.122260e-01 9.383015e-02 8.438857e-02 7.425352e-02 5.670795e-02 5.465328e-02 5.062410e-02 3.998102e-02 3.450270e-02 3.568847e-02 3.283767e-02 3.186628e-02 2.808221e-02 2.239821e-02 1.998328e-02 1.390807e+00 2.868369e+00 3.510453e+00 3.686560e+00 1.777427e+00 1.220829e+00 1.788725e-01 6.967791e-02 6.079788e-02 4.097633e-02 3.098868e-02 2.566730e-02 2.384079e-02 2.041044e-02 1.985932e-02 1.744255e-02 1.582364e-02 1.402616e-02 1.083244e-02 1.018139e-02 9.642816e-03 8.723271e-03 7.686407e-03 6.999064e-03 6.629228e-02 1.789484e+01 2.400363e+01 2.687935e+01 2.777067e+01 2.118266e+01 4.730908e+00 3.400039e+00 1.939323e+00 1.385243e+00 1.146456e+00 1.029081e+00 8.829725e-01 7.712826e-01 6.356956e-01 5.156558e-01 4.634217e-01 4.170468e-01 3.325415e-01 2.830172e-01 2.804471e-01 2.779275e-01 2.640465e-01 2.381077e-01 1.951741e-01 3.748950e-01
<GCONST> 3.118821e+01
<STREAM> 2
<NUMMIXES> 2
<MIXTURE> 1 6.480026e-01
<MEAN> 1
 4.534657e+00
<VARIANCE> 1
 1.055680e-02
<GCONST> -2.713108e+00
<MIXTURE> 2 3.519906e-01
<MEAN> 0
<VARIANCE> 0
<GCONST> 0.000000e+00
<STREAM> 3
<NUMMIXES> 2
<MIXTURE> 1 6.238956e-01
<MEAN> 1
 2.361493e-03
<VARIANCE> 1
 3.553591e-04
<GCONST> -6.104505e+00
<MIXTURE> 2 3.760979e-01
<MEAN> 0
<VARIANCE> 0
<GCONST> 0.000000e+00
<STREAM> 4
<NUMMIXES> 2
<MIXTURE> 1 6.238956e-01
<MEAN> 1
 7.574863e-06
<VARIANCE> 1
 8.940651e+14
<GCONST> 3.626468e+01
<MIXTURE> 2 3.760975e-01
<MEAN> 0
<VARIANCE> 0
<GCONST> 0.000000e+00
<STATE> 4
<STREAM> 1
<MEAN> 75
 -7.714843e-02 -8.275981e-02 -5.385279e-02 -6.954329e-02 -3.653918e-02 1.639097e+00 2.246145e+00 2.166358e+00 1.160938e+00 3.555245e-01 2.985856e-01 2.081446e-02 3.713203e-02 -1.189758e-01 -2.633882e-02 -9.420341e-02 -2.591937e-02 -1.209545e-01 -7.033385e-02 -1.011044e-01 -5.500770e-02 -9.595849e-02 -8.559458e-02 -1.378661e-01 -1.068819e-01 -2.311933e-02 -1.050327e-02 -3.963269e-03 -8.582696e-03 -8.572296e-01 -1.145403e+00 -2.706515e-01 5.364647e-01 9.015387e-01 4.324215e-01 1.711928e-01 1.324371e-01 7.155626e-02 3.234252e-02 -1.020335e-02 1.678668e-03 1.490316e-02 2.352810e-02 -9.169273e-03 -5.886224e-03 -1.444150e-03 1.649405e-02 2.113029e-02 1.070346e-02 -3.860922e-03 -5.883160e-02 3.436295e-02 -4.651209e-02 5.213609e-02 1.645100e+00 -1.056301e+00 -6.865474e-01 -9.325380e-01 1.915124e-01 7.455304e-01 -2.213844e-01 2.945133e-01 -1.711317e-01 2.458811e-01 -1.594489e-01 1.368946e-01 -1.632639e-01 1.469682e-01 -8.170469e-02 7.650072e-02 -8.625609e-02 5.124123e-02 -6.282593e-02 8.246562e-02 -5.449700e-02
<VARIANCE> 75
 2.761322e-02 2.285994e-02 2.129086e-02 2.052878e-02 4.979531e-02 6.745457e+00 5.787701e+00 5.470079e+00 1.894835e+00 4.678836e-01 2.733521e-01 1.992322e-01 1.290858e-01 1.237305e-01 1.085635e-01 9.730672e-02 7.264337e-02 6.912025e-02 6.513000e-02 5.899565e-02 4.243835e-02 3.656983e-02 3.466628e-02 3.570297e-02 3.616754e-02 7.362898e-03 7.118118e-03 6.822265e-03 1.456747e-02 1.753563e+00 1.542150e+00 4.867676e+00 2.940686e+00 1.562198e+00 4.374470e-01 9.093669e-02 6.786460e-02 4.436172e-02 3.474477e-02 2.708217e-02 2.631982e-02 2.185293e-02 1.999330e-02 1.960598e-02 1.793067e-02 1.533944e-02 1.164804e-02 1.021488e-02 9.739608e-03 9.207091e-03 2.328174e-01 1.891665e-01 1.563796e-01 1.698155e-01 6.377527e+00 3.373658e+01 3.587106e+01 2.922034e+01 1.038507e+01 4.263143e+00 2.285590e+00 1.451786e+00 1.130439e+00 1.042774e+00 1.009993e+00 8.621542e-01 6.546994e-01 5.567214e-01 5.545115e-01 4.966890e-01 3.687592e-01 2.832783e-01 2.674362e-01 2.835092e-01 3.003424e-01
<GCONST> 1.546769e+01
<STREAM> 2
<NUMMIXES> 2
<MIXTURE> 1 6.298057e-01
<MEAN> 1
 4.532085e+00
<VARIANCE> 1
 1.055680e-02
<GCONST> -2.713108e+00
<MIXTURE> 2 3.701875e-01
<MEAN> 0
<VARIANCE> 0
<GCONST> 0.000000e+00
<STREAM> 3
<NUMMIXES> 2
<MIXTURE> 1 5.996717e-01
<MEAN> 1
 2.237443e-03
<VARIANCE> 1
 3.553591e-04
<GCONST> -6.104505e+00
<MIXTURE> 2 4.003213e-01
<MEAN> 0
<VARIANCE> 0
<GCONST> 0.000000e+00
<STREAM> 4
<NUMMIXES> 2
<MIXTURE> 1 5.996719e-01
<MEAN> 1
 -6.623413e-05
<VARIANCE> 1
 8.940651e+14
<GCONST> 3.626468e+01
<MIXTURE> 2 4.003212e-01
<MEAN> 0
<VARIANCE> 0
<GCONST> 0.000000e+00
<STATE> 5
<STREAM> 1
<MEAN> 75
 -1.191290e-01 -1.238480e-01 -1.118307e-01 -1.112149e-01 -7.197766e-02 -7.391140e-02 -3.778148e-02 7.343958e-02 1.155228e+00 1.750629e+00 1.799334e+00 1.855402e+00 6.966118e-01 2.982734e-01 1.802895e-01 1.546656e-02 -3.057589e-02 -7.632799e-02 -4.854185e-02 -7.749684e-02 -6.227694e-02 -9.407378e-02 -7.432888e-02 -1.006571e-01 -7.526787e-02 9.455218e-03 -3.066579e-03 -5.340078e-03 -1.910097e-02 -1.910548e-02 -1.709180e-02 -7.372083e-02 -5.981400e-01 -8.401243e-01 -3.278407e-01 -5.749547e-02 5.487986e-01 7.753614e-01 2.552701e-01 1.404932e-01 1.061136e-01 4.725480e-02 1.134270e-02 3.418108e-03 8.997818e-03 1.073877e-02 8.527419e-03 3.702035e-03 8.706925e-04 2.444780e-03 7.958958e-03 1.580203e-02 -1.161189e-02 3.991019e-02 -4.176889e-02 3.636766e-02 7.556258e-02 9.759489e-01 -4.810205e-01 -5.475373e-01 2.070248e-03 -1.214592e+00 7.621849e-01 2.797309e-01 -5.231422e-02 1.169329e-01 -2.291071e-03 7.298409e-02 -5.649770e-02 4.529243e-02 -4.601698e-02 5.290763e-02 -4.278141e-02 5.087858e-02 -5.411501e-02
<VARIANCE> 75
 3.599552e-02 3.468277e-02 3.398168e-02 3.111402e-02 2.512589e-02 4.181544e-02 1.545096e-01 6.991577e-01 5.486551e+00 5.613022e+00 5.250107e+00 4.699789e+00 1.107330e+00 3.634884e-01 3.089651e-01 1.667134e-01 1.416759e-01 1.216530e-01 1.014764e-01 8.610580e-02 7.872629e-02 6.177425e-02 5.754079e-02 5.266463e-02 4.083587e-02 1.016278e-02 9.503830e-03 9.574348e-03 8.179226e-03 1.268518e-02 4.151651e-02 1.861858e-01 1.474255e+00 1.717267e+00 3.757126e+00 4.066503e+00 1.985239e+00 1.298179e+00 1.992852e-01 7.987464e-02 6.226204e-02 4.227946e-02 3.143381e-02 2.634263e-02 2.359049e-02 2.036383e-02 2.055745e-02 1.806256e-02 1.589254e-02 1.355495e-02 2.738810e-01 2.868376e-01 2.822024e-01 2.554294e-01 2.202736e-01 3.415022e-01 1.126492e+00 7.461564e+00 2.539646e+01 2.901673e+01 3.032174e+01 2.231265e+01 5.248046e+00 3.690079e+00 2.002359e+00 1.406064e+00 1.156865e+00 1.066938e+00 9.146175e-01 7.717521e-01 6.409070e-01 5.328594e-01 4.779433e-01 4.222321e-01 3.312818e-01
<GCONST> 3.793369e+01
<STREAM> 2
<NUMMIXES> 2
<MIXTURE> 1 6.304677e-01
<MEAN> 1
 4.532253e+00
<VARIANCE> 1
 1.055680e-02
<GCONST> -2.713108e+00
<MIXTURE> 2 3.695280e-01
<MEAN> 0
<VARIANCE> 0
<GCONST> 0.000000e+00
<STREAM> 3
<NUMMIXES> 2
<MIXTURE> 1 6.080371e-01
<MEAN> 1
 2.199221e-03
<VARIANCE> 1
 3.553591e-04
<GCONST> -6.104505e+00
<MIXTURE> 2 3.919582e-01
<MEAN> 0
<VARIANCE> 0
<GCONST> 0.000000e+00
<STREAM> 4
<NUMMIXES> 2
<MIXTURE> 1 6.080369e-01
<MEAN> 1
 -9.046457e-05
<VARIANCE> 1
 8.940651e+14
<GCONST> 3.626468e+01
<MIXTURE> 2 3.919581e-01
<MEAN> 0
<VARIANCE> 0
<GCONST> 0.000000e+00
<STATE> 6
<STREAM> 1
<MEAN> 75
 -6.780247e-02 -6.075003e-02 -8.032068e-02 -7.373036e-02 -1.085965e-01 -8.615506e-02 -8.850278e-02 -4.432179e-02 7.863952e-02 1.069067e-01 5.832522e-02 9.686249e-02 1.267804e+00 1.519284e+00 1.226352e+00 9.687660e-01 5.967914e-01 4.742071e-01 3.078343e-01 2.400445e-01 7.380675e-02 7.268058e-02 1.695587e-02 1.181550e-02 -6.084014e-02 9.782545e-03 9.131018e-03 8.419679e-03 1.429362e-02 7.451912e-03 -7.479488e-03 -1.870459e-02 -8.201238e-02 -7.563283e-02 1.022051e-02 4.841238e-03 -6.029811e-01 -7.108233e-01 2.028118e-02 2.731501e-01 3.133730e-01 2.425819e-01 1.409764e-01 1.130390e-01 1.167352e-01 8.110930e-02 2.878178e-02 2.799924e-02 4.181205e-02 2.844210e-02 2.887825e-02 -2.697245e-02 2.851465e-02 -4.237111e-02 5.826197e-02 -2.413304e-02 4.831810e-02 8.015367e-02 -9.255631e-02 -7.441652e-02 8.735856e-02 1.131643e+00 -9.211824e-01 -5.411291e-01 3.607507e-02 -1.103933e-01 2.542408e-01 -4.172228e-02 9.560800e-02 -9.896877e-02 1.620551e-01 -5.569626e-02 4.816440e-02 -6.781828e-02 8.636326e-02
<VARIANCE> 75
 6.636358e-02 5.631418e-02 4.778010e-02 4.208600e-02 4.558167e-02 4.108360e-02 7.735407e-02 1.959350e-01 7.981384e-01 7.742322e-01 4.861893e-01 6.001573e-01 5.701832e+00 5.032438e+00 4.104288e+00 2.697735e+00 1.812483e+00 1.338406e+00 1.149716e+00 8.322045e-01 4.835236e-01 3.150375e-01 2.406606e-01 1.820733e-01 1.108366e-01 1.910346e-02 1.684840e-02 1.491634e-02 1.354316e-02 1.230789e-02 2.232004e-02 5.064685e-02 2.141453e-01 2.430890e-01 2.998971e-01 3.206780e-01 1.644868e+00 1.541998e+00 3.247907e+00 2.503926e+00 1.679057e+00 1.107776e+00 7.411765e-01 5.354257e-01 3.504503e-01 2.363288e-01 1.293123e-01 8.750987e-02 5.910128e-02 4.622088e-02 5.443473e-01 4.455799e-01 3.598671e-01 3.221446e-01 3.320809e-01 3.577230e-01 5.681145e-01 1.392422e+00 2.997742e+00 2.658891e+00 1.972506e+00 7.250096e+00 2.541516e+01 2.384625e+01 1.967852e+01 1.342108e+01 8.899945e+00 6.663445e+00 5.200896e+00 3.779504e+00 2.440426e+00 1.915781e+00 1.527836e+00 1.202575e+00 8.400063e-01
<GCONST> 8.989337e+01
<STREAM> 2
<NUMMIXES> 2
<MIXTURE> 1 5.661486e-01
<MEAN> 1
 4.373963e+00
<VARIANCE> 1
 7.007685e-01
<GCONST> 1.482299e+00
<MIXTURE> 2 4.338451e-01
<MEAN> 0
<VARIANCE> 0
<GCONST> 0.000000e+00
<STREAM> 3
<NUMMIXES> 2
<MIXTURE> 1 5.394047e-01
<MEAN> 1
 1.718841e-03
<VARIANCE> 1
 2.192152e-03
<GCONST> -4.284994e+00
<MIXTURE> 2 4.605886e-01
<MEAN> 0
<VARIANCE> 0
<GCONST> 0.000000e+00
<STREAM> 4
<NUMMIXES> 2
<MIXTURE> 1 5.394050e-01
<MEAN> 1
 5.015536e-03
<VARIANCE> 1
 8.940651e+14
<GCONST> 3.626468e+01
<MIXTURE> 2 4.605876e-01
<MEAN> 0
<VARIANCE> 0
<GCONST> 0.000000e+00
<TRANSP> 7
 0.000000e+00 1.000000e+00 0.000000e+00 0.000000e+00 0.000000e+00 0.000000e+00 0.000000e+00
 0.000000e+00 0.000000e+00 1.000000e+00 0.000000e+00 0.000000e+00 0.000000e+00 0.000000e+00
 0.000000e+00 0.000000e+00 0.000000e+00 1.000000e+00 0.000000e+00 0.000000e+00 0.000000e+00
 0.000000e+00 0.000000e+00 0.000000e+00 0.000000e+00 1.000000e+00 0.000000e+00 0.000000e+00
 0.000000e+00 0.000000e+00 0.000000e+00 0.000000e+00 0.000000e+00 1.000000e+00 0.000000e+00
 0.000000e+00 0.000000e+00 0.000000e+00 0.000000e+00 0.000000e+00 0.000000e+00 1.000000e+00
 0.000000e+00 0.000000e+00 0.000000e+00 0.000000e+00 0.000000e+00 0.000000e+00 0.000000e+00
<ENDHMM>
~h "e"
<BEGINHMM>
<NUMSTATES> 7
<STATE> 2
<STREAM> 1
<MEAN> 75
 -8.852324e-02 -6.892370e-02 -9.247364e-02 -5.557501e-02 -1.048835e-01 -9.768437e-02 -1.160703e-01 -9.534398e-02 -1.158792e-01 -1.144067e-01 -1.079300e-01 -6.618858e-02 -3.309905e-02 1.204181e-01 2.505375e-01 6.127924e-01 7.714720e-01 1.070093e+00 1.343626e+00 1.431873e+00 1.484105e+00 4.526062e-01 1.105637e-01 5.643398e-02 -6.699779e-02 2.409847e-02 5.494426e-04 -7.107623e-03 5.607215e-03 1.870984e-02 2.674347e-03 -2.225049e-03 -1.135032e-03 7.419709e-03 -5.645812e-03 -2.438662e-02 -3.779131e-02 -9.368354e-02 -1.403483e-01 -2.440740e-01 -2.601022e-01 -2.270016e-01 -2.852366e-01 -1.822744e-01 -6.847666e-02 4.932078e-01 6.894151e-01 1.995023e-01 8.872453e-02 3.712244e-02 9.324459e-02 -4.385252e-02 5.845825e-02 -8.442147e-02 5.907763e-02 -2.636367e-02 3.517278e-02 -3.788214e-02 2.209568e-02 5.056592e-03 3.360998e-02 -7.584284e-03 1.170076e-01 -2.491406e-02 2.333228e-01 -2.029025e-01 1.343997e-01 -2.452376e-02 -1.849010e-01 -4.171881e-02 -1.086284e+00 6.905305e-01 2.928961e-01 -6.696089e-02 1.734309e-01
<VARIANCE> 75
 1.552386e-01 9.845655e-02 9.307273e-02 7.295651e-02 5.489913e-02 5.167257e-02 4.895245e-02 4.217472e-02 3.510992e-02 3.584866e-02 5.037796e-02 2.104042e-01 3.765681e-01 1.055992e+00 1.660980e+00 3.269910e+00 3.544870e+00 4.618630e+00 5.147903e+00 5.147212e+00 5.159964e+00 1.105986e+00 3.191338e-01 2.717998e-01 1.624940e-01 8.213230e-02 3.342617e-02 2.484734e-02 2.153407e-02 1.846436e-02 1.482730e-02 1.346525e-02 1.254738e-02 1.083069e-02 1.377768e-02 5.277211e-02 9.663347e-02 3.085465e-01 5.041798e-01 1.149006e+00 1.420268e+00 2.320101e+00 2.691389e+00 3.198158e+00 3.519932e+00 1.738037e+00 1.283966e+00 2.064405e-01 7.890965e-02 1.165904e-01 1.183709e+00 1.018845e+00 8.707880e-01 6.859456e-01 5.141225e-01 4.439063e-01 4.127769e-01 3.472316e-01 2.982782e-01 3.042064e-01 4.858880e-01 1.059553e+00 2.139081e+00 4.692955e+00 8.085135e+00 1.373402e+01 1.633977e+01 2.260614e+01 2.646932e+01 2.769680e+01 2.155033e+01 4.905510e+00 3.331395e+00 2.077411e+00 1.802158e+00
<GCONST> 8.262476e+01
<STREAM> 2
<NUMMIXES> 2
<MIXTURE> 1 7.478678e-01
<MEAN> 1
 4.525729e+00
<VARIANCE> 1
 1.055680e-02
<GCONST> -2.713108e+00
<MIXTURE> 2 2.521262e-01
<MEAN> 0
<VARIANCE> 0
<GCONST> 0.000000e+00
<STREAM> 3
<NUMMIXES> 2
<MIXTURE> 1 7.206222e-01
<MEAN> 1
 1.686663e-03
<VARIANCE> 1
 3.553591e-04
<GCONST> -6.104505e+00
<MIXTURE> 2 2.793707e-01
<MEAN> 0
<VARIANCE> 0
<GCONST> 0.000000e+00
<STREAM> 4
<NUMMIXES> 2
<MIXTURE> 1 7.206221e-01
<MEAN> 1
 2.333415e-05
<VARIANCE> 1
 8.940651e+14
<GCONST> 3.626468e+01
<MIXTURE> 2 2.793708e-01
<MEAN> 0
<VARIANCE> 0
<GCONST> 0.000000e+00
<STATE> 3
<STREAM> 1
<MEAN> 75
 2.501546e-01 1.162550e-01 -4.417403e-02 -6.254917e-02 -8.293305e-02 -5.437876e-02 -8.888847e-02 -6.263772e-02 -1.015554e-01 -8.271489e-02 -1.089182e-01 -8.070953e-02 -1.112495e-01 -1.291552e-01 -1.198549e-01 -1.175578e-01 -1.076558e-01 -7.006996e-02 -7.880664e-02 -6.530038e-02 -3.251692e-02 1.337704e+00 1.810114e+00 1.886216e+00 2.039091e+00 2.453335e-01 1.484818e-01 9.027092e-02 2.218723e-02 -4.137165e-03 1.396403e-03 2.693498e-03 6.326449e-03 9.786038e-03 3.322201e-03 -9.230901e-04 3.918950e-04 2.413161e-02 3.992364e-03 -6.362500e-03 -6.089093e-03 -2.467130e-02 -1.608677e-02 -2.145316e-03 -2.270750e-02 -7.020472e-01 -9.223930e-01 -2.755884e-01 -1.112836e-01 6.440884e-01 2.215186e-01 -2.578871e-02 1.400134e-01 -6.417558e-04 5.081958e-02 -5.970120e-02 5.961967e-02 -6.431090e-02 5.626369e-02 -4.498442e-02 5.380548e-02 -5.657665e-02 1.048213e-02 2.909966e-02 -5.456175e-03 5.764503e-03 2.818223e-02 -4.774788e-02 2.208386e-02 1.715149e-02 1.343020e+00 -8.966560e-01 -4.024729e-01 7.222494e-02 -1.586286e+00
<VARIANCE> 75
 5.496188e-01 3.533128e-01 1.662564e-01 1.430570e-01 1.330319e-01 1.097754e-01 9.577401e-02 8.060466e-02 5.986702e-02 5.449946e-02 5.382435e-02 4.437238e-02 3.774277e-02 3.907595e-02 3.703540e-02 3.556303e-02 3.288921e-02 2.360693e-02 2.178358e-02 1.997124e-02 9.465349e-02 6.285079e+00 6.085680e+00 5.886806e+00 5.400268e+00 2.140641e-01 1.391226e-01 6.839040e-02 4.493071e-02 3.292811e-02 3.055311e-02 2.591411e-02 2.159179e-02 1.942655e-02 1.712556e-02 1.606067e-02 1.402941e-02 1.119468e-02 1.014540e-02 9.619171e-03 9.117752e-03 7.956219e-03 6.938066e-03 6.808822e-03 2.503748e-02 1.629788e+00 1.621866e+00 4.354640e+00 4.614038e+00 2.108674e+00 4.723124e+00 2.354395e+00 1.729955e+00 1.364955e+00 1.309952e+00 1.137440e+00 9.586604e-01 7.374301e-01 5.630892e-01 4.883015e-01 4.466368e-01 3.572833e-01 2.928837e-01 2.950207e-01 3.211281e-01 3.196971e-01 2.895880e-01 2.333788e-01 1.858274e-01 2.339539e-01 6.130960e+00 3.009537e+01 3.324228e+01 3.513849e+01 2.563134e+01
<GCONST> 2.118386e+01
<STREAM> 2
<NUMMIXES> 2
<MIXTURE> 1 6.972831e-01
<MEAN> 1
 4.524672e+00
<VARIANCE> 1
 1.055680e-02
<GCONST> -2.713108e+00
<MIXTURE> 2 3.027096e-01
<MEAN> 0
<VARIANCE> 0
<GCONST> 0.000000e+00
<STREAM> 3
<NUMMIXES> 2
<MIXTURE> 1 6.734902e-01
<MEAN> 1
 1.802417e-03
<VARIANCE> 1
 3.553591e-04
<GCONST> -6.104505e+00
<MIXTURE> 2 3.265020e-01
<MEAN> 0
<VARIANCE> 0
<GCONST> 0.000000e+00
<STREAM> 4
<NUMMIXES> 2
<MIXTURE> 1 6.734899e-01
<MEAN> 1
 5.427424e-04
<VARIANCE> 1
 8.940651e+14
<GCONST> 3.626468e+01
<MIXTURE> 2 3.265018e-01
<MEAN> 0
<VARIANCE> 0
<GCONST> 0.000000e+00
<STATE> 4
<STREAM> 1
<MEAN> 75
 1.573963e+00 1.654437e+00 1.743407e+00 1.274808e+00 4.301620e-01 9.610093e-02 7.059888e-02 -8.239791e-02 -3.510555e-02 -1.016312e-01 -5.072653e-02 -1.088847e-01 -5.987444e-02 -1.047351e-01 -8.147518e-02 -1.090056e-01 -8.215664e-02 -1.382901e-01 -1.087841e-01 -1.276404e-01 -9.708100e-02 -9.743585e-02 -6.691997e-02 -7.556096e-02 -3.702131e-02 -2.471965e-01 -8.443210e-02 1.908183e-01 6.536293e-01 5.896052e-01 1.845585e-01 9.142365e-02 5.316298e-02 8.917816e-03 8.798186e-03 3.785817e-03 4.298319e-03 -1.967291e-03 1.220256e-02 3.929110e-03 6.867732e-04 1.442444e-02 1.342941e-02 -3.669402e-03 -4.976117e-03 -1.561246e-02 -1.690337e-02 -1.159441e-02 -1.566103e-02 -6.197070e-01 -3.369604e-01 8.274823e-03 -5.586325e-01 -3.814052e-01 5.087745e-01 3.116337e-01 -1.245272e-01 2.019741e-01 -1.116557e-01 1.163059e-01 -1.064260e-01 1.059263e-01 -9.503810e-02 6.639194e-02 -4.935494e-02 5.676804e-02 -8.310812e-02 8.429451e-02 -4.903163e-02 5.167689e-02 -3.015483e-02 3.076277e-02 -4.102397e-02 4.997448e-02 1.159564e+00
<VARIANCE> 75
 5.597028e+00 5.614761e+00 5.038453e+00 4.139919e+00 7.700295e-01 3.025997e-01 2.370465e-01 1.422235e-01 1.318613e-01 1.135182e-01 9.410355e-02 8.521074e-02 7.306458e-02 5.774764e-02 5.441861e-02 4.943661e-02 4.181783e-02 3.723639e-02 3.812132e-02 3.367992e-02 3.345888e-02 2.661442e-02 2.191210e-02 3.852133e-02 7.236490e-02 3.836357e+00 3.923647e+00 3.344036e+00 1.620608e+00 9.924067e-01 1.485814e-01 6.682874e-02 5.490777e-02 3.560320e-02 2.919826e-02 2.597295e-02 2.333595e-02 2.052490e-02 1.826103e-02 1.583918e-02 1.430505e-02 1.255110e-02 1.096198e-02 9.960725e-03 8.881537e-03 8.043570e-03 6.983412e-03 1.170816e-02 2.015073e-02 1.477782e+00 2.859089e+01 3.056031e+01 2.756450e+01 1.789406e+01 4.692104e+00 3.016178e+00 1.890251e+00 1.423726e+00 1.259223e+00 1.127220e+00 9.489433e-01 8.007916e-01 6.537780e-01 5.207295e-01 4.520205e-01 4.027590e-01 3.278726e-01 3.009518e-01 3.066505e-01 3.067940e-01 2.916024e-01 2.442872e-01 2.155352e-01 2.730311e-01 5.581944e+00
<GCONST> 2.503760e+01
<STREAM> 2
<NUMMIXES> 2
<MIXTURE> 1 6.943782e-01
<MEAN> 1
 4.525452e+00
<VARIANCE> 1
 1.055680e-02
<GCONST> -2.713108e+00
<MIXTURE> 2 3.056136e-01
<MEAN> 0
<VARIANCE> 0
<GCONST> 0.000000e+00
<STREAM> 3
<NUMMIXES> 2
<MIXTURE> 1 6.706772e-01
<MEAN> 1
 2.625182e-03
<VARIANCE> 1
 3.553591e-04
<GCONST> -6.104505e+00
<MIXTURE> 2 3.293138e-01
<MEAN> 0
<VARIANCE> 0
<GCONST> 0.000000e+00
<STREAM> 4
<NUMMIXES> 2
<MIXTURE> 1 6.706775e-01
<MEAN> 1
 1.109692e-04
<VARIANCE> 1
 8.940651e+14
<GCONST> 3.626468e+01
<MIXTURE> 2 3.293130e-01
<MEAN> 0
<VARIANCE> 0
<GCONST> 0.000000e+00
<STATE> 5
<STREAM> 1
<MEAN> 75
 -8.639298e-02 -6.748426e-02 6.162196e-02 5.769442e-01 1.363347e+00 1.571675e+00 1.515492e+00 1.410789e+00 1.016414e+00 3.232750e-01 8.890480e-02 1.380498e-02 -6.112860e-02 -6.467945e-02 -9.276258e-02 -7.742259e-02 -1.049255e-01 -7.838167e-02 -1.036808e-01 -9.706478e-02 -1.112412e-01 -1.021655e-01 -1.266085e-01 -1.157866e-01 -1.173726e-01 -1.007747e-02 -7.699802e-02 -3.267705e-01 -6.501632e-01 -4.975918e-01 -7.703862e-02 8.390884e-02 2.520030e-01 5.498887e-01 4.677430e-01 1.552287e-01 7.539009e-02 4.005583e-02 1.685198e-02 5.825065e-03 5.874493e-03 6.235254e-04 -9.774112e-04 7.573683e-03 2.578393e-03 8.807448e-04 6.925663e-03 6.637873e-03 -6.288927e-03 -1.749773e-02 2.219064e-02 1.109653e-01 3.928940e-01 2.748799e-01 -5.868980e-01 -2.749690e-01 -4.914865e-02 -2.926057e-01 -3.015293e-01 4.567814e-01 1.649871e-01 3.624581e-03 7.170646e-02 -2.374106e-02 4.294896e-02 -4.214161e-02 5.821553e-02 -5.345504e-02 2.939755e-02 -2.050474e-02 2.441797e-02 -3.474164e-02 3.600343e-02 -9.078152e-03 3.370150e-02
<VARIANCE> 75
 4.038626e-02 2.971683e-02 6.917366e-01 3.222548e+00 5.713915e+00 5.530880e+00 5.116438e+00 4.589398e+00 3.189198e+00 6.237466e-01 2.573793e-01 1.989457e-01 1.336573e-01 1.254252e-01 1.032995e-01 8.577200e-02 7.845388e-02 7.068168e-02 5.661855e-02 5.409280e-02 4.767282e-02 4.269901e-02 3.671399e-02 3.713801e-02 5.741621e-02 2.169934e-02 1.825531e-01 8.427121e-01 1.701825e+00 2.669780e+00 3.711161e+00 3.527457e+00 2.698997e+00 1.332559e+00 7.170857e-01 1.077336e-01 5.526211e-02 4.440852e-02 3.300988e-02 2.806840e-02 2.436296e-02 2.164342e-02 1.988817e-02 1.837835e-02 1.626308e-02 1.475447e-02 1.299693e-02 1.103311e-02 1.578738e-02 2.499675e-02 2.375560e-01 8.269582e-01 5.093742e+00 1.608327e+01 2.721715e+01 2.884336e+01 2.753792e+01 2.308548e+01 1.360019e+01 3.864133e+00 2.421424e+00 1.654479e+00 1.352334e+00 1.183477e+00 1.028390e+00 8.387327e-01 7.338595e-01 6.214589e-01 5.087717e-01 4.581783e-01 4.128539e-01 3.528526e-01 3.168432e-01 3.297200e-01 4.223175e-01
<GCONST> 5.869875e+01
<STREAM> 2
<NUMMIXES> 2
<MIXTURE> 1 7.042315e-01
<MEAN> 1
 4.522447e+00
<VARIANCE> 1
 1.055680e-02
<GCONST> -2.713108e+00
<MIXTURE> 2 2.957672e-01
<MEAN> 0
<VARIANCE> 0
<GCONST> 0.000000e+00
<STREAM> 3
<NUMMIXES> 2
<MIXTURE> 1 6.815118e-01
<MEAN> 1
 2.781483e-03
<VARIANCE> 1
 3.553591e-04
<GCONST> -6.104505e+00
<MIXTURE> 2 3.184867e-01
<MEAN> 0
<VARIANCE> 0
<GCONST> 0.000000e+00
<STREAM> 4
<NUMMIXES> 2
<MIXTURE> 1 6.815119e-01
<MEAN> 1
 8.508012e-05
<VARIANCE> 1
 8.940651e+14
<GCONST> 3.626468e+01
<MIXTURE> 2 3.184873e-01
<MEAN> 0
<VARIANCE> 0
<GCONST> 0.000000e+00
<STATE> 6
<STREAM> 1
<MEAN> 75
 -8.942213e-02 -1.142632e-01 -1.019537e-01 9.355418e-02 7.179735e-01 2.180445e-01 1.429682e-01 2.455019e-01 4.777771e-01 1.280108e+00 1.003348e+00 7.154164e-01 5.748230e-01 5.307671e-01 4.068305e-01 3.599813e-01 2.505318e-01 2.059262e-01 6.195534e-02 -3.430061e-02 -5.960202e-02 -1.020371e-01 -8.890951e-02 -9.011698e-02 -1.005882e-01 7.437101e-03 7.380216e-03 -1.029262e-01 -4.130239e-01 -6.163074e-02 2.839338e-01 -1.585409e-02 -1.672439e-01 -5.222424e-01 -2.675258e-01 2.780158e-01 2.093626e-01 9.130871e-02 8.541120e-02 8.816699e-02 8.145065e-02 7.690243e-02 9.291922e-02 1.190285e-01 6.156620e-02 3.781910e-02 1.698928e-02 -4.783332e-03 6.892329e-03 2.868030e-03 -3.154574e-02 4.051028e-02 1.798789e-01 4.362447e-01 -1.119566e+00 4.190086e-01 1.819560e-01 1.257789e-01 5.692773e-01 -1.073279e+00 -2.266347e-02 1.403509e-01 9.602770e-02 -8.304875e-02 7.587077e-02 -5.984043e-02 6.174739e-02 -9.447075e-02 4.733275e-02 6.365542e-02 -1.214220e-02 5.635674e-02 -1.534039e-02 -7.399261e-03 1.370391e-02
<VARIANCE> 75
 1.290950e-01 5.950458e-02 4.495261e-02 9.547989e-01 3.951039e+00 7.856382e-01 9.555148e-01 1.329935e+00 3.043544e+00 5.230791e+00 4.068974e+00 2.729937e+00 2.412513e+00 2.105981e+00 1.897854e+00 1.805581e+00 1.342276e+00 1.220621e+00 4.507284e-01 1.841137e-01 1.138598e-01 8.596618e-02 7.609031e-02 5.749576e-02 5.071723e-02 2.355983e-02 3.022993e-02 2.436300e-01 1.015870e+00 4.169015e-01 1.205458e+00 4.778928e-01 1.060442e+00 1.848711e+00 2.037870e+00 2.346202e+00 1.795376e+00 1.324629e+00 1.124607e+00 1.020072e+00 8.011070e-01 7.336232e-01 3.893400e-01 2.937377e-01 8.634619e-02 3.846152e-02 2.733184e-02 2.330129e-02 1.974024e-02 2.358110e-02 5.663745e-01 3.442483e-01 1.134656e+00 6.638061e+00 1.099572e+01 2.335333e+00 4.617827e+00 7.164549e+00 1.523735e+01 2.150560e+01 1.656033e+01 1.223968e+01 1.058789e+01 9.012496e+00 7.692498e+00 6.699404e+00 5.262446e+00 4.333636e+00 1.935714e+00 1.281935e+00 8.447309e-01 7.427568e-01 6.637209e-01 5.380796e-01 4.699565e-01
<GCONST> 1.224440e+02
<STREAM> 2
<NUMMIXES> 2
<MIXTURE> 1 6.711742e-01
<MEAN> 1
 4.533513e+00
<VARIANCE> 1
 1.055680e-02
<GCONST> -2.713108e+00
<MIXTURE> 2 3.288270e-01
<MEAN> 0
<VARIANCE> 0
<GCONST> 0.000000e+00
<STREAM> 3
<NUMMIXES> 2
<MIXTURE> 1 6.458197e-01
<MEAN> 1
 2.364309e-03
<VARIANCE> 1
 3.553591e-04
<GCONST> -6.104505e+00
<MIXTURE> 2 3.541813e-01
<MEAN> 0
<VARIANCE> 0
<GCONST> 0.000000e+00
<STREAM> 4
<NUMMIXES> 2
<MIXTURE> 1 6.458198e-01
<MEAN> 1
 -1.658111e-04
<VARIANCE> 1
 8.940651e+14
<GCONST> 3.626468e+01
<MIXTURE> 2 3.541812e-01
<MEAN> 0
<VARIANCE> 0
<GCONST> 0.000000e+00
<TRANSP> 7
 0.000000e+00 1.000000e+00 0.000000e+00 0.000000e+00 0.000000e+00 0.000000e+00 0.000000e+00
 0.000000e+00 0.000000e+00 1.000000e+00 0.000000e+00 0.000000e+00 0.000000e+00 0.000000e+00
 0.000000e+00 0.000000e+00 0.000000e+00 1.000000e+00 0.000000e+00 0.000000e+00 0.000000e+00
 0.000000e+00 0.000000e+00 0.000000e+00 0.000000e+00 1.000000e+00 0.000000e+00 0.000000e+00
 0.000000e+00 0.000000e+00 0.000000e+00 0.000000e+00 0.000000e+00 1.000000e+00 0.000000e+00
 0.000000e+00 0.000000e+00 0.000000e+00 0.000000e+00 0.000000e+00 0.000000e+00 1.000000e+00
 0.000000e+00 0.000000e+00 0.000000e+00 0.000000e+00 0.000000e+00 0.000000e+00 0.000000e+00
<ENDHMM>
~h "f"
<BEGINHMM>
<NUMSTATES> 7
<STATE> 2
<STREAM> 1
<MEAN> 75
 5.121395e-01 4.933190e-02 -1.220275e-02 -3.600995e-02 -4.415924e-02 -7.142968e-02 -7.006421e-02 -8.137932e-02 -7.370915e-02 -7.991637e-02 -7.688086e-02 -3.797378e-02 -8.360595e-03 4.554352e-02 1.258634e-01 1.709670e-01 2.915216e-01 5.175831e-01 6.660563e-01 1.116954e+00 1.342230e+00 1.422354e+00 4.232793e-01 1.009308e-01 1.142453e-01 2.660310e-02 2.616020e-01 4.188598e-02 1.574293e-02 1.819921e-02 1.476199e-02 6.239098e-03 2.579227e-03 -1.478193e-03 6.443821e-04 -2.144782e-02 -3.414895e-02 -4.338799e-02 -6.723292e-02 -6.428395e-02 -8.363615e-02 -1.750745e-01 -1.882005e-01 -3.002638e-01 -3.395323e-01 -1.510585e-01 4.602062e-01 6.621675e-01 1.550221e-01 -1.591217e-03 -8.713901e-01 3.947788e-01 3.549015e-02 1.747143e-02 -2.189920e-02 2.633611e-02 -1.285880e-02 2.056063e-02 -1.181220e-02 7.552782e-03 3.647242e-02 -1.031801e-02 2.762804e-02 2.625496e-02 -3.722773e-02 7.604711e-02 1.051139e-01 -8.206686e-02 3.034070e-01 -2.233944e-01 -1.446636e-01 -1.082347e+00 6.741775e-01 3.378343e-01 -2.527050e-02
<VARIANCE> 75
 2.689482e+00 5.259362e-01 1.231694e-01 1.604793e-01 8.841692e-02 6.741943e-02 6.033247e-02 5.759438e-02 5.152794e-02 4.856516e-02 9.356275e-02 3.756587e-01 4.140874e-01 7.212983e-01 9.213527e-01 1.185216e+00 1.643840e+00 2.700016e+00 3.083063e+00 4.694014e+00 4.783953e+00 5.097824e+00 9.218776e-01 3.457443e-01 3.755424e-01 3.543855e-01 6.348809e-01 9.175380e-02 3.582549e-02 3.292027e-02 2.264561e-02 1.758923e-02 1.402006e-02 1.406996e-02 2.377689e-02 9.671272e-02 1.161065e-01 2.684437e-01 3.247448e-01 4.779263e-01 6.590159e-01 1.019853e+00 1.291576e+00 2.159203e+00 2.409107e+00 3.235134e+00 1.582964e+00 1.317385e+00 2.282134e-01 3.221893e-01 8.359457e+00 1.916880e+00 1.529741e+00 1.085067e+00 8.452218e-01 6.049533e-01 5.445381e-01 5.133788e-01 4.659272e-01 4.485062e-01 7.835944e-01 1.594185e+00 2.001714e+00 3.133927e+00 3.986418e+00 5.328318e+00 7.832492e+00 1.174108e+01 1.547794e+01 2.281064e+01 2.513430e+01 2.075540e+01 4.372494e+00 3.198992e+00 2.811363e+00
<GCONST> 1.058730e+02
<STREAM> 2
<NUMMIXES> 2
<MIXTURE> 1 6.204347e-01
<MEAN> 1
 4.512918e+00
<VARIANCE> 1
 1.055680e-02
<GCONST> -2.713108e+00
<MIXTURE> 2 3.795628e-01
<MEAN> 0
<VARIANCE> 0
<GCONST> 0.000000e+00
<STREAM> 3
<NUMMIXES> 2
<MIXTURE> 1 5.911173e-01
<MEAN> 1
 3.282984e-03
<VARIANCE> 1
 3.553591e-04
<GCONST> -6.104505e+00
<MIXTURE> 2 4.088798e-01
<MEAN> 0
<VARIANCE> 0
<GCONST> 0.000000e+00
<STREAM> 4
<NUMMIXES> 2
<MIXTURE> 1 5.911182e-01
<MEAN> 1
 7.421875e-02
<VARIANCE> 1
 8.940651e+14
<GCONST> 3.626468e+01
<MIXTURE> 2 4.088792e-01
<MEAN> 0
<VARIANCE> 0
<GCONST> 0.000000e+00
<STATE> 3
<STREAM> 1
<MEAN> 75
 1.474344e+00 8.751326e-01 2.170301e-01 1.124409e-01 -1.934985e-02 -2.153649e-02 -7.461593e-02 -5.327823e-02 -8.813497e-02 -4.262970e-02 -6.815847e-02 -6.171052e-02 -8.689167e-02 -6.095254e-02 -9.662848e-02 -8.205348e-02 -1.000112e-01 -7.916237e-02 -8.874324e-02 -5.874959e-02 -6.218958e-02 5.495071e-03 9.408246e-01 1.233283e+00 1.267574e+00 2.655847e-01 6.279530e-01 3.835059e-01 1.184535e-01 6.932470e-02 3.024684e-02 1.614279e-02 7.682718e-03 -4.177136e-03 -1.090873e-02 7.929566e-03 9.564505e-03 9.506233e-04 4.983361e-03 1.002401e-02 1.628045e-03 -1.566673e-03 -5.519632e-03 -1.166702e-02 -1.437070e-02 -3.266507e-02 -5.024593e-01 -6.151365e-01 -1.654937e-01 -8.779392e-02 -6.704044e-01 -5.519502e-02 5.582407e-01 -2.788521e-02 1.279852e-01 -4.643864e-02 7.540876e-02 -6.072460e-02 8.363673e-02 -7.053107e-02 3.174189e-02 -3.407051e-02 4.999308e-02 -6.092254e-02 5.161107e-02 -3.391962e-02 4.102352e-02 -3.135895e-02 3.980663e-02 -3.419080e-02 7.372620e-02 8.698277e-01 -6.438141e-01 -2.588674e-01 1.002439e-01
<VARIANCE> 75
 5.104973e+00 2.674246e+00 5.551439e-01 2.272126e-01 2.099752e-01 1.394682e-01 1.114506e-01 9.201019e-02 8.618274e-02 7.559060e-02 5.957045e-02 6.146247e-02 5.483188e-02 4.906571e-02 4.480285e-02 4.272216e-02 4.469908e-02 4.109284e-02 3.554852e-02 3.160388e-02 3.287255e-02 1.674566e-01 4.645933e+00 4.763870e+00 4.791161e+00 2.350067e+00 1.455984e+00 6.298375e-01 1.131225e-01 6.186478e-02 5.093469e-02 3.278481e-02 2.445594e-02 2.109193e-02 1.947889e-02 1.861844e-02 1.563773e-02 1.473118e-02 1.318696e-02 1.146830e-02 1.170992e-02 1.046963e-02 9.190910e-03 8.684713e-03 9.003015e-03 4.403608e-02 1.195344e+00 1.285195e+00 2.996696e+00 3.173973e+00 2.427341e+01 1.151308e+01 3.499588e+00 2.174379e+00 1.598218e+00 1.321536e+00 1.060727e+00 9.079012e-01 8.021924e-01 6.948309e-01 5.628076e-01 4.767569e-01 4.218955e-01 3.932482e-01 3.606929e-01 3.590443e-01 3.556402e-01 3.310677e-01 2.965264e-01 2.566507e-01 3.477414e-01 4.844095e+00 2.072053e+01 2.316074e+01 2.485775e+01
<GCONST> 3.480209e+01
<STREAM> 2
<NUMMIXES> 2
<MIXTURE> 1 6.181690e-01
<MEAN> 1
 4.520425e+00
<VARIANCE> 1
 1.094851e-02
<GCONST> -2.676675e+00
<MIXTURE> 2 3.818268e-01
<MEAN> 0
<VARIANCE> 0
<GCONST> 0.000000e+00
<STREAM> 3
<NUMMIXES> 2
<MIXTURE> 1 5.879438e-01
<MEAN> 1
 3.107270e-03
<VARIANCE> 1
 3.553591e-04
<GCONST> -6.104505e+00
<MIXTURE> 2 4.120524e-01
<MEAN> 0
<VARIANCE> 0
<GCONST> 0.000000e+00
<STREAM> 4
<NUMMIXES> 2
<MIXTURE> 1 5.879441e-01
<MEAN> 1
 -4.304686e-05
<VARIANCE> 1
 8.940651e+14
<GCONST> 3.626468e+01
<MIXTURE> 2 4.120519e-01
<MEAN> 0
<VARIANCE> 0
<GCONST> 0.000000e+00
<STATE> 4
<STREAM> 1
<MEAN> 75
 -1.046732e-03 9.057210e-01 1.526150e+00 1.446849e+00 1.497530e+00 1.419585e+00 4.596062e-01 1.337100e-01 9.622180e-02 -5.001774e-02 -2.141288e-02 -7.059014e-02 -4.098150e-02 -8.313011e-02 -3.603461e-02 -6.934115e-02 -5.138252e-02 -8.074708e-02 -5.301503e-02 -9.736279e-02 -8.628544e-02 -9.515901e-02 -7.223357e-02 -8.376504e-02 -4.834730e-02 -4.841726e-01 -7.611020e-01 -2.696038e-01 1.470255e-02 1.473487e-02 5.175636e-01 6.399484e-01 1.791632e-01 9.117290e-02 5.741512e-02 1.095250e-02 9.352942e-03 5.540962e-03 -1.942195e-03 -5.250468e-03 7.616079e-03 5.300023e-03 1.659775e-03 8.757923e-03 1.758081e-02 3.182372e-04 -7.021273e-03 -7.152488e-03 -1.277585e-02 -9.787926e-03 8.430039e-01 -2.875258e-01 -7.027306e-01 1.298223e-01 -1.304491e-01 -8.781494e-01 6.400585e-01 2.862548e-01 -1.096539e-01 1.746895e-01 -7.759529e-02 7.940169e-02 -7.359146e-02 8.879961e-02 -8.240776e-02 5.529147e-02 -5.009884e-02 6.050446e-02 -7.245241e-02 5.377766e-02 -2.070490e-02 3.565295e-02 -3.360515e-02 4.701811e-02 -5.134484e-02
<VARIANCE> 75
 1.447166e-01 4.492566e+00 5.613782e+00 5.014037e+00 4.747071e+00 4.589707e+00 8.987029e-01 2.755527e-01 2.425036e-01 1.597902e-01 1.344889e-01 1.115762e-01 9.562418e-02 8.706260e-02 7.343167e-02 5.698314e-02 5.143302e-02 5.213131e-02 4.483597e-02 4.250110e-02 4.475993e-02 3.959654e-02 5.453090e-02 5.262531e-02 4.458991e-02 1.153968e+00 1.511372e+00 3.069385e+00 3.680926e+00 3.332283e+00 1.619845e+00 1.173601e+00 1.872325e-01 6.900259e-02 5.560090e-02 3.926206e-02 3.074325e-02 2.314090e-02 2.066174e-02 1.938626e-02 1.712566e-02 1.505915e-02 1.328374e-02 1.208764e-02 9.742910e-03 9.576545e-03 1.296075e-02 1.439437e-02 1.612054e-02 1.335313e-02 4.580909e+00 2.187725e+01 2.755092e+01 2.673803e+01 2.662991e+01 1.978824e+01 4.609555e+00 2.938433e+00 1.799294e+00 1.432146e+00 1.179826e+00 9.903125e-01 8.505241e-01 7.585452e-01 6.349224e-01 4.947957e-01 4.240091e-01 3.868682e-01 3.445216e-01 3.441624e-01 3.633713e-01 3.493944e-01 3.836794e-01 3.388430e-01 2.865960e-01
<GCONST> 4.349995e+01
<STREAM> 2
<NUMMIXES> 2
<MIXTURE> 1 6.081302e-01
<MEAN> 1
 4.516641e+00
<VARIANCE> 1
 1.055680e-02
<GCONST> -2.713108e+00
<MIXTURE> 2 3.918609e-01
<MEAN> 0
<VARIANCE> 0
<GCONST> 0.000000e+00
<STREAM> 3
<NUMMIXES> 2
<MIXTURE> 1 5.830060e-01
<MEAN> 1
 2.964176e-03
<VARIANCE> 1
 3.553591e-04
<GCONST> -6.104505e+00
<MIXTURE> 2 4.169852e-01
<MEAN> 0
<VARIANCE> 0
<GCONST> 0.000000e+00
<STREAM> 4
<NUMMIXES> 2
<MIXTURE> 1 5.830052e-01
<MEAN> 1
 -1.529239e-04
<VARIANCE> 1
 8.940651e+14
<GCONST> 3.626468e+01
<MIXTURE> 2 4.169856e-01
<MEAN> 0
<VARIANCE> 0
<GCONST> 0.000000e+00
<STATE> 5
<STREAM> 1
<MEAN> 75
 -9.219453e-02 -9.127129e-02 -4.822880e-02 2.480770e-01 5.619198e-02 9.301123e-02 1.480273e+00 1.833331e+00 1.664712e+00 1.508631e+00 4.203889e-01 1.345596e-01 8.017516e-02 -4.102272e-02 -6.299736e-02 -9.104003e-02 -5.621392e-02 -7.037160e-02 -4.925766e-02 -8.171396e-02 -6.260831e-02 -8.570702e-02 -5.932217e-02 -7.076797e-02 -8.953230e-02 -7.160078e-04 -2.152277e-02 -1.695568e-01 -4.947089e-02 7.821745e-02 -7.072021e-01 -8.674036e-01 -8.848535e-02 1.634286e-01 6.207448e-01 6.852133e-01 1.707666e-01 8.824982e-02 7.246608e-02 2.453044e-02 -4.949877e-03 -9.559119e-03 -3.933671e-03 3.681072e-03 5.086855e-03 3.184511e-03 -5.298005e-04 -7.219249e-03 1.664129e-02 1.078891e-02 1.845311e-03 4.251144e-02 2.531786e-01 -4.832733e-01 2.238977e-01 1.348046e+00 -1.037235e+00 -5.217014e-01 2.196783e-02 -9.316197e-01 7.936977e-01 2.339150e-01 -6.484854e-02 1.014651e-01 -3.968921e-03 5.957086e-02 -4.934320e-02 3.500072e-02 -5.002768e-02 4.937166e-02 -4.351790e-02 5.128520e-02 -3.741321e-02 -9.583994e-03 1.871318e-02
<VARIANCE> 75
 3.752178e-02 4.410207e-02 4.869083e-02 1.763641e+00 3.466412e-01 7.409595e-01 6.223609e+00 6.117202e+00 5.319824e+00 4.671761e+00 8.616963e-01 2.797568e-01 2.532076e-01 1.503620e-01 1.261586e-01 1.210659e-01 1.010659e-01 8.378312e-02 7.663759e-02 6.235356e-02 5.426265e-02 5.451480e-02 4.743604e-02 6.980894e-02 7.498997e-02 1.897926e-02 1.285262e-02 4.518397e-01 8.992284e-02 6.229922e-01 1.736716e+00 1.880235e+00 4.161549e+00 3.994686e+00 1.732382e+00 1.183461e+00 1.711276e-01 7.750247e-02 5.644732e-02 3.889756e-02 3.039423e-02 2.669703e-02 2.374312e-02 1.962196e-02 1.782097e-02 1.574706e-02 1.371911e-02 1.956513e-02 1.936024e-02 2.438772e-02 3.739463e-01 3.058017e-01 1.897306e+00 4.972321e+00 1.362900e+00 8.283372e+00 3.079208e+01 3.342783e+01 3.042033e+01 2.148353e+01 4.772482e+00 3.136818e+00 1.913117e+00 1.405397e+00 1.154965e+00 1.100251e+00 9.583074e-01 7.976603e-01 6.735543e-01 5.435513e-01 4.657279e-01 4.308936e-01 3.853827e-01 4.575124e-01 4.728087e-01
<GCONST> 5.927788e+01
<STREAM> 2
<NUMMIXES> 2
<MIXTURE> 1 6.134999e-01
<MEAN> 1
 4.517567e+00
<VARIANCE> 1
 1.055680e-02
<GCONST> -2.713108e+00
<MIXTURE> 2 3.864973e-01
<MEAN> 0
<VARIANCE> 0
<GCONST> 0.000000e+00
<STREAM> 3
<NUMMIXES> 2
<MIXTURE> 1 5.930087e-01
<MEAN> 1
 2.594593e-03
<VARIANCE> 1
 3.553591e-04
<GCONST> -6.104505e+00
<MIXTURE> 2 4.069893e-01
<MEAN> 0
<VARIANCE> 0
<GCONST> 0.000000e+00
<STREAM> 4
<NUMMIXES> 2
<MIXTURE> 1 5.930093e-01
<MEAN> 1
 2.366863e-05
<VARIANCE> 1
 8.940651e+14
<GCONST> 3.626468e+01
<MIXTURE> 2 4.069887e-01
<MEAN> 0
<VARIANCE> 0
<GCONST> 0.000000e+00
<STATE> 6
<STREAM> 1
<MEAN> 75
 -7.197310e-02 -3.956246e-02 -9.900042e-02 -2.924539e-02 3.110489e-01 1.131976e-01 1.184363e-01 1.074718e-01 2.731002e-01 3.531134e-01 1.290876e+00 1.435452e+00 1.088684e+00 8.393347e-01 4.443700e-01 2.680238e-01 5.357234e-02 8.192855e-02 -5.073729e-02 1.240328e-02 -6.766006e-02 -1.612402e-02 -9.803674e-02 -3.223051e-02 -6.161420e-02 8.760914e-03 1.339060e-02 8.154834e-03 -2.213751e-01 -5.295952e-02 8.297283e-02 1.888208e-02 -8.878244e-02 -1.110899e-01 -5.197982e-01 -5.317245e-01 9.688874e-02 3.078648e-01 3.172004e-01 2.939169e-01 1.908062e-01 9.817818e-02 5.054071e-02 4.753194e-02 1.091472e-02 2.281375e-02 1.070420e-02 1.384511e-02 -2.056469e-02 -5.361031e-03 9.576576e-02 -9.574024e-02 1.271012e-01 2.847664e-01 -5.304365e-01 2.051910e-01 -1.692486e-02 1.843093e-01 -8.241835e-02 8.763433e-01 -7.888153e-01 -4.857245e-01 1.012801e-01 -1.437658e-01 2.302132e-01 -2.963633e-02 2.447762e-01 -1.521553e-01 2.043095e-01 -1.329527e-01 1.460308e-01 -1.372752e-01 1.610915e-01 -1.003984e-01 9.210393e-02
<VARIANCE> 75
 1.132531e-01 4.848891e-02 9.129732e-02 1.005006e-01 2.251571e+00 4.791088e-01 1.012032e+00 3.582289e-01 1.938487e+00 1.542393e+00 5.851368e+00 4.882389e+00 4.477246e+00 2.634725e+00 1.912776e+00 7.469891e-01 6.539685e-01 4.330953e-01 4.451889e-01 2.242555e-01 2.059231e-01 1.125928e-01 1.499435e-01 1.006293e-01 1.668164e-01 4.765394e-02 8.866613e-02 9.270956e-02 7.979443e-01 2.477255e-01 1.040285e+00 2.643916e-01 9.847280e-01 5.855249e-01 2.383490e+00 1.997927e+00 3.471631e+00 2.447950e+00 1.892944e+00 9.419111e-01 7.545173e-01 3.668259e-01 4.277192e-01 2.391402e-01 3.231338e-01 1.590833e-01 2.471113e-01 1.358426e-01 2.412268e-01 1.052880e-01 5.730395e-01 4.092329e-01 4.493482e-01 2.520429e+00 6.409729e+00 1.954960e+00 3.423918e+00 2.697882e+00 7.401854e+00 1.055442e+01 2.708888e+01 2.522346e+01 2.106870e+01 1.332745e+01 8.386715e+00 4.257547e+00 2.982086e+00 2.269420e+00 1.917240e+00 1.311679e+00 1.055834e+00 7.716296e-01 6.600894e-01 5.669757e-01 6.579401e-01
<GCONST> 1.250870e+02
<STREAM> 2
<NUMMIXES> 2
<MIXTURE> 1 6.286942e-01
<MEAN> 1
 4.108846e+00
<VARIANCE> 1
 1.627617e+00
<GCONST> 2.324994e+00
<MIXTURE> 2 3.713042e-01
<MEAN> 0
<VARIANCE> 0
<GCONST> 0.000000e+00
<STREAM> 3
<NUMMIXES> 2
<MIXTURE> 1 6.071903e-01
<MEAN> 1
 1.902684e-02
<VARIANCE> 1
 9.037814e-02
<GCONST> -5.658758e-01
<MIXTURE> 2 3.928083e-01
<MEAN> 0
<VARIANCE> 0
<GCONST> 0.000000e+00
<STREAM> 4
<NUMMIXES> 2
<MIXTURE> 1 6.071905e-01
<MEAN> 1
 9.044749e-03
<VARIANCE> 1
 8.940651e+14
<GCONST> 3.626468e+01
<MIXTURE> 2 3.928083e-01
<MEAN> 0
<VARIANCE> 0
<GCONST> 0.000000e+00
<TRANSP> 7
 0.000000e+00 1.000000e+00 0.000000e+00 0.000000e+00 0.000000e+00 0.000000e+00 0.000000e+00
 0.000000e+00 0.000000e+00 1.000000e+00 0.000000e+00 0.000000e+00 0.000000e+00 0.000000e+00
 0.000000e+00 0.000000e+00 0.000000e+00 1.000000e+00 0.000000e+00 0.000000e+00 0.000000e+00
 0.000000e+00 0.000000e+00 0.000000e+00 0.000000e+00 1.000000e+00 0.000000e+00 0.000000e+00
 0.000000e+00 0.000000e+00 0.000000e+00 0.000000e+00 0.000000e+00 1.000000e+00 0.000000e+00
 0.000000e+00 0.000000e+00 0.000000e+00 0.000000e+00 0.000000e+00 0.000000e+00 1.000000e+00
 0.000000e+00 0.000000e+00 0.000000e+00 0.000000e+00 0.000000e+00 0.000000e+00 0.000000e+00
<ENDHMM>
~h "g"
<BEGINHMM>
<NUMSTATES> 7
<STATE> 2
<STREAM> 1
<MEAN> 75
 -9.953317e-02 -1.179382e-01 -1.106074e-01 -1.143173e-01 -1.004037e-01 -7.492179e-02 1.914816e-02 2.944207e-01 6.873698e-01 8.680413e-01 1.021406e+00 1.116266e+00 1.208543e+00 1.365137e+00 6.135371e-01 1.651368e-01 9.680776e-02 8.238252e-02 1.024283e-01 -4.253218e-02 -5.381121e-02 -9.002312e-02 -6.329010e-02 -9.436584e-02 -8.128612e-02 4.241206e-04 7.042998e-03 -1.301278e-03 -4.710151e-03 -1.869181e-02 -5.785625e-02 -1.839855e-01 -3.341862e-01 -2.899912e-01 -1.706361e-01 -1.252530e-01 -9.696990e-02 -1.274484e-01 2.994563e-01 6.024443e-01 2.618965e-01 4.521841e-02 -5.843930e-03 6.175581e-02 7.786921e-02 2.257021e-02 5.254342e-03 2.058318e-03 8.259513e-03 8.181013e-03 -3.372205e-02 2.570499e-02 -1.114192e-02 1.625910e-02 6.699952e-03 6.999309e-02 1.822914e-01 1.165139e-01 -2.050835e-01 -2.596233e-02 -5.530939e-02 1.546333e-03 5.613335e-02 -9.163662e-01 3.038114e-01 3.819457e-01 5.839528e-02 4.143419e-02 -1.630093e-01 1.273659e-01 -2.422836e-02 6.187361e-02 -5.740132e-02 4.454112e-02 -4.597631e-02
<VARIANCE> 75
 4.238522e-02 3.857218e-02 3.521215e-02 3.338953e-02 3.959879e-02 2.036314e-01 5.637181e-01 2.102477e+00 3.594731e+00 3.974220e+00 4.200383e+00 4.343251e+00 4.471513e+00 4.966423e+00 1.825581e+00 5.297931e-01 4.185427e-01 8.960722e-01 8.458319e-01 2.638656e-01 1.257921e-01 1.010581e-01 6.942372e-02 5.635867e-02 1.123895e-01 1.589647e-02 1.099023e-02 9.553861e-03 9.718436e-03 4.933358e-02 1.480564e-01 5.801976e-01 1.091356e+00 1.685061e+00 2.288947e+00 2.518469e+00 2.718784e+00 3.022580e+00 1.811795e+00 1.323894e+00 4.293380e-01 3.172805e-01 2.939685e-01 2.472712e-01 1.898505e-01 4.968072e-02 3.007741e-02 2.360417e-02 3.188182e-02 2.002246e-02 3.761257e-01 2.990259e-01 2.823493e-01 2.804353e-01 4.382098e-01 1.192973e+00 3.483864e+00 9.472432e+00 1.486343e+01 1.715156e+01 1.937230e+01 2.096056e+01 2.277248e+01 1.982803e+01 6.917756e+00 3.763712e+00 3.283386e+00 4.100228e+00 2.960851e+00 1.237507e+00 1.093480e+00 8.050688e-01 6.184892e-01 5.682944e-01 6.609358e-01
<GCONST> 9.349710e+01
<STREAM> 2
<NUMMIXES> 2
<MIXTURE> 1 8.026015e-01
<MEAN> 1
 4.534128e+00
<VARIANCE> 1
 1.055680e-02
<GCONST> -2.713108e+00
<MIXTURE> 2 1.973965e-01
<MEAN> 0
<VARIANCE> 0
<GCONST> 0.000000e+00
<STREAM> 3
<NUMMIXES> 2
<MIXTURE> 1 7.739209e-01
<MEAN> 1
 2.688250e-03
<VARIANCE> 1
 3.553591e-04
<GCONST> -6.104505e+00
<MIXTURE> 2 2.260769e-01
<MEAN> 0
<VARIANCE> 0
<GCONST> 0.000000e+00
<STREAM> 4
<NUMMIXES> 2
<MIXTURE> 1 7.739206e-01
<MEAN> 1
 1.101836e-04
<VARIANCE> 1
 8.940651e+14
<GCONST> 3.626468e+01
<MIXTURE> 2 2.260766e-01
<MEAN> 0
<VARIANCE> 0
<GCONST> 0.000000e+00
<STATE> 3
<STREAM> 1
<MEAN> 75
