~o
<STREAMINFO> 4 75 1 1 1
<MSDINFO> 4 0 1 1 1
<VECSIZE> 78<NULLD><USER><DIAGC>
~h "proto"
<BEGINHMM>
<NUMSTATES> 7
<STATE> 2
<STREAM> 1
<MEAN> 75
 2.439607e-01 2.440624e-01 2.440976e-01 2.430630e-01 2.427354e-01 2.415413e-01 2.419282e-01 2.407274e-01 2.407046e-01 2.402112e-01 2.394922e-01 2.389296e-01 2.391282e-01 2.384613e-01 2.380145e-01 2.380294e-01 2.376141e-01 2.390045e-01 2.397030e-01 2.400455e-01 2.400158e-01 2.409057e-01 2.397405e-01 2.401912e-01 2.391505e-01 -7.957958e-04 -2.184916e-04 2.153273e-03 1.057540e-03 2.354561e-03 1.712300e-03 2.827839e-03 1.716227e-03 3.244969e-03 1.721158e-03 2.985091e-03 1.974963e-03 3.254259e-03 2.134416e-03 3.824026e-03 2.227444e-03 3.474426e-03 2.563606e-03 3.729105e-03 2.534679e-03 4.165972e-03 2.605093e-03 3.751393e-03 2.956693e-03 3.767761e-03 2.373256e-03 3.751153e-03 2.612647e-03 3.227003e-03 3.189001e-03 3.078418e-03 3.030686e-03 3.339919e-03 3.319433e-03 2.833415e-03 3.790033e-03 2.795277e-03 3.532678e-03 3.254338e-03 3.518833e-03 2.855364e-03 3.868923e-03 2.847554e-03 3.582795e-03 3.275065e-03 3.792768e-03 2.880392e-03 4.221373e-03 2.860683e-03 3.742299e-03
<VARIANCE> 75
 1.347604e+00 1.339857e+00 1.346607e+00 1.336601e+00 1.341689e+00 1.333729e+00 1.337443e+00 1.327636e+00 1.335509e+00 1.324388e+00 1.328626e+00 1.320575e+00 1.325447e+00 1.315629e+00 1.325667e+00 1.314171e+00 1.325544e+00 1.327438e+00 1.341556e+00 1.338155e+00 1.354097e+00 1.345564e+00 1.355258e+00 1.348556e+00 1.355950e+00 6.832807e-01 6.945695e-01 6.822265e-01 6.900684e-01 6.830789e-01 6.891221e-01 6.773313e-01 6.898451e-01 6.759439e-01 6.845046e-01 6.764330e-01 6.829939e-01 6.711788e-01 6.844285e-01 6.705961e-01 6.808664e-01 6.742946e-01 6.877687e-01 6.808822e-01 6.984878e-01 6.864380e-01 6.983412e-01 6.901212e-01 6.999064e-01 6.868394e-01 5.459445e+00 5.442008e+00 5.440060e+00 5.423440e+00 5.422050e+00 5.397808e+00 5.394557e+00 5.371171e+00 5.371839e+00 5.358411e+00 5.353227e+00 5.333412e+00 5.338948e+00 5.325401e+00 5.330373e+00 5.322644e+00 5.345083e+00 5.378198e+00 5.420029e+00 5.421765e+00 5.437267e+00 5.438789e+00 5.444149e+00 5.432095e+00 5.434040e+00
<GCONST> 1.777375e+02
<STREAM> 2
<NUMMIXES> 2
<MIXTURE> 1 5.000000e-01
<MEAN> 1
 4.268731e+00
<VARIANCE> 1
 1.055680e+00
<GCONST> 1.892062e+00
<MIXTURE> 2 5.000000e-01
<MEAN> 0
<VARIANCE> 0
<GCONST> 0.000000e+00
<STREAM> 3
<NUMMIXES> 2
<MIXTURE> 1 5.000000e-01
<MEAN> 1
 8.360798e-03
<VARIANCE> 1
 3.553591e-02
<GCONST> -1.499334e+00
<MIXTURE> 2 5.000000e-01
<MEAN> 0
<VARIANCE> 0
<GCONST> 0.000000e+00
<STREAM> 4
<NUMMIXES> 2
<MIXTURE> 1 5.000000e-01
<MEAN> 1
 -4.471325e+06
<VARIANCE> 1
 8.940651e+16
<GCONST> 4.086985e+01
<MIXTURE> 2 5.000000e-01
<MEAN> 0
<VARIANCE> 0
<GCONST> 0.000000e+00
<STATE> 3
<STREAM> 1
<MEAN> 75
 2.439607e-01 2.440624e-01 2.440976e-01 2.430630e-01 2.427354e-01 2.415413e-01 2.419282e-01 2.407274e-01 2.407046e-01 2.402112e-01 2.394922e-01 2.389296e-01 2.391282e-01 2.384613e-01 2.380145e-01 2.380294e-01 2.376141e-01 2.390045e-01 2.397030e-01 2.400455e-01 2.400158e-01 2.409057e-01 2.397405e-01 2.401912e-01 2.391505e-01 -7.957958e-04 -2.184916e-04 2.153273e-03 1.057540e-03 2.354561e-03 1.712300e-03 2.827839e-03 1.716227e-03 3.244969e-03 1.721158e-03 2.985091e-03 1.974963e-03 3.254259e-03 2.134416e-03 3.824026e-03 2.227444e-03 3.474426e-03 2.563606e-03 3.729105e-03 2.534679e-03 4.165972e-03 2.605093e-03 3.751393e-03 2.956693e-03 3.767761e-03 2.373256e-03 3.751153e-03 2.612647e-03 3.227003e-03 3.189001e-03 3.078418e-03 3.030686e-03 3.339919e-03 3.319433e-03 2.833415e-03 3.790033e-03 2.795277e-03 3.532678e-03 3.254338e-03 3.518833e-03 2.855364e-03 3.868923e-03 2.847554e-03 3.582795e-03 3.275065e-03 3.792768e-03 2.880392e-03 4.221373e-03 2.860683e-03 3.742299e-03
<VARIANCE> 75
 1.347604e+00 1.339857e+00 1.346607e+00 1.336601e+00 1.341689e+00 1.333729e+00 1.337443e+00 1.327636e+00 1.335509e+00 1.324388e+00 1.328626e+00 1.320575e+00 1.325447e+00 1.315629e+00 1.325667e+00 1.314171e+00 1.325544e+00 1.327438e+00 1.341556e+00 1.338155e+00 1.354097e+00 1.345564e+00 1.355258e+00 1.348556e+00 1.355950e+00 6.832807e-01 6.945695e-01 6.822265e-01 6.900684e-01 6.830789e-01 6.891221e-01 6.773313e-01 6.898451e-01 6.759439e-01 6.845046e-01 6.764330e-01 6.829939e-01 6.711788e-01 6.844285e-01 6.705961e-01 6.808664e-01 6.742946e-01 6.877687e-01 6.808822e-01 6.984878e-01 6.864380e-01 6.983412e-01 6.901212e-01 6.999064e-01 6.868394e-01 5.459445e+00 5.442008e+00 5.440060e+00 5.423440e+00 5.422050e+00 5.397808e+00 5.394557e+00 5.371171e+00 5.371839e+00 5.358411e+00 5.353227e+00 5.333412e+00 5.338948e+00 5.325401e+00 5.330373e+00 5.322644e+00 5.345083e+00 5.378198e+00 5.420029e+00 5.421765e+00 5.437267e+00 5.438789e+00 5.444149e+00 5.432095e+00 5.434040e+00
<GCONST> 1.777375e+02
<STREAM> 2
<NUMMIXES> 2
<MIXTURE> 1 5.000000e-01
<MEAN> 1
 4.268731e+00
<VARIANCE> 1
 1.055680e+00
<GCONST> 1.892062e+00
<MIXTURE> 2 5.000000e-01
<MEAN> 0
<VARIANCE> 0
<GCONST> 0.000000e+00
<STREAM> 3
<NUMMIXES> 2
<MIXTURE> 1 5.000000e-01
<MEAN> 1
 8.360798e-03
<VARIANCE> 1
 3.553591e-02
<GCONST> -1.499334e+00
<MIXTURE> 2 5.000000e-01
<MEAN> 0
<VARIANCE> 0
<GCONST> 0.000000e+00
<STREAM> 4
<NUMMIXES> 2
<MIXTURE> 1 5.000000e-01
<MEAN> 1
 -4.471325e+06
<VARIANCE> 1
 8.940651e+16
<GCONST> 4.086985e+01
<MIXTURE> 2 5.000000e-01
<MEAN> 0
<VARIANCE> 0
<GCONST> 0.000000e+00
<STATE> 4
<STREAM> 1
<MEAN> 75
 2.439607e-01 2.440624e-01 2.440976e-01 2.430630e-01 2.427354e-01 2.415413e-01 2.419282e-01 2.407274e-01 2.407046e-01 2.402112e-01 2.394922e-01 2.389296e-01 2.391282e-01 2.384613e-01 2.380145e-01 2.380294e-01 2.376141e-01 2.390045e-01 2.397030e-01 2.400455e-01 2.400158e-01 2.409057e-01 2.397405e-01 2.401912e-01 2.391505e-01 -7.957958e-04 -2.184916e-04 2.153273e-03 1.057540e-03 2.354561e-03 1.712300e-03 2.827839e-03 1.716227e-03 3.244969e-03 1.721158e-03 2.985091e-03 1.974963e-03 3.254259e-03 2.134416e-03 3.824026e-03 2.227444e-03 3.474426e-03 2.563606e-03 3.729105e-03 2.534679e-03 4.165972e-03 2.605093e-03 3.751393e-03 2.956693e-03 3.767761e-03 2.373256e-03 3.751153e-03 2.612647e-03 3.227003e-03 3.189001e-03 3.078418e-03 3.030686e-03 3.339919e-03 3.319433e-03 2.833415e-03 3.790033e-03 2.795277e-03 3.532678e-03 3.254338e-03 3.518833e-03 2.855364e-03 3.868923e-03 2.847554e-03 3.582795e-03 3.275065e-03 3.792768e-03 2.880392e-03 4.221373e-03 2.860683e-03 3.742299e-03
<VARIANCE> 75
 1.347604e+00 1.339857e+00 1.346607e+00 1.336601e+00 1.341689e+00 1.333729e+00 1.337443e+00 1.327636e+00 1.335509e+00 1.324388e+00 1.328626e+00 1.320575e+00 1.325447e+00 1.315629e+00 1.325667e+00 1.314171e+00 1.325544e+00 1.327438e+00 1.341556e+00 1.338155e+00 1.354097e+00 1.345564e+00 1.355258e+00 1.348556e+00 1.355950e+00 6.832807e-01 6.945695e-01 6.822265e-01 6.900684e-01 6.830789e-01 6.891221e-01 6.773313e-01 6.898451e-01 6.759439e-01 6.845046e-01 6.764330e-01 6.829939e-01 6.711788e-01 6.844285e-01 6.705961e-01 6.808664e-01 6.742946e-01 6.877687e-01 6.808822e-01 6.984878e-01 6.864380e-01 6.983412e-01 6.901212e-01 6.999064e-01 6.868394e-01 5.459445e+00 5.442008e+00 5.440060e+00 5.423440e+00 5.422050e+00 5.397808e+00 5.394557e+00 5.371171e+00 5.371839e+00 5.358411e+00 5.353227e+00 5.333412e+00 5.338948e+00 5.325401e+00 5.330373e+00 5.322644e+00 5.345083e+00 5.378198e+00 5.420029e+00 5.421765e+00 5.437267e+00 5.438789e+00 5.444149e+00 5.432095e+00 5.434040e+00
<GCONST> 1.777375e+02
<STREAM> 2
<NUMMIXES> 2
<MIXTURE> 1 5.000000e-01
<MEAN> 1
 4.268731e+00
<VARIANCE> 1
 1.055680e+00
<GCONST> 1.892062e+00
<MIXTURE> 2 5.000000e-01
<MEAN> 0
<VARIANCE> 0
<GCONST> 0.000000e+00
<STREAM> 3
<NUMMIXES> 2
<MIXTURE> 1 5.000000e-01
<MEAN> 1
 8.360798e-03
<VARIANCE> 1
 3.553591e-02
<GCONST> -1.499334e+00
<MIXTURE> 2 5.000000e-01
<MEAN> 0
<VARIANCE> 0
<GCONST> 0.000000e+00
<STREAM> 4
<NUMMIXES> 2
<MIXTURE> 1 5.000000e-01
<MEAN> 1
 -4.471325e+06
<VARIANCE> 1
 8.940651e+16
<GCONST> 4.086985e+01
<MIXTURE> 2 5.000000e-01
<MEAN> 0
<VARIANCE> 0
<GCONST> 0.000000e+00
<STATE> 5
<STREAM> 1
<MEAN> 75
 2.439607e-01 2.440624e-01 2.440976e-01 2.430630e-01 2.427354e-01 2.415413e-01 2.419282e-01 2.407274e-01 2.407046e-01 2.402112e-01 2.394922e-01 2.389296e-01 2.391282e-01 2.384613e-01 2.380145e-01 2.380294e-01 2.376141e-01 2.390045e-01 2.397030e-01 2.400455e-01 2.400158e-01 2.409057e-01 2.397405e-01 2.401912e-01 2.391505e-01 -7.957958e-04 -2.184916e-04 2.153273e-03 1.057540e-03 2.354561e-03 1.712300e-03 2.827839e-03 1.716227e-03 3.244969e-03 1.721158e-03 2.985091e-03 1.974963e-03 3.254259e-03 2.134416e-03 3.824026e-03 2.227444e-03 3.474426e-03 2.563606e-03 3.729105e-03 2.534679e-03 4.165972e-03 2.605093e-03 3.751393e-03 2.956693e-03 3.767761e-03 2.373256e-03 3.751153e-03 2.612647e-03 3.227003e-03 3.189001e-03 3.078418e-03 3.030686e-03 3.339919e-03 3.319433e-03 2.833415e-03 3.790033e-03 2.795277e-03 3.532678e-03 3.254338e-03 3.518833e-03 2.855364e-03 3.868923e-03 2.847554e-03 3.582795e-03 3.275065e-03 3.792768e-03 2.880392e-03 4.221373e-03 2.860683e-03 3.742299e-03
<VARIANCE> 75
 1.347604e+00 1.339857e+00 1.346607e+00 1.336601e+00 1.341689e+00 1.333729e+00 1.337443e+00 1.327636e+00 1.335509e+00 1.324388e+00 1.328626e+00 1.320575e+00 1.325447e+00 1.315629e+00 1.325667e+00 1.314171e+00 1.325544e+00 1.327438e+00 1.341556e+00 1.338155e+00 1.354097e+00 1.345564e+00 1.355258e+00 1.348556e+00 1.355950e+00 6.832807e-01 6.945695e-01 6.822265e-01 6.900684e-01 6.830789e-01 6.891221e-01 6.773313e-01 6.898451e-01 6.759439e-01 6.845046e-01 6.764330e-01 6.829939e-01 6.711788e-01 6.844285e-01 6.705961e-01 6.808664e-01 6.742946e-01 6.877687e-01 6.808822e-01 6.984878e-01 6.864380e-01 6.983412e-01 6.901212e-01 6.999064e-01 6.868394e-01 5.459445e+00 5.442008e+00 5.440060e+00 5.423440e+00 5.422050e+00 5.397808e+00 5.394557e+00 5.371171e+00 5.371839e+00 5.358411e+00 5.353227e+00 5.333412e+00 5.338948e+00 5.325401e+00 5.330373e+00 5.322644e+00 5.345083e+00 5.378198e+00 5.420029e+00 5.421765e+00 5.437267e+00 5.438789e+00 5.444149e+00 5.432095e+00 5.434040e+00
<GCONST> 1.777375e+02
<STREAM> 2
<NUMMIXES> 2
<MIXTURE> 1 5.000000e-01
<MEAN> 1
 4.268731e+00
<VARIANCE> 1
 1.055680e+00
<GCONST> 1.892062e+00
<MIXTURE> 2 5.000000e-01
<MEAN> 0
<VARIANCE> 0
<GCONST> 0.000000e+00
<STREAM> 3
<NUMMIXES> 2
<MIXTURE> 1 5.000000e-01
<MEAN> 1
 8.360798e-03
<VARIANCE> 1
 3.553591e-02
<GCONST> -1.499334e+00
<MIXTURE> 2 5.000000e-01
<MEAN> 0
<VARIANCE> 0
<GCONST> 0.000000e+00
<STREAM> 4
<NUMMIXES> 2
<MIXTURE> 1 5.000000e-01
<MEAN> 1
 -4.471325e+06
<VARIANCE> 1
 8.940651e+16
<GCONST> 4.086985e+01
<MIXTURE> 2 5.000000e-01
<MEAN> 0
<VARIANCE> 0
<GCONST> 0.000000e+00
<STATE> 6
<STREAM> 1
<MEAN> 75
 2.439607e-01 2.440624e-01 2.440976e-01 2.430630e-01 2.427354e-01 2.415413e-01 2.419282e-01 2.407274e-01 2.407046e-01 2.402112e-01 2.394922e-01 2.389296e-01 2.391282e-01 2.384613e-01 2.380145e-01 2.380294e-01 2.376141e-01 2.390045e-01 2.397030e-01 2.400455e-01 2.400158e-01 2.409057e-01 2.397405e-01 2.401912e-01 2.391505e-01 -7.957958e-04 -2.184916e-04 2.153273e-03 1.057540e-03 2.354561e-03 1.712300e-03 2.827839e-03 1.716227e-03 3.244969e-03 1.721158e-03 2.985091e-03 1.974963e-03 3.254259e-03 2.134416e-03 3.824026e-03 2.227444e-03 3.474426e-03 2.563606e-03 3.729105e-03 2.534679e-03 4.165972e-03 2.605093e-03 3.751393e-03 2.956693e-03 3.767761e-03 2.373256e-03 3.751153e-03 2.612647e-03 3.227003e-03 3.189001e-03 3.078418e-03 3.030686e-03 3.339919e-03 3.319433e-03 2.833415e-03 3.790033e-03 2.795277e-03 3.532678e-03 3.254338e-03 3.518833e-03 2.855364e-03 3.868923e-03 2.847554e-03 3.582795e-03 3.275065e-03 3.792768e-03 2.880392e-03 4.221373e-03 2.860683e-03 3.742299e-03
<VARIANCE> 75
 1.347604e+00 1.339857e+00 1.346607e+00 1.336601e+00 1.341689e+00 1.333729e+00 1.337443e+00 1.327636e+00 1.335509e+00 1.324388e+00 1.328626e+00 1.320575e+00 1.325447e+00 1.315629e+00 1.325667e+00 1.314171e+00 1.325544e+00 1.327438e+00 1.341556e+00 1.338155e+00 1.354097e+00 1.345564e+00 1.355258e+00 1.348556e+00 1.355950e+00 6.832807e-01 6.945695e-01 6.822265e-01 6.900684e-01 6.830789e-01 6.891221e-01 6.773313e-01 6.898451e-01 6.759439e-01 6.845046e-01 6.764330e-01 6.829939e-01 6.711788e-01 6.844285e-01 6.705961e-01 6.808664e-01 6.742946e-01 6.877687e-01 6.808822e-01 6.984878e-01 6.864380e-01 6.983412e-01 6.901212e-01 6.999064e-01 6.868394e-01 5.459445e+00 5.442008e+00 5.440060e+00 5.423440e+00 5.422050e+00 5.397808e+00 5.394557e+00 5.371171e+00 5.371839e+00 5.358411e+00 5.353227e+00 5.333412e+00 5.338948e+00 5.325401e+00 5.330373e+00 5.322644e+00 5.345083e+00 5.378198e+00 5.420029e+00 5.421765e+00 5.437267e+00 5.438789e+00 5.444149e+00 5.432095e+00 5.434040e+00
<GCONST> 1.777375e+02
<STREAM> 2
<NUMMIXES> 2
<MIXTURE> 1 5.000000e-01
<MEAN> 1
 4.268731e+00
<VARIANCE> 1
 1.055680e+00
<GCONST> 1.892062e+00
<MIXTURE> 2 5.000000e-01
<MEAN> 0
<VARIANCE> 0
<GCONST> 0.000000e+00
<STREAM> 3
<NUMMIXES> 2
<MIXTURE> 1 5.000000e-01
<MEAN> 1
 8.360798e-03
<VARIANCE> 1
 3.553591e-02
<GCONST> -1.499334e+00
<MIXTURE> 2 5.000000e-01
<MEAN> 0
<VARIANCE> 0
<GCONST> 0.000000e+00
<STREAM> 4
<NUMMIXES> 2
<MIXTURE> 1 5.000000e-01
<MEAN> 1
 -4.471325e+06
<VARIANCE> 1
 8.940651e+16
<GCONST> 4.086985e+01
<MIXTURE> 2 5.000000e-01
<MEAN> 0
<VARIANCE> 0
<GCONST> 0.000000e+00
<TRANSP> 7
 0.000000e+00 1.000000e+00 0.000000e+00 0.000000e+00 0.000000e+00 0.000000e+00 0.000000e+00
 0.000000e+00 6.000000e-01 4.000000e-01 0.000000e+00 0.000000e+00 0.000000e+00 0.000000e+00
 0.000000e+00 0.000000e+00 6.000000e-01 4.000000e-01 0.000000e+00 0.000000e+00 0.000000e+00
 0.000000e+00 0.000000e+00 0.000000e+00 6.000000e-01 4.000000e-01 0.000000e+00 0.000000e+00
 0.000000e+00 0.000000e+00 0.000000e+00 0.000000e+00 6.000000e-01 4.000000e-01 0.000000e+00
 0.000000e+00 0.000000e+00 0.000000e+00 0.000000e+00 0.000000e+00 6.000000e-01 4.000000e-01
 0.000000e+00 0.000000e+00 0.000000e+00 0.000000e+00 0.000000e+00 0.000000e+00 0.000000e+00
<ENDHMM>
