~o
<STREAMINFO> 4 75 1 1 1
<MSDINFO> 4 0 1 1 1
<VECSIZE> 78 <NULLD><USER><DIAGC>
~h "proto"
<BEGINHMM>
<NUMSTATES> 7
<STATE> 2
<STREAM> 1
<MEAN> 75
0.0 0.0 0.0 0.0 0.0 0.0 0.0 0.0 0.0 0.0 0.0 0.0 0.0 0.0 0.0 0.0 0.0 0.0 0.0 0.0 0.0 0.0 0.0 0.0 0.0 0.0 0.0 0.0 0.0 0.0 0.0 0.0 0.0 0.0 0.0 0.0 0.0 0.0 0.0 0.0 0.0 0.0 0.0 0.0 0.0 0.0 0.0 0.0 0.0 0.0 0.0 0.0 0.0 0.0 0.0 0.0 0.0 0.0 0.0 0.0 0.0 0.0 0.0 0.0 0.0 0.0 0.0 0.0 0.0 0.0 0.0 0.0 0.0 0.0 0.0 
<Variance> 75
1.0 1.0 1.0 1.0 1.0 1.0 1.0 1.0 1.0 1.0 1.0 1.0 1.0 1.0 1.0 1.0 1.0 1.0 1.0 1.0 1.0 1.0 1.0 1.0 1.0 1.0 1.0 1.0 1.0 1.0 1.0 1.0 1.0 1.0 1.0 1.0 1.0 1.0 1.0 1.0 1.0 1.0 1.0 1.0 1.0 1.0 1.0 1.0 1.0 1.0 1.0 1.0 1.0 1.0 1.0 1.0 1.0 1.0 1.0 1.0 1.0 1.0 1.0 1.0 1.0 1.0 1.0 1.0 1.0 1.0 1.0 1.0 1.0 1.0 1.0 
<STREAM> 2
<NUMMIXES> 2
<MIXTURE> 1 0.5000
<MEAN> 1
1.0
<VARIANCE> 1
1.0
<MIXTURE> 2 0.5000
<MEAN> 0
<VARIANCE> 0
<STREAM> 3
<NUMMIXES> 2
<MIXTURE> 1 0.5000
<MEAN> 1
1.0
<VARIANCE> 1
1.0
<MIXTURE> 2 0.5000
<MEAN> 0
<VARIANCE> 0
<STREAM> 4
<NUMMIXES> 2
<MIXTURE> 1 0.5000
<MEAN> 1
1.0
<VARIANCE> 1
1.0
<MIXTURE> 2 0.5000
<MEAN> 0
<VARIANCE> 0
<STATE> 3
<STREAM> 1
<MEAN> 75
0.0 0.0 0.0 0.0 0.0 0.0 0.0 0.0 0.0 0.0 0.0 0.0 0.0 0.0 0.0 0.0 0.0 0.0 0.0 0.0 0.0 0.0 0.0 0.0 0.0 0.0 0.0 0.0 0.0 0.0 0.0 0.0 0.0 0.0 0.0 0.0 0.0 0.0 0.0 0.0 0.0 0.0 0.0 0.0 0.0 0.0 0.0 0.0 0.0 0.0 0.0 0.0 0.0 0.0 0.0 0.0 0.0 0.0 0.0 0.0 0.0 0.0 0.0 0.0 0.0 0.0 0.0 0.0 0.0 0.0 0.0 0.0 0.0 0.0 0.0 
<Variance> 75
1.0 1.0 1.0 1.0 1.0 1.0 1.0 1.0 1.0 1.0 1.0 1.0 1.0 1.0 1.0 1.0 1.0 1.0 1.0 1.0 1.0 1.0 1.0 1.0 1.0 1.0 1.0 1.0 1.0 1.0 1.0 1.0 1.0 1.0 1.0 1.0 1.0 1.0 1.0 1.0 1.0 1.0 1.0 1.0 1.0 1.0 1.0 1.0 1.0 1.0 1.0 1.0 1.0 1.0 1.0 1.0 1.0 1.0 1.0 1.0 1.0 1.0 1.0 1.0 1.0 1.0 1.0 1.0 1.0 1.0 1.0 1.0 1.0 1.0 1.0 
<STREAM> 2
<NUMMIXES> 2
<MIXTURE> 1 0.5000
<MEAN> 1
1.0
<VARIANCE> 1
1.0
<MIXTURE> 2 0.5000
<MEAN> 0
<VARIANCE> 0
<STREAM> 3
<NUMMIXES> 2
<MIXTURE> 1 0.5000
<MEAN> 1
1.0
<VARIANCE> 1
1.0
<MIXTURE> 2 0.5000
<MEAN> 0
<VARIANCE> 0
<STREAM> 4
<NUMMIXES> 2
<MIXTURE> 1 0.5000
<MEAN> 1
1.0
<VARIANCE> 1
1.0
<MIXTURE> 2 0.5000
<MEAN> 0
<VARIANCE> 0
<STATE> 4
<STREAM> 1
<MEAN> 75
0.0 0.0 0.0 0.0 0.0 0.0 0.0 0.0 0.0 0.0 0.0 0.0 0.0 0.0 0.0 0.0 0.0 0.0 0.0 0.0 0.0 0.0 0.0 0.0 0.0 0.0 0.0 0.0 0.0 0.0 0.0 0.0 0.0 0.0 0.0 0.0 0.0 0.0 0.0 0.0 0.0 0.0 0.0 0.0 0.0 0.0 0.0 0.0 0.0 0.0 0.0 0.0 0.0 0.0 0.0 0.0 0.0 0.0 0.0 0.0 0.0 0.0 0.0 0.0 0.0 0.0 0.0 0.0 0.0 0.0 0.0 0.0 0.0 0.0 0.0 
<Variance> 75
1.0 1.0 1.0 1.0 1.0 1.0 1.0 1.0 1.0 1.0 1.0 1.0 1.0 1.0 1.0 1.0 1.0 1.0 1.0 1.0 1.0 1.0 1.0 1.0 1.0 1.0 1.0 1.0 1.0 1.0 1.0 1.0 1.0 1.0 1.0 1.0 1.0 1.0 1.0 1.0 1.0 1.0 1.0 1.0 1.0 1.0 1.0 1.0 1.0 1.0 1.0 1.0 1.0 1.0 1.0 1.0 1.0 1.0 1.0 1.0 1.0 1.0 1.0 1.0 1.0 1.0 1.0 1.0 1.0 1.0 1.0 1.0 1.0 1.0 1.0 
<STREAM> 2
<NUMMIXES> 2
<MIXTURE> 1 0.5000
<MEAN> 1
1.0
<VARIANCE> 1
1.0
<MIXTURE> 2 0.5000
<MEAN> 0
<VARIANCE> 0
<STREAM> 3
<NUMMIXES> 2
<MIXTURE> 1 0.5000
<MEAN> 1
1.0
<VARIANCE> 1
1.0
<MIXTURE> 2 0.5000
<MEAN> 0
<VARIANCE> 0
<STREAM> 4
<NUMMIXES> 2
<MIXTURE> 1 0.5000
<MEAN> 1
1.0
<VARIANCE> 1
1.0
<MIXTURE> 2 0.5000
<MEAN> 0
<VARIANCE> 0
<STATE> 5
<STREAM> 1
<MEAN> 75
0.0 0.0 0.0 0.0 0.0 0.0 0.0 0.0 0.0 0.0 0.0 0.0 0.0 0.0 0.0 0.0 0.0 0.0 0.0 0.0 0.0 0.0 0.0 0.0 0.0 0.0 0.0 0.0 0.0 0.0 0.0 0.0 0.0 0.0 0.0 0.0 0.0 0.0 0.0 0.0 0.0 0.0 0.0 0.0 0.0 0.0 0.0 0.0 0.0 0.0 0.0 0.0 0.0 0.0 0.0 0.0 0.0 0.0 0.0 0.0 0.0 0.0 0.0 0.0 0.0 0.0 0.0 0.0 0.0 0.0 0.0 0.0 0.0 0.0 0.0 
<Variance> 75
1.0 1.0 1.0 1.0 1.0 1.0 1.0 1.0 1.0 1.0 1.0 1.0 1.0 1.0 1.0 1.0 1.0 1.0 1.0 1.0 1.0 1.0 1.0 1.0 1.0 1.0 1.0 1.0 1.0 1.0 1.0 1.0 1.0 1.0 1.0 1.0 1.0 1.0 1.0 1.0 1.0 1.0 1.0 1.0 1.0 1.0 1.0 1.0 1.0 1.0 1.0 1.0 1.0 1.0 1.0 1.0 1.0 1.0 1.0 1.0 1.0 1.0 1.0 1.0 1.0 1.0 1.0 1.0 1.0 1.0 1.0 1.0 1.0 1.0 1.0 
<STREAM> 2
<NUMMIXES> 2
<MIXTURE> 1 0.5000
<MEAN> 1
1.0
<VARIANCE> 1
1.0
<MIXTURE> 2 0.5000
<MEAN> 0
<VARIANCE> 0
<STREAM> 3
<NUMMIXES> 2
<MIXTURE> 1 0.5000
<MEAN> 1
1.0
<VARIANCE> 1
1.0
<MIXTURE> 2 0.5000
<MEAN> 0
<VARIANCE> 0
<STREAM> 4
<NUMMIXES> 2
<MIXTURE> 1 0.5000
<MEAN> 1
1.0
<VARIANCE> 1
1.0
<MIXTURE> 2 0.5000
<MEAN> 0
<VARIANCE> 0
<STATE> 6
<STREAM> 1
<MEAN> 75
0.0 0.0 0.0 0.0 0.0 0.0 0.0 0.0 0.0 0.0 0.0 0.0 0.0 0.0 0.0 0.0 0.0 0.0 0.0 0.0 0.0 0.0 0.0 0.0 0.0 0.0 0.0 0.0 0.0 0.0 0.0 0.0 0.0 0.0 0.0 0.0 0.0 0.0 0.0 0.0 0.0 0.0 0.0 0.0 0.0 0.0 0.0 0.0 0.0 0.0 0.0 0.0 0.0 0.0 0.0 0.0 0.0 0.0 0.0 0.0 0.0 0.0 0.0 0.0 0.0 0.0 0.0 0.0 0.0 0.0 0.0 0.0 0.0 0.0 0.0 
<Variance> 75
1.0 1.0 1.0 1.0 1.0 1.0 1.0 1.0 1.0 1.0 1.0 1.0 1.0 1.0 1.0 1.0 1.0 1.0 1.0 1.0 1.0 1.0 1.0 1.0 1.0 1.0 1.0 1.0 1.0 1.0 1.0 1.0 1.0 1.0 1.0 1.0 1.0 1.0 1.0 1.0 1.0 1.0 1.0 1.0 1.0 1.0 1.0 1.0 1.0 1.0 1.0 1.0 1.0 1.0 1.0 1.0 1.0 1.0 1.0 1.0 1.0 1.0 1.0 1.0 1.0 1.0 1.0 1.0 1.0 1.0 1.0 1.0 1.0 1.0 1.0 
<STREAM> 2
<NUMMIXES> 2
<MIXTURE> 1 0.5000
<MEAN> 1
1.0
<VARIANCE> 1
1.0
<MIXTURE> 2 0.5000
<MEAN> 0
<VARIANCE> 0
<STREAM> 3
<NUMMIXES> 2
<MIXTURE> 1 0.5000
<MEAN> 1
1.0
<VARIANCE> 1
1.0
<MIXTURE> 2 0.5000
<MEAN> 0
<VARIANCE> 0
<STREAM> 4
<NUMMIXES> 2
<MIXTURE> 1 0.5000
<MEAN> 1
1.0
<VARIANCE> 1
1.0
<MIXTURE> 2 0.5000
<MEAN> 0
<VARIANCE> 0
  <TransP> 7
   0.000e+0   1.000e+0   0.000e+0   0.000e+0   0.000e+0   0.000e+0   0.000e+0
   0.000e+0   6.000e-1   4.000e-1   0.000e+0   0.000e+0   0.000e+0   0.000e+0
   0.000e+0   0.000e+0   6.000e-1   4.000e-1   0.000e+0   0.000e+0   0.000e+0
   0.000e+0   0.000e+0   0.000e+0   6.000e-1   4.000e-1   0.000e+0   0.000e+0
   0.000e+0   0.000e+0   0.000e+0   0.000e+0   6.000e-1   4.000e-1   0.000e+0
   0.000e+0   0.000e+0   0.000e+0   0.000e+0   0.000e+0   6.000e-1   4.000e-1
   0.000e+0   0.000e+0   0.000e+0   0.000e+0   0.000e+0   0.000e+0   0.000e+0
<ENDHMM>

